{"interest_": {"dp": [0, -0.2879525629, -0.1824151448, -0.115558218, -0.07320500593, -0.04637465846, -0.02937789458, -0.01861061016, -0.01178964033, -0.00746862235, -0.004731299536, -0.002997232187, -0.001898717406, -0.001202818989, -0.0007619741176, -0.0004827031841, -0.000305787767, -0.000193713573, -0.0001227156623, -7.773917716e-05, -4.924701178e-05], "mc": [0, -2.147231391, -1.360250179, -0.8617052434, -0.5458818812, -0.3458108565, -0.2190678104, -0.1387773248, -0.08791408398, -0.05569271618, -0.03528079342, -0.0223500391, -0.01415853214, -0.008969292251, -0.005681959307, -0.003599465895, -0.002280226596, -0.001444501346, -0.0009150775376, -0.0005796927099, -0.0003672296872], "omega": [0, 0.1551021221, 0.09825568411, 0.06224401916, 0.03943098007, 0.02497914193, 0.01582404319, 0.01002437728, 0.0063503454, 0.004022881977, 0.002548456561, 0.001614422417, 0.001022720882, 0.0006478837202, 0.0004104280283, 0.0002600021595, 0.0001647088364, 0.0001043414441, 6.609928885e-05, 4.187325588e-05, 2.652629988e-05], "lambda": [0, 0.9192177328, 0.5823154832, 0.3688911886, 0.2336889761, 0.1480396909, 0.09378170271, 0.05940979551, 0.03763552698, 0.02384173988, 0.01510351007, 0.009567926563, 0.006061188314, 0.003839703779, 0.002432414957, 0.00154091119, 0.0009761522352, 0.0006183829362, 0.0003917395688, 0.0002481632025, 0.0001572089724], "xi": [0, -1.228013659, -0.7779346954, -0.4928140548, -0.3121929051, -0.1977711656, -0.1252861077, -0.0793675293, -0.050278557, -0.0318509763, -0.02017728335, -0.01278211253, -0.00809734383, -0.005129588472, -0.00324954435, -0.002058554705, -0.001304074361, -0.00082611841, -0.0005233379688, -0.0003315295075, -0.0002100207149], "w": [0, -1.596431047, -1.011323524, -0.6406636048, -0.4058541555, -0.2571046557, -0.1628732959, -0.1031786471, -0.06536266826, -0.0414066139, -0.02623068673, -0.01661688463, -0.01052663462, -0.00666852053, -0.004224442824, -0.002676143396, -0.001695310783, -0.001073962874, -0.0006803450234, -0.0004309919478, -0.0002730292023], "n": [0, -1.417629082, -0.89805422, -0.5689086039, -0.3603980611, -0.2283086625, -0.1446313146, -0.09162252954, -0.05804198033, -0.03676902938, -0.02329282209, -0.01475577599, -0.009347640413, -0.005921639183, -0.003751300763, -0.002376412507, -0.001505434184, -0.0009536778969, -0.0006041456617, -0.0003827203941, -0.0002424496431], "m": [0, -0.5785276974, -0.3664916632, -0.2321689001, -0.1470767376, -0.09317168115, -0.05902335279, -0.03739071928, -0.02368665659, -0.01500526631, -0.0095056901, -0.006021762121, -0.003814727669, -0.002416592834, -0.00153088803, -0.0009698026607, -0.0006143605425, -0.0003891914216, -0.000246548976, -0.0001561863757, -9.894254818e-05], "c": [0, -0.8668287374, -0.5491275648, -0.3478669654, -0.2203703354, -0.1396024617, -0.08843680018, -0.0560238518, -0.03549056461, -0.02248292711, -0.0142427154, -0.009022621526, -0.005715742883, -0.003620867462, -0.002293784281, -0.001453090007, -0.0009205183706, -0.0005831394247, -0.0003694131475, -0.0002340196319, -0.0001482491582], "q": [0, -1.055346437, -0.6685516916, -0.4235209869, -0.2682964214, -0.1699631705, -0.1076700136, -0.06820790521, -0.04320904381, -0.02737250852, -0.01734021762, -0.01098485902, -0.00695880123, -0.004408332821, -0.002792635918, -0.001769107662, -0.001120712478, -0.0007099604423, -0.0004497530273, -0.0002849141635, -0.0001804903484], "p": [0, -0.2879525629, -0.4703677077, -0.5859259257, -0.6591309317, -0.7055055901, -0.7348834847, -0.7534940949, -0.7652837352, -0.7727523575, -0.7774836571, -0.7804808893, -0.7823796067, -0.7835824257, -0.7843443998, -0.784827103, -0.7851328907, -0.7853266043, -0.78544932, -0.7855270591, -0.7855763062], "h": [0, -1.1547813, -1.019495273, -0.9337928912, -0.8795012671, -0.8451080518, -0.8233202849, -0.8095179467, -0.8007742998, -0.7952352847, -0.7917263725, -0.7895035108, -0.7880953496, -0.7872032931, -0.7866381841, -0.786280193, -0.7860534091, -0.7859097437, -0.7858187331, -0.7857610788, -0.7857245553], "b": [0, 0, 0, 0, 0, 0, 0, 0, 0, 0, 0, 0, 0, 0, 0, 0, 0, 0, 0, 0, 0], "a1": [0, 0, -9.285570541e-17, -1.534953469e-16, -1.935851495e-16, -2.205808985e-16, -2.392656994e-16, -2.526697632e-16, -2.627128571e-16, -2.706112919e-16, -2.771357436e-16, -2.827745818e-16, -2.878373358e-16, -2.9252024e-16, -2.969477562e-16, -3.011988769e-16, -3.053237897e-16, -3.093544322e-16, -3.133111799e-16, -3.172070823e-16, -3.210505462e-16], "a2": [0, 0, 0, 0, 0, 0, 0, 0, 0, 0, 0, 0, 0, 0, 0, 0, 0, 0, 0, 0, 0], "a3": [0, 0, 0, 0, 0, 0, 0, 0, 0, 0, 0, 0, 0, 0, 0, 0, 0, 0, 0, 0, 0], "CEFP": [0, -0.005951104234, -0.003769966586, -0.002388237124, -0.001512924964, -0.000958423233, -0.0006071517859, -0.0003846247445, -0.0002436560305, -0.0001543537229, -9.778158048e-05, -6.194367913e-05, -3.924071758e-05, -2.48586125e-05, -1.574768897e-05, -9.976007624e-06, -6.319703693e-06, -4.003470754e-06, -2.536159741e-06, -1.606632501e-06, -1.017786046e-06], "UEFP": [0, -0.01700315496, -0.0107713331, -0.00682353464, -0.004322642753, -0.002738352094, -0.001734719388, -0.001098927841, -0.0006961600872, -0.0004410106367, -0.0002793759442, -0.0001769819404, -0.0001121163359, -7.102460713e-05, -4.499339705e-05, -2.850287893e-05, -1.805629627e-05, -1.143848787e-05, -7.246170688e-06, -4.590378575e-06, -2.90796013e-06], "rT": [0, 0.1552712244, 0.09836280878, 0.0623118816, 0.03947397026, 0.0250063758, 0.01584129558, 0.0100353065, 0.006357268955, 0.004027267982, 0.002551235053, 0.001616182564, 0.001023835918, 0.0006485900847, 0.0004108755033, 0.0002602856306, 0.0001648884126, 0.0001044552039, 6.617135455e-05, 4.19189088e-05, 2.655522056e-05], "rIB": [0, 0.1722743794, 0.1091341419, 0.06913541624, 0.04379661301, 0.02774472789, 0.01757601497, 0.01113423434, 0.007053429042, 0.004468278619, 0.002830610997, 0.001793164505, 0.001135952254, 0.0007196146919, 0.0004558689004, 0.0002887885096, 0.0001829447089, 0.0001158936917, 7.341752524e-05, 4.650928737e-05, 2.946318069e-05], "rL": [0, 0.1663232751, 0.1053641753, 0.06674717912, 0.04228368805, 0.02678630466, 0.01696886318, 0.0107496096, 0.006809773012, 0.004313924896, 0.002732829417, 0.001731220826, 0.001096711536, 0.0006947560794, 0.0004401212114, 0.0002788125019, 0.0001766250052, 0.000111890221, 7.08813655e-05, 4.490265487e-05, 2.844539464e-05], "rB": [0, 0.1666923455, 0.1055979778, 0.06689529071, 0.0423775153, 0.02684574331, 0.01700651699, 0.01077346292, 0.006824883857, 0.004323497469, 0.002738893549, 0.001735062394, 0.001099145132, 0.000696297739, 0.0004410978377, 0.0002794311852, 0.000177016935, 0.0001121385047, 7.103865083e-05, 4.500229359e-05, 2.85085148e-05], "interest": [0, 0.6890975175, 0.4365365676, 0.276541665, 0.1751864521, 0.1109789116, 0.07030405988, 0.04453693738, 0.02821371617, 0.01787311447, 0.01132244399, 0.007172658019, 0.004543809015, 0.002878458768, 0.001823475602, 0.001155154038, 0.0007317788354, 0.0004635747669, 0.000293670101, 0.0001860371495, 0.0001178527227], "inflation": [0, -0.2879525629, -0.4703677077, -0.5859259257, -0.6591309317, -0.4175530272, -0.264515777, -0.1675681691, -0.1061528035, -0.06724676742, -0.04260017237, -0.0269867944, -0.01709587148, -0.01083006812, -0.0068607427, -0.004346213697, -0.002753284058, -0.001744178642, -0.001104920186, -0.0006999561794, -0.0004434154241], "inflationq": [0, -1.151810252, -0.7296605792, -0.4622328722, -0.2928200237, -0.1854986338, -0.1175115783, -0.07444244065, -0.0471585613, -0.0298744894, -0.01892519814, -0.01198892875, -0.007594869626, -0.004811275956, -0.003047896471, -0.001930812737, -0.001223151068, -0.0007748542918, -0.0004908626491, -0.0003109567086, -0.0001969880471], "output": [0, -0.8668287374, -0.5491275648, -0.3478669654, -0.2203703354, -0.1396024617, -0.08843680018, -0.0560238518, -0.03549056461, -0.02248292711, -0.0142427154, -0.009022621526, -0.005715742883, -0.003620867462, -0.002293784281, -0.001453090007, -0.0009205183706, -0.0005831394247, -0.0003694131475, -0.0002340196319, -0.0001482491582], "outputgap": [0, -8.588925565, -5.441000715, -3.446820973, -2.183527525, -1.383243426, -0.8762712415, -0.5551092992, -0.3516563359, -0.2227708647, -0.1411231737, -0.08940015639, -0.05663412858, -0.03587716901, -0.02272783723, -0.01439786358, -0.009120906386, -0.005778005385, -0.00366031015, -0.00231877084, -0.001468918749], "fispol": [0, 0, 0, 0, 0, 0, 0, 0, 0, 0, 0, 0, 0, 0, 0, 0, 0, 0, 0, 0, 0], "AUX_ENDO_LEAD_227": [0, -0.7296605792, -0.4622328722, -0.2928200237, -0.1854986338, -0.1175115783, -0.07444244065, -0.0471585613, -0.0298744894, -0.01892519814, -0.01198892875, -0.007594869626, -0.004811275956, -0.003047896471, -0.001930812737, -0.001223151068, -0.0007748542918, -0.0004908626491, -0.0003109567086, -0.0001969880471, -0.0001247900098], "AUX_ENDO_LEAD_231": [0, -0.4622328722, -0.2928200237, -0.1854986338, -0.1175115783, -0.07444244065, -0.0471585613, -0.0298744894, -0.01892519814, -0.01198892875, -0.007594869626, -0.004811275956, -0.003047896471, -0.001930812737, -0.001223151068, -0.0007748542918, -0.0004908626491, -0.0003109567086, -0.0001969880471, -0.0001247900098, -7.90532561e-05], "AUX_ENDO_LEAD_235": [0, -0.2928200237, -0.1854986338, -0.1175115783, -0.07444244065, -0.0471585613, -0.0298744894, -0.01892519814, -0.01198892875, -0.007594869626, -0.004811275956, -0.003047896471, -0.001930812737, -0.001223151068, -0.0007748542918, -0.0004908626491, -0.0003109567086, -0.0001969880471, -0.0001247900098, -7.90532561e-05, -5.007946799e-05], "AUX_ENDO_LEAD_262": [0, -5.441000715, -3.446820973, -2.183527525, -1.383243426, -0.8762712415, -0.5551092992, -0.3516563359, -0.2227708647, -0.1411231737, -0.08940015639, -0.05663412858, -0.03587716901, -0.02272783723, -0.01439786358, -0.009120906386, -0.005778005385, -0.00366031015, -0.00231877084, -0.001468918749, -0.0009305457246], "AUX_ENDO_LEAD_266": [0, -3.446820973, -2.183527525, -1.383243426, -0.8762712415, -0.5551092992, -0.3516563359, -0.2227708647, -0.1411231737, -0.08940015639, -0.05663412858, -0.03587716901, -0.02272783723, -0.01439786358, -0.009120906386, -0.005778005385, -0.00366031015, -0.00231877084, -0.001468918749, -0.0009305457246, -0.0005894916557], "AUX_ENDO_LEAD_270": [0, -2.183527525, -1.383243426, -0.8762712415, -0.5551092992, -0.3516563359, -0.2227708647, -0.1411231737, -0.08940015639, -0.05663412858, -0.03587716901, -0.02272783723, -0.01439786358, -0.009120906386, -0.005778005385, -0.00366031015, -0.00231877084, -0.001468918749, -0.0009305457246, -0.0005894916557, -0.000373437224], "AUX_ENDO_LEAD_297": [0, -0.5491275648, -0.3478669654, -0.2203703354, -0.1396024617, -0.08843680018, -0.0560238518, -0.03549056461, -0.02248292711, -0.0142427154, -0.009022621526, -0.005715742883, -0.003620867462, -0.002293784281, -0.001453090007, -0.0009205183706, -0.0005831394247, -0.0003694131475, -0.0002340196319, -0.0001482491582, -9.391439819e-05], "AUX_ENDO_LEAD_301": [0, -0.3478669654, -0.2203703354, -0.1396024617, -0.08843680018, -0.0560238518, -0.03549056461, -0.02248292711, -0.0142427154, -0.009022621526, -0.005715742883, -0.003620867462, -0.002293784281, -0.001453090007, -0.0009205183706, -0.0005831394247, -0.0003694131475, -0.0002340196319, -0.0001482491582, -9.391439819e-05, -5.949385681e-05], "AUX_ENDO_LEAD_305": [0, -0.2203703354, -0.1396024617, -0.08843680018, -0.0560238518, -0.03549056461, -0.02248292711, -0.0142427154, -0.009022621526, -0.005715742883, -0.003620867462, -0.002293784281, -0.001453090007, -0.0009205183706, -0.0005831394247, -0.0003694131475, -0.0002340196319, -0.0001482491582, -9.391439819e-05, -5.949385681e-05, -3.768877899e-05], "AUX_ENDO_LAG_0_1": [0, 0, -0.2879525629, -0.1824151448, -0.115558218, -0.07320500593, -0.04637465846, -0.02937789458, -0.01861061016, -0.01178964033, -0.00746862235, -0.004731299536, -0.002997232187, -0.001898717406, -0.001202818989, -0.0007619741176, -0.0004827031841, -0.000305787767, -0.000193713573, -0.0001227156623, -7.773917716e-05], "AUX_ENDO_LAG_0_2": [0, 0, -9.219067358e-16, -0.2879525629, -0.1824151448, -0.115558218, -0.07320500593, -0.04637465846, -0.02937789458, -0.01861061016, -0.01178964033, -0.00746862235, -0.004731299536, -0.002997232187, -0.001898717406, -0.001202818989, -0.0007619741176, -0.0004827031841, -0.000305787767, -0.000193713573, -0.0001227156623], "AUX_ENDO_LAG_25_1": [0, 0, -0.8668287374, -0.5491275648, -0.3478669654, -0.2203703354, -0.1396024617, -0.08843680018, -0.0560238518, -0.03549056461, -0.02248292711, -0.0142427154, -0.009022621526, -0.005715742883, -0.003620867462, -0.002293784281, -0.001453090007, -0.0009205183706, -0.0005831394247, -0.0003694131475, -0.0002340196319], "AUX_ENDO_LAG_25_2": [0, 0, 0, -0.8668287374, -0.5491275648, -0.3478669654, -0.2203703354, -0.1396024617, -0.08843680018, -0.0560238518, -0.03549056461, -0.02248292711, -0.0142427154, -0.009022621526, -0.005715742883, -0.003620867462, -0.002293784281, -0.001453090007, -0.0009205183706, -0.0005831394247, -0.0003694131475], "AUX_ENDO_LAG_25_3": [0, 0, 0, 0, -0.8668287374, -0.5491275648, -0.3478669654, -0.2203703354, -0.1396024617, -0.08843680018, -0.0560238518, -0.03549056461, -0.02248292711, -0.0142427154, -0.009022621526, -0.005715742883, -0.003620867462, -0.002293784281, -0.001453090007, -0.0009205183706, -0.0005831394247], "AUX_ENDO_LAG_26_1": [0, 0, -8.588925565, -5.441000715, -3.446820973, -2.183527525, -1.383243426, -0.8762712415, -0.5551092992, -0.3516563359, -0.2227708647, -0.1411231737, -0.08940015639, -0.05663412858, -0.03587716901, -0.02272783723, -0.01439786358, -0.009120906386, -0.005778005385, -0.00366031015, -0.00231877084], "AUX_ENDO_LAG_26_2": [0, 0, 0, -8.588925565, -5.441000715, -3.446820973, -2.183527525, -1.383243426, -0.8762712415, -0.5551092992, -0.3516563359, -0.2227708647, -0.1411231737, -0.08940015639, -0.05663412858, -0.03587716901, -0.02272783723, -0.01439786358, -0.009120906386, -0.005778005385, -0.00366031015], "AUX_ENDO_LAG_26_3": [0, 0, 0, 0, -8.588925565, -5.441000715, -3.446820973, -2.183527525, -1.383243426, -0.8762712415, -0.5551092992, -0.3516563359, -0.2227708647, -0.1411231737, -0.08940015639, -0.05663412858, -0.03587716901, -0.02272783723, -0.01439786358, -0.009120906386, -0.005778005385], "AUX_ENDO_LAG_22_1": [0, 0, 0.6890975175, 0.4365365676, 0.276541665, 0.1751864521, 0.1109789116, 0.07030405988, 0.04453693738, 0.02821371617, 0.01787311447, 0.01132244399, 0.007172658019, 0.004543809015, 0.002878458768, 0.001823475602, 0.001155154038, 0.0007317788354, 0.0004635747669, 0.000293670101, 0.0001860371495], "AUX_ENDO_LAG_22_2": [0, 0, 0, 0.6890975175, 0.4365365676, 0.276541665, 0.1751864521, 0.1109789116, 0.07030405988, 0.04453693738, 0.02821371617, 0.01787311447, 0.01132244399, 0.007172658019, 0.004543809015, 0.002878458768, 0.001823475602, 0.001155154038, 0.0007317788354, 0.0004635747669, 0.000293670101], "AUX_ENDO_LAG_22_3": [0, 0, 0, 0, 0.6890975175, 0.4365365676, 0.276541665, 0.1751864521, 0.1109789116, 0.07030405988, 0.04453693738, 0.02821371617, 0.01787311447, 0.01132244399, 0.007172658019, 0.004543809015, 0.002878458768, 0.001823475602, 0.001155154038, 0.0007317788354, 0.0004635747669], "AUX_ENDO_LAG_24_1": [0, 0, -1.151810252, -0.7296605792, -0.4622328722, -0.2928200237, -0.1854986338, -0.1175115783, -0.07444244065, -0.0471585613, -0.0298744894, -0.01892519814, -0.01198892875, -0.007594869626, -0.004811275956, -0.003047896471, -0.001930812737, -0.001223151068, -0.0007748542918, -0.0004908626491, -0.0003109567086], "AUX_ENDO_LAG_24_2": [0, 0, 0, -1.151810252, -0.7296605792, -0.4622328722, -0.2928200237, -0.1854986338, -0.1175115783, -0.07444244065, -0.0471585613, -0.0298744894, -0.01892519814, -0.01198892875, -0.007594869626, -0.004811275956, -0.003047896471, -0.001930812737, -0.001223151068, -0.0007748542918, -0.0004908626491], "AUX_ENDO_LAG_24_3": [0, 0, 0, 0, -1.151810252, -0.7296605792, -0.4622328722, -0.2928200237, -0.1854986338, -0.1175115783, -0.07444244065, -0.0471585613, -0.0298744894, -0.01892519814, -0.01198892875, -0.007594869626, -0.004811275956, -0.003047896471, -0.001930812737, -0.001223151068, -0.0007748542918]}}