{"interest_":{"Y":[0,-0.011869320783553849,0.011999587582836702,0.027950342771218717,0.03851662953429863,0.04541447532615378,0.04980670943681953,0.052481853206444773,0.053975130336367749,0.0546503261772765,0.054755164456736172,0.054458771018348229,0.053877022405598496,0.053089703884420858,0.052152137763741557,0.051103095294062262,0.049970246051497524,0.048774043626229557,0.047530879346625754,0.046256639456321413,0.044963784792164285],"C":[0,-0.019782201305926561,0.019999312638049577,0.046583904618688832,0.0641943825571556,0.075690792210246827,0.083011182394687855,0.087469755344062372,0.08995855056060037,0.091083876962113508,0.091258607427881111,0.090764618363902622,0.089795037342654344,0.088482839807357438,0.086920229606225641,0.085171825490093833,0.0832837434191519,0.08129007271037339,0.079218132244367967,0.077094399093861482,0.074939641320267258],"s":[0,0.079716655461969932,0.13474263052945235,0.17284473860015215,0.19928912454437375,0.21764957092330306,0.23035433644532954,0.23905612594858239,0.24488241594982574,0.24860484380678383,0.2507538455100633,0.25169625902557691,0.2516878875775026,0.25090915786406054,0.24948942232774041,0.24752375328324216,0.2450850062578005,0.24223378794369932,0.23903005440639102,0.23552345491179461,0.23174160713428238],"Ps":[0,-0.024350267487521143,0.0011425474740438448,0.018874948164258588,0.031318747123037241,0.040146937925641,0.046492143752347073,0.051121438990333251,0.054554604405807491,0.05714411897123383,0.059129267353578409,0.060672733785592424,0.061885339166543804,0.062842736834543944,0.063596624260482376,0.064182155126623022,0.064622616111712869,0.06493151635216414,0.065111042313346246,0.065173620453553058,0.065143492803370825],"Pss":[0,0.055366387974448816,0.13588517800349598,0.19171968676441065,0.23060787166741115,0.25779650884894423,0.27684648019767621,0.29017756493891556,0.29943702035563291,0.30574896277801766,0.30988311286364167,0.31236899281116903,0.31357322674404653,0.31375189469860443,0.31308604658822325,0.311705908409865,0.30970762236951321,0.30716530429586308,0.30414109671973755,0.30069707536534773,0.29688509993765333],"L":[0,-0.033554357782960009,-0.024601533495397176,-0.021932394648670417,-0.023300468190128154,-0.027202034761744709,-0.032633920793757654,-0.038929895613500742,-0.045650210507791,-0.052507059479353468,-0.059314316288376745,-0.065953672480495523,-0.072351850124091954,-0.078465285193073109,-0.084269838643176276,-0.089753869644762063,-0.094913516176452273,-0.099749348715645947,-0.10426359066199758,-0.10845673934434411,-0.1123312369810664],"w":[0,-0.056341581503333793,0.027697858528404506,0.082201611913047923,0.11673853101925363,0.13778056703962838,0.14970540439250396,0.15547456288138145,0.15709199586731235,0.15591422418455705,0.15286005671158104,0.14855240048756529,0.14341414962327106,0.13773303701818596,0.13170553989087033,0.12546671615781388,0.11911072875008383,0.11270547106292983,0.10630446915774278,0.099960428515556171,0.0937136641500067],"Pi":[0,-0.057175014563514835,-0.055212760400433214,-0.054311731435321975,-0.054095904041195207,-0.0543115664292258,-0.0547877182945281,-0.055409289651097225,-0.056099029423408983,-0.056805257208834663,-0.057493579902765532,-0.05814128922562236,-0.058733571743101752,-0.059260944095960048,-0.059717516432284956,-0.060099816028221162,-0.060405990984740962,-0.060635274694154716,-0.060787635420155556,-0.060863576012336169,-0.060864104906366012],"F":[0,-1.8478300943981403,-1.8701356433959913,-1.8916346910499715,-1.9117121459578921,-1.9299831193178412,-1.9462195039438945,-1.960300611614008,-1.9721801104975629,-1.9818640249455468,-1.9893962660581692,-1.9948493168893078,-1.9983184791544026,-1.9999186191253755,-1.9997827096225624,-1.9980617055207461,-1.9949254440686137,-1.9905643432916522,-1.9851916803185288,-1.9790460629215136,-1.9723931188183013],"K":[0,-2.4680550706533957,-2.4690744153363915,-2.4807992517766531,-2.4985354472827281,-2.5191458900860426,-2.5405474903505261,-2.5613712999300713,-2.5807329802729648,-2.5980779353833885,-2.613076985726559,-2.6255562787450608,-2.6354504225015356,-2.6427714093761088,-2.6475883200626344,-2.6500144379094928,-2.6501995110750651,-2.6483256415530949,-2.6446057622021124,-2.6392839356224953,-2.6326367288730848],"PQ":[0,2.3493476470127086,-1.7415966100386038,-4.478916970913196,-6.2960429776677183,-7.4864969502281289,-8.2491474140862557,-8.7188199852961521,-8.9870038830346122,-9.1158589680964912,-9.1476911367651912,-9.1113624873143113,-9.0266283623264076,-8.9070727960567524,-8.7620975938462351,-8.59827513396371,-8.4202790978932871,-8.2315453522498441,-8.03480126482342,-7.8327116184039411,-7.6273889488991511],"PB":[0,-0.11064177375906865,0.06005135673735712,0.17918722607417384,0.26317472508267875,0.32311833710545368,0.36653445872044182,0.39851234470021513,0.42249939274829257,0.44083232655480786,0.45509649900718269,0.46636893087233211,0.47538270502043561,0.48263816700195894,0.48847815671693007,0.49313894975255418,0.49678488469068188,0.49953171009127356,0.50146204593726373,0.50267067107385421,0.5032491673932199],"b":[0,0.0831910396830633,0.13643568360427594,0.16926480308844427,0.188145877064966,0.19747280012822577,0.20023552322258542,0.1984731186088422,0.19358033992143264,0.18651507526950084,0.17793875661683778,0.16831141877749589,0.15795609250076392,0.14710248675406357,0.13591674125749043,0.12452193143593071,0.11301266822622935,0.10146683436378012,0.089958508077863542,0.078547848399217024,0.067269307590064109],"q":[0,-0.71215924701323285,0.71997525497017023,1.677020566273135,2.3109977720579624,2.7248685195692581,2.9884025662091567,3.1489111923866622,3.2385078201820545,3.2790195706365366,3.2853098674041639,3.2675262611009379,3.232621344336,3.1853822330652766,3.1291282658244963,3.0661857176437417,2.9982147630898259,2.9264426175737883,2.8518527607975663,2.7753983673792968,2.6978270875298924],"qCB":[0,0.6210931248948397,-0.62790967446089729,-1.462574485113914,-2.0154829609981957,-2.376430708222466,-2.6062657980991224,-2.7462496635383036,-2.8243892787589977,-2.8597206597531803,-2.8652065957882558,-2.849697037136707,-2.8192555257490919,-2.7780570334744894,-2.7289964442202854,-2.6741025646527823,-2.6148232774104745,-2.552228869873209,-2.4871770609907133,-2.4204991398386082,-2.352847152160531],"qbar":[0,-1.0269562977782698E-15,-1.1157741397482823E-14,4.7739590058881731E-15,1.6736612096224235E-14,1.2351231148954867E-14,-4.2466030691912238E-15,-7.8825834748386114E-15,-2.55351295663786E-15,-1.8485213360008856E-14,-2.6090241078691179E-15,1.7069679003611782E-14,3.2585045772748344E-14,9.9087404947795221E-15,2.7755575615628914E-15,2.7755575615628914E-15,-7.8548278992229825E-15,5.8286708792820718E-15,7.8270723236073536E-15,5.4123372450476381E-15,1.3739009929736312E-14],"i":[0,0.11064177375906968,-0.060051356737355358,-0.17918722607417636,-0.2631747250826828,-0.32311833710545806,-0.36653445872044293,-0.39851234470021479,-0.42249939274829384,-0.44083232655480542,-0.455096499007183,-0.46636893087233783,-0.47538270502044561,-0.48263816700196227,-0.48847815671692962,-0.49313894975255268,-0.49678488469067683,-0.49953171009127145,-0.50146204593726185,-0.502670671073852,-0.50324916739322045],"iQ":[0,-0.23181445526457031,0.1718465421497227,0.44194297898299323,0.62124214568507907,0.73870642966090294,0.8139585542501877,0.86030201107581949,0.88676420973935921,0.89947857808312937,0.90261951673867757,0.89903490205057035,0.89067403002238454,0.87887726230948915,0.86457229234472666,0.84840762878543674,0.83084443238349748,0.812221726419989,0.79280862529326923,0.77286806802456953,0.75260850241909594],"D":[0,-0.020498104921055291,-0.03780107983658032,-0.052677771696984524,-0.065668760677763713,-0.077157957620442988,-0.087421301174277571,-0.09665993414063026,-0.10502285387780601,-0.11262241827445352,-0.11954499719079532,-0.12585832060058033,-0.13161657477006966,-0.13686395946587732,-0.14163719018326953,-0.14596727446820748,-0.14988078683313313,-0.15340079670445897,-0.15654755794323377,-0.15933904274625843,-0.16179140025236297],"A":[0,2.6103101148715874E-16,1.8109761367067388E-16,1.1284976005963425E-16,5.5526687153279761E-17,1.2031552797197552E-17,-2.0978009630877184E-17,-4.7062025328722678E-17,-6.7372384919307159E-17,-8.42998127929856E-17,-9.8377005808328592E-17,-1.0930940574250789E-16,-1.1776235749344931E-16,-1.2402133494878394E-16,-1.2717331907840198E-16,-1.2674970248782676E-16,-1.2307187201004375E-16,-1.1728865677286522E-16,-1.1093576316617257E-16,-1.0420941069288835E-16,-9.8453008705725037E-17],"G":[0,5.440092820663267E-15,3.7747582837255322E-15,3.3306690738754696E-15,3.219646771412954E-15,2.9976021664879227E-15,2.886579864025407E-15,2.886579864025407E-15,2.886579864025407E-15,2.9976021664879227E-15,3.1086244689504383E-15,2.9976021664879227E-15,3.3306690738754696E-15,3.4416913763379853E-15,3.3306690738754696E-15,3.219646771412954E-15,3.219646771412954E-15,3.219646771412954E-15,3.3306690738754696E-15,3.3306690738754696E-15,3.5527136788005009E-15],"theta":[0,0,0,0,0,0,0,0,0,0,0,0,0,0,0,0,0,0,0,0,0],"ksi":[0,0,0,0,0,0,0,0,0,0,0,0,0,0,0,0,0,0,0,0,0],"ChiC":[0,0,-1.5727802831461704E-15,-1.6740211778963402E-15,-1.6587952766091685E-15,-1.6436052093034849E-15,-1.6359405798809045E-15,-1.6338980795572062E-15,-1.6352390693986824E-15,-1.6373791365677719E-15,-1.6415695526376547E-15,-1.6492608064966095E-15,-1.6443318036376144E-15,-1.6200383408222484E-15,-1.7326061437051334E-15,-1.8776031626037338E-15,-1.4182335935939559E-15,-8.88766460723347E-16,-4.5912927628871883E-16,-2.7226481385137147E-16,-1.6327403763271633E-16],"ChiL":[0,0,7.6749358254076855E-17,1.215986375879938E-16,1.4593852692608849E-16,1.5927958551619636E-16,1.6649764197429725E-16,1.7012786767264766E-16,1.7164528372157907E-16,1.724227231388699E-16,1.7341810420344083E-16,1.7496290316322128E-16,1.7642122119852978E-16,1.7696487186489664E-16,1.7732584626588963E-16,1.7795865817681113E-16,1.7883699819578297E-16,1.7994675005013782E-16,1.8120257003869698E-16,1.8225300295845833E-16,1.8313967423872715E-16],"epsG":[0,3.7213442478977021E-15,7.1120037440283245E-17,-2.4361285881277771E-16,-4.1999887025254334E-16,-6.0937515702211027E-16,-7.18444907290863E-16,-7.4164780300901194E-16,-7.3836305967133123E-16,-7.3704135895774415E-16,-7.0139790612736635E-16,-7.4016118894491132E-16,-5.4650529633881237E-16,-5.5212070051559807E-16,-5.471971282352666E-16,-6.7573236037978674E-16,-7.5469563637258348E-16,-8.1160401445953284E-16,-8.1437228797352948E-16,-8.2861451941172763E-16,-7.8559643959541517E-16],"Yf":[0,1.4988010832439613E-15,-1.1102230246251565E-15,-1.609823385706477E-15,-1.7763568394002505E-15,-1.8873791418627661E-15,-1.9428902930940239E-15,-1.9428902930940239E-15,-1.9984014443252818E-15,-1.9428902930940239E-15,-1.9984014443252818E-15,-2.0539125955565396E-15,-2.0539125955565396E-15,-2.0539125955565396E-15,-2.0539125955565396E-15,-2.1649348980190553E-15,-2.1649348980190553E-15,-2.1094237467877974E-15,-2.0539125955565396E-15,-2.0539125955565396E-15,-2.0539125955565396E-15],"Gf":[0,3.8857805861880479E-15,-2.6645352591003757E-15,-3.8857805861880479E-15,-4.3298697960381105E-15,-4.5519144009631418E-15,-4.7739590058881731E-15,-4.8849813083506888E-15,-4.9960036108132044E-15,-4.9960036108132044E-15,-4.9960036108132044E-15,-5.10702591327572E-15,-4.8849813083506888E-15,-4.8849813083506888E-15,-4.8849813083506888E-15,-5.10702591327572E-15,-5.3290705182007514E-15,-5.5511151231257827E-15,-5.5511151231257827E-15,-5.6621374255882984E-15,-5.6621374255882984E-15],"interest":[0,0.44256709503627906,-0.24020542694942115,-0.71674890429670612,-1.0526989003307317,-1.2924733484218331,-1.466137834881772,-1.594049378800859,-1.6899975709931754,-1.7633293062192208,-1.8203859960287319,-1.8654757234893526,-1.9015308200817849,-1.93055266800785,-1.9539126268677178,-1.9725557990102103,-1.9871395387627055,-1.9981268403650849,-2.0058481837490469,-2.0106826842954071,-2.0129966695728805],"inflation":[0,-0.057175014563514821,-0.11238777496394806,-0.16669950639927475,-0.22079541044047163,-0.21793196230618281,-0.21750692020027779,-0.21860447841605316,-0.22060760379826683,-0.2231012945778757,-0.22580715618611302,-0.22853915576063805,-0.23117369808033092,-0.23362938496745631,-0.2358533214969758,-0.23781184829957472,-0.23948426754121394,-0.24085859813940866,-0.24192871712727909,-0.24269247711139419,-0.24315059103301928],"inflationq":[0,-0.2287000582540597,-0.22085104160173724,-0.21724692574129228,-0.21638361616478527,-0.21724626571690761,-0.21915087317811691,-0.22163715860439404,-0.22439611769364121,-0.22722102883534404,-0.22997431961106762,-0.23256515690249513,-0.234934286972413,-0.23704377638384658,-0.23887006572914654,-0.24039926411289211,-0.24162396393897168,-0.24254109877662683,-0.24315054168063016,-0.24345430404935275,-0.24345641962547157],"outputgap":[0,-0.011869320783558381,0.011999587582833671,0.02795034277121751,0.038516629534297735,0.045414475326152816,0.049806709436817649,0.052481853206442025,0.053975130336364981,0.054650326177272807,0.054755164456733514,0.054458771018346612,0.053877022405597864,0.053089703884419935,0.052152137763740933,0.051103095294061845,0.049970246051497226,0.048774043626230605,0.047530879346627114,0.046256639456322982,0.044963784792166853],"output":[0,-0.011869320783554235,0.011999587582837555,0.027950342771220257,0.03851662953430076,0.045414475326156542,0.049806709436821,0.052481853206441387,0.053975130336364134,0.054650326177271412,0.054755164456732404,0.0544587710183448,0.053877022405595179,0.053089703884415612,0.052152137763734008,0.051103095294052728,0.04997024605148747,0.048774043626222209,0.0475308793466199,0.046256639456316938,0.044963784792166235],"fispol":[0,1.8606721239488507E-15,3.55600187201387E-17,-1.2180642940638829E-16,-2.0999943512626832E-16,-3.0468757851105277E-16,-3.5922245364543308E-16,-3.7082390150450839E-16,-3.6918152983566715E-16,-3.6852067947887755E-16,-3.5069895306368524E-16,-3.7008059447245359E-16,-2.7325264816940012E-16,-2.7606035025779805E-16,-2.7359856411763404E-16,-3.3786618018989421E-16,-3.7734781818629514E-16,-4.0580200722976676E-16,-4.0718614398676474E-16,-4.143072597058648E-16,-3.9279821979770684E-16],"AUX_ENDO_LEAD_89":[0,-0.2208510416017371,-0.21724692574127735,-0.21638361616477086,-0.21724626571689162,-0.21915087317809692,-0.22163715860437314,-0.224396117693622,-0.22722102883532774,-0.229974319611054,-0.23256515690248519,-0.23493428697240593,-0.237043776383844,-0.2388700657291439,-0.2403992641128907,-0.24162396393897284,-0.24254109877663174,-0.24315054168063568,-0.24345430404935842,-0.24345641962547845,-0.24316223180833013],"AUX_ENDO_LEAD_93":[0,-0.21724692574127738,-0.21638361616479049,-0.21724626571691141,-0.21915087317812068,-0.22163715860439939,-0.22439611769364667,-0.22722102883535022,-0.22997431961107759,-0.23256515690250495,-0.23493428697242474,-0.23704377638386062,-0.23887006572915723,-0.24039926411289822,-0.24162396393897745,-0.24254109877663454,-0.24315054168063505,-0.24345430404935853,-0.24345641962548009,-0.24316223180833188,-0.24257697471416564],"AUX_ENDO_LEAD_97":[0,-0.21638361616479054,-0.21724626571691702,-0.21915087317813137,-0.22163715860441324,-0.22439611769366183,-0.22722102883536588,-0.22997431961109308,-0.23256515690252086,-0.23493428697243871,-0.23704377638387761,-0.23887006572917777,-0.24039926411292023,-0.24162396393899627,-0.24254109877665098,-0.24315054168064851,-0.24345430404937068,-0.243456419625494,-0.24316223180834537,-0.24257697471417983,-0.24181686048752651],"AUX_ENDO_LEAD_124":[0,0.01199958758283395,0.027950342771217534,0.0385166295342977,0.045414475326152719,0.049806709436817469,0.052481853206441838,0.053975130336364911,0.05465032617727307,0.054755164456734007,0.054458771018347431,0.053877022405598794,0.053089703884420705,0.052152137763741287,0.051103095294062123,0.049970246051497517,0.048774043626231063,0.047530879346627621,0.046256639456323564,0.044963784792167442,0.0436579043367783],"AUX_ENDO_LEAD_128":[0,0.027950342771217718,0.038516629534298269,0.045414475326153218,0.04980670943681785,0.052481853206441963,0.053975130336364675,0.054650326177272543,0.0547551644567336,0.054458771018346376,0.053877022405598253,0.053089703884421025,0.052152137763742057,0.051103095294062553,0.049970246051498135,0.048774043626231722,0.047530879346628044,0.0462566394563245,0.044963784792168629,0.043657904336779754,0.042903943439847943],"AUX_ENDO_LEAD_132":[0,0.038516629534298151,0.045414475326152878,0.049806709436817968,0.052481853206441963,0.0539751303363647,0.054650326177271551,0.054755164456732369,0.054458771018344683,0.053877022405596289,0.053089703884419505,0.05215213776374087,0.051103095294062227,0.049970246051497962,0.048774043626231917,0.047530879346628516,0.046256639456324536,0.044963784792168685,0.043657904336780573,0.042903943439848838,0.042505184611966847],"AUX_ENDO_LEAD_159":[0,0.011999587582839153,0.027950342771220195,0.038516629534300711,0.045414475326156473,0.049806709436820848,0.0524818532064411,0.053975130336363919,0.054650326177271245,0.054755164456732286,0.054458771018344863,0.053877022405595269,0.053089703884415695,0.05215213776373373,0.051103095294052464,0.049970246051487324,0.048774043626222154,0.047530879346619988,0.046256639456317021,0.044963784792166242,0.043657904336777187],"AUX_ENDO_LEAD_163":[0,0.027950342771220202,0.038516629534301128,0.045414475326156827,0.049806709436822076,0.052481853206442317,0.053975130336364446,0.054650326177272057,0.054755164456732834,0.054458771018345224,0.053877022405595824,0.05308970388441675,0.052152137763734924,0.051103095294053248,0.049970246051488171,0.048774043626222986,0.047530879346621063,0.046256639456317729,0.044963784792167186,0.043657904336778811,0.042903943439846728],"AUX_ENDO_LEAD_167":[0,0.038516629534301121,0.045414475326156431,0.049806709436822021,0.052481853206442858,0.05397513033636573,0.054650326177273327,0.054755164456734472,0.054458771018346931,0.053877022405597261,0.053089703884418506,0.052152137763737068,0.051103095294055524,0.049970246051489739,0.048774043626224221,0.0475308793466219,0.046256639456317965,0.044963784792167054,0.043657904336778929,0.0429039434398471,0.042505184611965251],"AUX_ENDO_LAG_7_1":[0,0,-0.057175014563516313,-0.055212760400434838,-0.054311731435323564,-0.054095904041196831,-0.054311566429227444,-0.05478771829452974,-0.055409289651098821,-0.056099029423410544,-0.056805257208836196,-0.057493579902767072,-0.058141289225623914,-0.058733571743103348,-0.059260944095961679,-0.0597175164322866,-0.060099816028222806,-0.0604059909847426,-0.060635274694156346,-0.060787635420157207,-0.060863576012337821],"AUX_ENDO_LAG_7_2":[0,0,-3.2465349852905945E-15,-0.057175014563519616,-0.055212760400438175,-0.054311731435326971,-0.054095904041200266,-0.054311566429230851,-0.054787718294533154,-0.055409289651102249,-0.056099029423413986,-0.056805257208839666,-0.057493579902770577,-0.058141289225627467,-0.0587335717431069,-0.059260944095965183,-0.059717516432290042,-0.060099816028226269,-0.060405990984746041,-0.06063527469415983,-0.060787635420160649],"AUX_ENDO_LAG_32_1":[0,0,-0.011869320783554235,0.011999587582837555,0.027950342771220257,0.03851662953430076,0.045414475326156542,0.049806709436821,0.052481853206441387,0.053975130336364134,0.054650326177271412,0.054755164456732404,0.0544587710183448,0.053877022405595179,0.053089703884415612,0.052152137763734008,0.051103095294052728,0.04997024605148747,0.048774043626222209,0.0475308793466199,0.046256639456316938],"AUX_ENDO_LAG_32_2":[0,0,0,-0.011869320783554235,0.011999587582837555,0.027950342771220257,0.03851662953430076,0.045414475326156542,0.049806709436821,0.052481853206441387,0.053975130336364134,0.054650326177271412,0.054755164456732404,0.0544587710183448,0.053877022405595179,0.053089703884415612,0.052152137763734008,0.051103095294052728,0.04997024605148747,0.048774043626222209,0.0475308793466199],"AUX_ENDO_LAG_32_3":[0,0,0,0,-0.011869320783554235,0.011999587582837555,0.027950342771220257,0.03851662953430076,0.045414475326156542,0.049806709436821,0.052481853206441387,0.053975130336364134,0.054650326177271412,0.054755164456732404,0.0544587710183448,0.053877022405595179,0.053089703884415612,0.052152137763734008,0.051103095294052728,0.04997024605148747,0.048774043626222209],"AUX_ENDO_LAG_31_1":[0,0,-0.011869320783558381,0.011999587582833671,0.02795034277121751,0.038516629534297735,0.045414475326152816,0.049806709436817649,0.052481853206442025,0.053975130336364981,0.054650326177272807,0.054755164456733514,0.054458771018346612,0.053877022405597864,0.053089703884419935,0.052152137763740933,0.051103095294061845,0.049970246051497226,0.048774043626230605,0.047530879346627114,0.046256639456322982],"AUX_ENDO_LAG_31_2":[0,0,0,-0.011869320783558381,0.011999587582833671,0.02795034277121751,0.038516629534297735,0.045414475326152816,0.049806709436817649,0.052481853206442025,0.053975130336364981,0.054650326177272807,0.054755164456733514,0.054458771018346612,0.053877022405597864,0.053089703884419935,0.052152137763740933,0.051103095294061845,0.049970246051497226,0.048774043626230605,0.047530879346627114],"AUX_ENDO_LAG_31_3":[0,0,0,0,-0.011869320783558381,0.011999587582833671,0.02795034277121751,0.038516629534297735,0.045414475326152816,0.049806709436817649,0.052481853206442025,0.053975130336364981,0.054650326177272807,0.054755164456733514,0.054458771018346612,0.053877022405597864,0.053089703884419935,0.052152137763740933,0.051103095294061845,0.049970246051497226,0.048774043626230605],"AUX_ENDO_LAG_28_1":[0,0,0.44256709503627906,-0.24020542694942115,-0.71674890429670612,-1.0526989003307317,-1.2924733484218331,-1.466137834881772,-1.594049378800859,-1.6899975709931754,-1.7633293062192208,-1.8203859960287319,-1.8654757234893526,-1.9015308200817849,-1.93055266800785,-1.9539126268677178,-1.9725557990102103,-1.9871395387627055,-1.9981268403650849,-2.0058481837490469,-2.0106826842954071],"AUX_ENDO_LAG_28_2":[0,0,0,0.44256709503627906,-0.24020542694942115,-0.71674890429670612,-1.0526989003307317,-1.2924733484218331,-1.466137834881772,-1.594049378800859,-1.6899975709931754,-1.7633293062192208,-1.8203859960287319,-1.8654757234893526,-1.9015308200817849,-1.93055266800785,-1.9539126268677178,-1.9725557990102103,-1.9871395387627055,-1.9981268403650849,-2.0058481837490469],"AUX_ENDO_LAG_28_3":[0,0,0,0,0.44256709503627906,-0.24020542694942115,-0.71674890429670612,-1.0526989003307317,-1.2924733484218331,-1.466137834881772,-1.594049378800859,-1.6899975709931754,-1.7633293062192208,-1.8203859960287319,-1.8654757234893526,-1.9015308200817849,-1.93055266800785,-1.9539126268677178,-1.9725557990102103,-1.9871395387627055,-1.9981268403650849],"AUX_ENDO_LAG_30_1":[0,0,-0.2287000582540597,-0.22085104160173724,-0.21724692574129228,-0.21638361616478527,-0.21724626571690761,-0.21915087317811691,-0.22163715860439404,-0.22439611769364121,-0.22722102883534404,-0.22997431961106762,-0.23256515690249513,-0.234934286972413,-0.23704377638384658,-0.23887006572914654,-0.24039926411289211,-0.24162396393897168,-0.24254109877662683,-0.24315054168063016,-0.24345430404935275],"AUX_ENDO_LAG_30_2":[0,0,0,-0.2287000582540597,-0.22085104160173724,-0.21724692574129228,-0.21638361616478527,-0.21724626571690761,-0.21915087317811691,-0.22163715860439404,-0.22439611769364121,-0.22722102883534404,-0.22997431961106762,-0.23256515690249513,-0.234934286972413,-0.23704377638384658,-0.23887006572914654,-0.24039926411289211,-0.24162396393897168,-0.24254109877662683,-0.24315054168063016],"AUX_ENDO_LAG_30_3":[0,0,0,0,-0.2287000582540597,-0.22085104160173724,-0.21724692574129228,-0.21638361616478527,-0.21724626571690761,-0.21915087317811691,-0.22163715860439404,-0.22439611769364121,-0.22722102883534404,-0.22997431961106762,-0.23256515690249513,-0.234934286972413,-0.23704377638384658,-0.23887006572914654,-0.24039926411289211,-0.24162396393897168,-0.24254109877662683],"AUX_ENDO_LAG_13_1":[0,0,-0.71215924701322741,0.71997525497016779,1.6770205662731272,2.31099777205795,2.7248685195692439,2.9884025662091402,3.1489111923866426,3.2385078201820341,3.2790195706365166,3.28530986740414,3.2675262611009095,3.232621344335969,3.1853822330652442,3.129128265824463,3.0661857176437106,2.998214763089794,2.9264426175737559,2.851852760797533,2.775398367379263],"AUX_ENDO_LAG_13_2":[0,0,-6.1617377866696188E-15,-0.7121592470132333,0.71997525497016546,1.677020566273127,2.3109977720579504,2.7248685195692435,2.9884025662091385,3.1489111923866417,3.2385078201820345,3.2790195706365171,3.2853098674041386,3.2675262611009086,3.2326213443359655,3.1853822330652393,3.1291282658244595,3.0661857176437048,2.9982147630897868,2.9264426175737452,2.8518527607975197],"AUX_ENDO_LAG_13_3":[0,0,2.0816681711721685E-14,1.3211653993039363E-14,-0.71215924701321143,0.71997525497019077,1.6770205662731554,2.3109977720579811,2.72486851956927,2.9884025662091624,3.1489111923866635,3.2385078201820541,3.2790195706365344,3.2853098674041545,3.2675262611009215,3.2326213443359793,3.18538223306525,3.1291282658244697,3.0661857176437142,2.9982147630897953,2.926442617573751],"AUX_ENDO_LAG_13_4":[0,0,8.0768725041480138E-15,2.7783331191244542E-14,2.0788926136106056E-14,-0.712159247013202,0.719975254970202,1.677020566273163,2.3109977720579868,2.7248685195692763,2.9884025662091669,3.1489111923866679,3.2385078201820563,3.2790195706365366,3.2853098674041554,3.2675262611009219,3.232621344335981,3.1853822330652521,3.1291282658244728,3.0661857176437182,2.9982147630898],"AUX_ENDO_LAG_7_3":[0,0,-3.903127820947816E-17,-3.3939864807486231E-15,-0.057175014563519831,-0.055212760400438432,-0.054311731435327179,-0.054095904041200432,-0.05431156642923101,-0.054787718294533314,-0.055409289651102388,-0.056099029423414146,-0.056805257208839881,-0.057493579902770826,-0.058141289225627731,-0.058733571743107206,-0.05926094409596553,-0.059717516432290424,-0.060099816028226678,-0.060405990984746465,-0.060635274694160267],"AUX_ENDO_LAG_13_5":[0,0,3.0808688933348094E-15,1.099120794378905E-14,2.9282132274488504E-14,2.2370993946196904E-14,-0.71215924701320044,0.71997525497019921,1.6770205662731577,2.3109977720579793,2.7248685195692666,2.9884025662091549,3.1489111923866555,3.2385078201820412,3.2790195706365215,3.2853098674041386,3.2675262611009037,3.2326213443359628,3.1853822330652353,3.1291282658244537,3.0661857176436991],"AUX_ENDO_LAG_7_4":[0,0,3.1485231088979049E-16,1.8995222061946038E-16,-3.174543961037557E-15,-0.05717501456351954,-0.055212760400438113,-0.054311731435326867,-0.054095904041200127,-0.054311566429230719,-0.054787718294533,-0.055409289651102082,-0.056099029423413875,-0.056805257208839624,-0.057493579902770611,-0.058141289225627467,-0.058733571743106908,-0.059260944095965239,-0.059717516432290139,-0.060099816028226422,-0.0604059909847462],"AUX_ENDO_LAG_13_6":[0,0,5.2735593669694936E-15,6.3282712403633923E-15,1.4432899320127035E-14,3.1752378504279477E-14,2.55351295663786E-14,-0.71215924701319722,0.71997525497020076,1.6770205662731594,2.3109977720579797,2.7248685195692666,2.9884025662091549,3.1489111923866528,3.2385078201820363,3.2790195706365162,3.2853098674041319,3.2675262611008944,3.2326213443359526,3.1853822330652291,3.1291282658244484],"AUX_ENDO_LAG_7_5":[0,0,-1.7347234759768071E-18,2.4980018054066022E-16,1.2056328158038809E-16,-3.1736765992995686E-15,-0.057175014563519616,-0.055212760400438148,-0.05431173143532686,-0.054095904041200078,-0.054311566429230608,-0.0547877182945329,-0.055409289651101978,-0.05609902942341382,-0.056805257208839596,-0.057493579902770556,-0.05814128922562737,-0.05873357174310679,-0.059260944095965128,-0.059717516432290063,-0.060099816028226324],"AUX_ENDO_LAG_13_7":[0,0,5.3290705182007514E-15,1.2601031329495527E-14,1.3850032232198828E-14,2.2010171463193728E-14,3.9634961979118088E-14,3.3056890558214036E-14,-0.71215924701318745,0.71997525497021175,1.67702056627317,2.3109977720579904,2.72486851956928,2.9884025662091696,3.1489111923866684,3.2385078201820519,3.2790195706365313,3.2853098674041465,3.2675262611009095,3.2326213443359686,3.1853822330652455],"AUX_ENDO_LAG_7_6":[0,0,1.2663481374630692E-16,1.0234868508263162E-16,3.8944542035679319E-16,2.38524477946811E-16,-2.9689792291343053E-15,-0.057175014563519616,-0.055212760400438238,-0.054311731435326971,-0.054095904041200175,-0.054311566429230726,-0.054787718294533057,-0.055409289651102173,-0.056099029423414062,-0.0568052572088398,-0.057493579902770757,-0.058141289225627564,-0.05873357174310697,-0.059260944095965287,-0.059717516432290209],"AUX_ENDO_LAG_13_8":[0,0,7.5495165674510645E-15,1.3766765505351941E-14,2.0150547896946591E-14,2.223221606811876E-14,3.1141755840735641E-14,4.957145804951324E-14,4.3076653355456074E-14,-0.71215924701317956,0.71997525497021608,1.6770205662731719,2.3109977720579873,2.7248685195692763,2.9884025662091651,3.1489111923866617,3.2385078201820439,3.2790195706365237,3.28530986740414,3.2675262611009015,3.23262134433596],"AUX_ENDO_LAG_7_7":[0,0,1.5092094240998222E-16,2.3678975447083417E-16,2.4199392489876459E-16,5.368969158148218E-16,4.2587461335230614E-16,-2.8102520310824275E-15,-0.057175014563519456,-0.055212760400438037,-0.054311731435326742,-0.054095904041200037,-0.054311566429230511,-0.054787718294532647,-0.055409289651101659,-0.056099029423413417,-0.056805257208839083,-0.057493579902770021,-0.058141289225626842,-0.058733571743106269,-0.059260944095964593],"AUX_ENDO_LAG_13_9":[0,0,1.482147737874584E-14,2.1121993043493603E-14,2.681188604469753E-14,3.3806291099836017E-14,3.6831648841939568E-14,4.5630166312093934E-14,6.23945339839338E-14,5.3623772089395061E-14,-0.7121592470131739,0.71997525497022108,1.6770205662731796,2.3109977720579975,2.724868519569287,2.9884025662091735,3.1489111923866697,3.2385078201820519,3.2790195706365313,3.2853098674041483,3.2675262611009108],"AUX_ENDO_LAG_7_8":[0,0,3.174543961037557E-16,4.5536491244391186E-16,5.7159138533435794E-16,5.5944832100252029E-16,8.4220824758673984E-16,7.4506373293203865E-16,-2.499736528882579E-15,-0.057175014563519089,-0.055212760400437759,-0.054311731435326374,-0.054095904041199579,-0.054311566429230733,-0.054787718294533071,-0.055409289651102242,-0.056099029423414042,-0.056805257208839763,-0.057493579902770715,-0.058141289225627557,-0.05873357174310697],"AUX_ENDO_LAG_13_10":[0,0,-5.6343818499726694E-15,9.5756735873919752E-15,1.6875389974302379E-14,2.273181642920008E-14,2.9420910152566648E-14,2.9837243786801082E-14,3.7581049383561549E-14,5.2652326942848049E-14,4.368727601899991E-14,-0.71215924701318312,0.719975254970214,1.6770205662731725,2.3109977720579882,2.7248685195692794,2.9884025662091682,3.1489111923866648,3.238507820182047,3.2790195706365264,3.2853098674041425],"AUX_ENDO_LAG_7_9":[0,0,1.3010426069826053E-16,4.5016074201598144E-16,6.4878658001532585E-16,7.7628875549962117E-16,7.8582973461749361E-16,1.0581813203458523E-15,1.0390993621101074E-15,-2.252538433555884E-15,-0.057175014563518908,-0.055212760400437717,-0.054311731435326228,-0.0540959040411995,-0.054311566429230532,-0.054787718294532786,-0.055409289651101826,-0.056099029423413542,-0.056805257208839222,-0.057493579902770167,-0.058141289225626995],"AUX_ENDO_LAG_13_11":[0,0,-3.0253577421035516E-15,-8.4654505627668186E-15,6.4392935428259079E-15,1.4599432773820809E-14,2.2176704916887502E-14,2.7533531010703882E-14,2.9032332093947844E-14,3.5860203695392556E-14,5.1791904098763553E-14,4.3770542745846797E-14,-0.712159247013182,0.71997525497021531,1.6770205662731752,2.3109977720579895,2.7248685195692834,2.9884025662091727,3.14891119238667,3.2385078201820519,3.2790195706365322],"AUX_ENDO_LAG_7_10":[0,0,1.4051260155412137E-16,2.6107588313450947E-16,6.4184768611141862E-16,8.3266726846886741E-16,9.5930208221517432E-16,9.7317987002298878E-16,1.2689502226770344E-15,1.2533377113932431E-15,-2.014013955609073E-15,-0.057175014563518617,-0.055212760400437419,-0.054311731435326291,-0.054095904041198933,-0.054311566429229359,-0.054787718294531024,-0.055409289651099709,-0.056099029423411252,-0.056805257208836807,-0.057493579902767669],"AUX_ENDO_LAG_13_12":[0,0,-3.524958103184872E-15,-6.4392935428259079E-15,-1.2490009027033011E-14,1.6930901125533637E-15,8.4654505627668186E-15,1.6570078642530461E-14,2.0705659409259169E-14,2.1815882433884326E-14,2.6673108166619386E-14,4.27158308724529E-14,3.4278135885301708E-14,-0.71215924701319189,0.71997525497020587,1.677020566273167,2.3109977720579842,2.7248685195692794,2.98840256620917,3.1489111923866706,3.2385078201820492],"AUX_ENDO_LAG_7_11":[0,0,-3.1225022567582528E-17,1.222980050563649E-16,3.1658703436576729E-16,6.7740951736894317E-16,8.72565908416334E-16,1.0104764247564901E-15,1.0607834055598175E-15,1.3686968225457008E-15,1.3782378016635732E-15,-1.9897278269453977E-15,-0.057175014563518568,-0.0552127604004374,-0.054311731435326055,-0.054095904041198933,-0.054311566429229664,-0.054787718294531544,-0.055409289651100334,-0.056099029423411925,-0.056805257208837494],"AUX_ENDO_LAG_13_13":[0,0,-4.3298697960381105E-15,-7.2164496600635175E-15,-1.1768364061026659E-14,-1.7041923427996153E-14,-2.2204460492503131E-15,3.9968028886505635E-15,1.251776460264864E-14,1.6792123247455493E-14,1.6930901125533637E-14,1.9567680809018384E-14,3.3945068977914161E-14,2.5202062658991053E-14,-0.71215924701319966,0.719975254970192,1.6770205662731528,2.3109977720579709,2.7248685195692652,2.9884025662091562,3.1489111923866582],"AUX_ENDO_LAG_7_12":[0,0,1.3010426069826053E-16,8.3266726846886741E-17,2.7668839441830073E-16,4.3888503942213219E-16,7.9970752242530807E-16,1.0364972768961422E-15,1.2264494975156026E-15,1.2611439670351388E-15,1.5517101492612539E-15,1.5369649997154511E-15,-1.7841630950421461E-15,-0.057175014563518409,-0.055212760400437148,-0.054311731435325888,-0.054095904041198746,-0.054311566429229276,-0.054787718294530954,-0.055409289651099675,-0.056099029423411204],"AUX_ENDO_LAG_13_14":[0,0,3.2751579226442118E-15,-1.7208456881689926E-15,-4.496403249731884E-15,-8.7707618945387367E-15,-1.7069679003611782E-14,-4.5796699765787707E-15,1.9428902930940239E-16,1.1185496973098452E-14,1.4988010832439613E-14,1.4960255256823984E-14,1.6819878823071122E-14,3.1308289294429414E-14,2.1121993043493603E-14,-0.7121592470131981,0.71997525497019277,1.677020566273153,2.3109977720579717,2.7248685195692692,2.9884025662091589],"AUX_ENDO_LAG_7_13":[0,0,2.0816681711721685E-16,2.7929047963226594E-16,2.3158558404290375E-16,3.9291486730874681E-16,5.7853027923826517E-16,9.5930208221517432E-16,1.2290515827295678E-15,1.3903808659954109E-15,1.3999218451132833E-15,1.654926196081874E-15,1.6583956430338276E-15,-1.6618650899857812E-15,-0.057175014563518409,-0.055212760400437252,-0.054311731435326027,-0.054095904041198579,-0.054311566429228783,-0.05478771829453026,-0.055409289651098856],"AUX_ENDO_LAG_13_15":[0,0,5.8286708792820718E-16,2.6090241078691179E-15,-2.7755575615628914E-16,-1.7486012637846216E-15,-6.1894933622852477E-15,-1.4238610290817633E-14,-2.7200464103316335E-15,1.7763568394002505E-15,1.2323475573339238E-14,1.482147737874584E-14,1.5182299861749016E-14,1.5626389071599078E-14,2.8338442703557121E-14,1.6264767310758543E-14,-0.71215924701320377,0.71997525497019077,1.6770205662731543,2.3109977720579695,2.7248685195692679],"AUX_ENDO_LAG_7_14":[0,0,2.1337098754514727E-16,4.5102810375396984E-16,5.9934696094998685E-16,5.7853027923826517E-16,7.9710543721134286E-16,9.9659863694867568E-16,1.407728100755179E-15,1.6731407925796304E-15,1.8188575645616822E-15,1.8214596497756474E-15,2.0738619155302729E-15,1.9862583799934441E-15,-1.4935969128160309E-15,-0.057175014563518214,-0.055212760400437,-0.054311731435325639,-0.054095904041198004,-0.054311566429228089,-0.054787718294529469],"AUX_ENDO_LAG_13_16":[0,0,-3.524958103184872E-15,-3.858025010572419E-15,-2.7755575615628914E-17,-5.6621374255882984E-15,-9.6866958898544908E-15,-1.7902346272080649E-14,-2.8227420401094605E-14,-1.7763568394002505E-14,-1.3239409568654992E-14,-1.8041124150158794E-15,5.8286708792820718E-16,-6.9388939039072284E-16,-7.4940054162198066E-16,9.5201624361607173E-15,-9.1593399531575415E-16,-0.71215924701322242,0.71997525497017312,1.6770205662731379,2.3109977720579526],"AUX_ENDO_LAG_7_15":[0,0,3.9464959078472361E-16,6.2276572787567375E-16,9.0205620750793969E-16,1.0469056177520031E-15,1.0555792351318871E-15,1.3149203947904198E-15,1.58640461878079E-15,2.0469737016526324E-15,2.3089169465251302E-15,2.491062911502695E-15,2.4424906541753444E-15,2.6723415147422713E-15,2.5222879340702775E-15,-8.0404433111525009E-16,-0.057175014563517652,-0.055212760400436517,-0.054311731435325195,-0.054095904041197393,-0.054311566429227513],"AUX_ENDO_LAG_13_17":[0,0,2.1094237467877974E-15,-1.7763568394002505E-15,-2.7755575615628914E-15,4.85722573273506E-15,1.8873791418627661E-15,-8.3266726846886741E-16,-5.9119376061289586E-15,-1.4099832412739488E-14,-3.83026943495679E-15,4.4408920985006262E-16,1.1185496973098452E-14,1.174060848541103E-14,9.5479180117763462E-15,8.5764728652293343E-15,1.8485213360008856E-14,5.5511151231257827E-15,-0.71215924701321665,0.71997525497017734,1.6770205662731368],"AUX_ENDO_LAG_7_16":[0,0,3.0617869350990645E-16,7.4766581814600386E-16,1.0850695342234928E-15,1.416401718135063E-15,1.6193643648243494E-15,1.6436504934880247E-15,1.8995222061946038E-15,2.2048335379665218E-15,2.6619331738864105E-15,2.8891819492393722E-15,3.0210209334136096E-15,2.9490299091605721E-15,3.1528599175878469E-15,3.0531133177191805E-15,-3.426078865054194E-16,-0.057175014563517243,-0.055212760400436288,-0.054311731435324841,-0.054095904041196623],"AUX_ENDO_LAG_13_18":[0,0,2.7755575615628914E-15,5.10702591327572E-15,2.4702462297909733E-15,-2.55351295663786E-15,4.9960036108132044E-16,-4.7462034302725442E-15,-1.1296519275560968E-14,-1.8318679906315083E-14,-2.886579864025407E-14,-2.0455859228718509E-14,-1.6875389974302379E-14,-5.10702591327572E-15,-6.63358257213531E-15,-6.1894933622852477E-15,-1.1990408665951691E-14,-8.3266726846886741E-16,-1.3877787807814457E-14,-0.71215924701323774,0.71997525497015435],"AUX_ENDO_LAG_7_17":[0,0,1.2663481374630692E-16,5.9587751399803324E-16,1.2177758801357186E-15,1.6271706204662451E-15,2.0287591051548759E-15,2.2828960943854781E-15,2.36876490644633E-15,2.6879540260260626E-15,2.9603056117544213E-15,3.363628819919029E-15,3.6168984474116428E-15,3.7574110489657642E-15,3.6949610038305991E-15,3.9057299061617812E-15,3.89011739487799E-15,5.0827397846120448E-16,-0.057175014563516778,-0.05521276040043565,-0.054311731435324487]},"fiscal_":{"Y":[0,0.31161192334058668,0.29685465517442328,0.35164168870333284,0.39337552274814774,0.42006726660465848,0.43577724810099566,0.44380884468385245,0.44646748531944286,0.44533403654243259,0.44149353518998985,0.43569457684732077,0.4284581522700493,0.42015250783039731,0.41104629713165269,0.40134983951866049,0.39125429190784727,0.38098227809382207,0.37087140584113626,0.36152506445596871,0.3542923185919607],"C":[0,-0.14731346109905713,0.42809109195730083,0.57940281450547293,0.65495920458015378,0.700045444340996,0.72628874683489153,0.7396807411396511,0.74411240886562879,0.74222338757063522,0.73582255798323315,0.72615762801211747,0.71409692044332473,0.70025417971658177,0.68507716188593892,0.6689163991976782,0.65209048651301471,0.634970463489641,0.6181190097351692,0.60254177409322907,0.590487197653213],"s":[0,1.15433628071973,1.4886610411809862,1.67592571377339,1.8028038975599472,1.8911741915489886,1.9522563631524221,1.9933704880132161,2.0195238777982025,2.0341869914063926,2.0397898760295474,2.03805735577391,2.0302398844024427,2.0172785501800972,1.9999351069966878,1.9789187256612735,1.9550545464306719,1.9295667320047434,1.9045940705379545,1.8848177136525148,1.8814793196283279],"Ps":[0,-0.7106837187886843,0.13812862106883006,0.29365551160996006,0.36008239729404851,0.40392523884047965,0.43596938349552622,0.46009829962065008,0.47860583560857178,0.49301773831036327,0.50436977622811441,0.51336723022224728,0.52048799746759333,0.52604775799729675,0.53023489986717309,0.53311472185310338,0.53459037373840246,0.53429483451150261,0.53137238054110625,0.52339485747823444,0.50405710892786193],"Pss":[0,0.44365256193104541,1.6267896622498164,1.9695812253833509,2.1628862948539966,2.2950994303894676,2.3882257466479473,2.4534687876338657,2.498129713406775,2.5272047297167566,2.5441596522576626,2.5514245859961564,2.5507278818700359,2.5433263081773951,2.5301700068638606,2.5120334475143755,2.4896449201690745,2.463861566516246,2.43596645107906,2.4082125711307496,2.3855364285561897],"L":[0,0.18036360601194051,0.026080592892395948,-0.035147792209672069,-0.0974064441823198,-0.16503039492787255,-0.23515272428626985,-0.30537056464549639,-0.37411523131745938,-0.44042260821342011,-0.5037311326960151,-0.56374146868545594,-0.62032175974901371,-0.67344332746422975,-0.723135450694758,-0.76944992298302584,-0.81242570960764515,-0.85203974858412468,-0.88812136094309,-0.92019394581823333,-0.94695850290006178],"w":[0,-0.2044451191921311,0.86922248036084149,1.1412317329061632,1.2612151870692025,1.3175756912181102,1.335001131526705,1.3266761999566126,1.3011672020725848,1.2642354710346242,1.2197795496185244,1.17044452168157,1.1180329610121975,1.0637866957011053,1.0085865984245543,0.95310783690388945,0.89796811822225453,0.84392105268726292,0.79217733899883724,0.74498657527738721,0.70749514385643864],"Pi":[0,-0.45300607621922323,-0.440125387324048,-0.44075206616521834,-0.44476829175936106,-0.45025487681574344,-0.45641184382826239,-0.462753372105049,-0.46896163507261163,-0.47482779301856581,-0.48021607913561759,-0.48503991628594889,-0.48924581508471621,-0.49280251601410174,-0.49569372233602937,-0.49791337449066314,-0.49946289648377279,-0.50035032769169652,-0.50059192700257793,-0.50021790925724108,-0.49928570459825478],"F":[0,-15.247000900796047,-15.568398682542181,-15.752367866647502,-15.906095556262066,-16.039445574230673,-16.153125965122175,-16.247333009033991,-16.322502498866971,-16.37931251590679,-16.418639484407439,-16.4415292205072,-16.449183467498329,-16.442958053136895,-16.424369288511343,-16.395105281751402,-16.357037504359692,-16.312223997957624,-16.262886276867725,-16.211322872466571,-16.159686850855405],"K":[0,-20.16113489816362,-20.342805125397604,-20.533572416549347,-20.730867448346132,-20.923735021531737,-21.104205158753857,-21.267204038661156,-21.409719724748562,-21.530164840100447,-21.627943033397727,-21.703160946496869,-21.756440078807437,-21.788797160074861,-21.801571717104004,-21.796386124935019,-21.775127302446453,-21.739940501066929,-21.69322360881284,-21.637602922590407,-21.575854501062956],"PQ":[0,-53.123892860545233,-48.735539189484584,-57.979058856593433,-65.171946566669774,-69.817933408914115,-72.595233250903149,-74.066546911439389,-74.6252816270015,-74.541070637911162,-73.998779406153872,-73.125757139484918,-72.010445447075554,-70.715165451108689,-69.285170964546481,-67.7556249191536,-66.158128299023232,-64.529032630960685,-62.923062686421964,-61.436453583879711,-60.283019237766794],"PB":[0,1.1290761912937886,1.9110248728460253,2.4670992088300934,2.8691318547210733,3.1647456355977019,3.3861068486232728,3.5550164045250732,3.6862707958642877,3.7899274433958263,3.872836462216644,3.9396771370224717,3.9936598853764567,4.0370029743958016,4.0712591437503791,4.0975455053102312,4.1167176050697192,4.1295367151525717,4.1369094123493912,4.1395265848744263,4.1380319801546914],"b":[0,1.1402569869581867,1.4199920805390458,1.5365014313492149,1.5833820486216186,1.586298956211611,1.5589964683807493,1.5105472790270364,1.4471932375140502,1.3732854718410112,1.2918914051382671,1.2052049348439771,1.1148282852673286,1.0219718274988074,0.92760806610677937,0.8326151975401479,0.73795809472372076,0.64498137145928469,0.55593329723411289,0.47563693228495074,0.41559996468095228],"q":[0,18.696715400435195,17.811279310465675,21.098501322200214,23.602531364888787,25.204035996279213,26.14663488605964,26.628530681031069,26.788049119166232,26.720042192546405,26.48961211139995,26.141674610839658,25.707489136202724,25.209150469823914,24.662777827899202,24.080990371119494,23.4752575144712,22.858936685629438,22.252284350468326,21.691503867358513,21.257539115517883],"qCB":[0,-16.305905514851823,-15.533693021199058,-18.400567249195131,-20.584398815753804,-21.981113834502217,-22.803179534598584,-23.223453744935302,-23.3625740409019,-23.303263381458393,-23.102299145201805,-22.798853545924192,-22.420188781888768,-21.985574303658815,-21.509068110762691,-21.0016757107183,-20.473399887066176,-19.935890009706011,-19.406812284253146,-18.917740627744333,-18.53926836196214],"qbar":[0,-4.163336342344337E-15,1.0239031844605506E-13,9.2426066800044282E-14,-2.4202861936828413E-14,-1.0311196341206141E-13,-2.6173507805538065E-14,-2.1316282072803006E-14,-1.1476930517062556E-13,1.7016943409942087E-13,2.0938806244430452E-13,1.5670797992584085E-13,-7.8825834748386114E-14,3.49442697000768E-14,2.2343238370581275E-14,-3.93574062229618E-14,1.3469780846264712E-13,4.96269692007445E-14,6.0867977325074207E-14,1.4879764087538661E-13,9.1232577048572239E-14],"i":[0,-1.1290761912937692,-1.9110248728460657,-2.467099208830116,-2.8691318547210884,-3.1647456355976926,-3.3861068486232755,-3.5550164045250838,-3.6862707958642749,-3.7899274433958716,-3.8728364622167124,-3.9396771370225192,-3.9936598853764296,-4.0370029743957883,-4.071259143750364,-4.0975455053101921,-4.116717605069721,-4.1295367151525566,-4.1369094123493815,-4.1395265848744467,-4.1380319801546959],"iQ":[0,5.2418322595464213,4.8088253280015207,5.7209004221591755,6.4306358878365337,6.8890639584418709,7.1631052442412333,7.3082824704275007,7.3634138529157944,7.3551045996692208,7.3015957259848951,7.215453012521845,7.1054031555946153,6.9775954950034116,6.8364953077427968,6.6855721849918153,6.5279442539985473,6.3671983868017632,6.2087343772977235,6.0620479217042416,5.9482364323882138],"D":[0,-0.16240950966268949,-0.30045952779891782,-0.42195364978281918,-0.53011951920538536,-0.6271043881935312,-0.71450769719749363,-0.79356029379781212,-0.86522946516942922,-0.93029004840913232,-0.98937402140383,-1.0430055032166274,-1.0916257272464358,-1.1356110860774076,-1.1752863775393914,-1.2109347464536924,-1.242805430705483,-1.2711202544869713,-1.2960799073679299,-1.3178715167189101,-1.336680053350628],"A":[0,-3.6986166998856388E-15,-2.7048946067720826E-15,-2.1116015237745432E-15,-1.7206977053699982E-15,-1.453786913351463E-15,-1.2950228710771661E-15,-1.1994251064088284E-15,-1.1486713827026875E-15,-1.13170030942228E-15,-1.1275637374436056E-15,-1.1270207003965643E-15,-1.1189203909594941E-15,-1.0920301404799833E-15,-1.0463082377263581E-15,-9.8829916983460945E-16,-9.2929171491200478E-16,-8.7752170920481154E-16,-8.2748290288533534E-16,-7.8852409241949289E-16,-7.5729210220647644E-16],"G":[0,1.0000000000000469,0.1000000000000264,0.010000000000024323,0.0010000000000237597,0.00010000000002308163,1.0000000023935307E-5,1.0000000242316176E-6,1.0000002459431556E-7,1.0000025474354857E-8,1.0000257288922398E-9,1.000284299834675E-10,1.0026868224599639E-11,1.0267342531733448E-12,1.2656542480726785E-13,3.7414515929867775E-14,2.808864252301646E-14,2.808864252301646E-14,2.8199664825478976E-14,2.9198865547641617E-14,2.808864252301646E-14],"theta":[0,0,0,0,0,0,0,0,0,0,0,0,0,0,0,0,0,0,0,0,0],"ksi":[0,0,0,0,0,0,0,0,0,0,0,0,0,0,0,0,0,0,0,0,0],"ChiC":[0,0,-1.1614456520556528E-14,-1.3190443446611269E-14,-1.3372489290123959E-14,-1.3393841219723526E-14,-1.3414304974856159E-14,-1.344715486800471E-14,-1.3485394581651358E-14,-1.3517553468181233E-14,-1.3548424459295995E-14,-1.3564218369950274E-14,-1.3654656226477663E-14,-1.4239571729013761E-14,-1.2441724318279812E-14,-6.3037779103960859E-15,-4.0819974602885355E-15,-2.500272802960904E-15,-2.1745958400009E-15,-1.2225620969525963E-15,-7.7331977051230861E-16],"ChiL":[0,0,5.403530314427586E-16,8.5332909649868009E-16,1.0571572007678308E-15,1.1866249855730576E-15,1.2645389124589177E-15,1.3154656412670394E-15,1.357106704950759E-15,1.3893264847858456E-15,1.4153980917094261E-15,1.4291310917564128E-15,1.4349283322667967E-15,1.4444201723325979E-15,1.4560423053853139E-15,1.4666190983201824E-15,1.4771598752951499E-15,1.4875761836318743E-15,1.4959757986378244E-15,1.5089592132913619E-15,1.5220318439429014E-15],"epsG":[0,1.0000000000000411,-3.1548569601810182E-15,-4.5933223335835117E-15,-5.507815733639979E-15,-6.1932603150671833E-15,-6.0342607106128891E-15,-6.1048083640376443E-15,-6.0465978166340509E-15,-5.7521926051146282E-15,-5.6004504987036527E-15,-3.999832022548183E-15,-5.3916419966523952E-15,-5.2481938900403935E-15,-6.4617798567023223E-15,-6.4882652852916806E-15,-6.7554388394040039E-15,-6.5552463217479194E-15,-6.7290953167187193E-15,-6.3628807453794409E-15,-6.7962322893572708E-15],"Yf":[0,0.33472803347282171,0.033472803347268876,0.00334728033471271,0.00033472803345663271,3.3472803330991674E-5,3.3472803183665079E-6,3.3472801685974218E-7,3.3472786820087919E-8,3.3472631888464832E-9,3.3471087013126066E-10,3.345601573556678E-11,3.330113962363157E-12,3.1719071813540722E-13,1.5487611193520934E-14,-1.3711254354120683E-14,-1.6708856520608606E-14,-1.6653345369377348E-14,-1.6930901125533637E-14,-1.6986412276764895E-14,-1.6653345369377348E-14],"Gf":[0,1.0000000000000557,0.099999999999976,0.00999999999996437,0.00099999999996136513,9.9999999959909935E-5,9.999999959320327E-6,9.9999995883948145E-7,9.99999585360456E-8,9.99995841688417E-9,9.9995867142155248E-10,9.99600402451506E-11,9.9585895085851917E-12,9.5867758176382267E-13,5.5844218138645374E-14,-3.5305092183079978E-14,-4.4853010194856324E-14,-4.6185277824406512E-14,-4.6851411639181606E-14,-4.6962433941644122E-14,-4.6851411639181606E-14],"interest":[0,-4.5163047651750725,-7.6440994913842726,-9.8683968353204676,-11.476527418884356,-12.658982542390765,-13.544427394493106,-14.220065618100339,-14.745083183457096,-15.159709773583494,-15.491345848866864,-15.758708548090086,-15.974639541505709,-16.148011897583146,-16.285036575001456,-16.390182021240765,-16.466870420278884,-16.518146860610209,-16.547637649397526,-16.55810633949779,-16.552127920618783],"inflation":[0,-0.45300607621922312,-0.89313146354327122,-1.3338835297085292,-1.7786518214679041,-1.775900622064426,-1.7921870785686405,-1.81418838450847,-1.8383817278217205,-1.862954644024543,-1.8867588793318977,-1.909045423512798,-1.9293296035249037,-1.9473043265204406,-1.9627819697208515,-1.9756554279255658,-1.985872509324623,-1.9934203210022174,-1.9983185256687663,-2.0006230604353443,-2.0004458685498263],"inflationq":[0,-1.8120243048768985,-1.7605015492962373,-1.7630082646609133,-1.7790731670374833,-1.8010195072630157,-1.8256473753130948,-1.85101348842024,-1.8758465402904936,-1.8993111720743105,-1.920864316542521,-1.9401596651438486,-1.956983260338921,-1.9712100640564685,-1.9827748893441808,-1.9916534979627174,-1.9978515859351551,-2.0014013107668509,-2.0023677080103757,-2.0008716370290229,-1.9971428183930786],"outputgap":[0,-0.023116110132266381,0.26338185182713392,0.3482944083685926,0.3930407947146608,0.42003379380128913,0.43577390082063688,0.44380850995579763,0.44646745184661313,0.44533403319514242,0.44149353485525483,0.43569457681384272,0.42845815226669354,0.42015250783006092,0.41104629713161844,0.40134983951866121,0.39125429190786221,0.38098227809383367,0.37087140584115313,0.36152506445599247,0.35429231859197918],"output":[0,0.31161192334058208,0.29685465517444126,0.35164168870334744,0.39337552274815613,0.42006726660464044,0.435777248100949,0.44380884468382947,0.44646748531940222,0.44533403654240922,0.44149353518995604,0.4356945768472783,0.42845815226998568,0.42015250783032332,0.41104629713157642,0.40134983951859804,0.391254291907811,0.38098227809378971,0.370871405841129,0.36152506445600552,0.3542923185919622],"fispol":[0,1.0000000000000207,-1.5784815323955247E-15,-2.2967664720222417E-15,-2.7539183973430513E-15,-3.0966312105859266E-15,-3.0171304606116876E-15,-3.0524041925493615E-15,-3.0232989093701173E-15,-2.8760963026625935E-15,-2.80022524936232E-15,-1.9999160112751178E-15,-2.6958209983263309E-15,-2.6240969450202113E-15,-3.2308899283511714E-15,-3.244132642645864E-15,-3.3777194197019866E-15,-3.2776231608739648E-15,-3.3645476583593636E-15,-3.1814403726897043E-15,-3.3981161446786338E-15],"AUX_ENDO_LEAD_89":[0,-1.7605015492962428,-1.7630082646607772,-1.7790731670373274,-1.8010195072628437,-1.8256473753129461,-1.851013488420111,-1.8758465402903881,-1.8993111720742277,-1.9208643165424653,-1.9401596651438091,-1.956983260338911,-1.9712100640564485,-1.9827748893441934,-1.9916534979627527,-1.9978515859352095,-2.0014013107668953,-2.0023677080104312,-2.0008716370290998,-1.9971428183931872,-1.991668742365216],"AUX_ENDO_LEAD_93":[0,-1.7630082646607776,-1.7790731670375006,-1.8010195072630582,-1.82564737531315,-1.8510134884202898,-1.8758465402905604,-1.899311172074408,-1.9208643165426025,-1.9401596651439492,-1.9569832603390136,-1.9712100640565169,-1.982774889344225,-1.9916534979627836,-1.9978515859352219,-2.0014013107668895,-2.00236770801045,-2.0008716370291131,-1.9971428183931796,-1.99166874236519,-1.9855801695659656],"AUX_ENDO_LEAD_97":[0,-1.7790731670375013,-1.8010195072631616,-1.8256473753132663,-1.8510134884204119,-1.8758465402906865,-1.8993111720745317,-1.9208643165427326,-1.9401596651440771,-1.9569832603391839,-1.9712100640566896,-1.9827748893443802,-1.9916534979629059,-1.9978515859353414,-2.0014013107669921,-2.0023677080105635,-2.0008716370292361,-1.9971428183932878,-1.9916687423653094,-1.9855801695660844,-1.9789363509067397],"AUX_ENDO_LEAD_124":[0,0.26338185182713453,0.34829440836859049,0.39304079471465964,0.4200337938012878,0.43577390082063711,0.44380850995579973,0.44646745184661785,0.44533403319514847,0.44149353485526222,0.43569457681384793,0.42845815226669681,0.42015250783006258,0.41104629713162188,0.40134983951866521,0.39125429190786659,0.380982278093839,0.37087140584115763,0.36152506445599786,0.3542923185919849,0.35245034159099542],"AUX_ENDO_LEAD_128":[0,0.34829440836859082,0.39304079471465958,0.42003379380128864,0.43577390082063577,0.44380850995579546,0.44646745184661363,0.44533403319514442,0.44149353485525528,0.43569457681385126,0.42845815226670342,0.42015250783006697,0.41104629713162444,0.40134983951867181,0.3912542919078717,0.38098227809384477,0.37087140584117051,0.36152506445600879,0.35429231859200006,0.35245034159101596,0.35061497115052043],"AUX_ENDO_LEAD_132":[0,0.39304079471465775,0.42003379380128963,0.43577390082063172,0.44380850995579074,0.44646745184659908,0.44533403319513359,0.4414935348552409,0.43569457681383855,0.42845815226669637,0.42015250783006086,0.41104629713162477,0.40134983951867076,0.391254291907875,0.38098227809384744,0.37087140584116957,0.36152506445601418,0.3542923185920091,0.35245034159102023,0.35061497115052431,0.34995148245377233],"AUX_ENDO_LEAD_159":[0,0.29685465517445775,0.35164168870334533,0.39337552274815457,0.42006726660463828,0.43577724810094703,0.44380884468382836,0.44646748531940184,0.44533403654240888,0.44149353518995738,0.43569457684727791,0.42845815226998479,0.42015250783032015,0.41104629713157587,0.401349839518598,0.39125429190781086,0.38098227809379143,0.37087140584112821,0.36152506445600513,0.35429231859196236,0.35245034159098504],"AUX_ENDO_LEAD_163":[0,0.35164168870334533,0.39337552274815857,0.42006726660465049,0.43577724810095231,0.44380884468383097,0.44646748531940916,0.44533403654241172,0.44149353518996159,0.435694576847286,0.42845815226999429,0.42015250783032737,0.41104629713158108,0.40134983951860648,0.3912542919078183,0.38098227809380031,0.37087140584113548,0.36152506445601768,0.35429231859197946,0.35245034159100164,0.35061497115050849],"AUX_ENDO_LEAD_167":[0,0.39337552274815851,0.42006726660465521,0.4357772481009613,0.44380884468384313,0.44646748531941943,0.44533403654242637,0.44149353518997481,0.43569457684729895,0.42845815227001177,0.42015250783034397,0.41104629713159418,0.40134983951861386,0.39125429190782623,0.38098227809380408,0.370871405841135,0.36152506445601917,0.35429231859198351,0.352450341591005,0.35061497115051277,0.34995148245376106],"AUX_ENDO_LAG_7_1":[0,0,-0.45300607621923616,-0.44012538732406142,-0.44075206616523177,-0.44476829175937427,-0.45025487681575632,-0.456411843828275,-0.46275337210506157,-0.46896163507262417,-0.47482779301857858,-0.48021607913563052,-0.48503991628596221,-0.4892458150847297,-0.49280251601411518,-0.49569372233604286,-0.49791337449067657,-0.49946289648378633,-0.50035032769171017,-0.50059192700259147,-0.50021790925725462],"AUX_ENDO_LAG_7_2":[0,0,-2.6619331738864105E-14,-0.45300607621926309,-0.44012538732408935,-0.44075206616525975,-0.44476829175940208,-0.45025487681578447,-0.45641184382830324,-0.46275337210508993,-0.46896163507265282,-0.47482779301860772,-0.48021607913565972,-0.48503991628599097,-0.48924581508475817,-0.4928025160141436,-0.49569372233607134,-0.49791337449070505,-0.49946289648381481,-0.50035032769173871,-0.50059192700261979],"AUX_ENDO_LAG_32_1":[0,0,0.31161192334058208,0.29685465517444126,0.35164168870334744,0.39337552274815613,0.42006726660464044,0.435777248100949,0.44380884468382947,0.44646748531940222,0.44533403654240922,0.44149353518995604,0.4356945768472783,0.42845815226998568,0.42015250783032332,0.41104629713157642,0.40134983951859804,0.391254291907811,0.38098227809378971,0.370871405841129,0.36152506445600552],"AUX_ENDO_LAG_32_2":[0,0,0,0.31161192334058208,0.29685465517444126,0.35164168870334744,0.39337552274815613,0.42006726660464044,0.435777248100949,0.44380884468382947,0.44646748531940222,0.44533403654240922,0.44149353518995604,0.4356945768472783,0.42845815226998568,0.42015250783032332,0.41104629713157642,0.40134983951859804,0.391254291907811,0.38098227809378971,0.370871405841129],"AUX_ENDO_LAG_32_3":[0,0,0,0,0.31161192334058208,0.29685465517444126,0.35164168870334744,0.39337552274815613,0.42006726660464044,0.435777248100949,0.44380884468382947,0.44646748531940222,0.44533403654240922,0.44149353518995604,0.4356945768472783,0.42845815226998568,0.42015250783032332,0.41104629713157642,0.40134983951859804,0.391254291907811,0.38098227809378971],"AUX_ENDO_LAG_31_1":[0,0,-0.023116110132266381,0.26338185182713392,0.3482944083685926,0.3930407947146608,0.42003379380128913,0.43577390082063688,0.44380850995579763,0.44646745184661313,0.44533403319514242,0.44149353485525483,0.43569457681384272,0.42845815226669354,0.42015250783006092,0.41104629713161844,0.40134983951866121,0.39125429190786221,0.38098227809383367,0.37087140584115313,0.36152506445599247],"AUX_ENDO_LAG_31_2":[0,0,0,-0.023116110132266381,0.26338185182713392,0.3482944083685926,0.3930407947146608,0.42003379380128913,0.43577390082063688,0.44380850995579763,0.44646745184661313,0.44533403319514242,0.44149353485525483,0.43569457681384272,0.42845815226669354,0.42015250783006092,0.41104629713161844,0.40134983951866121,0.39125429190786221,0.38098227809383367,0.37087140584115313],"AUX_ENDO_LAG_31_3":[0,0,0,0,-0.023116110132266381,0.26338185182713392,0.3482944083685926,0.3930407947146608,0.42003379380128913,0.43577390082063688,0.44380850995579763,0.44646745184661313,0.44533403319514242,0.44149353485525483,0.43569457681384272,0.42845815226669354,0.42015250783006092,0.41104629713161844,0.40134983951866121,0.39125429190786221,0.38098227809383367],"AUX_ENDO_LAG_28_1":[0,0,-4.5163047651750725,-7.6440994913842726,-9.8683968353204676,-11.476527418884356,-12.658982542390765,-13.544427394493106,-14.220065618100339,-14.745083183457096,-15.159709773583494,-15.491345848866864,-15.758708548090086,-15.974639541505709,-16.148011897583146,-16.285036575001456,-16.390182021240765,-16.466870420278884,-16.518146860610209,-16.547637649397526,-16.55810633949779],"AUX_ENDO_LAG_28_2":[0,0,0,-4.5163047651750725,-7.6440994913842726,-9.8683968353204676,-11.476527418884356,-12.658982542390765,-13.544427394493106,-14.220065618100339,-14.745083183457096,-15.159709773583494,-15.491345848866864,-15.758708548090086,-15.974639541505709,-16.148011897583146,-16.285036575001456,-16.390182021240765,-16.466870420278884,-16.518146860610209,-16.547637649397526],"AUX_ENDO_LAG_28_3":[0,0,0,0,-4.5163047651750725,-7.6440994913842726,-9.8683968353204676,-11.476527418884356,-12.658982542390765,-13.544427394493106,-14.220065618100339,-14.745083183457096,-15.159709773583494,-15.491345848866864,-15.758708548090086,-15.974639541505709,-16.148011897583146,-16.285036575001456,-16.390182021240765,-16.466870420278884,-16.518146860610209],"AUX_ENDO_LAG_30_1":[0,0,-1.8120243048768985,-1.7605015492962373,-1.7630082646609133,-1.7790731670374833,-1.8010195072630157,-1.8256473753130948,-1.85101348842024,-1.8758465402904936,-1.8993111720743105,-1.920864316542521,-1.9401596651438486,-1.956983260338921,-1.9712100640564685,-1.9827748893441808,-1.9916534979627174,-1.9978515859351551,-2.0014013107668509,-2.0023677080103757,-2.0008716370290229],"AUX_ENDO_LAG_30_2":[0,0,0,-1.8120243048768985,-1.7605015492962373,-1.7630082646609133,-1.7790731670374833,-1.8010195072630157,-1.8256473753130948,-1.85101348842024,-1.8758465402904936,-1.8993111720743105,-1.920864316542521,-1.9401596651438486,-1.956983260338921,-1.9712100640564685,-1.9827748893441808,-1.9916534979627174,-1.9978515859351551,-2.0014013107668509,-2.0023677080103757],"AUX_ENDO_LAG_30_3":[0,0,0,0,-1.8120243048768985,-1.7605015492962373,-1.7630082646609133,-1.7790731670374833,-1.8010195072630157,-1.8256473753130948,-1.85101348842024,-1.8758465402904936,-1.8993111720743105,-1.920864316542521,-1.9401596651438486,-1.956983260338921,-1.9712100640564685,-1.9827748893441808,-1.9916534979627174,-1.9978515859351551,-2.0014013107668509],"AUX_ENDO_LAG_13_1":[0,0,18.696715400435142,17.811279310465594,21.0985013222001,23.602531364888662,25.204035996279064,26.14663488605947,26.628530681030895,26.788049119166047,26.720042192546178,26.489612111399691,26.141674610839402,25.707489136202458,25.209150469823644,24.66277782789896,24.080990371119217,23.475257514470925,22.85893668562916,22.25228435046807,21.691503867358275],"AUX_ENDO_LAG_13_2":[0,0,-3.4916514124461173E-14,18.696715400435146,17.81127931046559,21.098501322200097,23.602531364888645,25.204035996279053,26.146634886059474,26.628530681030895,26.788049119166043,26.720042192546149,26.489612111399673,26.141674610839363,25.707489136202412,25.209150469823605,24.662777827898889,24.080990371119142,23.475257514470822,22.858936685629054,22.252284350467971],"AUX_ENDO_LAG_13_3":[0,0,1.6611712005953905E-13,1.7677526109594055E-13,18.696715400435377,17.811279310465824,21.098501322200324,23.602531364888826,25.204035996279231,26.14663488605964,26.628530681031044,26.788049119166175,26.72004219254627,26.489612111399769,26.14167461083947,25.707489136202479,25.209150469823687,24.662777827898942,24.0809903711192,23.475257514470844,22.858936685629079],"AUX_ENDO_LAG_13_4":[0,0,6.0118576783452227E-14,2.4169555246089658E-13,2.6056934387952424E-13,18.696715400435451,17.811279310465864,21.09850132220037,23.602531364888875,25.204035996279263,26.146634886059665,26.628530681031055,26.788049119166189,26.720042192546273,26.489612111399776,26.141674610839484,25.707489136202508,25.209150469823708,24.662777827898967,24.080990371119217,23.475257514470858],"AUX_ENDO_LAG_7_3":[0,0,-2.1597307275911248E-16,-2.7304547511874944E-14,-0.45300607621926486,-0.4401253873240909,-0.44075206616526108,-0.44476829175940341,-0.45025487681578574,-0.45641184382830452,-0.46275337210509171,-0.46896163507265476,-0.47482779301860994,-0.48021607913566211,-0.48503991628599352,-0.48924581508476134,-0.49280251601414693,-0.49569372233607484,-0.49791337449070872,-0.49946289648381859,-0.50035032769174259],"AUX_ENDO_LAG_13_5":[0,0,2.0011770018868447E-14,6.464273560879974E-14,2.4918955787711639E-13,2.4816260157933812E-13,18.696715400435394,17.811279310465803,21.098501322200288,23.60253136488878,25.204035996279153,26.146634886059555,26.628530681030917,26.788049119166061,26.720042192546131,26.489612111399627,26.141674610839345,25.707489136202362,25.209150469823548,24.662777827898815,24.080990371119057],"AUX_ENDO_LAG_7_4":[0,0,2.014013955609073E-15,2.112893193739751E-15,-2.5503037182073029E-14,-0.45300607621926209,-0.44012538732408812,-0.44075206616525847,-0.4447682917594008,-0.45025487681578319,-0.45641184382830213,-0.46275337210508949,-0.46896163507265276,-0.47482779301860784,-0.48021607913565983,-0.48503991628599125,-0.48924581508475912,-0.49280251601414482,-0.49569372233607278,-0.49791337449070672,-0.49946289648381653],"AUX_ENDO_LAG_13_6":[0,0,2.248201624865942E-14,5.0820458952216541E-14,8.3766327207968061E-14,2.7794433421490794E-13,2.6606494785141876E-13,18.696715400435398,17.811279310465817,21.098501322200281,23.602531364888783,25.204035996279131,26.146634886059513,26.628530681030874,26.788049119166011,26.720042192546067,26.489612111399545,26.141674610839292,25.707489136202334,25.209150469823513,24.662777827898779],"AUX_ENDO_LAG_7_5":[0,0,-3.7296554733501353E-16,1.9706458687096529E-15,1.5308934675495323E-15,-2.5150888316449738E-14,-0.45300607621926237,-0.44012538732408768,-0.440752066165258,-0.44476829175939997,-0.45025487681578247,-0.45641184382830152,-0.46275337210508893,-0.46896163507265259,-0.47482779301860711,-0.48021607913565911,-0.48503991628599064,-0.48924581508475834,-0.49280251601414393,-0.495693722336072,-0.49791337449070583],"AUX_ENDO_LAG_13_7":[0,0,6.5836225360271783E-14,8.021361352916756E-14,1.1349254869230663E-13,1.5110135365148381E-13,3.4822145167368035E-13,3.6129432778864157E-13,18.696715400435487,17.811279310465906,21.098501322200384,23.602531364888904,25.204035996279256,26.14663488605964,26.628530681031,26.788049119166129,26.720042192546195,26.489612111399673,26.141674610839424,25.707489136202469,25.209150469823651],"AUX_ENDO_LAG_7_6":[0,0,8.7343327015432237E-16,8.7863744058225279E-16,3.0123473160337255E-15,2.4147350785597155E-15,-2.3760507450454327E-14,-0.45300607621926259,-0.44012538732408846,-0.44075206616525864,-0.44476829175940119,-0.45025487681578397,-0.45641184382830341,-0.46275337210509071,-0.46896163507265387,-0.4748277930186085,-0.48021607913566056,-0.48503991628599197,-0.48924581508475956,-0.49280251601414493,-0.495693722336073],"AUX_ENDO_LAG_13_8":[0,0,6.9583228068381686E-14,1.2664869153411473E-13,1.5745738046746283E-13,1.8951507030351422E-13,2.2687407508215074E-13,4.1006087414530157E-13,3.941569293175462E-13,18.696715400435494,17.811279310465896,21.098501322200342,23.602531364888879,25.20403599627921,26.146634886059569,26.628530681030941,26.788049119166072,26.720042192546135,26.489612111399598,26.141674610839356,25.707489136202391],"AUX_ENDO_LAG_7_7":[0,0,1.2212453270876722E-15,2.4442253776513212E-15,2.3973878437999474E-15,4.8737056057568395E-15,4.2960426882565628E-15,-2.2007569377979763E-14,-0.453006076219261,-0.44012538732408718,-0.44075206616525719,-0.44476829175939775,-0.45025487681577947,-0.45641184382829864,-0.462753372105085,-0.46896163507264788,-0.47482779301860256,-0.48021607913565478,-0.48503991628598631,-0.48924581508475395,-0.49280251601413932],"AUX_ENDO_LAG_13_9":[0,0,1.0416667528545531E-13,1.8077206398459111E-13,2.4372170948083749E-13,2.7261526369670719E-13,2.9071189899809724E-13,3.0742075551870585E-13,4.7106762934845392E-13,4.3159920082302961E-13,18.696715400435561,17.811279310465984,21.098501322200431,23.60253136488895,25.204035996279273,26.146634886059644,26.628530681031009,26.788049119166139,26.72004219254622,26.48961211139968,26.141674610839448],"AUX_ENDO_LAG_7_8":[0,0,2.6601984504104337E-15,4.1451217458465806E-15,5.0107487603590073E-15,5.2909066017292616E-15,7.7047743185509887E-15,7.63885482646387E-15,-1.8670828771938375E-14,-0.45300607621925743,-0.44012538732408441,-0.44075206616525642,-0.444768291759403,-0.45025487681578258,-0.45641184382830347,-0.46275337210509049,-0.4689616350726537,-0.47482779301860845,-0.48021607913566056,-0.48503991628599208,-0.48924581508475967],"AUX_ENDO_LAG_13_10":[0,0,-4.0467629247586956E-14,7.07489622442381E-14,1.3958278977099781E-13,1.9154122732345513E-13,1.9870216583228739E-13,2.2004620348070603E-13,2.2570834090629432E-13,3.9965253328944073E-13,3.6773362133146748E-13,18.696715400435508,17.811279310465913,21.098501322200356,23.602531364888911,25.204035996279234,26.146634886059594,26.628530681030963,26.7880491191661,26.72004219254617,26.489612111399634],"AUX_ENDO_LAG_7_9":[0,0,1.4051260155412137E-15,4.5215567401335477E-15,6.0975530180584769E-15,7.1947656166138074E-15,7.3985956250410823E-15,9.3727109407026887E-15,9.7907792984131E-15,-1.7321213907628419E-14,-0.4530060762192567,-0.44012538732408268,-0.44075206616525564,-0.44476829175940041,-0.45025487681577941,-0.45641184382829897,-0.46275337210508605,-0.468961635072649,-0.47482779301860389,-0.48021607913565589,-0.48503991628598742],"AUX_ENDO_LAG_13_11":[0,0,-2.453592884421596E-14,-6.1839422471621219E-14,6.131206653492427E-14,1.3428147482841268E-13,1.7033596755311464E-13,1.9712009802219654E-13,2.0608514894604468E-13,2.3051005548779813E-13,4.0736858331058556E-13,3.805289416902724E-13,18.696715400435522,17.811279310465938,21.098501322200374,23.602531364888957,25.204035996279273,26.146634886059633,26.628530681031002,26.788049119166146,26.720042192546202],"AUX_ENDO_LAG_7_10":[0,0,1.074661193367632E-15,3.3757718842508666E-15,6.2935767708438561E-15,7.877379304410681E-15,9.0205620750793969E-15,9.1688809322754139E-15,1.174060848541103E-14,1.2169085183977302E-14,-1.5153676924395398E-14,-0.45300607621925448,-0.44012538732407974,-0.44075206616524376,-0.44476829175938654,-0.45025487681576254,-0.45641184382828059,-0.46275337210506656,-0.46896163507262906,-0.47482779301858319,-0.48021607913563513],"AUX_ENDO_LAG_13_12":[0,0,-2.88935542158697E-14,-6.436517985264345E-14,-1.0785816684233396E-13,7.41073868937292E-15,8.6652907071993468E-14,1.0430545316353346E-13,1.3072876114961218E-13,1.2481682354348322E-13,1.5976109324356003E-13,3.2807090377673376E-13,3.0417335317167726E-13,18.696715400435458,17.811279310465888,21.098501322200349,23.602531364888936,25.204035996279256,26.146634886059626,26.628530681030956,26.788049119166114],"AUX_ENDO_LAG_7_11":[0,0,4.2674197509029455E-16,2.0070750617051658E-15,3.9959355269125751E-15,7.0585898237496281E-15,8.78550704408454E-15,1.0136856631870472E-14,1.0395330429791017E-14,1.2302658891627516E-14,1.2543785454788292E-14,-1.55873577933896E-14,-0.45300607621925493,-0.44012538732407869,-0.44075206616524659,-0.44476829175939075,-0.45025487681576726,-0.45641184382828592,-0.46275337210507217,-0.46896163507263461,-0.47482779301858885],"AUX_ENDO_LAG_13_13":[0,0,-3.3223424011907809E-14,-7.64110996698264E-14,-9.4091401336982017E-14,-1.4205303600078878E-13,-3.2807090377673376E-14,5.2763349245310565E-14,6.1950444774083735E-14,7.2775119264179011E-14,5.1542103918222892E-14,8.3572038178658659E-14,2.5238144907291371E-13,2.1890822488046524E-13,18.696715400435316,17.811279310465789,21.098501322200239,23.602531364888822,25.204035996279156,26.146634886059548,26.628530681030885],"AUX_ENDO_LAG_7_12":[0,0,1.4675760606763788E-15,2.1658022597570437E-15,3.2942398808799567E-15,5.5060123127503857E-15,8.861834877027519E-15,1.0869777300470673E-14,1.1788313381000393E-14,1.2128319182291847E-14,1.4072076837123859E-14,1.3801459974871477E-14,-1.3771969675779872E-14,-0.45300607621925276,-0.44012538732407824,-0.44075206616524315,-0.44476829175938565,-0.45025487681576204,-0.45641184382828015,-0.46275337210506595,-0.46896163507262822],"AUX_ENDO_LAG_13_14":[0,0,2.0622392682412283E-14,-1.3739009929736312E-14,-6.8611782921834674E-14,-1.1746159600534156E-13,-1.6514567491299204E-13,-5.2402526762307389E-14,5.3013149425851225E-14,3.8441472227646045E-14,5.440092820663267E-14,2.8338442703557121E-14,6.7668093350903291E-14,2.3725466036239595E-13,2.5282553828276377E-13,18.696715400435306,17.811279310465796,21.09850132220026,23.602531364888858,25.204035996279156,26.146634886059548],"AUX_ENDO_LAG_7_13":[0,0,1.3253287356462806E-15,2.8579569266717897E-15,3.1806154932034758E-15,4.5788026148407823E-15,7.0568551002736513E-15,1.0255685189974884E-14,1.1810864786188091E-14,1.268082860939046E-14,1.2878587085651816E-14,1.4589024432964948E-14,1.4589024432964948E-14,-1.2564602136500014E-14,-0.45300607621925215,-0.44012538732407674,-0.44075206616523888,-0.44476829175938004,-0.45025487681575566,-0.45641184382827293,-0.46275337210505818],"AUX_ENDO_LAG_13_15":[0,0,4.2743586448068527E-15,4.879430193227563E-14,7.7993167479917247E-15,-5.2846615972157451E-14,-9.911516052341085E-14,-1.5670797992584085E-13,-4.2965631052993558E-14,5.4706239538404589E-14,3.1280533718813786E-14,5.0959236830294685E-14,2.3314683517128287E-15,3.2585045772748344E-14,1.9922952176898434E-13,2.2898349882893854E-13,18.696715400435316,17.811279310465796,21.098501322200228,23.602531364888847,25.204035996279146],"AUX_ENDO_LAG_7_14":[0,0,2.7079033459997959E-15,4.702835343373124E-15,6.0845425919886509E-15,6.8582292622743068E-15,8.46978737145676E-15,1.1009422540286806E-14,1.4251620716887459E-14,1.5520570939564493E-14,1.6093029686636839E-14,1.5535316089110296E-14,1.6843297589996808E-14,1.6651610645901371E-14,-1.0841154363117056E-14,-0.45300607621924988,-0.44012538732407208,-0.44075206616523305,-0.44476829175937371,-0.45025487681574883,-0.45641184382826583],"AUX_ENDO_LAG_13_16":[0,0,-3.9634961979118088E-14,-2.7422508708241367E-14,-2.8754776337791554E-14,-8.1601392309949E-14,-1.6733836538662672E-13,-2.1596613386520858E-13,-2.7614022179989206E-13,-1.6009416015094757E-13,-6.1423088837386786E-14,-9.7394314835241858E-14,-9.10937991704941E-14,-1.3897216710745397E-13,-1.2387313397255184E-13,6.57529586334249E-14,7.230327447871332E-14,18.696715400435181,17.811279310465657,21.098501322200086,23.602531364888705],"AUX_ENDO_LAG_7_15":[0,0,3.5214886562329184E-15,6.7628194710955825E-15,8.6432597190544413E-15,1.0592221544314384E-14,1.1635657715114434E-14,1.357160911430455E-14,1.6426963955762375E-14,1.9599773193323955E-14,2.0581626680726828E-14,2.124342368681198E-14,2.06284642145782E-14,2.2436046076546035E-14,2.2208797301193073E-14,-4.8927875639925844E-15,-0.45300607621924538,-0.44012538732406781,-0.44075206616522755,-0.44476829175936972,-0.45025487681574461],"AUX_ENDO_LAG_13_17":[0,0,1.6764367671839864E-14,-9.8532293435482643E-15,4.4908521346087582E-14,4.599098879509711E-14,5.773159728050814E-15,-5.2763349245310565E-14,-1.0255685189974884E-13,-1.7238988014867118E-13,-5.6094018319186034E-14,3.1974423109204508E-14,-1.7819079545233762E-14,-1.2601031329495527E-14,-7.0110584005078636E-14,-6.36435348866371E-14,1.005029393041923E-13,1.0488832025146166E-13,18.696715400435178,17.811279310465604,21.098501322200018],"AUX_ENDO_LAG_7_16":[0,0,3.511947677115046E-15,8.0222287146547444E-15,1.1254018550399536E-14,1.3415484001466638E-14,1.5618582815957183E-14,1.6731407925796304E-14,1.8735880902287505E-14,2.1317149434540994E-14,2.3932245074576031E-14,2.4842974899463854E-14,2.5036396567035268E-14,2.4587970548495264E-14,2.6640148420575827E-14,2.6371266281799421E-14,-1.6800796864835377E-15,-0.45300607621924249,-0.44012538732406176,-0.44075206616521856,-0.44476829175936056],"AUX_ENDO_LAG_13_18":[0,0,1.8957058145474548E-14,2.7450264283856995E-14,-5.3707038816241948E-14,-1.7152945730458669E-14,-2.7394753132625738E-14,-1.0177969578251123E-13,-1.6583956430338276E-13,-2.3589463715723014E-13,-3.1200042549528462E-13,-1.9428902930940239E-13,-1.0347278589506459E-13,-1.7433277044176521E-13,-1.4721557306529576E-13,-2.5920932067435842E-13,-2.1091461910316411E-13,-7.1637140663938226E-14,-8.2156503822261584E-14,18.696715400434989,17.811279310465434],"AUX_ENDO_LAG_7_17":[0,0,3.1120939159023919E-15,8.0239634381307212E-15,1.2679961247652471E-14,1.6538853619962879E-14,1.9164357600853776E-14,2.1648481618452564E-14,2.3011974270570335E-14,2.474756510828513E-14,2.7313221129254828E-14,3.0084441882127777E-14,3.0687258290029718E-14,3.1422781043843884E-14,3.1454006066411466E-14,3.3043012770406222E-14,3.2903367530590089E-14,5.1608023410310011E-15,-0.45300607621923861,-0.44012538732405981,-0.44075206616521423]}}