{"interest_":{"Y":[0,-0.037388177510065984,-0.021854904082575344,-0.010576948279342413,-0.0025473216084069827,0.0023198383409363532,0.0051747139353200966,0.0067563715115004919,0.0075381059324069466,0.0078221785881978922,0.0078016606594907834,0.0075998789871943861,0.0072955616962230851,0.0069388346027521308,0.0065613091141666358,0.0061822116990074005,0.0058115004166456874,0.00544980741758988,0.0050831453851166164,0.0046660379220944681,0.0040761428400672428],"C":[0,-0.062313629183438413,-0.036424840137630587,-0.017628247132242481,-0.0042455360140169485,0.0038663972348861875,0.0086245232255275917,0.011260619185829157,0.012563509887340063,0.013036964313658528,0.013002767765813578,0.012666464978653064,0.012159269493700858,0.011564724337914667,0.010935515190274053,0.010303686165009068,0.0096858340277397315,0.0090830123626467751,0.0084719089751917054,0.0077767298701544585,0.0067935714001095271],"s":[0,0.049931724513051279,0.086428540062057024,0.11255536736811766,0.12838124326042921,0.1375099726992115,0.14227505685511055,0.14418678192697865,0.14422397556665256,0.14302481728691641,0.14100866899658238,0.13845384576742381,0.13554717631208213,0.13241531160719333,0.12914373735141416,0.12578627625882532,0.12236426130026379,0.11884820019586284,0.11510027691416136,0.11072008499759178,0.10464452967885274],"Ps":[0,0.006280738962266592,0.01814787473548863,0.027146526062423081,0.036201817565923826,0.041622510403619167,0.044690337748450576,0.046237496194489462,0.0468024935472886,0.046731561144590109,0.046248078815835113,0.045496922937098928,0.044572862158470089,0.043538923569698712,0.0424387441779306,0.041306063829991031,0.040174901164433834,0.039096592796827027,0.038177695375721354,0.037673475879753143,0.038225299838786267],"Pss":[0,0.056212463475318053,0.10457641479754543,0.13970189343054029,0.16458306082635277,0.1791324831028307,0.18696539460356121,0.19042427812146823,0.19102646911394139,0.18975637843150661,0.18725674781241741,0.18395076870452254,0.18012003847055214,0.17595423517689168,0.17158248152934474,0.16709234008881646,0.16253916246469746,0.15794479299269026,0.15327797228988294,0.148393560877345,0.14286982951763916],"L":[0,-0.063016468032555173,-0.064083890437770213,-0.0667946917607638,-0.070585409118286757,-0.075787574825698617,-0.081458740497679122,-0.087037669819122171,-0.092205620187130549,-0.096796115801380256,-0.10073625202316802,-0.10400962641358108,-0.1066330415704308,-0.10864198828295912,-0.11008177733790322,-0.11100245238342438,-0.11145661856203809,-0.11150046491201776,-0.11120028129564657,-0.11065137911884276,-0.11002777586148299],"w":[0,-0.15613549238315355,-0.10489162549414671,-0.068653840144867029,-0.0437837765871773,-0.030160992943077392,-0.023480323797784475,-0.020997596537902175,-0.020975790318884524,-0.022324129273372406,-0.02436259047995637,-0.026671883249483719,-0.0289979817978131,-0.031191545465649784,-0.033169858288402854,-0.034893853861693247,-0.036356641225538888,-0.037584207730715025,-0.038656322697439849,-0.039772229819112326,-0.0414267451305223],"Pi":[0,-0.061055933185891732,-0.058058317053882105,-0.05574106074626322,-0.053911948298872692,-0.052425684063729446,-0.051138762384895828,-0.049962529669050258,-0.048843277597512162,-0.047749402399926422,-0.04666316804890093,-0.045575473241512864,-0.044482531967194733,-0.043383771846897227,-0.042280505274415764,-0.04117508612740077,-0.04007035955545396,-0.038969257834246825,-0.03787438602191525,-0.036787337165645792,-0.035707158939662309],"F":[0,-1.5331249454215963,-1.5006102052901455,-1.4687431616907989,-1.4367657089900716,-1.404151821743032,-1.3709774474896197,-1.3373469360871764,-1.303375438057256,-1.2691787544762838,-1.2348675893986889,-1.2005440967887844,-1.1662998329679648,-1.1322145575713434,-1.0983555501788587,-1.0647772900474823,-1.0315215606930415,-0.99861843498269964,-0.96608951000357646,-0.93395704548941261,-0.90226848485316125],"K":[0,-2.1954494765049195,-2.1304170989318014,-2.0734128472470306,-2.0215934892505811,-1.972856856657728,-1.9257221717023378,-1.8793320849184951,-1.8332191279874608,-1.7871562695812022,-1.7410618163013059,-1.6949391927032365,-1.6488388851002254,-1.6028344440553883,-1.557007385776612,-1.51143772399115,-1.4661981059208875,-1.4213504132680872,-1.3769445023539315,-1.3330199140210846,-1.2896137610120708],"PQ":[0,6.8695427616622835,4.2127681551958407,2.2801460505558677,0.89541501687954084,0.051781140662753584,-0.44768154257365311,-0.72947623251045779,-0.87458008599420323,-0.93467118444283026,-0.94272725989895478,-0.91978561273765436,-0.87925221151444177,-0.82964320068672881,-0.77631510969784756,-0.7225201147983632,-0.66995380072796473,-0.61878163112218543,-0.56682614147825194,-0.50691909471940466,-0.41974980278763463],"PB":[0,-0.23904591677581707,-0.13726328716947764,-0.061324134467976459,-0.0026267252824613459,0.034487320302939772,0.057718634506416386,0.072026573540472885,0.080594530578974075,0.08545924359863416,0.08792570820920026,0.088831840714386545,0.088717276230261585,0.0879310276619417,0.0867001638520465,0.085173636668055316,0.083450271905864709,0.081596687596768872,0.079658855333040957,0.077669778340967888,0.0756551318807826],"b":[0,0.055991554789639242,0.095406664950238529,0.12218765097486939,0.13694867691306145,0.14402532793293465,0.14621854182192617,0.14533557615420634,0.14254263961095814,0.13859507427368412,0.13398434324713326,0.12903188650278707,0.12394897484906231,0.11887460955124762,0.1138987467613255,0.10907445424051021,0.10441864742862395,0.099894373442952933,0.095352701208192947,0.090375448788415191,0.0838664279881356],"q":[0,-2.2432906506039623,-1.3112942449545486,-0.63461689676056143,-0.15283929650442382,0.13919030045611291,0.31048283611916949,0.40538229069004672,0.452286355944435,0.46933071529188997,0.46809963956943645,0.45599273923167127,0.43773370177338244,0.41633007616511108,0.39367854685000536,0.37093270194046368,0.34869002499873847,0.32698844505537811,0.30498872310698139,0.27996227532565809,0.24456857040402835],"qCB":[0,1.9564337696581295,1.1436147795189624,0.55346636749175226,0.13329523792716483,-0.12139158345263115,-0.27078038475276711,-0.35354473702006634,-0.3944510267035844,-0.40931586831498012,-0.40824221425426865,-0.39768346268975935,-0.38175926781326391,-0.3630925935141277,-0.34333758901902278,-0.32350032937169704,-0.30410189596555681,-0.28517536772247104,-0.26598882186344647,-0.24416258746052122,-0.21329479084961289],"qbar":[0,-1.1379786002407855E-15,-1.1018963519404679E-14,-7.1886940844478886E-15,-2.1649348980190553E-15,-2.5091040356528538E-14,-1.329492071988625E-14,6.3282712403633923E-15,6.38378239159465E-15,5.3290705182007514E-15,-4.0245584642661925E-15,2.2759572004815709E-15,-6.38378239159465E-16,-5.8564264548977008E-15,2.9976021664879227E-15,6.9944050551384862E-15,-6.106226635438361E-16,-5.6898930012039273E-15,-5.3290705182007514E-15,-3.7470027081099033E-15,-2.9420910152566648E-15],"i":[0,0.23904591677581427,0.13726328716948918,0.06132413446798763,0.0026267252824714715,-0.034487320302925818,-0.057718634506403424,-0.072026573540464836,-0.0805945305789665,-0.085459243598626361,-0.087925708209190628,-0.0888318407143797,-0.08871727623025423,-0.087931027661933711,-0.086700163852040282,-0.085173636668049613,-0.083450271905856063,-0.081596687596760364,-0.079658855333031575,-0.077669778340959922,-0.0756551318807747],"iQ":[0,-0.67783042464417376,-0.41568158560714269,-0.22498620640728476,-0.088352247330266573,-0.0051093404294495484,0.044173561565344945,0.071978762139730354,0.086296426362347925,0.092225725617326448,0.093020633406221159,0.090756938866874748,0.086757433584407559,0.081862421202624311,0.076600440338018813,0.071292389205424175,0.066105574271078382,0.061056322136361953,0.05592977837212721,0.050018639836044786,0.041417485404662231],"D":[0,-0.021889472771486135,-0.040043495946997264,-0.055160048653527319,-0.067783355349052429,-0.078339397000869726,-0.087150925826607412,-0.094469678481739733,-0.10049753671274524,-0.10540051224837042,-0.10931807874863465,-0.11236949329948567,-0.11465815943628406,-0.11627470634602184,-0.11729921736347447,-0.1178028852522955,-0.11784926902035375,-0.11749525307139837,-0.11679174121930683,-0.11578402083316934,-0.11451153298557555],"A":[0,-5.7534133170261612E-17,-2.4044110513274657E-19,5.6720331799994688E-17,1.1087618470270697E-16,1.5571101438872116E-16,1.9101859790847521E-16,2.1815984516967028E-16,2.3810089385581613E-16,2.5089408009106667E-16,2.5782253170122376E-16,2.6010927319155287E-16,2.5918522948994891E-16,2.5569114215006358E-16,2.5141396686639067E-16,2.46864031621258E-16,2.4122466279485654E-16,2.35002663585305E-16,2.2840234573631044E-16,2.219602345438391E-16,2.1550406466051335E-16],"G":[0,-6.9944050551384862E-15,-7.7715611723760958E-16,1.1102230246251565E-16,1.1102230246251565E-16,0,-1.1102230246251565E-16,-1.1102230246251565E-16,0,-1.1102230246251565E-16,-2.2204460492503131E-16,-2.2204460492503131E-16,0,9.9920072216264089E-16,0,0,0,-1.1102230246251565E-16,-1.1102230246251565E-16,-1.1102230246251565E-16,-1.1102230246251565E-16],"theta":[0,0,0,0,0,-2.2204460492503131E-16,-2.2204460492503131E-16,-4.4408920985006262E-16,-6.6613381477509392E-16,-6.6613381477509392E-16,-8.8817841970012523E-16,-8.8817841970012523E-16,-8.8817841970012523E-16,-1.1102230246251565E-15,-1.1102230246251565E-15,-1.1102230246251565E-15,-1.1102230246251565E-15,-1.3322676295501878E-15,-1.3322676295501878E-15,-1.3322676295501878E-15,-1.3322676295501878E-15],"ksi":[0,0,0,0,0,0,0,0,0,0,0,0,0,0,0,0,0,0,0,0,0],"ChiC":[0,0,-5.6780366209837712E-16,-3.7174671313448795E-16,-6.793552211127706E-17,-3.65304374506812E-17,3.4466297053703641E-18,-1.1079325805490254E-17,1.0657820062787271E-17,-6.37961960876282E-18,-4.9087958727230748E-17,-5.1357985079833473E-17,-3.0640184918861386E-17,-3.7885689175498517E-17,-6.33214119634964E-17,-1.1660631560632797E-16,-4.3496849728604482E-16,-1.634115004626439E-16,8.8582155771397813E-17,8.5314384292246272E-17,6.7108146880863562E-17],"ChiL":[0,0,-3.0872693859399019E-17,-3.9049535182689054E-17,-3.4723254116116885E-17,-2.5144481496472821E-17,-1.4750790702007503E-17,-4.8464936923279053E-18,3.7263489368030239E-18,1.056833722921903E-17,1.5836231455970645E-17,1.9765548898021246E-17,2.217738122322208E-17,2.38698942774448E-17,2.4688008723484476E-17,2.3992244011478263E-17,2.2885394265251653E-17,2.1837462675435709E-17,2.0932742704931449E-17,1.9777531453891044E-17,1.8489444106844344E-17],"epsG":[0,-5.7976133957617495E-15,5.3300818829084162E-16,6.3207104368034994E-16,5.039863988806887E-16,4.308195739436159E-16,3.43675116940981E-16,3.2902710192255981E-16,3.5614271105623063E-16,3.3694781361930156E-16,3.8844544927619997E-16,3.6084244057656105E-16,4.440154918555663E-16,1.1468116241503334E-15,2.602427650022E-16,3.316407423558558E-16,3.432040507186117E-16,1.7219844063287113E-16,1.7911539498938058E-16,1.8074364770927071E-16,1.9386817360978317E-16],"Yf":[0,-2.7200464103316335E-15,3.3306690738754696E-16,6.6613381477509392E-16,7.2164496600635175E-16,7.2164496600635175E-16,6.106226635438361E-16,5.5511151231257827E-16,6.106226635438361E-16,5.5511151231257827E-16,6.6613381477509392E-16,6.106226635438361E-16,6.106226635438361E-16,8.8817841970012523E-16,4.9960036108132044E-16,4.4408920985006262E-16,3.8857805861880479E-16,3.3306690738754696E-16,3.8857805861880479E-16,3.8857805861880479E-16,3.8857805861880479E-16],"Gf":[0,-7.5495165674510645E-15,6.6613381477509392E-16,1.5543122344752192E-15,1.3322676295501878E-15,1.2212453270876722E-15,9.9920072216264089E-16,9.9920072216264089E-16,9.9920072216264089E-16,9.9920072216264089E-16,1.2212453270876722E-15,1.2212453270876722E-15,1.2212453270876722E-15,1.9984014443252818E-15,9.9920072216264089E-16,8.8817841970012523E-16,8.8817841970012523E-16,6.6613381477509392E-16,6.6613381477509392E-16,6.6613381477509392E-16,6.6613381477509392E-16],"interest":[0,0.95618366710325642,0.54905314867795962,0.24529653787195344,0.010506901129888464,-0.13794928121169969,-0.23087453802561037,-0.28810629416185723,-0.32237812231586421,-0.3418369743945035,-0.3517028328367599,-0.35532736285751715,-0.35486910492101503,-0.35172411064773285,-0.34680065540815963,-0.340694546672197,-0.333801087623422,-0.326386750387039,-0.31863542133212364,-0.31067911336383752,-0.30262052752309693],"inflation":[0,-0.061055933185891725,-0.11911425023977383,-0.1748553109860333,-0.2287672592849064,-0.22013701016274453,-0.21321745549375831,-0.20743892441654546,-0.20237025371518505,-0.19769397205138209,-0.19321837771538733,-0.18883132128785007,-0.18447057565753269,-0.18010494510450362,-0.17572228233001849,-0.17132189521590643,-0.16690972280416572,-0.16249520879151549,-0.15808908953901518,-0.15370134057726012,-0.14933813996146847],"inflationq":[0,-0.24422373274356646,-0.23223326821552745,-0.22296424298505202,-0.21564779319549013,-0.20970273625491731,-0.20455504953958276,-0.19985011867620056,-0.19537311039004815,-0.19099760959970524,-0.18665267219560328,-0.18230189296605109,-0.17793012786877857,-0.17353508738758905,-0.16912202109766281,-0.16470034450960408,-0.16028143822181493,-0.15587703133698902,-0.15149754408766145,-0.14714934866258314,-0.14282863575864907],"outputgap":[0,-0.037388177510058948,-0.02185490408258195,-0.010576948279348812,-0.0025473216084136094,0.0023198383409288228,0.0051747139353137839,0.0067563715114952487,0.0075381059324015039,0.0078221785881928182,0.0078016606594852426,0.0075998789871892947,0.0072955616962176485,0.0069388346027464383,0.0065613091141619407,0.0061822116990033595,0.0058115004166414876,0.0054498074175864508,0.0050831453851130359,0.0046660379220907246,0.0040761428400636424],"output":[0,-0.037388177510064333,-0.021854904082579066,-0.01057694827934581,-0.0025473216084106703,0.0023198383409315263,0.0051747139353161874,0.0067563715114975081,0.0075381059324037148,0.0078221785881948426,0.0078016606594874683,0.0075998789871914328,0.0072955616962199418,0.0069388346027488,0.0065613091141639114,0.0061822116990048444,0.0058115004166430055,0.00544980741758757,0.0050831453851145694,0.0046660379220922936,0.0040761428400652626],"fispol":[0,-2.8988066978808743E-15,2.6650409414541988E-16,3.1603552184017467E-16,2.5199319944034509E-16,2.1540978697180329E-16,1.7183755847048826E-16,1.6451355096128188E-16,1.7807135552811741E-16,1.684739068096529E-16,1.9422272463810028E-16,1.8042122028828218E-16,2.2200774592778401E-16,5.734058120751664E-16,1.3012138250110153E-16,1.6582037117793017E-16,1.7160202535930708E-16,8.6099220316435037E-17,8.9557697494690168E-17,9.0371823854635515E-17,9.6934086804891943E-17],"AUX_ENDO_LEAD_89":[0,-0.23223326821552562,-0.22296424298504891,-0.21564779319548821,-0.20970273625491523,-0.20455504953958054,-0.19985011867619989,-0.19537311039004859,-0.19099760959970485,-0.18665267219560247,-0.18230189296604932,-0.17793012786877702,-0.17353508738758708,-0.16912202109766078,-0.16470034450960183,-0.16028143822181215,-0.15587703133698494,-0.1514975440876577,-0.14714934866257939,-0.14282863575864579,-0.1385061829045697],"AUX_ENDO_LEAD_93":[0,-0.22296424298504877,-0.21564779319548602,-0.20970273625491398,-0.20455504953957981,-0.19985011867619795,-0.19537311039004832,-0.19099760959970535,-0.18665267219560269,-0.18230189296604946,-0.17793012786877582,-0.17353508738758683,-0.16912202109766039,-0.16470034450960158,-0.16028143822181373,-0.15587703133698627,-0.15149754408765803,-0.14714934866257987,-0.14282863575864596,-0.13850618290457009,-0.13408853906198517],"AUX_ENDO_LEAD_97":[0,-0.215647793195486,-0.20970273625491334,-0.20455504953957906,-0.19985011867619837,-0.1953731103900464,-0.19099760959970477,-0.18665267219560361,-0.18230189296605023,-0.17793012786877588,-0.17353508738758544,-0.16912202109765997,-0.16470034450960155,-0.16028143822181279,-0.15587703133698622,-0.15149754408765934,-0.14714934866258042,-0.14282863575864646,-0.13850618290456967,-0.13408853906198417,-0.12965988791657523],"AUX_ENDO_LEAD_124":[0,-0.02185490408258195,-0.010576948279348929,-0.00254732160841368,0.0023198383409285361,0.0051747139353135923,0.0067563715114947673,0.0075381059324015559,0.0078221785881932241,0.0078016606594854872,0.0075998789871893867,0.0072955616962177639,0.0069388346027467671,0.0065613091141625531,0.0061822116990039866,0.00581150041664172,0.00544980741758647,0.0050831453851131877,0.0046660379220910021,0.0040761428400635539,0.0029965166062707722],"AUX_ENDO_LEAD_128":[0,-0.010576948279348837,-0.0025473216084132503,0.0023198383409282243,0.005174713935313267,0.0067563715114947057,0.007538105932401333,0.0078221785881932085,0.0078016606594856078,0.007599878987189156,0.0072955616962176893,0.0069388346027466205,0.006561309114162292,0.0061822116990037316,0.00581150041664182,0.0054498074175869989,0.0050831453851134627,0.0046660379220909987,0.0040761428400635158,0.0029965166062707526,0.0023301599843027656],"AUX_ENDO_LEAD_132":[0,-0.002547321608413285,0.0023198383409287313,0.0051747139353133216,0.0067563715114950353,0.0075381059324015637,0.0078221785881932935,0.0078016606594851533,0.0075998789871890241,0.0072955616962175453,0.0069388346027467731,0.0065613091141620648,0.0061822116990032172,0.0058115004166413263,0.00544980741758685,0.00508314538511388,0.0046660379220909856,0.0040761428400634741,0.0029965166062703589,0.0023301599843024308,0.0019521488575742715],"AUX_ENDO_LEAD_159":[0,-0.02185490408257872,-0.01057694827934564,-0.0025473216084105289,0.002319838340931764,0.0051747139353165517,0.0067563715114977475,0.0075381059324039733,0.0078221785881948756,0.0078016606594873139,0.0075998789871912073,0.0072955616962197432,0.0069388346027483838,0.0065613091141635731,0.0061822116990046779,0.0058115004166428173,0.0054498074175875193,0.0050831453851145417,0.004666037922092468,0.0040761428400653572,0.0029965166062727133],"AUX_ENDO_LEAD_163":[0,-0.01057694827934564,-0.0025473216084098836,0.0023198383409315675,0.0051747139353162915,0.006756371511497699,0.007538105932404132,0.00782217858819475,0.0078016606594873547,0.0075998789871913929,0.0072955616962197692,0.0069388346027482251,0.0065613091141634751,0.0061822116990046935,0.0058115004166429882,0.0054498074175874586,0.005083145385114252,0.0046660379220921705,0.0040761428400645739,0.0029965166062719617,0.0023301599843044011],"AUX_ENDO_LEAD_167":[0,-0.0025473216084098832,0.0023198383409317206,0.0051747139353156687,0.0067563715114973685,0.0075381059324042621,0.0078221785881949,0.0078016606594876895,0.00759987898719208,0.00729556169621965,0.0069388346027479016,0.0065613091141634473,0.0061822116990048618,0.0058115004166431582,0.0054498074175878645,0.005083145385114958,0.00466603792209245,0.0040761428400644933,0.0029965166062713251,0.002330159984303587,0.0019521488575755931],"AUX_ENDO_LAG_7_1":[0,0,-0.06105593318589167,-0.058058317053881987,-0.055741060746263144,-0.053911948298872595,-0.05242568406372939,-0.051138762384895772,-0.049962529669050251,-0.048843277597512183,-0.04774940239992647,-0.046663168048900958,-0.045575473241512912,-0.04448253196719474,-0.043383771846897241,-0.042280505274415736,-0.041175086127400971,-0.040070359555454078,-0.038969257834246929,-0.037874386021915257,-0.036787337165645792],"AUX_ENDO_LAG_7_2":[0,0,3.6758790455948542E-15,-0.061055933185888457,-0.058058317053879135,-0.055741060746260347,-0.053911948298869923,-0.052425684063726781,-0.051138762384893247,-0.049962529669047809,-0.048843277597509817,-0.047749402399924167,-0.046663168048898744,-0.04557547324151074,-0.044482531967192644,-0.043383771846895153,-0.042280505274413724,-0.041175086127399015,-0.040070359555452163,-0.038969257834245069,-0.037874386021913467],"AUX_ENDO_LAG_32_1":[0,0,-0.037388177510064333,-0.021854904082579066,-0.01057694827934581,-0.0025473216084106703,0.0023198383409315263,0.0051747139353161874,0.0067563715114975081,0.0075381059324037148,0.0078221785881948426,0.0078016606594874683,0.0075998789871914328,0.0072955616962199418,0.0069388346027488,0.0065613091141639114,0.0061822116990048444,0.0058115004166430055,0.00544980741758757,0.0050831453851145694,0.0046660379220922936],"AUX_ENDO_LAG_32_2":[0,0,0,-0.037388177510064333,-0.021854904082579066,-0.01057694827934581,-0.0025473216084106703,0.0023198383409315263,0.0051747139353161874,0.0067563715114975081,0.0075381059324037148,0.0078221785881948426,0.0078016606594874683,0.0075998789871914328,0.0072955616962199418,0.0069388346027488,0.0065613091141639114,0.0061822116990048444,0.0058115004166430055,0.00544980741758757,0.0050831453851145694],"AUX_ENDO_LAG_32_3":[0,0,0,0,-0.037388177510064333,-0.021854904082579066,-0.01057694827934581,-0.0025473216084106703,0.0023198383409315263,0.0051747139353161874,0.0067563715114975081,0.0075381059324037148,0.0078221785881948426,0.0078016606594874683,0.0075998789871914328,0.0072955616962199418,0.0069388346027488,0.0065613091141639114,0.0061822116990048444,0.0058115004166430055,0.00544980741758757],"AUX_ENDO_LAG_31_1":[0,0,-0.037388177510058948,-0.02185490408258195,-0.010576948279348812,-0.0025473216084136094,0.0023198383409288228,0.0051747139353137839,0.0067563715114952487,0.0075381059324015039,0.0078221785881928182,0.0078016606594852426,0.0075998789871892947,0.0072955616962176485,0.0069388346027464383,0.0065613091141619407,0.0061822116990033595,0.0058115004166414876,0.0054498074175864508,0.0050831453851130359,0.0046660379220907246],"AUX_ENDO_LAG_31_2":[0,0,0,-0.037388177510058948,-0.02185490408258195,-0.010576948279348812,-0.0025473216084136094,0.0023198383409288228,0.0051747139353137839,0.0067563715114952487,0.0075381059324015039,0.0078221785881928182,0.0078016606594852426,0.0075998789871892947,0.0072955616962176485,0.0069388346027464383,0.0065613091141619407,0.0061822116990033595,0.0058115004166414876,0.0054498074175864508,0.0050831453851130359],"AUX_ENDO_LAG_31_3":[0,0,0,0,-0.037388177510058948,-0.02185490408258195,-0.010576948279348812,-0.0025473216084136094,0.0023198383409288228,0.0051747139353137839,0.0067563715114952487,0.0075381059324015039,0.0078221785881928182,0.0078016606594852426,0.0075998789871892947,0.0072955616962176485,0.0069388346027464383,0.0065613091141619407,0.0061822116990033595,0.0058115004166414876,0.0054498074175864508],"AUX_ENDO_LAG_28_1":[0,0,0.95618366710325664,0.54905314867795985,0.24529653787195363,0.010506901129888604,-0.13794928121169955,-0.23087453802561023,-0.28810629416185712,-0.3223781223158641,-0.34183697439450339,-0.35170283283675979,-0.35532736285751704,-0.354869104921015,-0.35172411064773279,-0.34680065540815957,-0.34069454667219695,-0.33380108762342192,-0.32638675038703896,-0.31863542133212358,-0.31067911336383747],"AUX_ENDO_LAG_28_2":[0,0,0,0.95618366710325664,0.54905314867795985,0.24529653787195363,0.010506901129888604,-0.13794928121169955,-0.23087453802561023,-0.28810629416185712,-0.3223781223158641,-0.34183697439450339,-0.35170283283675979,-0.35532736285751704,-0.354869104921015,-0.35172411064773279,-0.34680065540815957,-0.34069454667219695,-0.33380108762342192,-0.32638675038703896,-0.31863542133212358],"AUX_ENDO_LAG_28_3":[0,0,0,0,0.95618366710325664,0.54905314867795985,0.24529653787195363,0.010506901129888604,-0.13794928121169955,-0.23087453802561023,-0.28810629416185712,-0.3223781223158641,-0.34183697439450339,-0.35170283283675979,-0.35532736285751704,-0.354869104921015,-0.35172411064773279,-0.34680065540815957,-0.34069454667219695,-0.33380108762342192,-0.32638675038703896],"AUX_ENDO_LAG_30_1":[0,0,-0.24422373274356673,-0.23223326821552748,-0.2229642429850521,-0.21564779319549018,-0.20970273625491739,-0.20455504953958262,-0.19985011867620045,-0.1953731103900482,-0.19099760959970541,-0.18665267219560344,-0.18230189296605126,-0.17793012786877868,-0.17353508738758913,-0.16912202109766283,-0.16470034450960402,-0.1602814382218149,-0.15587703133698894,-0.15149754408766142,-0.14714934866258306],"AUX_ENDO_LAG_30_2":[0,0,5.6725712301969663E-16,-0.2442237327435656,-0.23223326821552612,-0.22296424298505069,-0.21564779319548893,-0.20970273625491595,-0.20455504953958134,-0.19985011867619945,-0.19537311039004723,-0.1909976095997046,-0.18665267219560275,-0.18230189296605076,-0.17793012786877802,-0.17353508738758833,-0.1691220210976622,-0.16470034450960427,-0.16028143822181473,-0.15587703133698866,-0.15149754408766078],"AUX_ENDO_LAG_30_3":[0,0,-2.7861113189224206E-17,5.39142474069599E-16,-0.24422373274356562,-0.23223326821552615,-0.22296424298505071,-0.21564779319548896,-0.20970273625491598,-0.20455504953958137,-0.19985011867619948,-0.19537311039004726,-0.19099760959970463,-0.18665267219560278,-0.18230189296605079,-0.17793012786877804,-0.17353508738758835,-0.16912202109766222,-0.1647003445096043,-0.16028143822181476,-0.15587703133698869],"AUX_ENDO_LAG_13_1":[0,0,-2.2432906506039418,-1.3112942449545295,-0.63461689676054334,-0.152839296504403,0.13919030045613062,0.31048283611918387,0.40538229069005871,0.45228635594444488,0.46933071529190196,0.46809963956945189,0.45599273923168815,0.437733701773397,0.41633007616512274,0.3936785468500188,0.37093270194047384,0.34869002499874768,0.32698844505538488,0.30498872310698855,0.27996227532566353],"AUX_ENDO_LAG_13_2":[0,0,6.2172489379008766E-15,-2.2432906506039316,-1.3112942449545197,-0.63461689676053568,-0.15283929650439734,0.1391903004561342,0.31048283611918764,0.40538229069006326,0.45228635594445066,0.46933071529190806,0.46809963956946,0.45599273923169592,0.43773370177340487,0.41633007616512907,0.39367854685002024,0.37093270194047329,0.34869002499874707,0.32698844505538666,0.30498872310699],"AUX_ENDO_LAG_13_3":[0,0,-3.9412917374193057E-15,7.7993167479917247E-15,-2.2432906506039307,-1.3112942449545186,-0.63461689676053756,-0.15283929650439751,0.13919030045613176,0.31048283611918581,0.40538229069005893,0.45228635594444722,0.46933071529190307,0.46809963956945544,0.45599273923169481,0.43773370177340276,0.41633007616512718,0.39367854685001336,0.37093270194046696,0.34869002499874036,0.32698844505538005],"AUX_ENDO_LAG_13_4":[0,0,1.3322676295501878E-15,1.0824674490095276E-15,1.1379786002407855E-14,-2.2432906506039303,-1.3112942449545129,-0.63461689676053368,-0.15283929650439568,0.13919030045613481,0.31048283611918676,0.40538229069005893,0.45228635594444755,0.46933071529190218,0.46809963956945577,0.45599273923169537,0.437733701773403,0.41633007616512685,0.39367854685001391,0.37093270194046918,0.34869002499874163],"AUX_ENDO_LAG_7_3":[0,0,-2.5326962749261384E-16,3.5501115935865357E-15,-0.061055933185888478,-0.058058317053879163,-0.055741060746260396,-0.053911948298869972,-0.052425684063726843,-0.05113876238489333,-0.049962529669047934,-0.048843277597509928,-0.047749402399924284,-0.046663168048898862,-0.045575473241510837,-0.044482531967192727,-0.043383771846895257,-0.042280505274413918,-0.041175086127399077,-0.040070359555452247,-0.038969257834245173],"AUX_ENDO_LAG_13_5":[0,0,1.0852430065710905E-14,1.2795320358804929E-14,1.329492071988625E-14,2.3675506000131463E-14,-2.2432906506039263,-1.3112942449545082,-0.63461689676052557,-0.1528392965043868,0.13919030045614206,0.31048283611919314,0.40538229069006659,0.45228635594445321,0.46933071529190773,0.46809963956945921,0.45599273923170025,0.43773370177340509,0.41633007616512585,0.39367854685001591,0.37093270194047129],"AUX_ENDO_LAG_7_4":[0,0,1.2750217548429532E-16,-2.7582103268031233E-16,3.4338851206960896E-15,-0.0610559331858886,-0.058058317053879371,-0.055741060746260632,-0.053911948298870242,-0.052425684063727142,-0.051138762384893656,-0.049962529669048246,-0.048843277597510261,-0.047749402399924604,-0.04666316804889916,-0.0455754732415111,-0.044482531967192991,-0.043383771846895507,-0.042280505274414161,-0.041175086127399292,-0.040070359555452462],"AUX_ENDO_LAG_13_6":[0,0,7.8270723236073536E-15,1.7402745910999329E-14,1.9789725413943415E-14,1.7041923427996153E-14,2.8393953854788379E-14,-2.2432906506039227,-1.3112942449545009,-0.63461689676052113,-0.15283929650438374,0.13919030045614572,0.31048283611919891,0.40538229069006848,0.45228635594445887,0.46933071529191162,0.46809963956946343,0.4559927392317028,0.437733701773407,0.41633007616513074,0.39367854685002257],"AUX_ENDO_LAG_7_5":[0,0,1.5178830414797062E-16,3.3653635433950058E-16,-8.3266726846886741E-17,3.5943470422239443E-15,-0.061055933185888409,-0.0580583170538792,-0.055741060746260528,-0.053911948298870194,-0.052425684063727142,-0.051138762384893656,-0.049962529669048253,-0.048843277597510275,-0.047749402399924624,-0.04666316804889914,-0.045575473241511087,-0.044482531967192949,-0.043383771846895444,-0.042280505274414078,-0.041175086127399223],"AUX_ENDO_LAG_13_7":[0,0,5.6066262743570405E-15,1.6542323066914832E-14,2.5784929746919261E-14,2.8727020762175925E-14,2.5451862839531714E-14,3.5055292002539318E-14,-2.2432906506039179,-1.3112942449544986,-0.63461689676051614,-0.15283929650438002,0.139190300456152,0.31048283611920369,0.40538229069007392,0.45228635594446509,0.46933071529191583,0.46809963956946643,0.45599273923170891,0.4377337017734112,0.41633007616513518],"AUX_ENDO_LAG_7_6":[0,0,1.3877787807814457E-16,3.1051550219984847E-16,5.2388648974499574E-16,1.0061396160665481E-16,3.7331249203020889E-15,-0.061055933185888346,-0.05805831705387917,-0.055741060746260493,-0.053911948298870159,-0.052425684063727045,-0.051138762384893573,-0.049962529669048156,-0.04884327759751024,-0.047749402399924548,-0.046663168048899077,-0.04557547324151099,-0.044482531967192859,-0.043383771846895347,-0.042280505274413994],"AUX_ENDO_LAG_13_8":[0,0,2.4147350785597155E-15,8.1323836553792717E-15,1.9428902930940239E-14,3.0808688933348094E-14,3.5610403514851896E-14,2.9837243786801082E-14,3.6415315207705135E-14,-2.2432906506039192,-1.3112942449544986,-0.6346168967605178,-0.15283929650438102,0.13919030045615466,0.31048283611920729,0.40538229069007514,0.45228635594446487,0.46933071529192028,0.46809963956946832,0.45599273923170947,0.4377337017734132],"AUX_ENDO_LAG_7_7":[0,0,1.6566609195578508E-16,3.4087316302944259E-16,5.2562121322097255E-16,7.6501305290577193E-16,2.1423834928313568E-16,3.95516952522712E-15,-0.06105593318588811,-0.05805831705387899,-0.055741060746260354,-0.053911948298870069,-0.052425684063726982,-0.051138762384893469,-0.049962529669048059,-0.048843277597510108,-0.047749402399924423,-0.046663168048898931,-0.045575473241510858,-0.044482531967192721,-0.043383771846895208],"AUX_ENDO_LAG_13_9":[0,0,-1.5265566588595902E-15,2.0816681711721685E-15,9.7977181923170065E-15,2.1788126858268697E-14,3.2973623831367149E-14,3.6082248300317588E-14,2.9143354396410359E-14,3.5416114485542494E-14,-2.2432906506039232,-1.3112942449545015,-0.6346168967605208,-0.15283929650438113,0.13919030045615402,0.31048283611920674,0.4053822906900757,0.45228635594446454,0.46933071529192272,0.46809963956946821,0.45599273923170835],"AUX_ENDO_LAG_7_8":[0,0,2.5934115965853266E-16,5.1781495757907692E-16,7.0603245472256049E-16,9.3328123007552222E-16,1.0868042576994696E-15,6.1322474875780131E-16,4.3420128603699482E-15,-0.061055933185887805,-0.058058317053878782,-0.055741060746260007,-0.053911948298869874,-0.052425684063726857,-0.051138762384893378,-0.04996252966904792,-0.048843277597510004,-0.047749402399924319,-0.04666316804889882,-0.045575473241510761,-0.044482531967192637],"AUX_ENDO_LAG_13_10":[0,0,-1.3988810110276972E-14,-1.4849232954361469E-14,-8.6319840164605921E-15,-8.0491169285323849E-16,1.1796119636642288E-14,2.0455859228718509E-14,2.223221606811876E-14,1.2823075934420558E-14,2.1066481892262345E-14,-2.2432906506039361,-1.3112942449545089,-0.63461689676053079,-0.15283929650438935,0.13919030045614411,0.31048283611920058,0.40538229069007103,0.45228635594445554,0.46933071529191317,0.46809963956945977],"AUX_ENDO_LAG_7_9":[0,0,-1.3183898417423734E-16,2.688821387764051E-16,3.2265856653168612E-16,6.1322474875780131E-16,6.8261368779687359E-16,9.289444213855802E-16,4.0939474033052647E-16,4.1477238310605458E-15,-0.061055933185887951,-0.058058317053878983,-0.055741060746260687,-0.053911948298869937,-0.052425684063726809,-0.051138762384893205,-0.049962529669047712,-0.048843277597509796,-0.047749402399924118,-0.046663168048898612,-0.04557547324151056],"AUX_ENDO_LAG_13_11":[0,0,-1.0547118733938987E-14,-2.1288526497187377E-14,-2.4230617512444041E-14,-1.6764367671839864E-14,-9.6589403142388619E-15,3.9135361618036768E-15,1.0380585280245214E-14,1.379452108096757E-14,3.1918911957973251E-15,1.4349632593280148E-14,-2.2432906506039445,-1.3112942449545146,-0.63461689676053845,-0.15283929650439645,0.13919030045613909,0.31048283611919453,0.4053822906900636,0.45228635594445055,0.46933071529190795],"AUX_ENDO_LAG_7_10":[0,0,-1.1188966420050406E-16,-1.465841337200402E-16,1.7780915628762273E-16,3.8077180297690916E-16,5.5684623578855508E-16,7.0689981646054889E-16,8.7169854667834556E-16,3.426078865054194E-16,4.0141501234103316E-15,-0.0610559331858882,-0.058058317053879,-0.055741060746260888,-0.053911948298869972,-0.052425684063726788,-0.051138762384893156,-0.04996252966904767,-0.048843277597509713,-0.047749402399924014,-0.046663168048898508],"AUX_ENDO_LAG_13_12":[0,0,4.3021142204224816E-15,-8.9095397726168812E-15,-1.9012569296705806E-14,-2.4147350785597155E-14,-1.7347234759768071E-14,-1.1685097334179773E-14,3.4972025275692431E-15,8.8817841970012523E-15,1.2989609388114332E-14,1.4710455076283324E-15,1.4738210651898953E-14,-2.2432906506039472,-1.3112942449545175,-0.63461689676053934,-0.15283929650439779,0.13919030045613823,0.31048283611919303,0.40538229069006337,0.45228635594444855],"AUX_ENDO_LAG_7_11":[0,0,1.9081958235744878E-17,-1.5612511283791264E-17,-4.5970172113385388E-17,2.5066754227864863E-16,4.4755865680201623E-16,6.7394007041698956E-16,7.7281930854766756E-16,9.0812773967385851E-16,3.5041414214731503E-16,3.9464959078472361E-15,-0.061055933185888242,-0.058058317053879857,-0.055741060746261728,-0.053911948298870332,-0.052425684063726961,-0.051138762384893136,-0.0499625296690475,-0.048843277597509449,-0.047749402399923715],"AUX_ENDO_LAG_13_13":[0,0,7.688294445529209E-15,1.0852430065710905E-14,-1.8873791418627661E-15,-1.2156942119645464E-14,-2.017830347256222E-14,-1.2295719997723609E-14,-6.4392935428259079E-15,9.0760732263106547E-15,1.4516166046973922E-14,1.762479051592436E-14,5.10702591327572E-15,1.8623991238087E-14,-2.2432906506039418,-1.3112942449545117,-0.63461689676053468,-0.15283929650439579,0.13919030045613962,0.310482836119196,0.40538229069006726],"AUX_ENDO_LAG_7_12":[0,0,-2.1337098754514727E-16,-1.6393136847980827E-16,-2.211772431870429E-16,-2.1076890233118206E-16,7.28583859910259E-17,2.5066754227864863E-16,4.3194614551822497E-16,5.143455106271233E-16,6.2710253656561576E-16,7.7195194680967916E-17,3.6966957273065759E-15,-0.061055933185888561,-0.058058317053880183,-0.055741060746261548,-0.053911948298870284,-0.052425684063726927,-0.051138762384893122,-0.049962529669047476,-0.048843277597509421],"AUX_ENDO_LAG_13_14":[0,0,7.0221606307541151E-15,1.3267165144270621E-14,1.8318679906315083E-14,5.4123372450476381E-15,-3.0253577421035516E-15,-1.379452108096757E-14,-4.2466030691912238E-15,-3.6082248300317588E-16,1.5903944827755367E-14,1.8235413179468196E-14,2.3425705819590803E-14,1.2045919817182948E-14,2.5396351688300456E-14,-2.2432906506039387,-1.3112942449545075,-0.63461689676053135,-0.15283929650439312,0.13919030045614478,0.31048283611920219],"AUX_ENDO_LAG_7_13":[0,0,2.0816681711721685E-17,-8.2399365108898337E-17,-5.5511151231257827E-17,-1.1969591984239969E-16,-1.8648277366750676E-16,1.1362438767648086E-16,2.8362728832220796E-16,4.9179410543942481E-16,5.4643789493269423E-16,6.9735883734267645E-16,8.8470897274817162E-17,3.8094527532450684E-15,-0.061055933185888187,-0.058058317053878976,-0.055741060746260632,-0.053911948298869777,-0.052425684063726725,-0.0511387623848931,-0.049962529669047594],"AUX_ENDO_LAG_13_15":[0,0,9.5201624361607173E-15,1.9179102750399579E-14,2.3647750424515834E-14,2.9060087669563472E-14,1.429412144204889E-14,5.440092820663267E-15,-3.58046925441613E-15,3.1641356201816961E-15,4.3021142204224816E-15,2.0677903833643541E-14,2.6145752229922437E-14,2.9198865547641617E-14,1.5737411374061594E-14,3.0475622025960547E-14,-2.2432906506039316,-1.3112942449545035,-0.634616896760526,-0.15283929650439002,0.13919030045614841],"AUX_ENDO_LAG_7_14":[0,0,1.2923689896027213E-16,2.2464669013899652E-16,1.0928757898653885E-16,1.7347234759768071E-16,1.5612511283791264E-16,1.3791051634015616E-16,4.6924270025172632E-16,5.4036636276677541E-16,7.1036926341250251E-16,7.3031858338623579E-16,9.046582927219049E-16,2.8102520310824275E-16,3.9863945477947027E-15,-0.061055933185888131,-0.058058317053879184,-0.055741060746260486,-0.053911948298869639,-0.052425684063726607,-0.051138762384892941],"AUX_ENDO_LAG_13_16":[0,0,4.801714581503802E-15,1.4349632593280148E-14,2.1871393585115584E-14,2.7616797737550769E-14,3.4194869158454821E-14,2.0844437287337314E-14,1.1463052729254741E-14,1.4432899320127035E-15,4.9404924595819466E-15,1.2934098236883074E-14,2.8477220581635265E-14,3.4416913763379853E-14,3.6221026178395732E-14,2.0899948438568572E-14,3.4666713943920513E-14,-2.2432906506039276,-1.3112942449544998,-0.63461689676052213,-0.15283929650438591],"AUX_ENDO_LAG_7_15":[0,0,2.38524477946811E-16,3.2179120479369772E-16,3.0357660829594124E-16,1.7867651802561113E-16,2.0469737016526324E-16,2.0816681711721685E-16,2.0643209364124004E-16,4.4582393332603942E-16,5.1608023410310011E-16,6.7827687910693157E-16,7.0776717819853729E-16,9.0032148403196288E-16,3.7123082385903672E-16,3.9629757808690158E-15,-0.061055933185888332,-0.058058317053880606,-0.055741060746261985,-0.053911948298870353,-0.0524256840637269],"AUX_ENDO_LAG_13_17":[0,0,5.5511151231257827E-15,1.2628786905111156E-14,1.9068080447937064E-14,2.5895952049381776E-14,3.116951141635127E-14,3.5055292002539318E-14,2.5091040356528538E-14,9.298117831235686E-15,1.3045120539345589E-15,4.7462034302725442E-15,1.5432100042289676E-14,2.8144153674247718E-14,3.5943470422239443E-14,3.5527136788005009E-14,2.1038726316646716E-14,3.6803893266323939E-14,-2.2432906506039232,-1.311294244954498,-0.63461689676052],"AUX_ENDO_LAG_7_16":[0,0,-3.174543961037557E-16,1.0408340855860843E-17,1.2490009027033011E-16,2.6628005356243989E-16,1.3877787807814457E-16,2.454633718507182E-16,1.8648277366750676E-16,1.7433970933566911E-16,3.5128150388530344E-16,4.7357950894166834E-16,6.1842891918573173E-16,6.9735883734267645E-16,8.560860353945543E-16,3.8250652645288596E-16,4.1511932780124994E-15,-0.061055933185887604,-0.058058317053879635,-0.055741060746261208,-0.053911948298869868],"AUX_ENDO_LAG_13_18":[0,0,-5.35682609381638E-15,3.9968028886505635E-15,9.631184738623233E-15,1.9512169657787126E-14,2.7644553313166398E-14,3.35009797680641E-14,3.805289416902724E-14,2.8338442703557121E-14,1.1657341758564144E-14,3.8025138593411612E-15,6.2172489379008766E-15,2.0511370379949767E-14,3.0087043967341742E-14,3.9496184101039944E-14,3.4722225095151771E-14,2.0317081350640365E-14,3.7719827261639693E-14,-2.2432906506039241,-1.3112942449544995],"AUX_ENDO_LAG_7_17":[0,0,-1.6306400674181987E-16,-3.0791341698588326E-16,1.3183898417423734E-16,3.3046482217358175E-16,4.657732532997727E-16,3.6082248300317588E-16,4.7011006198971472E-16,4.0766001685454967E-16,3.1225022567582528E-16,4.9960036108132044E-16,5.7245874707234634E-16,7.5200262683594588E-16,8.4827977975265867E-16,1.0286910212542466E-15,4.9960036108132044E-16,3.961241057393039E-15,-0.061055933185888089,-0.05805831705387865,-0.055741060746260014]},"fiscal_":{"Y":[0,0.096397541628294,0.0028949272471835985,0.015249861481572535,0.035616009835880424,0.047109683878756137,0.052606009393619924,0.054320134052354085,0.053714542579371916,0.051729479737696149,0.04896820101556576,0.045817788049901942,0.042526593445309069,0.039253832730783256,0.036101506701318009,0.033135357705215085,0.030399624828523986,0.027929888862662733,0.025769954332095113,0.024004795895524067,0.0228383583439124],"C":[0,-0.50600409728613371,-0.061841787921396552,0.018749769135907313,0.058693349726421373,0.078449473131220915,0.08767001565598681,0.090532890087213491,0.089524170965579519,0.0862157928961216,0.08161366769257114,0.0763629800164658,0.0708776557354783,0.065423054550606208,0.06016917783542558,0.055225596175317304,0.050666041380839466,0.046549814771071396,0.042949923886792141,0.04000799315917522,0.038063930573154492],"s":[0,0.87506142866205439,1.0421442425217551,1.1271976049934809,1.1695709066662037,1.18801406600072,1.1908129120819422,1.1830488099628722,1.1680648651356966,1.1481161279159027,1.1247530720923029,1.0990643899962924,1.0718330325970085,1.0436375180063608,1.0149193173148037,0.98603122857920011,0.957280507775863,0.92898645553052539,0.9015930114881554,0.87593399086887036,0.85389729794187641],"Ps":[0,-0.4166338998811896,0.29863651287426835,0.36963094960854065,0.40042044561591544,0.41214894040392641,0.41554265796883155,0.41387394686645124,0.40892343283362803,0.4018135186051946,0.39327829348604987,0.3838053603463476,0.37372327136757483,0.3632567353194267,0.35256091436621539,0.34174080196222878,0.33085697239997069,0.31991209662496473,0.30879816790614417,0.29714937486254611,0.28395708816873927],"Pss":[0,0.45842752878086479,1.3407807553960236,1.4968285546020219,1.5699913522821198,1.6001630064046468,1.6063555700507743,1.5969227568293247,1.5769882979693248,1.5499296465210977,1.5180313655783522,1.4828697503426405,1.4455563039645831,1.4068942533257882,1.3674802316810197,1.3277720305414293,1.288137480175835,1.2488985521554898,1.210391179394299,1.1730833657314168,1.1378543861106172],"L":[0,-0.070865052256043753,-0.32132292709595728,-0.43313951426220215,-0.51720675813572625,-0.59465532212634209,-0.66440046265294528,-0.725751351180078,-0.7785929620941987,-0.82318608246960245,-0.86000131084485165,-0.8896137024558215,-0.912638250933369,-0.92969130292155056,-0.9413681197267012,-0.94823014917210213,-0.95079740014989667,-0.94954165087647135,-0.94487431465456417,-0.93711612984089809,-0.9264176449837207],"w":[0,-1.0474407207002872,-0.28434503939076922,-0.17907021885928437,-0.141216679615019,-0.14042871480072588,-0.15686020001449674,-0.18180989541560982,-0.21024813911593737,-0.23916145544255468,-0.26677332003728,-0.29208089119497643,-0.31456381399572525,-0.3339995423595597,-0.35034570419249694,-0.36366388223541418,-0.37406661731326679,-0.38167119589609005,-0.386537309553694,-0.38854207860209616,-0.38708096134554876],"Pi":[0,-0.49343070322209803,-0.47169071884828589,-0.4598196269888809,-0.44951811078955706,-0.43993269242550076,-0.43059002545345965,-0.42126840683127043,-0.41185650862316636,-0.40230667669470266,-0.39260926819808678,-0.3827769181338338,-0.37283471178435912,-0.36281406899782154,-0.35274898188905862,-0.34267375104598541,-0.33262169237325928,-0.32262451918043028,-0.31271231485639583,-0.30291430645090123,-0.29326124969049505],"F":[0,-12.764334779964559,-12.612836675773103,-12.340398106489568,-12.052449576588685,-11.757150681681548,-11.457129916061454,-11.15392888463856,-10.848914184972498,-10.543349753881575,-10.238398251501076,-9.9351200425015769,-9.6344750538533077,-9.3373266339382468,-9.0444464160224474,-8.7565194235764228,-8.474148674459304,-8.1978581299841444,-7.9280914817102861,-7.6652006107136454,-7.4094080561036595],"K":[0,-18.116988356459352,-17.729658545096875,-17.328444360750872,-16.928746709509223,-16.529466802570361,-16.128098351337371,-15.723777963273374,-15.3166645691478,-14.907505161714669,-14.497357797112402,-14.087419902379711,-13.678923525426553,-13.273072851882171,-12.871008255777822,-12.473786847613363,-12.082373050598447,-11.697634846713335,-11.320342267078656,-10.95116424290786,-10.590656946277775],"PQ":[0,-15.05514876281603,2.891602173558018,0.96517673461019193,-2.5735638482952288,-4.6160096193927558,-5.6389411678087464,-6.01903636436947,-6.0054781506596475,-5.7582190865271956,-5.3796058773611479,-4.9350618334989349,-4.4663465550321639,-4.0000428855591492,-3.553014249817585,-3.1359777658573496,-2.7560009297622545,-2.418634604001844,-2.1306435081327373,-1.905246636587139,-1.7744198967645417],"PB":[0,0.087000953452211371,0.21704662546467804,0.37743214288590471,0.55655575846492511,0.66541225096908263,0.73019021331604528,0.766453474741426,0.78414182161055768,0.78963737763327935,0.787064048653217,0.77910248253369907,0.76750873136161668,0.75344515818913393,0.7376917376026304,0.72078107687640169,0.70308476137726084,0.684868598391914,0.66632789938752779,0.6476097339807434,0.6288261385823315],"b":[0,0.88083137357930541,1.033446134059711,1.0993264515631713,1.1184919082747355,1.1122146031263682,1.0902437571964945,1.0585692724682847,1.0210953038544806,0.98041478878755983,0.93827138404923049,0.89585258476556318,0.8539782232605746,0.81322282670655577,0.77399676596537015,0.7366037750218406,0.701290409558629,0.66830853810921464,0.6380329359761423,0.61123419379082478,0.589759042212644],"q":[0,5.7838524976976409,0.17369563483116607,0.91499168889426463,2.136960590152722,2.8265810327254433,3.1563605636170968,3.2592080431411,3.2228725547622639,3.1037687842617383,2.9380920609339491,2.7490672829940155,2.5515956067184833,2.3552299638469587,2.1660904020789595,1.9881214623127983,1.8239774897113983,1.6757933317596871,1.5461972599256348,1.4402877537313448,1.3703015006346553],"qCB":[0,-5.0442524432447762,-0.15148460835166597,-0.79798872189274372,-1.8637004803090964,-2.4651369110865153,-2.7527464594100852,-2.8424424967964468,-2.8107533456459417,-2.7068797621501353,-2.5623886609735784,-2.3975350969630038,-2.2253147670148996,-2.0540590383775585,-1.8891053683208032,-1.7338938964524326,-1.5907395481753361,-1.4615041810743443,-1.3484799809855483,-1.2561134682510078,-1.1950765852535414],"qbar":[0,-3.1641356201816961E-15,5.0487392044828994E-14,-3.5665914666083154E-14,-4.0717429428127616E-14,2.4674706722294104E-14,-3.8025138593411612E-14,-5.4373172631017042E-14,-2.0705659409259169E-14,-1.3683498778505054E-14,-5.5511151231257827E-16,-3.9468428525424315E-14,-2.32314167902814E-14,-1.4488410471358293E-14,-4.5963233219481481E-14,-3.9412917374193057E-14,-1.6653345369377348E-14,-2.9282132274488504E-14,-2.7894353493707058E-14,-3.70536934468646E-14,-3.3334446314370325E-14],"i":[0,-0.087000953452234076,-0.21704662546460132,-0.37743214288581589,-0.55655575846483685,-0.66541225096900747,-0.730190213315964,-0.76645347474133829,-0.78414182161047907,-0.78963737763320607,-0.7870640486531485,-0.77910248253362124,-0.76750873136154607,-0.75344515818906665,-0.73769173760255968,-0.72078107687633486,-0.70308476137720388,-0.684868598391851,-0.666327899387473,-0.64760973398068455,-0.62882613858227809],"iQ":[0,1.4855192307604825,-0.28531970717808919,-0.095235764384293917,0.25393828041573097,0.45547016286677311,0.55640470100144124,0.59390939344295413,0.59257157954831829,0.568174072719572,0.53081561070123329,0.4869516319069232,0.44070263291772904,0.394691591825447,0.35058245377861041,0.30943269653530941,0.27193968293872961,0.23865112680264605,0.21023451545317981,0.18799419139466048,0.17508527624769341],"D":[0,-0.17690234804716112,-0.32450734706760648,-0.44991436189214684,-0.556384368955443,-0.64647597439286186,-0.72226707298616188,-0.785503498637994,-0.8376789589316469,-0.88008851018117,-0.91386633196199651,-0.94001326931095741,-0.95941750372335743,-0.97287051892551435,-0.98107977709841976,-0.98467904264808082,-0.98423698746138055,-0.980264528625582,-0.97322126442003454,-0.96352140532619635,-0.95153983916222351],"A":[0,2.8665113391059388E-15,2.6563129284966215E-15,2.5456479718668218E-15,2.503763952978618E-15,2.4848579507216136E-15,2.4695169236688971E-15,2.4512654975281281E-15,2.4266582391806735E-15,2.3911685980300704E-15,2.3447985629501308E-15,2.29116070332324E-15,2.231986601200713E-15,2.1693170837634381E-15,2.103045981331245E-15,2.0366198336181113E-15,1.9728734413281623E-15,1.909243909010209E-15,1.8460200205147005E-15,1.7825893724653554E-15,1.7211572369600559E-15],"G":[0,0.99999999999993583,0.099999999999991318,0.0099999999999988987,0.001000000000000556,0.00010000000000032205,1.0000000000287557E-5,1.000000000139778E-6,9.9999999836342113E-8,1.0000000050247593E-8,1.0000001937626735E-9,1.000000082740371E-10,1.0000222872008635E-11,9.978684545330907E-13,1.0202949596305189E-13,1.021405182655144E-14,4.4408920985006262E-16,1.1102230246251565E-16,-3.3306690738754696E-16,-3.3306690738754696E-16,-3.3306690738754696E-16],"theta":[0,0,-8.8817841970012523E-16,-1.7763568394002505E-15,-2.886579864025407E-15,-3.9968028886505635E-15,-4.8849813083506888E-15,-5.773159728050814E-15,-6.6613381477509392E-15,-7.5495165674510645E-15,-8.2156503822261584E-15,-8.8817841970012523E-15,-9.5479180117763462E-15,-9.9920072216264089E-15,-1.0436096431476471E-14,-1.0880185641326534E-14,-1.1102230246251565E-14,-1.1546319456101628E-14,-1.1768364061026659E-14,-1.1990408665951691E-14,-1.1990408665951691E-14],"ksi":[0,0,0,0,0,0,0,0,0,0,0,0,0,0,0,0,0,0,0,0,0],"ChiC":[0,0,-5.0208179511258384E-15,-2.4569767601126952E-15,-3.1860699685588118E-16,3.75438214624118E-17,-4.6201250219833681E-17,-2.5717780270934228E-18,-9.3687256234049431E-17,-5.3530179315562409E-17,-4.6231450201619682E-18,-1.3199180908778671E-16,-1.9207558770362392E-16,-1.6457724634150233E-16,-2.564222309206787E-16,-7.1434520401558966E-17,6.165808682046214E-16,-5.3281105717642413E-16,-5.9921955117466406E-16,8.7397609595329725E-17,9.1399921635930137E-17],"ChiL":[0,0,-3.5045831485084903E-17,-2.45708868371703E-17,8.6806250155020859E-18,4.7690070079107456E-17,8.6845936463861412E-17,1.2166194061689949E-16,1.4800623643596812E-16,1.6687312138597471E-16,1.7944855660000787E-16,1.8780912010464711E-16,1.9261045706602252E-16,1.9090796011883825E-16,1.8612107060833308E-16,1.8075057924072448E-16,1.7279384509218852E-16,1.6383678344899245E-16,1.5463289724379026E-16,1.4555456074471786E-16,1.3824819056540125E-16],"epsG":[0,0.99999999999995226,2.8875857459249442E-15,3.4895946555998304E-15,4.1053267974917021E-15,3.66201001881837E-15,3.5525426621884783E-15,3.3787894245545728E-15,3.1704461029028728E-15,3.1968553085501408E-15,2.8666524219799025E-15,2.9753761292541507E-15,3.0892335996099509E-15,1.1277038919586898E-15,4.3181364565521125E-15,2.5313914465380386E-15,1.9883626913717354E-15,2.3613363056806376E-15,2.0524129554735982E-15,1.9970653117393894E-15,1.9565478688504315E-15],"Yf":[0,0.33472803347278529,0.033472803347283087,0.00334728033473336,0.00033472803347889268,3.34728033530296E-5,3.347280340459946E-6,3.3472803895318037E-7,3.347280852494805E-8,3.3472853933069757E-9,3.3473268601369455E-10,3.3477498551093277E-11,3.3518188224945789E-12,3.3834046675451646E-13,3.8136160895874127E-14,7.3274719625260332E-15,4.0523140398818214E-15,3.5527136788005009E-15,3.2751579226442118E-15,3.3306690738754696E-15,3.219646771412954E-15],"Gf":[0,0.99999999999994471,0.10000000000000397,0.010000000000009335,0.001000000000010548,0.00010000000000986997,1.0000000009724452E-5,1.0000000092436068E-6,1.0000000905119322E-7,1.0000008821009487E-8,1.0000078543015434E-9,1.0000822392441933E-10,1.0008327500088399E-11,1.0058620603103918E-12,1.0913492332065289E-13,1.7208456881689926E-14,7.3274719625260332E-15,6.5503158452884236E-15,6.106226635438361E-15,5.88418203051333E-15,5.773159728050814E-15],"interest":[0,-0.34800381380894174,-0.86818650185838564,-1.5097285715432407,-2.2262230338593247,-2.6616490038760103,-2.9207608532638356,-3.06581389896533,-3.1365672864418959,-3.1585495105328056,-3.1482561946125758,-3.1164099301344637,-3.070034925446167,-3.0137806327562497,-2.9507669504102196,-2.883124307505323,-2.8123390455088004,-2.7394743935673866,-2.6653115975498771,-2.5904389359227236,-2.5153045543290995],"inflation":[0,-0.49343070322209787,-0.96512142207038409,-1.4249410490592331,-1.874459159848795,-1.8209611490522011,-1.7798604556573749,-1.7413092354997666,-1.7036476333333761,-1.6660216176025791,-1.6280408603472054,-1.5895493716497704,-1.5505275748109633,-1.5110349671140826,-1.471174680805055,-1.4310715137172074,-1.3908584943061091,-1.350668944488717,-1.310632277456055,-1.2708728328609717,-1.2315123901782081],"inflationq":[0,-1.97372281288839,-1.8867628753931154,-1.8392785079555156,-1.798072443158224,-1.7597307697019993,-1.7223601018138337,-1.6850736273250777,-1.6474260344926617,-1.6092267067788069,-1.5704370727923438,-1.5311076725353325,-1.491338847137434,-1.4512562759912817,-1.4109959275562332,-1.3706950041839352,-1.3304867694930389,-1.290498076721712,-1.2508492594255807,-1.2116572258036005,-1.1730449987619758],"outputgap":[0,-0.23833049184447111,-0.030577876100145167,0.011902581146788389,0.035281281802353293,0.047076211075358365,0.0526026621132319,0.054319799324268628,0.053714509106520439,0.051729476390368088,0.0489682006807926,0.045817788016383219,0.042526593441918482,0.039253832730406925,0.036101506701241723,0.033135357705170662,0.030399624828485381,0.027929888862622949,0.025769954332058212,0.024004795895487714,0.022838358343876038],"output":[0,0.096397541628302982,0.0028949272471586953,0.015249861481540729,0.0356160098358497,0.047109683878728749,0.0526060093935892,0.054320134052323783,0.0537145425793447,0.051729479737669157,0.048968201015539996,0.045817788049875463,0.042526593445284339,0.039253832730759594,0.036101506701293543,0.033135357705192305,0.03039962482850244,0.027929888862640442,0.025769954332073831,0.024004795895503847,0.022838358343891928],"fispol":[0,0.99999999999997613,1.4446053411888584E-15,1.7448785746225533E-15,2.0526715234281166E-15,1.8310058218774271E-15,1.7762714123410618E-15,1.6893947204019662E-15,1.5852230522639097E-15,1.5984276543563229E-15,1.4333262109980852E-15,1.4876880646278891E-15,1.5446167998050607E-15,5.63851945979359E-16,2.1590682282760562E-15,1.2656957232690203E-15,9.9418134568587045E-16,1.1806681528403215E-15,1.0262064777367981E-15,9.98532655869694E-16,9.7827393442521553E-16],"AUX_ENDO_LEAD_89":[0,-1.886762875393112,-1.8392785079555023,-1.7980724431582022,-1.7597307697019802,-1.7223601018138155,-1.6850736273250557,-1.6474260344926366,-1.6092267067787851,-1.5704370727923191,-1.5311076725353088,-1.4913388471374083,-1.4512562759912568,-1.4109959275562065,-1.3706950041839112,-1.330486769493016,-1.2904980767216916,-1.2508492594255571,-1.2116572258035794,-1.1730449987619538,-1.1351667032806021],"AUX_ENDO_LEAD_93":[0,-1.8392785079555021,-1.7980724431582076,-1.7597307697019757,-1.7223601018138122,-1.6850736273250566,-1.647426034492633,-1.6092267067787809,-1.5704370727923174,-1.5311076725353063,-1.4913388471374087,-1.4512562759912551,-1.4109959275562041,-1.3706950041839092,-1.3304867694930111,-1.2904980767216887,-1.250849259425556,-1.2116572258035738,-1.1730449987619493,-1.1351667032805952,-1.0982715210232004],"AUX_ENDO_LEAD_97":[0,-1.7980724431582078,-1.7597307697019822,-1.7223601018138111,-1.6850736273250535,-1.6474260344926368,-1.6092267067787775,-1.5704370727923131,-1.5311076725353026,-1.4913388471374081,-1.4512562759912551,-1.410995927556201,-1.3706950041839052,-1.3304867694930105,-1.2904980767216874,-1.2508492594255525,-1.2116572258035734,-1.1730449987619465,-1.1351667032805941,-1.098271521023199,-1.0620835814494187],"AUX_ENDO_LEAD_124":[0,-0.030577876100146992,0.0119025811467889,0.035281281802354091,0.04707621107535976,0.052602662113232966,0.054319799324270737,0.053714509106521105,0.051729476390368935,0.048968200680794521,0.045817788016385232,0.042526593441920037,0.039253832730407917,0.03610150670124234,0.033135357705171412,0.030399624828486852,0.027929888862624007,0.025769954332058378,0.024004795895487787,0.022838358343877152,0.022788734639305089],"AUX_ENDO_LEAD_128":[0,0.011902581146790327,0.035281281802354611,0.047076211075360405,0.052602662113232009,0.054319799324269079,0.053714509106520307,0.051729476390367658,0.0489682006807932,0.045817788016384864,0.0425265934419187,0.03925383273040698,0.036101506701241647,0.033135357705170614,0.030399624828485197,0.027929888862622116,0.025769954332057591,0.024004795895486878,0.022838358343875709,0.022788734639303379,0.021243049164525261],"AUX_ENDO_LEAD_132":[0,0.035281281802354812,0.047076211075359579,0.052602662113232238,0.054319799324267781,0.053714509106519356,0.051729476390366708,0.048968200680793272,0.045817788016383053,0.042526593441917643,0.039253832730404989,0.036101506701241549,0.033135357705170454,0.03039962482848451,0.027929888862620836,0.025769954332055884,0.02400479589548719,0.022838358343875129,0.022788734639303605,0.021243049164524849,0.020145711836677984],"AUX_ENDO_LEAD_159":[0,0.0028949272471591584,0.015249861481540535,0.035616009835849893,0.04710968387872836,0.052606009393588588,0.054320134052323513,0.053714542579344007,0.051729479737668858,0.048968201015539614,0.04581778804987488,0.042526593445283589,0.03925383273075965,0.036101506701293189,0.03313535770519184,0.030399624828502562,0.027929888862640327,0.025769954332074071,0.024004795895503663,0.022838358343892248,0.022788734639320081],"AUX_ENDO_LEAD_163":[0,0.015249861481540544,0.035616009835847895,0.047109683878729824,0.052606009393588768,0.054320134052322784,0.053714542579343307,0.0517294797376693,0.048968201015539246,0.045817788049874048,0.042526593445283548,0.039253832730759615,0.036101506701292738,0.033135357705191291,0.030399624828501906,0.027929888862640244,0.025769954332074227,0.024004795895503434,0.022838358343893542,0.022788734639320737,0.021243049164541838],"AUX_ENDO_LEAD_167":[0,0.035616009835847916,0.047109683878729179,0.052606009393591266,0.054320134052323207,0.053714542579343265,0.051729479737670156,0.048968201015539545,0.0458177880498735,0.042526593445285546,0.039253832730760566,0.036101506701292356,0.033135357705191243,0.030399624828502125,0.027929888862639907,0.025769954332073047,0.024004795895503812,0.022838358343893687,0.022788734639321396,0.02124304916454213,0.020145711836695286],"AUX_ENDO_LAG_7_1":[0,0,-0.49343070322209803,-0.47169071884828567,-0.45981962698888068,-0.44951811078955706,-0.4399326924255007,-0.43059002545345976,-0.42126840683127054,-0.41185650862316653,-0.40230667669470294,-0.39260926819808717,-0.38277691813383408,-0.37283471178435951,-0.36281406899782193,-0.35274898188905907,-0.34267375104598513,-0.33262169237325967,-0.32262451918043045,-0.31271231485639606,-0.30291430645090128],"AUX_ENDO_LAG_7_2":[0,0,3.1748041695589535E-14,-0.49343070322207122,-0.471690718848262,-0.45981962698885753,-0.44951811078953452,-0.43993269242547867,-0.4305900254534385,-0.42126840683124989,-0.41185650862314649,-0.40230667669468351,-0.39260926819806813,-0.3827769181338157,-0.37283471178434152,-0.36281406899780477,-0.35274898188904225,-0.34267375104596887,-0.33262169237324413,-0.3226245191804154,-0.31271231485638146],"AUX_ENDO_LAG_32_1":[0,0,0.096397541628302982,0.0028949272471586953,0.015249861481540729,0.0356160098358497,0.047109683878728749,0.0526060093935892,0.054320134052323783,0.0537145425793447,0.051729479737669157,0.048968201015539996,0.045817788049875463,0.042526593445284339,0.039253832730759594,0.036101506701293543,0.033135357705192305,0.03039962482850244,0.027929888862640442,0.025769954332073831,0.024004795895503847],"AUX_ENDO_LAG_32_2":[0,0,0,0.096397541628302982,0.0028949272471586953,0.015249861481540729,0.0356160098358497,0.047109683878728749,0.0526060093935892,0.054320134052323783,0.0537145425793447,0.051729479737669157,0.048968201015539996,0.045817788049875463,0.042526593445284339,0.039253832730759594,0.036101506701293543,0.033135357705192305,0.03039962482850244,0.027929888862640442,0.025769954332073831],"AUX_ENDO_LAG_32_3":[0,0,0,0,0.096397541628302982,0.0028949272471586953,0.015249861481540729,0.0356160098358497,0.047109683878728749,0.0526060093935892,0.054320134052323783,0.0537145425793447,0.051729479737669157,0.048968201015539996,0.045817788049875463,0.042526593445284339,0.039253832730759594,0.036101506701293543,0.033135357705192305,0.03039962482850244,0.027929888862640442],"AUX_ENDO_LAG_31_1":[0,0,-0.23833049184447111,-0.030577876100145167,0.011902581146788389,0.035281281802353293,0.047076211075358365,0.0526026621132319,0.054319799324268628,0.053714509106520439,0.051729476390368088,0.0489682006807926,0.045817788016383219,0.042526593441918482,0.039253832730406925,0.036101506701241723,0.033135357705170662,0.030399624828485381,0.027929888862622949,0.025769954332058212,0.024004795895487714],"AUX_ENDO_LAG_31_2":[0,0,0,-0.23833049184447111,-0.030577876100145167,0.011902581146788389,0.035281281802353293,0.047076211075358365,0.0526026621132319,0.054319799324268628,0.053714509106520439,0.051729476390368088,0.0489682006807926,0.045817788016383219,0.042526593441918482,0.039253832730406925,0.036101506701241723,0.033135357705170662,0.030399624828485381,0.027929888862622949,0.025769954332058212],"AUX_ENDO_LAG_31_3":[0,0,0,0,-0.23833049184447111,-0.030577876100145167,0.011902581146788389,0.035281281802353293,0.047076211075358365,0.0526026621132319,0.054319799324268628,0.053714509106520439,0.051729476390368088,0.0489682006807926,0.045817788016383219,0.042526593441918482,0.039253832730406925,0.036101506701241723,0.033135357705170662,0.030399624828485381,0.027929888862622949],"AUX_ENDO_LAG_28_1":[0,0,-0.34800381380894052,-0.86818650185838464,-1.5097285715432396,-2.2262230338593239,-2.6616490038760094,-2.9207608532638347,-3.0658138989653292,-3.136567286441895,-3.1585495105328047,-3.1482561946125753,-3.1164099301344632,-3.0700349254461665,-3.0137806327562493,-2.9507669504102192,-2.8831243075053226,-2.8123390455088,-2.7394743935673862,-2.6653115975498767,-2.5904389359227231],"AUX_ENDO_LAG_28_2":[0,0,0,-0.34800381380894052,-0.86818650185838464,-1.5097285715432396,-2.2262230338593239,-2.6616490038760094,-2.9207608532638347,-3.0658138989653292,-3.136567286441895,-3.1585495105328047,-3.1482561946125753,-3.1164099301344632,-3.0700349254461665,-3.0137806327562493,-2.9507669504102192,-2.8831243075053226,-2.8123390455088,-2.7394743935673862,-2.6653115975498767],"AUX_ENDO_LAG_28_3":[0,0,0,0,-0.34800381380894052,-0.86818650185838464,-1.5097285715432396,-2.2262230338593239,-2.6616490038760094,-2.9207608532638347,-3.0658138989653292,-3.136567286441895,-3.1585495105328047,-3.1482561946125753,-3.1164099301344632,-3.0700349254461665,-3.0137806327562493,-2.9507669504102192,-2.8831243075053226,-2.8123390455088,-2.7394743935673862],"AUX_ENDO_LAG_30_1":[0,0,-1.973722812888389,-1.8867628753931158,-1.8392785079555158,-1.7980724431582242,-1.7597307697019993,-1.7223601018138344,-1.6850736273250779,-1.6474260344926615,-1.6092267067788066,-1.5704370727923438,-1.5311076725353323,-1.4913388471374338,-1.4512562759912815,-1.4109959275562329,-1.370695004183935,-1.3304867694930385,-1.2904980767217118,-1.2508492594255802,-1.2116572258036002],"AUX_ENDO_LAG_30_2":[0,0,7.0125497861855987E-15,-1.9737228128883781,-1.8867628753931056,-1.8392785079555058,-1.7980724431582145,-1.7597307697019904,-1.7223601018138248,-1.6850736273250684,-1.6474260344926528,-1.6092267067787984,-1.5704370727923354,-1.5311076725353239,-1.491338847137426,-1.4512562759912733,-1.4109959275562243,-1.3706950041839241,-1.3304867694930302,-1.2904980767217027,-1.2508492594255718],"AUX_ENDO_LAG_30_3":[0,0,-2.8397622926628808E-16,6.7434321182653931E-15,-1.9737228128883784,-1.8867628753931058,-1.8392785079555061,-1.7980724431582147,-1.7597307697019906,-1.722360101813825,-1.6850736273250686,-1.647426034492653,-1.6092267067787986,-1.5704370727923356,-1.5311076725353241,-1.4913388471374263,-1.4512562759912735,-1.4109959275562245,-1.3706950041839243,-1.3304867694930305,-1.2904980767217029],"AUX_ENDO_LAG_13_1":[0,0,5.7838524976977972,0.17369563483132011,0.91499168889441074,2.1369605901528543,2.8265810327255827,3.1563605636172345,3.2592080431412334,3.2228725547623944,3.10376878426186,2.9380920609340633,2.7490672829941309,2.5515956067186023,2.3552299638470759,2.1660904020790626,1.9881214623129084,1.8239774897115029,1.6757933317597935,1.5461972599257359,1.4402877537314518],"AUX_ENDO_LAG_13_2":[0,0,6.8417493892525272E-14,5.7838524976978505,0.17369563483137876,0.9149916888944698,2.1369605901529125,2.8265810327256413,3.1563605636172878,3.2592080431412849,3.2228725547624459,3.1037687842619119,2.9380920609341103,2.74906728299418,2.551595606718648,2.3552299638471221,2.1660904020791163,1.9881214623129582,1.8239774897115493,1.6757933317598372,1.5461972599257878],"AUX_ENDO_LAG_13_3":[0,0,-2.503552920529728E-14,2.9254376698872875E-14,5.7838524976978212,0.17369563483134398,0.91499168889444082,2.1369605901528721,2.8265810327256076,3.1563605636172474,3.2592080431412502,3.2228725547624055,3.1037687842618769,2.9380920609340722,2.7490672829941354,2.5515956067186121,2.3552299638470844,2.1660904020790905,1.9881214623129231,1.8239774897115173,1.6757933317598086],"AUX_ENDO_LAG_13_4":[0,0,5.7454041524351851E-15,-2.2648549702353193E-14,3.9190872769268026E-14,5.7838524976978336,0.1736956348313354,0.9149916888944446,2.1369605901528752,2.8265810327256014,3.1563605636172465,3.2592080431412458,3.222872554762398,3.1037687842618715,2.9380920609340619,2.7490672829941269,2.5515956067186045,2.3552299638470777,2.1660904020790803,1.9881214623129089,1.8239774897115075],"AUX_ENDO_LAG_7_3":[0,0,-2.0036056147532122E-15,3.0126942607289209E-14,-0.493430703222072,-0.47169071884826291,-0.45981962698885848,-0.44951811078953557,-0.43993269242547967,-0.43059002545343944,-0.421268406831251,-0.41185650862314754,-0.40230667669468467,-0.39260926819806924,-0.38277691813381676,-0.37283471178434263,-0.36281406899780577,-0.35274898188904286,-0.34267375104596992,-0.33262169237324485,-0.32262451918041596],"AUX_ENDO_LAG_13_5":[0,0,6.88338275267597E-14,7.5273121069585613E-14,4.3465231414074879E-14,1.0155765117758619E-13,5.7838524976979127,0.17369563483139561,0.91499168889449634,2.1369605901529307,2.8265810327256609,3.1563605636173024,3.2592080431412942,3.2228725547624517,3.10376878426192,2.9380920609341143,2.7490672829941718,2.5515956067186583,2.3552299638471359,2.1660904020791256,1.9881214623129606],"AUX_ENDO_LAG_7_4":[0,0,1.016547956922409E-15,-2.8622937353617317E-15,2.8830236808996546E-14,-0.49343070322207355,-0.47169071884826491,-0.45981962698886081,-0.449518110789538,-0.43993269242548205,-0.43059002545344177,-0.42126840683125344,-0.4118565086231501,-0.40230667669468717,-0.39260926819807163,-0.38277691813381903,-0.37283471178434485,-0.362814068997808,-0.35274898188904491,-0.3426737510459717,-0.33262169237324651],"AUX_ENDO_LAG_13_6":[0,0,5.3068660577082483E-14,1.2120859871345147E-13,1.2237433288930788E-13,9.6866958898544908E-14,1.4604983888943934E-13,5.7838524976979588,0.17369563483143163,0.91499168889454474,2.1369605901529756,2.8265810327257004,3.1563605636173375,3.2592080431413413,3.2228725547624828,3.1037687842619595,2.938092060934149,2.74906728299421,2.5515956067186942,2.355229963847163,2.1660904020791532],"AUX_ENDO_LAG_7_5":[0,0,2.1233015345956119E-15,2.9212743335449431E-15,-1.1223660889569942E-15,2.9996838346590948E-14,-0.49343070322207189,-0.47169071884826397,-0.45981962698886003,-0.44951811078953746,-0.43993269242548183,-0.43059002545344172,-0.42126840683125338,-0.41185650862315021,-0.40230667669468728,-0.39260926819807179,-0.38277691813381892,-0.37283471178434446,-0.36281406899780722,-0.3527489818890443,-0.34267375104597103],"AUX_ENDO_LAG_13_7":[0,0,5.4373172631017042E-14,1.0244582959728632E-13,1.7569279364693102E-13,1.7277845820728999E-13,1.4654943925052066E-13,1.9653723093426834E-13,5.7838524976980086,0.17369563483148293,0.91499168889458415,2.1369605901530231,2.826581032725739,3.1563605636173837,3.2592080431413812,3.2228725547625205,3.1037687842620016,2.938092060934189,2.749067282994238,2.5515956067187329,2.3552299638471963],"AUX_ENDO_LAG_7_6":[0,0,1.6427831317500363E-15,2.9880611873700502E-15,3.9577716104410854E-15,-3.7209818559702512E-16,3.0889353574981016E-14,-0.49343070322207155,-0.47169071884826336,-0.45981962698885942,-0.44951811078953674,-0.43993269242548105,-0.43059002545344066,-0.42126840683125261,-0.41185650862314949,-0.40230667669468667,-0.39260926819807096,-0.3827769181338182,-0.3728347117843438,-0.36281406899780655,-0.35274898188904363],"AUX_ENDO_LAG_13_8":[0,0,3.2557290197132716E-14,8.0546680436555107E-14,1.2936873794444637E-13,1.9692580899288714E-13,1.9220736113823023E-13,1.7352785874891197E-13,2.2451485115482228E-13,5.7838524976980361,0.17369563483150388,0.9149916888946118,2.1369605901530493,2.8265810327257594,3.1563605636174095,3.2592080431414145,3.222872554762553,3.1037687842620185,2.9380920609342205,2.7490672829942686,2.5515956067187573],"AUX_ENDO_LAG_7_7":[0,0,2.0894744268140641E-15,3.1389821297800324E-15,4.446963630666545E-15,5.2735593669694936E-15,6.42715047849407E-16,3.2611933986625985E-14,-0.49343070322206956,-0.47169071884826175,-0.459819626988858,-0.44951811078953574,-0.43993269242548005,-0.43059002545343966,-0.4212684068312515,-0.41185650862314843,-0.40230667669468545,-0.39260926819806968,-0.38277691813381687,-0.37283471178434263,-0.36281406899780544],"AUX_ENDO_LAG_13_9":[0,0,-1.0852430065710905E-14,2.0983215165415459E-14,6.75848266240564E-14,1.168232177661821E-13,1.8512968935624485E-13,1.8252066524837574E-13,1.620370504440416E-13,2.1097013025439537E-13,5.783852497698029,0.17369563483148995,0.91499168889460236,2.1369605901530342,2.8265810327257519,3.1563605636174015,3.2592080431414043,3.2228725547625476,3.1037687842620043,2.9380920609342174,2.7490672829942628],"AUX_ENDO_LAG_7_8":[0,0,2.9524993561125257E-15,4.7236520250848457E-15,6.2458718752544939E-15,7.35089072945172E-15,8.3422851959724653E-15,3.8320041584327669E-15,3.559218891835414E-14,-0.49343070322206728,-0.47169071884825947,-0.45981962698885503,-0.44951811078953374,-0.43993269242547889,-0.4305900254534385,-0.42126840683125061,-0.41185650862314754,-0.40230667669468451,-0.39260926819806868,-0.38277691813381604,-0.3728347117843418],"AUX_ENDO_LAG_13_10":[0,0,-1.1754486273218845E-13,-1.2442824548486442E-13,-9.4979579756682142E-14,-4.2021941482062175E-14,7.8825834748386114E-15,8.4793283505746331E-14,8.2989171090730451E-14,6.9416694614687913E-14,1.138533711753098E-13,5.7838524976979375,0.17369563483139164,0.91499168889452343,2.1369605901529503,2.8265810327256764,3.1563605636173153,3.2592080431413222,3.22287255476248,3.103768784261931,2.9380920609341414],"AUX_ENDO_LAG_7_9":[0,0,-1.5265566588595902E-16,1.9567680809018384E-15,3.6437866612892833E-15,4.734927727678695E-15,6.0628585485389408E-15,6.5000088644850962E-15,2.3566218421144924E-15,3.4096857282062132E-14,-0.49343070322206756,-0.47169071884826169,-0.4598196269888537,-0.44951811078953363,-0.43993269242547739,-0.43059002545343689,-0.42126840683124872,-0.41185650862314571,-0.4023066766946829,-0.39260926819806707,-0.38277691813381448],"AUX_ENDO_LAG_13_11":[0,0,-9.0288887477640856E-14,-2.111921748593204E-13,-2.0641821585343223E-13,-1.8260393197522262E-13,-1.2503886814840826E-13,-7.7077233484601493E-14,8.18789480661053E-15,2.2204460492503131E-16,-6.0229599085914742E-15,3.166911177743259E-14,5.7838524976978674,0.17369563483131309,0.9149916888944547,2.1369605901528788,2.8265810327256022,3.1563605636172483,3.2592080431412582,3.2228725547624086,3.1037687842618644],"AUX_ENDO_LAG_7_10":[0,0,-1.6393136847980827E-16,-2.1510571102112408E-16,1.8153881176097286E-15,3.1849523018934178E-15,4.599619296552504E-15,5.6534638082084143E-15,6.4089358819963138E-15,1.947227101783966E-15,3.3890425188420892E-14,-0.49343070322206911,-0.471690718848262,-0.45981962698885265,-0.44951811078953297,-0.43993269242547683,-0.43059002545343605,-0.421268406831248,-0.411856508623145,-0.40230667669468217,-0.39260926819806635],"AUX_ENDO_LAG_13_12":[0,0,-5.4956039718945249E-15,-9.0510932082565887E-14,-2.2101764862725304E-13,-2.1280199824502688E-13,-1.9220736113823023E-13,-1.3378187446733136E-13,-9.29256671611256E-14,-2.2759572004815709E-15,-1.3627987627273797E-14,-1.6653345369377348E-14,1.4238610290817633E-14,5.783852497697862,0.173695634831302,0.9149916888944386,2.1369605901528677,2.8265810327255907,3.1563605636172389,3.2592080431412445,3.2228725547624024],"AUX_ENDO_LAG_7_11":[0,0,6.8087896432089678E-16,3.41740524767431E-16,2.0990154059319366E-16,2.2083029849184754E-15,3.7660846663456482E-15,5.1399856593192794E-15,6.0680627189668712E-15,6.89986262569775E-15,2.3609586508044345E-15,3.3499245044588122E-14,-0.49343070322206817,-0.47169071884825881,-0.45981962698885137,-0.44951811078953219,-0.43993269242547545,-0.4305900254534345,-0.42126840683124606,-0.41185650862314271,-0.40230667669467995],"AUX_ENDO_LAG_13_13":[0,0,4.904410211281629E-14,4.6129766673175254E-14,-4.4214631955696859E-14,-1.7638668303732175E-13,-1.6289747328812609E-13,-1.5185075419310579E-13,-9.3453023097822552E-14,-5.4123372450476381E-14,3.5305092183079978E-14,2.4868995751603507E-14,2.1010970741031088E-14,4.8183679268731794E-14,5.7838524976978904,0.1736956348313323,0.91499168889447036,2.1369605901529005,2.8265810327256187,3.156360563617262,3.2592080431412684],"AUX_ENDO_LAG_7_12":[0,0,-6.4965394175331426E-16,-6.7567479389296636E-16,-1.1509890263106115E-15,-1.4961989980299961E-15,5.6898930012039273E-16,1.7798262863522041E-15,3.3350058825654116E-15,4.30298158216047E-15,5.3229989860348326E-15,6.5138866522929106E-16,3.1984831450060369E-14,-0.49343070322206967,-0.47169071884825858,-0.45981962698885176,-0.44951811078953152,-0.439932692425475,-0.43059002545343439,-0.42126840683124583,-0.4118565086231426],"AUX_ENDO_LAG_13_14":[0,0,6.06736882957648E-14,1.1304845948245656E-13,1.0325074129013956E-13,1.5210055437364645E-14,-1.2301271112846734E-13,-1.0177969578251123E-13,-1.0183520693374248E-13,-3.8080649744642869E-14,-5.5233595475101538E-15,9.0899510141184692E-14,6.8944849829222221E-14,6.42264019745653E-14,9.2592600253738055E-14,5.7838524976979411,0.1736956348313729,0.91499168889451366,2.136960590152944,2.8265810327256542,3.1563605636172989],"AUX_ENDO_LAG_7_13":[0,0,8.0317696937726168E-16,-1.708702623837155E-16,-9.80118763926896E-17,-6.114900252818245E-16,-6.8087896432089678E-16,1.087671619437458E-15,2.3219273725949563E-15,3.7131756003283556E-15,5.0055445899310769E-15,5.9483667991244715E-15,1.1475195793586579E-15,3.2400297722556815E-14,-0.4934307032220695,-0.47169071884825992,-0.45981962698885154,-0.44951811078953174,-0.43993269242547567,-0.43059002545343533,-0.42126840683124706],"AUX_ENDO_LAG_13_15":[0,0,7.9464212987545579E-14,1.3047896096907152E-13,1.8982038163528614E-13,1.7219559111936178E-13,8.532063944244328E-14,-5.83699755196676E-14,-4.5768944190172078E-14,-3.8719027983802334E-14,2.4313884239290928E-14,4.9432680171435095E-14,1.3727907699490061E-13,1.2512213487525514E-13,1.2079226507921703E-13,1.4038770146385104E-13,5.7838524976979855,0.17369563483142755,0.91499168889455806,2.1369605901529951,2.8265810327256995],"AUX_ENDO_LAG_7_14":[0,0,2.1120258320017626E-15,2.7460672624712856E-15,1.6297727056802103E-15,1.8179902028236938E-15,1.1978265601619853E-15,1.0434361708000495E-15,2.9785202082521778E-15,4.4868622706140115E-15,5.9561730547663672E-15,7.10629471933899E-15,8.1176385058334688E-15,3.286433625238061E-15,3.4691867434322177E-14,-0.49343070322206817,-0.47169071884825792,-0.45981962698885065,-0.44951811078953019,-0.43993269242547411,-0.43059002545343389],"AUX_ENDO_LAG_13_16":[0,0,5.4595217235942073E-14,1.3530843112619095E-13,1.921796055626146E-13,2.448874436566939E-13,2.2773449792623524E-13,1.4013790128331038E-13,-1.6653345369377348E-16,1.3378187446733136E-14,2.6117996654306808E-14,6.6280314570121845E-14,1.0461076449530538E-13,1.8887669206435476E-13,1.773026170326375E-13,1.7286172493413687E-13,1.8923751454735793E-13,5.7838524976980317,0.17369563483147341,0.91499168889460358,2.13696059015304],"AUX_ENDO_LAG_7_15":[0,0,9.97465998686664E-16,2.7105054312137611E-15,2.8961208431432794E-15,1.5898740657327437E-15,1.947227101783966E-15,1.2941037130786981E-15,1.2758891165809416E-15,3.3523531173251797E-15,4.9049306283244221E-15,6.1834218301193289E-15,7.2086434044216219E-15,8.1627413162088658E-15,3.9759862069388419E-15,3.5458615210703925E-14,-0.49343070322206828,-0.4716907188482547,-0.45981962698884948,-0.44951811078953,-0.43993269242547267],"AUX_ENDO_LAG_13_17":[0,0,2.0455859228718509E-14,7.4940054162198066E-14,1.6467383012752634E-13,2.1554980023097414E-13,2.656208586415687E-13,2.5326962749261384E-13,1.5171197631502764E-13,3.2973623831367149E-14,3.141931159689193E-14,4.8322457146809938E-14,8.404388296412435E-14,1.3519740882372844E-13,2.1091461910316411E-13,2.0863866190268254E-13,1.9986790000814381E-13,2.1380119896718952E-13,5.7838524976980539,0.17369563483150657,0.91499168889463156],"AUX_ENDO_LAG_7_16":[0,0,2.3158558404290375E-16,7.572067972638763E-16,2.4164698020356923E-15,2.504073337572521E-15,1.6844164951734797E-15,2.0313611903688411E-15,1.6852838569114681E-15,1.5638532135930916E-15,3.6472561082412369E-15,4.9031959048484453E-15,6.63358257213531E-15,7.436759541512572E-15,8.3518261750903378E-15,3.8562902870964422E-15,3.55427492992888E-14,-0.49343070322206878,-0.4716907188482547,-0.4598196269888491,-0.44951811078952986],"AUX_ENDO_LAG_13_18":[0,0,2.6006974351844292E-14,2.8754776337791554E-14,9.5451424542147834E-14,1.7827406217918451E-13,2.3395174686413611E-13,2.863542736264435E-13,2.73225886360251E-13,1.7147394615335543E-13,5.440092820663267E-14,4.98212582300539E-14,6.8389738316909643E-14,9.248157795127554E-14,1.5640266859406893E-13,2.2143398226148747E-13,2.3084312239518567E-13,2.1432855490388647E-13,2.2432056212551288E-13,5.7838524976980734,0.17369563483152523],"AUX_ENDO_LAG_7_17":[0,0,1.132774429812855E-15,1.2949710748166865E-15,2.0617188511984352E-15,3.8519534784065E-15,4.5363018896793506E-15,3.6567970873591094E-15,3.7999117741271959E-15,3.4972025275692431E-15,3.269086390478293E-15,5.1729454053628388E-15,6.3135260908175894E-15,7.877379304410681E-15,9.00234747858164E-15,9.77950359581925E-15,5.3091211982270181E-15,3.7062367064244484E-14,-0.49343070322206656,-0.4716907188482567,-0.45981962698884921]}}