{"interest_":{"Y":[0,-0.037229099579699221,-0.027087097166282992,-0.019093365812575036,-0.012818159154313558,-0.0079161777820083712,-0.0041099914736982823,-0.0011767205537142056,0.001062664703699423,0.0027519411595552934,0.0040065387341404746,0.0049190840103425226,0.0055638395130108154,0.0060002299027910877,0.0062755669488693266,0.0064269541212543246,0.0064820707033198532,0.0064578507761891,0.0063543240499893683,0.0061363508720417848,0.0056841657110252575],"C":[0,-0.062048499299496684,-0.045145161943796641,-0.031822276354286305,-0.02136359859051723,-0.013193629636675752,-0.0068499857894928906,-0.0019612009228555938,0.0017711078395029334,0.0045865685992627636,0.0066775645569046582,0.0081984733505760243,0.0092730658550223832,0.010000383171320515,0.010459278248119985,0.010711590202092724,0.010803451172197748,0.010763084626980696,0.010590540083316474,0.010227251453404557,0.0094736095183779734],"s":[0,0.031925411777728119,0.056889847557777262,0.076244584715550623,0.091080414296347723,0.10227834654163681,0.11055038492210523,0.11647231831692206,0.12051009639873955,0.12304104250069248,0.12437090369632386,0.12474752053042382,0.12437169079359167,0.12340554712708718,0.12197833523648205,0.1201885349226437,0.11809894884233074,0.11571545192275057,0.11292469793054671,0.10932594520412886,0.10378740326652203],"Ps":[0,0.0238199778471365,0.028460692800589216,0.0319997394246768,0.034648216611333195,0.036576789674944557,0.037923565709292263,0.038800425635433712,0.039298117505099463,0.039490357531453572,0.039437141591906741,0.039187442481083426,0.038781466114086137,0.0382526904006944,0.037630087389401316,0.036941427331007658,0.03621989308920108,0.035519729686420316,0.034955804201065775,0.034805865190111092,0.035776761000090626],"Pss":[0,0.05574538962486475,0.085350540358366533,0.10824432414022755,0.12572863090768083,0.13885513621658152,0.14847395063139768,0.1552727439523558,0.15980821390383948,0.16253140003214606,0.1638080452882309,0.16393496301150723,0.16315315690767784,0.16165823752778197,0.15960842262588359,0.15712996225365128,0.154318841931532,0.1512351816091706,0.14788050213161252,0.14413181039423995,0.13956416426661278],"L":[0,-0.062666050916989458,-0.069530437642466553,-0.075663917233409761,-0.081088462060645183,-0.085833567830742863,-0.089933710144066592,-0.093426407263288241,-0.096350758819143345,-0.0987463574532996,-0.10065249278172486,-0.10210758646252269,-0.10314881674062384,-0.10381191715016863,-0.10413118300966845,-0.10413983146718281,-0.10387114117255947,-0.10336151984751379,-0.10265852634197326,-0.10184177327444577,-0.1010774278554511],"w":[0,-0.15543002405748757,-0.12505554270882896,-0.10147651132528013,-0.083271428211359411,-0.069304043188724962,-0.058666826651020854,-0.05063560547735757,-0.044633163730566972,-0.040200041528125563,-0.036971117277054488,-0.034656846530110419,-0.033028276660268086,-0.031905192232444313,-0.031147035008595114,-0.030646735329407038,-0.030328668241885459,-0.030154590669796311,-0.030148183004354845,-0.030466383730414826,-0.031591494890970573],"Pi":[0,-0.060566605394826896,-0.057626652558536974,-0.055106463979610082,-0.052917094952212286,-0.050988154519015547,-0.0492640773693102,-0.04770113544256762,-0.046265043160145528,-0.044929039024622391,-0.043672349446738062,-0.042478959179249223,-0.041336627489977337,-0.040236100746686085,-0.039170480554298,-0.038134711297350764,-0.037125149271222131,-0.036139159998767885,-0.035174640599094587,-0.034229226941242995,-0.033298581320059639],"F":[0,-1.4659495316375588,-1.4248474123770531,-1.3860427616517832,-1.3490444146900915,-1.3134755022873581,-1.2790488520892009,-1.24554726488218,-1.212807683083607,-1.1807084606041645,-1.1491590971534817,-1.1180919237706057,-1.0874553269894989,-1.057208184280344,-1.027315264639155,-0.997743448254218,-0.96845879213428487,-0.93942485127418651,-0.91060361125902434,-0.88196281974816371,-0.8534998258815012],"K":[0,-2.1229659168478787,-2.0499716819141103,-1.9838284478328665,-1.9230801925694785,-1.8665864576107654,-1.8134573074237323,-1.763001188122534,-1.7146831179131585,-1.6680911464670953,-1.6229094250790534,-1.5788965540699169,-1.5358681345623408,-1.4936826621747923,-1.4522300732695663,-1.4114224055656484,-1.3711861897746911,-1.3314564025249678,-1.2921722177020583,-1.2532757372688805,-1.2147172556667605],"PQ":[0,6.802505061973422,5.0707566963970994,3.7032488868088804,2.6271253936516183,1.7838582375434811,1.1264335015894478,0.61709052751616045,0.22550563488613604,-0.0726670194647039,-0.29696748075721496,-0.46307081691380025,-0.58354063936950162,-0.668428081670479,-0.72573597339599449,-0.76174689596215206,-0.78116923037249886,-0.78694723863000171,-0.77930567995247468,-0.75288519969358159,-0.68896355460653136],"PB":[0,-0.21752376688144096,-0.15573737773952884,-0.10630023602741451,-0.066809206901622259,-0.035331130233009267,-0.010310506430999721,0.0095046563060989728,0.025122408501298741,0.037354710995865896,0.046855877821711127,0.054153462991136173,0.05967308039640342,0.063758356183495818,0.066686985563237738,0.068683697385192768,0.06993083089166259,0.0705772450243692,0.070746542593852754,0.0705464526350592,0.070083605103563332],"b":[0,0.036987954602487161,0.065163912707090432,0.086304800141838278,0.10184198401673816,0.11292860396383908,0.12049371695097522,0.12528584443485746,0.1279080003126789,0.12884586632122863,0.12849044572641777,0.12715624328248909,0.12509575794322281,0.12251077522269949,0.11956047163148975,0.11636535180913032,0.1130036473609648,0.1094907197270798,0.10571624062413632,0.101272842015379,0.095002714107125463],"q":[0,-2.2337459747819546,-1.6252258299769833,-1.1456019487545468,-0.76908954925883843,-0.47497066692052248,-0.24659948842191207,-0.0706032332229409,0.063759882221983324,0.16511646957330997,0.24039232404839958,0.29514504062055491,0.33383037078067523,0.36001379416748847,0.37653401693216404,0.38561724727526103,0.38892424219918287,0.38747104657135056,0.38125944299935793,0.36818105232251114,0.34104994266152144],"qCB":[0,1.9481096026164741,1.4174029104216046,0.99911009682408836,0.67074356399426072,0.41423462096190738,0.21506600876669046,0.061574967865663507,-0.055606698443158589,-0.14400248889415837,-0.20965257471576743,-0.2574038831132775,-0.29114239412397819,-0.31397765789393606,-0.32838538597429462,-0.33630711407316327,-0.33919123278668029,-0.33792386201621655,-0.33250655642155924,-0.32110054215136641,-0.29743877583732636],"qbar":[0,-5.2735593669694936E-16,-1.0269562977782698E-15,-1.5931700403370996E-14,-9.3258734068513149E-15,-7.9658502016854982E-15,-5.467848396278896E-15,-3.2612801348363973E-14,5.7176485768195562E-15,-3.2751579226442118E-15,-1.0103029524088925E-14,1.2212453270876722E-15,8.8540286213856234E-15,7.7715611723760958E-15,1.1102230246251565E-15,8.8817841970012523E-16,-2.9698465908722937E-15,1.9706458687096529E-15,-2.1926904736346842E-15,1.2212453270876722E-15,2.2204460492503131E-15],"i":[0,0.217523766881441,0.1557373777395219,0.10630023602740964,0.066809206901613835,0.035331130232999754,0.010310506430988993,-0.009504656306103974,-0.025122408501312834,-0.037354710995878157,-0.046855877821721154,-0.054153462991147344,-0.059673080396413551,-0.063758356183502174,-0.066686985563249826,-0.068683697385200915,-0.06993083089166785,-0.070577245024374943,-0.070746542593858847,-0.070546452635065038,-0.070083605103569147],"iQ":[0,-0.67121569146267823,-0.500340893715381,-0.36540638185085245,-0.2592232966523475,-0.176016574699437,-0.11114726630379704,-0.060889457831828329,-0.022251055937460462,0.0071701885220475953,0.029302327763436754,0.045692049581630624,0.057579028634687245,0.065955028764265927,0.071609703890615745,0.075162967882372367,0.077079405356845737,0.077649532063478632,0.07689552540786275,0.0742885680055254,0.067981301665309066],"D":[0,-0.021714041379318094,-0.039734630759550506,-0.054661214839658009,-0.066988486990947241,-0.077125772270575141,-0.085412719523028258,-0.092132014654384309,-0.097519689993182,-0.10177349272882971,-0.1050596853893364,-0.10751857887389306,-0.10926904020488812,-0.11041217004319537,-0.11103430665341857,-0.11120948100055859,-0.11100141894623092,-0.11046515570131397,-0.10964828279697696,-0.10859175923368809,-0.10733001013756889],"A":[0,1.7061240372032191E-16,1.1942868260422533E-16,8.3600077822957723E-17,5.85200544760704E-17,4.0964038133249277E-17,2.8674826693274494E-17,2.0072378685292145E-17,1.4050665079704502E-17,9.8354655557931509E-18,6.8848258890552049E-18,4.819378122338643E-18,3.37356468563705E-18,2.3614952799459347E-18,1.6530466959621541E-18,1.1571326871735078E-18,8.0999288102145544E-19,5.6699501671501876E-19,3.9689651170051312E-19,2.7782755819035918E-19,1.9447929073325142E-19],"G":[0,-3.9968028886505635E-15,4.7739590058881731E-15,5.5511151231257827E-15,5.10702591327572E-15,4.8849813083506888E-15,4.7739590058881731E-15,4.5519144009631418E-15,4.3298697960381105E-15,4.1078251911130792E-15,3.9968028886505635E-15,3.6637359812630166E-15,3.7747582837255322E-15,3.6637359812630166E-15,3.7747582837255322E-15,3.6637359812630166E-15,3.4416913763379853E-15,3.3306690738754696E-15,3.219646771412954E-15,3.1086244689504383E-15,2.9976021664879227E-15],"theta":[0,0,0,0,0,0,0,0,0,0,0,0,0,0,0,0,0,0,0,0,0],"ksi":[0,0,0,0,0,0,0,0,0,0,0,0,0,0,0,0,0,0,0,0,0],"ChiC":[0,0,2.7046733316872031E-15,2.6204821982358498E-15,2.332539124343934E-15,2.0720484992183565E-15,1.8541321289136569E-15,1.6730711142315658E-15,1.5216327158899528E-15,1.3943075917047823E-15,1.2863842262104195E-15,1.194254149898322E-15,1.1147815911561897E-15,1.0452544530435772E-15,9.9572636049525947E-16,9.63205912860778E-16,7.2415933814047926E-16,4.5496556750039195E-16,7.5896430331595456E-16,6.481459529456742E-16,6.3862942629549291E-16],"ChiL":[0,0,-8.6848887072215593E-32,-1.2158844190110179E-31,-1.2766786399615685E-31,-1.1915667306307968E-31,-1.0426208893019469E-31,-8.7580154701363509E-32,-7.1523793006113517E-32,-5.72190344048908E-32,-4.505998959385149E-32,-3.5046658572995592E-32,-2.69859271012066E-32,-2.0607435240921397E-32,-1.562730505769872E-32,-1.1780583812726724E-32,-8.83543785954504E-33,-6.5971269351269618E-33,-4.9066131580006765E-33,-3.6366662229887359E-33,-2.6870922647638983E-33],"epsG":[0,-3.3941921578923996E-15,4.53898423632508E-15,4.3945026134262196E-15,4.0301681454371213E-15,3.8394724933455066E-15,3.758679351852792E-15,3.581568700658574E-15,3.4230065181057515E-15,3.2900679317506853E-15,3.1682651055688415E-15,2.9895664155450895E-15,3.0069674688571071E-15,2.8670682763874369E-15,2.9116140080016576E-15,2.8199680603388827E-15,2.6893498814576203E-15,2.6014471060035465E-15,2.4998877470220095E-15,2.4410483068692087E-15,2.3470593910112152E-15],"Yf":[0,-1.4432899320127035E-15,2.55351295663786E-15,2.8310687127941492E-15,2.6090241078691179E-15,2.4424906541753444E-15,2.3314683517128287E-15,2.2204460492503131E-15,1.9984014443252818E-15,1.8873791418627661E-15,1.8318679906315083E-15,1.7208456881689926E-15,1.7208456881689926E-15,1.6653345369377348E-15,1.5543122344752192E-15,1.5543122344752192E-15,1.5543122344752192E-15,1.3877787807814457E-15,1.4988010832439613E-15,1.3877787807814457E-15,1.3322676295501878E-15],"Gf":[0,-4.4408920985006262E-15,5.773159728050814E-15,6.5503158452884236E-15,6.106226635438361E-15,5.88418203051333E-15,5.773159728050814E-15,5.440092820663267E-15,5.2180482157382357E-15,4.9960036108132044E-15,4.8849813083506888E-15,4.6629367034256575E-15,4.5519144009631418E-15,4.3298697960381105E-15,4.3298697960381105E-15,4.2188474935755949E-15,3.9968028886505635E-15,3.8857805861880479E-15,3.7747582837255322E-15,3.6637359812630166E-15,3.5527136788005009E-15],"interest":[0,0.87009506752576415,0.622949510958086,0.42520094410963732,0.26723682760645329,0.14132452093199657,0.041242025723953267,-0.038018625224417173,-0.10048963400525494,-0.14941884398351579,-0.18742351128688714,-0.21661385196459229,-0.23869232158565681,-0.25503342473401036,-0.26674794225300252,-0.27473478954080566,-0.27972332356667279,-0.28230898009750133,-0.28298617037543683,-0.28218581054026187,-0.28033442041427808],"inflation":[0,-0.060566605394826882,-0.11819325795336386,-0.17329972193295262,-0.22621681688515266,-0.21663836600934053,-0.20827579082011355,-0.20087046228307093,-0.1942184104910045,-0.18815929499661149,-0.18256756707403968,-0.17734539081072162,-0.17241697514055435,-0.16772403686261944,-0.16322216797018041,-0.15887792008828241,-0.15466644186952797,-0.15056950112161008,-0.14657366116640713,-0.14266817681030083,-0.13884160885913932],"inflationq":[0,-0.24226642157930722,-0.23050661023414684,-0.22042585591843944,-0.21166837980884851,-0.20395261807606183,-0.19705630947724062,-0.19080454177027051,-0.18506017264058225,-0.17971615609848987,-0.17468939778695253,-0.16991583671699717,-0.16534650995990993,-0.16094440298674556,-0.15668192221719562,-0.15253884518940647,-0.14850059708489144,-0.1445566399950737,-0.1406985623963794,-0.136916907764973,-0.13319432528023906],"outputgap":[0,-0.037229099579696334,-0.027087097166282825,-0.019093365812576115,-0.012818159154314203,-0.00791617778200872,-0.0041099914736983005,-0.0011767205537151055,0.0010626647037009819,0.002751941159557055,0.00400653873414213,0.0049190840103446182,0.0055638395130120444,0.0060002299027908752,0.0062755669488711021,0.0064269541212558607,0.0064820707033183458,0.0064578507761881808,0.006354324049987173,0.0061363508720410761,0.0056841657110246781],"output":[0,-0.037229099579698645,-0.027087097166281448,-0.019093365812574255,-0.012818159154312576,-0.007916177782007431,-0.004109991473697428,-0.0011767205537148253,0.0010626647037005263,0.0027519411595563772,0.0040065387341412404,0.0049190840103437222,0.00556383951301231,0.0060002299027921,0.0062755669488706277,0.0064269541212550923,0.0064820707033201629,0.0064578507761895009,0.0063543240499898748,0.0061363508720424544,0.0056841657110259514],"fispol":[0,-1.6970960789462002E-15,2.26949211816254E-15,2.1972513067131058E-15,2.0150840727185583E-15,1.9197362466727525E-15,1.8793396759263948E-15,1.7907843503292803E-15,1.7115032590528765E-15,1.6450339658753417E-15,1.5841325527844188E-15,1.4947832077725438E-15,1.5034837344285553E-15,1.4335341381937202E-15,1.455807004000828E-15,1.4099840301694416E-15,1.3446749407288104E-15,1.3007235530017732E-15,1.2499438735110052E-15,1.2205241534346051E-15,1.1735296955056082E-15],"AUX_ENDO_LEAD_89":[0,-0.23050661023414443,-0.22042585591843555,-0.21166837980884462,-0.20395261807605883,-0.19705630947723829,-0.19080454177026854,-0.18506017264058078,-0.17971615609849106,-0.17468939778695305,-0.16991583671699786,-0.16534650995991151,-0.16094440298674639,-0.15668192221719598,-0.15253884518940586,-0.14850059708489033,-0.14455663999507237,-0.14069856239637812,-0.13691690776497159,-0.1331943252802377,-0.12948880407722335],"AUX_ENDO_LEAD_93":[0,-0.22042585591843558,-0.21166837980884509,-0.2039526180760588,-0.19705630947723812,-0.19080454177026868,-0.18506017264058061,-0.17971615609848859,-0.17468939778695397,-0.16991583671699725,-0.16534650995991035,-0.16094440298674678,-0.15668192221719687,-0.15253884518940594,-0.14850059708488983,-0.14455663999507232,-0.14069856239637762,-0.13691690776497167,-0.13319432528023853,-0.12948880407722485,-0.12569075646127406],"AUX_ENDO_LEAD_97":[0,-0.21166837980884504,-0.20395261807605858,-0.1970563094772371,-0.19080454177026906,-0.1850601726405802,-0.1797161560984884,-0.17468939778695169,-0.16991583671699756,-0.16534650995990954,-0.16094440298674514,-0.15668192221719596,-0.15253884518940578,-0.14850059708488991,-0.1445566399950714,-0.14069856239637674,-0.13691690776497137,-0.13319432528023878,-0.12948880407722418,-0.12569075646127364,-0.12185143306721524],"AUX_ENDO_LEAD_124":[0,-0.027087097166280872,-0.019093365812574661,-0.012818159154312923,-0.007916177782007398,-0.0041099914736971721,-0.0011767205537143992,0.0010626647037009708,0.0027519411595570563,0.0040065387341416559,0.0049190840103439208,0.0055638395130115413,0.006000229902790236,0.0062755669488700474,0.0064269541212552215,0.0064820707033187855,0.0064578507761887454,0.0063543240499884072,0.0061363508720417691,0.0056841657110254275,0.0046627977167894878],"AUX_ENDO_LEAD_128":[0,-0.019093365812574564,-0.012818159154312631,-0.0079161777820083712,-0.0041099914736982268,-0.0011767205537152586,0.0010626647037004716,0.0027519411595573035,0.0040065387341419491,0.0049190840103439,0.0055638395130109255,0.0060002299027906358,0.0062755669488710154,0.0064269541212559249,0.00648207070331965,0.0064578507761895764,0.00635432404998923,0.0061363508720417249,0.0056841657110249313,0.0046627977167892493,0.0038897951687961166],"AUX_ENDO_LEAD_132":[0,-0.012818159154312749,-0.00791617778200886,-0.0041099914736985946,-0.0011767205537150727,0.0010626647037013928,0.0027519411595581227,0.004006538734142453,0.0049190840103438948,0.0055638395130111129,0.0060002299027902785,0.0062755669488698479,0.0064269541212546889,0.0064820707033189156,0.0064578507761895113,0.006354324049989619,0.0061363508720422271,0.0056841657110246789,0.0046627977167889518,0.003889795168796195,0.0033100441825229176],"AUX_ENDO_LEAD_159":[0,-0.027087097166281271,-0.019093365812574394,-0.012818159154312796,-0.0079161777820074882,-0.0041099914736975659,-0.0011767205537148594,0.001062664703700613,0.0027519411595564218,0.0040065387341410817,0.0049190840103436363,0.0055638395130123237,0.0060002299027918172,0.0062755669488704516,0.0064269541212551356,0.0064820707033201256,0.0064578507761894393,0.0063543240499897916,0.006136350872042457,0.0056841657110260893,0.0046627977167900412],"AUX_ENDO_LEAD_163":[0,-0.019093365812574387,-0.012818159154313068,-0.0079161777820085759,-0.00410999147369821,-0.0011767205537153145,0.0010626647037003903,0.0027519411595564132,0.0040065387341411841,0.0049190840103437352,0.0055638395130124989,0.0060002299027917339,0.0062755669488707986,0.006426954121255571,0.0064820707033204248,0.0064578507761900448,0.0063543240499898939,0.0061363508720423269,0.0056841657110256859,0.00466279771678952,0.003889795168796483],"AUX_ENDO_LEAD_167":[0,-0.012818159154313063,-0.00791617778200885,-0.0041099914736986327,-0.0011767205537150062,0.0010626647037006018,0.0027519411595567657,0.0040065387341415857,0.0049190840103435643,0.0055638395130124313,0.0060002299027910972,0.00627556694887032,0.0064269541212552119,0.0064820707033203546,0.0064578507761900274,0.006354324049989828,0.0061363508720431448,0.0056841657110259583,0.0046627977167893551,0.00388979516879648,0.0033100441825231084],"AUX_ENDO_LAG_7_1":[0,0,-0.060566605394814892,-0.057626652558524533,-0.055106463979597578,-0.05291709495219965,-0.050988154519002994,-0.049264077369297742,-0.047701135442555193,-0.046265043160133086,-0.044929039024610221,-0.043672349446726218,-0.042478959179238024,-0.041336627489966069,-0.040236100746674754,-0.039170480554287179,-0.038134711297339967,-0.037125149271211584,-0.03613915999875808,-0.035174640599085,-0.03422922694123378],"AUX_ENDO_LAG_7_2":[0,0,9.2668928086681035E-15,-0.060566605394805725,-0.057626652558515089,-0.055106463979588176,-0.052917094952190109,-0.050988154518993523,-0.049264077369288381,-0.047701135442546026,-0.046265043160124107,-0.044929039024601644,-0.04367234944671803,-0.042478959179230308,-0.041336627489958928,-0.040236100746667842,-0.03917048055428006,-0.038134711297333077,-0.037125149271205207,-0.0361391599987517,-0.035174640599078856],"AUX_ENDO_LAG_32_1":[0,0,-0.037229099579698645,-0.027087097166281448,-0.019093365812574255,-0.012818159154312576,-0.007916177782007431,-0.004109991473697428,-0.0011767205537148253,0.0010626647037005263,0.0027519411595563772,0.0040065387341412404,0.0049190840103437222,0.00556383951301231,0.0060002299027921,0.0062755669488706277,0.0064269541212550923,0.0064820707033201629,0.0064578507761895009,0.0063543240499898748,0.0061363508720424544],"AUX_ENDO_LAG_32_2":[0,0,0,-0.037229099579698645,-0.027087097166281448,-0.019093365812574255,-0.012818159154312576,-0.007916177782007431,-0.004109991473697428,-0.0011767205537148253,0.0010626647037005263,0.0027519411595563772,0.0040065387341412404,0.0049190840103437222,0.00556383951301231,0.0060002299027921,0.0062755669488706277,0.0064269541212550923,0.0064820707033201629,0.0064578507761895009,0.0063543240499898748],"AUX_ENDO_LAG_32_3":[0,0,0,0,-0.037229099579698645,-0.027087097166281448,-0.019093365812574255,-0.012818159154312576,-0.007916177782007431,-0.004109991473697428,-0.0011767205537148253,0.0010626647037005263,0.0027519411595563772,0.0040065387341412404,0.0049190840103437222,0.00556383951301231,0.0060002299027921,0.0062755669488706277,0.0064269541212550923,0.0064820707033201629,0.0064578507761895009],"AUX_ENDO_LAG_31_1":[0,0,-0.037229099579696869,-0.027087097166283349,-0.019093365812576635,-0.012818159154314711,-0.0079161777820092143,-0.0041099914736987811,-0.0011767205537155715,0.00106266470370052,0.0027519411595566079,0.004006538734141701,0.0049190840103442018,0.0055638395130116385,0.00600022990279048,0.0062755669488707179,0.00642695412125549,0.0064820707033179858,0.0064578507761878347,0.0063543240499868373,0.0061363508720407465],"AUX_ENDO_LAG_31_2":[0,0,0,-0.037229099579696869,-0.027087097166283349,-0.019093365812576635,-0.012818159154314711,-0.0079161777820092143,-0.0041099914736987811,-0.0011767205537155715,0.00106266470370052,0.0027519411595566079,0.004006538734141701,0.0049190840103442018,0.0055638395130116385,0.00600022990279048,0.0062755669488707179,0.00642695412125549,0.0064820707033179858,0.0064578507761878347,0.0063543240499868373],"AUX_ENDO_LAG_31_3":[0,0,0,0,-0.037229099579696869,-0.027087097166283349,-0.019093365812576635,-0.012818159154314711,-0.0079161777820092143,-0.0041099914736987811,-0.0011767205537155715,0.00106266470370052,0.0027519411595566079,0.004006538734141701,0.0049190840103442018,0.0055638395130116385,0.00600022990279048,0.0062755669488707179,0.00642695412125549,0.0064820707033179858,0.0064578507761878347],"AUX_ENDO_LAG_28_1":[0,0,0.87009506752576415,0.622949510958086,0.42520094410963732,0.26723682760645329,0.14132452093199657,0.041242025723953267,-0.038018625224417173,-0.10048963400525494,-0.14941884398351579,-0.18742351128688714,-0.21661385196459229,-0.23869232158565681,-0.25503342473401036,-0.26674794225300252,-0.27473478954080566,-0.27972332356667279,-0.28230898009750133,-0.28298617037543683,-0.28218581054026187],"AUX_ENDO_LAG_28_2":[0,0,0,0.87009506752576415,0.622949510958086,0.42520094410963732,0.26723682760645329,0.14132452093199657,0.041242025723953267,-0.038018625224417173,-0.10048963400525494,-0.14941884398351579,-0.18742351128688714,-0.21661385196459229,-0.23869232158565681,-0.25503342473401036,-0.26674794225300252,-0.27473478954080566,-0.27972332356667279,-0.28230898009750133,-0.28298617037543683],"AUX_ENDO_LAG_28_3":[0,0,0,0,0.87009506752576415,0.622949510958086,0.42520094410963732,0.26723682760645329,0.14132452093199657,0.041242025723953267,-0.038018625224417173,-0.10048963400525494,-0.14941884398351579,-0.18742351128688714,-0.21661385196459229,-0.23869232158565681,-0.25503342473401036,-0.26674794225300252,-0.27473478954080566,-0.27972332356667279,-0.28230898009750133],"AUX_ENDO_LAG_30_1":[0,0,-0.24226642157930722,-0.23050661023414684,-0.22042585591843944,-0.21166837980884851,-0.20395261807606183,-0.19705630947724062,-0.19080454177027051,-0.18506017264058225,-0.17971615609848987,-0.17468939778695253,-0.16991583671699717,-0.16534650995990993,-0.16094440298674556,-0.15668192221719562,-0.15253884518940647,-0.14850059708489144,-0.1445566399950737,-0.1406985623963794,-0.136916907764973],"AUX_ENDO_LAG_30_2":[0,0,0,-0.24226642157930722,-0.23050661023414684,-0.22042585591843944,-0.21166837980884851,-0.20395261807606183,-0.19705630947724062,-0.19080454177027051,-0.18506017264058225,-0.17971615609848987,-0.17468939778695253,-0.16991583671699717,-0.16534650995990993,-0.16094440298674556,-0.15668192221719562,-0.15253884518940647,-0.14850059708489144,-0.1445566399950737,-0.1406985623963794],"AUX_ENDO_LAG_30_3":[0,0,0,0,-0.24226642157930722,-0.23050661023414684,-0.22042585591843944,-0.21166837980884851,-0.20395261807606183,-0.19705630947724062,-0.19080454177027051,-0.18506017264058225,-0.17971615609848987,-0.17468939778695253,-0.16991583671699717,-0.16534650995990993,-0.16094440298674556,-0.15668192221719562,-0.15253884518940647,-0.14850059708489144,-0.1445566399950737],"AUX_ENDO_LAG_13_1":[0,0,-2.2337459747819857,-1.6252258299770133,-1.1456019487545732,-0.76908954925886241,-0.47497066692054435,-0.24659948842193372,-0.070603233222963968,0.063759882221959413,0.16511646957328643,0.2403923240483779,0.29514504062053248,0.33383037078065247,0.36001379416746609,0.37653401693214178,0.38561724727523833,0.388924242199161,0.3874710465713288,0.38125944299933712,0.36818105232249165],"AUX_ENDO_LAG_13_2":[0,0,1.6237011735142914E-14,-2.2337459747819639,-1.6252258299769911,-1.1456019487545539,-0.76908954925884443,-0.47497066692052536,-0.24659948842191617,-0.070603233222947009,0.06375988222197411,0.1651164695732992,0.240392324048391,0.29514504062054725,0.33383037078066669,0.36001379416747936,0.37653401693215816,0.38561724727525426,0.38892424219917743,0.38747104657134612,0.38125944299935388],"AUX_ENDO_LAG_13_3":[0,0,-2.2204460492503131E-16,1.8207657603852567E-14,-2.2337459747819652,-1.6252258299769924,-1.145601948754555,-0.76908954925884188,-0.47497066692052026,-0.24659948842191257,-0.070603233222944678,0.063759882221978023,0.16511646957330298,0.24039232404839533,0.2951450406205503,0.33383037078067157,0.36001379416748291,0.37653401693216154,0.38561724727525792,0.38892424219918087,0.38747104657134979],"AUX_ENDO_LAG_13_4":[0,0,-3.9690473130349346E-15,-6.6058269965196814E-15,1.1102230246251565E-14,-2.2337459747819715,-1.625225829976997,-1.1456019487545617,-0.769089549258849,-0.47497066692052603,-0.24659948842191595,-0.070603233222948564,0.063759882221976025,0.16511646957330442,0.24039232404839875,0.29514504062055069,0.33383037078067163,0.36001379416748319,0.37653401693216138,0.38561724727525803,0.38892424219918109],"AUX_ENDO_LAG_7_3":[0,0,2.7781596467768566E-15,1.2397201321068252E-14,-0.060566605394801888,-0.057626652558510988,-0.05510646397958413,-0.052917094952186355,-0.050988154518989928,-0.049264077369285057,-0.047701135442542633,-0.046265043160120443,-0.044929039024597654,-0.043672349446713714,-0.042478959179225735,-0.041336627489954113,-0.040236100746662666,-0.039170480554274911,-0.038134711297328455,-0.037125149271200766,-0.036139159998747526],"AUX_ENDO_LAG_13_5":[0,0,-9.5201624361607173E-15,-1.3711254354120683E-14,-1.6181500583911657E-14,3.4972025275692431E-15,-2.23374597478198,-1.6252258299770037,-1.145601948754569,-0.76908954925885631,-0.47497066692053447,-0.24659948842192606,-0.070603233222957862,0.063759882221967643,0.16511646957329565,0.24039232404839131,0.2951450406205412,0.33383037078066291,0.36001379416747331,0.37653401693215133,0.38561724727524849],"AUX_ENDO_LAG_7_4":[0,0,-2.6402491304367004E-15,1.2403272853234171E-16,1.006226352240347E-14,-0.060566605394803762,-0.057626652558512473,-0.05510646397958515,-0.052917094952186917,-0.050988154518990157,-0.049264077369285245,-0.047701135442542848,-0.046265043160120908,-0.04492903902459832,-0.043672349446714595,-0.0424789591792268,-0.041336627489955174,-0.040236100746663728,-0.039170480554275827,-0.038134711297329267,-0.037125149271201426],"AUX_ENDO_LAG_13_6":[0,0,-2.886579864025407E-15,-1.2545520178264269E-14,-1.6042722705833512E-14,-1.8179902028236938E-14,1.9428902930940239E-16,-2.2337459747819808,-1.6252258299770064,-1.1456019487545708,-0.76908954925885975,-0.47497066692053724,-0.24659948842192611,-0.070603233222957168,0.063759882221968461,0.16511646957329518,0.24039232404838975,0.2951450406205412,0.33383037078066319,0.360013794167476,0.37653401693215433],"AUX_ENDO_LAG_7_5":[0,0,1.8214596497756474E-15,-1.029558382992235E-15,1.6011497683265929E-15,1.1107434416679496E-14,-0.060566605394803158,-0.05762665255851239,-0.055106463979585726,-0.052917094952187736,-0.050988154518991372,-0.049264077369286619,-0.047701135442544292,-0.046265043160122,-0.044929039024599021,-0.043672349446714977,-0.042478959179226831,-0.041336627489955181,-0.040236100746663915,-0.039170480554275938,-0.038134711297329552],"AUX_ENDO_LAG_13_7":[0,0,3.9135361618036768E-15,4.85722573273506E-15,-4.2743586448068527E-15,-8.6042284408449632E-15,-1.074140776324839E-14,5.8564264548977008E-15,-2.2337459747819781,-1.6252258299770033,-1.1456019487545657,-0.76908954925885542,-0.47497066692053325,-0.24659948842192317,-0.070603233222954281,0.063759882221971709,0.16511646957329865,0.24039232404839544,0.29514504062054447,0.33383037078066613,0.36001379416747781],"AUX_ENDO_LAG_7_6":[0,0,2.5795338087775121E-15,3.903127820947816E-15,5.7245874707234634E-16,2.9221416952829316E-15,1.2612307032089376E-14,-0.06056660539480159,-0.057626652558510662,-0.0551064639795838,-0.0529170949521858,-0.050988154518989477,-0.049264077369284884,-0.047701135442542668,-0.046265043160120506,-0.044929039024597765,-0.043672349446713887,-0.042478959179225853,-0.041336627489954272,-0.040236100746663055,-0.039170480554275071],"AUX_ENDO_LAG_13_8":[0,0,7.2997163869104043E-15,1.2156942119645464E-14,1.4682699500667695E-14,6.9944050551384862E-15,1.5820678100908481E-15,-1.1102230246251565E-16,1.8374191057546341E-14,-2.2337459747819679,-1.6252258299769924,-1.1456019487545579,-0.76908954925884909,-0.47497066692052958,-0.24659948842191695,-0.070603233222949729,0.063759882221975067,0.16511646957330237,0.24039232404839966,0.29514504062054975,0.3338303707806714],"AUX_ENDO_LAG_7_7":[0,0,-3.0019389751778647E-15,-3.0097452308197603E-16,1.033895191682177E-15,-2.1016174911459018E-15,4.9352882891540162E-16,1.0437831154952448E-14,-0.060566605394803671,-0.057626652558512709,-0.055106463979585796,-0.05291709495218766,-0.050988154518991254,-0.049264077369286584,-0.047701135442544368,-0.046265043160122248,-0.044929039024599514,-0.043672349446715615,-0.042478959179227511,-0.041336627489955764,-0.040236100746664588],"AUX_ENDO_LAG_13_9":[0,0,-1.4155343563970746E-15,7.2164496600635175E-15,1.4099832412739488E-14,1.6486811915683575E-14,7.3274719625260332E-15,3.9968028886505635E-15,9.71445146547012E-16,2.09277040141842E-14,-2.2337459747819683,-1.6252258299769915,-1.1456019487545601,-0.76908954925885264,-0.47497066692053458,-0.24659948842192517,-0.070603233222956224,0.06375988222196953,0.16511646957329815,0.24039232404839747,0.29514504062054792],"AUX_ENDO_LAG_7_8":[0,0,2.8848451405494302E-15,1.3877787807814457E-16,3.3584246494910985E-15,5.0905460402539404E-15,1.9897278269453977E-15,4.3923198411732756E-15,1.3935033682521691E-14,-0.060566605394800438,-0.057626652558509607,-0.055106463979582666,-0.052917094952184621,-0.050988154518988395,-0.049264077369283926,-0.047701135442541988,-0.046265043160119985,-0.044929039024597349,-0.043672349446713582,-0.042478959179225333,-0.041336627489953814],"AUX_ENDO_LAG_13_10":[0,0,-1.1018963519404679E-14,-1.5543122344752192E-14,-7.6050277186823223E-15,-4.7184478546569153E-16,5.2735593669694936E-15,-2.1926904736346842E-15,-5.9952043329758453E-15,-1.0713652187632761E-14,8.7985174701543656E-15,-2.2337459747819812,-1.6252258299770046,-1.1456019487545723,-0.76908954925886275,-0.4749706669205449,-0.24659948842193438,-0.070603233222966383,0.063759882221958011,0.16511646957328505,0.24039232404838445],"AUX_ENDO_LAG_7_9":[0,0,-4.0167522086242968E-15,-4.4669129506402783E-16,-2.8449465006019636E-15,2.9837243786801082E-16,1.7763568394002505E-15,-1.3591558434278284E-15,1.3530843112619095E-15,1.1424888812783252E-14,-0.060566605394802388,-0.057626652558511078,-0.055106463979583867,-0.052917094952185745,-0.050988154518989526,-0.049264077369285043,-0.047701135442543105,-0.046265043160121123,-0.044929039024598667,-0.043672349446714963,-0.042478959179226936],"AUX_ENDO_LAG_13_11":[0,0,-1.4849232954361469E-14,-2.9559688030644793E-14,-3.4777736246383029E-14,-2.3592239273284576E-14,-1.1879386363489175E-14,-4.6074255521944E-15,-1.3378187446733136E-14,-1.7513768213461844E-14,-2.5007773629681651E-14,-2.886579864025407E-15,-2.2337459747819968,-1.6252258299770179,-1.1456019487545863,-0.76908954925887618,-0.47497066692055756,-0.24659948842194682,-0.07060323322297854,0.063759882221947492,0.16511646957327578],"AUX_ENDO_LAG_7_10":[0,0,-4.4408920985006262E-16,-4.6160991695742837E-15,-1.1761425167122752E-15,-3.4156705241983332E-15,1.708702623837155E-16,2.1684043449710089E-15,-6.1756155744774333E-16,2.0304938286308527E-15,1.1856834958301476E-14,-0.060566605394802214,-0.057626652558511168,-0.055106463979584026,-0.052917094952185953,-0.0509881545189897,-0.049264077369285175,-0.047701135442543188,-0.046265043160121228,-0.044929039024598751,-0.043672349446715074],"AUX_ENDO_LAG_13_12":[0,0,1.1657341758564144E-15,-1.5015766408055242E-14,-2.8504976157250894E-14,-3.4305891460917337E-14,-2.2315482794965646E-14,-1.1990408665951691E-14,-4.3021142204224816E-15,-1.3378187446733136E-14,-1.9734214262712158E-14,-2.7616797737550769E-14,-3.8025138593411612E-15,-2.2337459747819954,-1.6252258299770144,-1.1456019487545821,-0.76908954925887141,-0.47497066692055223,-0.24659948842194204,-0.070603233222975265,0.063759882221948921],"AUX_ENDO_LAG_7_11":[0,0,1.200688853897347E-14,1.1210650463500116E-14,7.0039460342563586E-15,1.0251348381284942E-14,7.49227069274383E-15,1.0336349831607805E-14,1.1657341758564144E-14,8.3960616237277463E-15,1.0809061978811485E-14,2.0476675910430231E-14,-0.060566605394793895,-0.057626652558503362,-0.055106463979576671,-0.052917094952178924,-0.050988154518982857,-0.049264077369278354,-0.047701135442536312,-0.046265043160114296,-0.044929039024591826],"AUX_ENDO_LAG_13_13":[0,0,1.659783421814609E-14,1.8096635301390052E-14,2.5257573810222311E-15,-1.1074474670635936E-14,-2.0206059048177849E-14,-5.4123372450476381E-15,3.6914915568786455E-15,1.0158540675320182E-14,3.5527136788005009E-15,-5.6066262743570405E-15,-1.3822276656583199E-14,7.6050277186823223E-15,-2.2337459747819848,-1.6252258299770037,-1.1456019487545732,-0.76908954925886042,-0.47497066692053957,-0.24659948842193211,-0.070603233222965273],"AUX_ENDO_LAG_7_12":[0,0,-6.7289923633140347E-15,4.9968709725511928E-15,3.331536435613458E-15,-1.7416623698807143E-15,1.2255821357776142E-15,-1.0130785099704553E-15,2.8354055214840912E-15,5.2648857495896095E-15,2.8761715231695462E-15,5.8737736896574688E-15,1.5836290612192272E-14,-0.0605666053947982,-0.057626652558507081,-0.05510646397957978,-0.052917094952182067,-0.050988154518986091,-0.04926407736928174,-0.047701135442539878,-0.046265043160117987],"AUX_ENDO_LAG_13_14":[0,0,2.0511370379949767E-14,3.8469227803261674E-14,4.0772940579358874E-14,2.4591439995447217E-14,1.0685896612017132E-14,-1.4988010832439613E-15,1.3822276656583199E-14,2.170486013142181E-14,2.9781732635569824E-14,2.3842039453825237E-14,1.4155343563970746E-14,2.248201624865942E-15,2.2509771824275049E-14,-2.2337459747819737,-1.6252258299769882,-1.1456019487545575,-0.76908954925884621,-0.47497066692052503,-0.2465994884219169],"AUX_ENDO_LAG_7_13":[0,0,-9.0170926281274433E-15,-1.5360109018036638E-14,-3.0557154029331457E-15,-4.1407849371566385E-15,-8.861834877027519E-15,-5.8885188392032717E-15,-8.4455012427930853E-15,-4.8286027953814425E-15,-2.3574892038524808E-15,-4.4365552898106841E-15,-1.272419669628988E-15,8.8653043239794727E-15,-0.060566605394805406,-0.057626652558514381,-0.055106463979587073,-0.052917094952189041,-0.050988154518992634,-0.049264077369287937,-0.04770113544254579],"AUX_ENDO_LAG_13_15":[0,0,1.4016565685892601E-14,3.5027536426923689E-14,5.5261351050717167E-14,5.8703042427055152E-14,3.9884762159658749E-14,2.400857290751901E-14,1.1157741397482823E-14,2.5784929746919261E-14,3.4000580129145419E-14,4.3465231414074879E-14,3.84969833788773E-14,2.8227420401094605E-14,1.7791323969618134E-14,3.6304292905242619E-14,-2.233745974781959,-1.625225829976978,-1.1456019487545479,-0.7690895492588371,-0.47497066692051559],"AUX_ENDO_LAG_7_14":[0,0,1.5404344466674047E-15,-7.2780323434606942E-15,-1.319170467306563E-14,-3.7209818559702512E-16,-1.124100812432971E-15,-5.7575472167670227E-15,-2.8223950954142651E-15,-5.4565726936850467E-15,-2.054779957294528E-15,4.3368086899420177E-17,-2.4875934645507414E-15,4.6664061503776111E-16,1.0467321454044054E-14,-0.060566605394803852,-0.057626652558513222,-0.055106463979585872,-0.052917094952187896,-0.050988154518991635,-0.049264077369287049],"AUX_ENDO_LAG_13_16":[0,0,7.2164496600635175E-15,2.2426505097428162E-14,4.5546899585247047E-14,6.7640337775287662E-14,6.8417493892525272E-14,4.8266945995578681E-14,3.2140956562898282E-14,1.8013368574543165E-14,3.5638159090467525E-14,4.1994185906446546E-14,5.1680881796301037E-14,4.9654724776360126E-14,3.8608005681339819E-14,2.708944180085382E-14,4.2521541843143495E-14,-2.2337459747819559,-1.6252258299769737,-1.1456019487545435,-0.76908954925883355],"AUX_ENDO_LAG_7_15":[0,0,-8.2399365108898337E-16,6.7394007041698956E-16,-8.32320323773672E-15,-1.3937635767735657E-14,-3.1398494915180208E-16,-9.9746599868666408E-17,-3.9647105043449926E-15,-6.1322474875780131E-16,-3.3237301799715624E-15,-3.4520997171938461E-16,1.1830814106161824E-15,-1.7633464133304244E-15,8.2572837456496018E-16,1.0706713293728853E-14,-0.06056660539480363,-0.057626652558511418,-0.055106463979583839,-0.052917094952185967,-0.050988154518989921],"AUX_ENDO_LAG_13_17":[0,0,-1.8873791418627661E-15,4.163336342344337E-15,2.2620794126737565E-14,4.4853010194856324E-14,6.7140737414206342E-14,6.8001160258290838E-14,4.6407322429331543E-14,2.989275493803234E-14,1.8013368574543165E-14,3.3334446314370325E-14,4.04121180963557E-14,5.21249710061511E-14,4.9876769381285158E-14,3.5360603334311236E-14,2.1926904736346842E-14,3.7830849564102209E-14,-2.2337459747819608,-1.6252258299769795,-1.1456019487545481],"AUX_ENDO_LAG_7_16":[0,0,-2.0877397033380873E-15,-4.6178338930502605E-15,-4.1763467684141631E-15,-1.3071141391485241E-14,-1.78685191642991E-14,-3.0149494012476907E-15,-1.2212453270876722E-15,-3.3861802251067274E-15,1.2862974574368025E-15,-8.31799906730879E-16,1.9949319973733282E-15,2.9091312692131055E-15,-7.0429773124658368E-16,1.3019099687205937E-15,1.089319606739636E-14,-0.0605666053948041,-0.057626652558511772,-0.05510646397958429,-0.052917094952186244],"AUX_ENDO_LAG_13_18":[0,0,-2.3037127760972E-15,-4.7739590058881731E-15,3.524958103184872E-15,2.0566881531181025E-14,4.4880765770471953E-14,6.6835426082434424E-14,6.7529315472825147E-14,4.5574655160862676E-14,3.1336044870045043E-14,1.6486811915683575E-14,3.5360603334311236E-14,4.1078251911130792E-14,5.0487392044828994E-14,4.9210635566510064E-14,3.5915714846623814E-14,2.1482815526496779E-14,3.9024339315574252E-14,-2.2337459747819621,-1.6252258299769831],"AUX_ENDO_LAG_7_17":[0,0,-7.6804881898873134E-15,-9.98073151903256E-15,-1.2143931693575638E-14,-1.1451777026660892E-14,-2.0295397307190655E-14,-2.4612256677158939E-14,-8.6675458477181166E-15,-5.6395860204006E-15,-6.9397612656452168E-15,-1.9411555696180471E-15,-4.1191008937069284E-15,-1.5074747006238454E-15,-9.3848540050345264E-16,-4.9873299934333204E-15,-3.5310296353507908E-15,5.6413207438765767E-15,-0.060566605394809452,-0.057626652558518232,-0.055106463979590008]},"fiscal_":{"Y":[0,0.11824415154041151,0.01507735375248026,0.016350729862493751,0.024916633824249745,0.031720844507989177,0.036390969096726344,0.039319820804788908,0.04089352949290942,0.041430293509430394,0.041187114890392007,0.040370860683651588,0.039147785891567477,0.037651365786356417,0.035988852968819318,0.034247159624637369,0.032499129794125114,0.030812566356695714,0.029267852682810569,0.027999151037721604,0.027298089895728905],"C":[0,-0.46959308076596712,-0.04153774374581104,0.020584549770871846,0.0408610563737932,0.0528014075133581,0.060644948494585738,0.065532368008029751,0.06815581582154781,0.069050482515753492,0.068645190817355317,0.067284767739449747,0.065246309812646064,0.062752276309965,0.059981421614655861,0.057078599374422639,0.054165216323583787,0.051354277261189824,0.04877975447137714,0.046665251729564372,0.045496816492908654],"s":[0,0.84390590239961227,0.97458822973328019,1.0200984107399549,1.045744085069078,1.0601230567923539,1.0658060067984492,1.064469109068368,1.0574595512385159,1.0458945900832477,1.0307060984289853,1.0126733658852443,0.99244979873947381,0.97058546410970514,0.94754750797040055,0.923742014146891,0.89954529388719617,0.87536440869848464,0.85177778726934683,0.829888079005384,0.81223180974584874],"Ps":[0,-0.41713054736616428,0.30420484507714451,0.37843201027156675,0.38580693751010642,0.38473976618676486,0.38139018159611754,0.37663900819759655,0.37079512205437004,0.36407403474113947,0.3566521288959591,0.34867719692970978,0.34027348904525073,0.33154503994221313,0.32257717951705911,0.31343471419758706,0.3041524804876391,0.29470683285333416,0.2849380290501039,0.27434493159896206,0.26154668192796188],"Pss":[0,0.42677535503344766,1.2787930748104248,1.3985304210115217,1.4315510225791854,1.4448628229791192,1.4471961883945674,1.4411081172659648,1.4282546732928862,1.4099686248243861,1.3873582273249454,1.3613505628149545,1.3327232877847246,1.3021305040519184,1.2701246874874599,1.2371767283444779,1.2036977743748358,1.1700712415518186,1.13671581631945,1.1042330106043465,1.0737784916738109],"L":[0,-0.034474446954136984,-0.28533801291191757,-0.40084283763553685,-0.49072238045070282,-0.567135946409313,-0.63237868895989513,-0.68766135155357067,-0.73399650826217022,-0.77229493806448246,-0.80338247578210342,-0.82800836568206493,-0.84685221231498109,-0.86053020819817228,-0.86960060329771838,-0.87456810785738237,-0.87588635832837,-0.87395612000370093,-0.86911309603802156,-0.86158927708937627,-0.851405817425213],"w":[0,-0.95642338500900714,-0.22574449394759083,-0.15925231927603511,-0.16363907747777634,-0.17796515817795128,-0.1948994474907873,-0.21276593976073438,-0.23068662248800226,-0.24804650400074396,-0.2644008562563504,-0.2794346473621428,-0.292933486532208,-0.304760551479165,-0.31483745841955618,-0.3231268551798539,-0.32961274651702493,-0.33426950547947959,-0.33699703907626316,-0.337464135085567,-0.33470927572679593],"Pi":[0,-0.45895702251087805,-0.43898012667416614,-0.42844943211053294,-0.4189850234774336,-0.40968763978925143,-0.40042684814923729,-0.39116502062302189,-0.38188590382467191,-0.37258445544278096,-0.36326345134436966,-0.35393128274017222,-0.34460028107612234,-0.33528542203990258,-0.32600333055161118,-0.31677153503661309,-0.30760794809592457,-0.29853060236287876,-0.28955778727372344,-0.28070902356649885,-0.27200806112566545],"F":[0,-11.852789110327015,-11.711720565938192,-11.448256110389286,-11.170637285708086,-10.890251483683356,-10.608847624340333,-10.327232914302659,-10.046123798535284,-9.7662171151703365,-9.48818701845384,-9.2126774011045267,-8.9402961282408349,-8.6716111738065447,-8.40714819752187,-8.1473890297644651,-7.892770328445053,-7.6436810146479175,-7.4004552656467517,-7.1633529795550519,-6.9325068501057387],"K":[0,-16.8314779757714,-16.47370341319321,-16.096003747814571,-15.715716604383514,-15.334474342220359,-14.95261096714513,-14.570525504255352,-14.188758084509155,-13.807950847889643,-13.428808060782996,-13.052064642355793,-12.678462227185365,-12.308731242965777,-11.943577693764302,-11.583673555379539,-11.229649798616064,-10.882090959542547,-10.541529616172065,-10.208437424312965,-9.8832047124646465],"PQ":[0,-19.0722665729523,0.49839056083199484,0.44084445719715365,-1.0519759666669442,-2.2715332733707405,-3.1362341152161117,-3.7098351383133217,-4.0566267539754666,-4.229645406670838,-4.2716668038294019,-4.2170584797653152,-4.093384311453832,-3.9227233176848033,-3.7227705467925909,-3.5078178671895057,-3.2897850878548023,-3.07967600300985,-2.8903807793422924,-2.7431854010483043,-2.6841169738790023],"PB":[0,0.23025127306037352,0.31260804175570966,0.41218767518575117,0.49346664747969349,0.556607634386182,0.60464121628896261,0.64031935832537223,0.66590965515232459,0.68326241747816174,0.69388796872540137,0.69902123117265125,0.69967399324106483,0.6966770475634676,0.69071413039800189,0.68234918714435289,0.67204807165294278,0.66019525672313284,0.6471052016015344,0.63302595397138139,0.61812745511303568],"b":[0,0.84596258235960375,0.95968045007121949,0.98511983445562246,0.98983932783867035,0.98318336941692275,0.96820677462103832,0.94695250590950186,0.92104873275568533,0.89182487498958052,0.86036910398096378,0.827571609667916,0.79415983390928435,0.7607280002785255,0.72776329112591442,0.69567254329957207,0.66481781713666965,0.63558124785897485,0.60851134384384009,0.58468605253646366,0.56664527706629642],"q":[0,7.09464909242469,0.904641225148859,0.98104379174967726,1.4949980294549128,1.9032506704793053,2.183458145803526,2.3591892482875534,2.4536117695742936,2.4858176105658747,2.4712268934235739,2.4222516410190438,2.3488671534939782,2.25908194718138,2.1593311781292033,2.0548295774782268,1.9499477876475417,1.8487539814017151,1.756071160968659,1.6799490622632667,1.6378853937437152],"qCB":[0,-6.1874332086914849,-0.78896180565348328,-0.85559452725206042,-1.3038277628494568,-1.6598758091590902,-1.9042522420958425,-2.0575120362228576,-2.1398604422185747,-2.1679480174414949,-2.1552230628160025,-2.1125104354282818,-2.0485098613054342,-1.9702057817165988,-1.8832104683493465,-1.7920718276913621,-1.7006016138821214,-1.6123477891866089,-1.5315166228312156,-1.4651285047849392,-1.428443654542634],"qbar":[0,-2.4980018054066022E-15,1.4405143744511406E-14,1.7069679003611782E-14,-2.8421709430404007E-14,-1.8873791418627661E-14,-2.1954660311962471E-14,7.790990075307036E-14,-9.96425164601078E-14,1.6875389974302379E-14,1.7263968032921184E-14,-2.042810365310288E-14,-2.7422508708241367E-14,-3.0253577421035516E-15,1.4988010832439613E-14,-7.2997163869104043E-15,1.1823875212257917E-14,-1.1407541578023483E-14,6.8278716014447127E-15,-1.226796442210798E-14,-8.2434059578417873E-15],"i":[0,-0.23025127306037918,-0.31260804175579809,-0.41218767518583621,-0.49346664747976282,-0.55660763438625593,-0.60464121628903378,-0.64031935832546472,-0.66590965515237355,-0.68326241747823413,-0.693887968725473,-0.69902123117271364,-0.69967399324112833,-0.69667704756353965,-0.69071413039804652,-0.682349187144417,-0.67204807165300928,-0.66019525672318946,-0.64710520160158891,-0.63302595397143546,-0.618127455113089],"iQ":[0,1.8818956368127904,-0.049177113704385308,-0.043498933770618989,0.10380040432687637,0.22413636783442553,0.3094579909982344,0.3660562594058735,0.40027482623963312,0.41734689506528577,0.42149322364469249,0.41610491982685416,0.40390176207202788,0.38706232779086391,0.36733261996241334,0.34612284354077227,0.32460914801105195,0.30387729799668706,0.28519918996338817,0.27067515113921892,0.26484676074114488],"D":[0,-0.16454301364858726,-0.30192310203954636,-0.418828640484177,-0.51813067765753151,-0.60202887536820637,-0.67240875496641983,-0.73091315443841376,-0.7789793907049346,-0.81786826092477516,-0.84868830216145219,-0.87241631243421014,-0.88991477679586817,-0.901946710563201,-0.90918834156335082,-0.912239983444537,-0.91163540110185226,-0.90784994299614352,-0.90130773398908925,-0.89238834323095018,-0.88143371631057443],"A":[0,5.5243214444721577E-15,3.8670250111305104E-15,2.706917507791357E-15,1.89484225545395E-15,1.3263895788177648E-15,9.2847270517243531E-16,6.4993089362070464E-16,4.5495162553449323E-16,3.1846613787414522E-16,2.2292629651190165E-16,1.5604840755833114E-16,1.092338852908318E-16,7.6463719703582258E-17,5.3524603792507575E-17,3.74672226547553E-17,2.6227055858328708E-17,1.8358939100830096E-17,1.2851257370581066E-17,8.9958801594067461E-18,6.2971161115847218E-18],"G":[0,0.99999999999997535,0.10000000000003417,0.010000000000038756,0.0010000000000387477,0.0001000000000374035,1.0000000035925716E-5,1.0000000352228255E-6,1.0000003425325588E-7,1.0000033245916029E-8,1.0000322792080851E-9,1.0003187167484384E-10,1.0029976849068589E-11,1.0292877661299826E-12,1.2823075934420558E-13,3.7636560534792807E-14,2.7755575615628914E-14,2.6090241078691179E-14,2.5202062658991053E-14,2.4202861936828413E-14,2.3536728122053319E-14],"theta":[0,0,0,0,0,0,0,0,0,0,0,0,0,0,0,0,0,0,0,0,0],"ksi":[0,0,0,0,0,0,0,0,0,0,0,0,0,0,0,0,0,0,0,0,0],"ChiC":[0,0,1.0379721640913697E-14,1.0967802306947398E-14,1.0582476070377486E-14,1.0124092679961745E-14,9.69124723567235E-15,9.2954070861553813E-15,8.9301409673957156E-15,8.5895977414697845E-15,8.2671434731480526E-15,7.96049902732626E-15,7.665773236246738E-15,7.3728361621025021E-15,7.0924633337989233E-15,6.8181702909209541E-15,7.142775759417586E-15,7.324487597141331E-15,5.5904413109568945E-15,6.2707474887936795E-15,5.870911349230035E-15],"ChiL":[0,0,-2.8121118911616032E-30,-3.9369566476262437E-30,-4.1338044800075542E-30,-3.8582175146737159E-30,-3.3759403253395008E-30,-2.8357898732851797E-30,-2.315895063182896E-30,-1.8527160505463163E-30,-1.4590138898052236E-30,-1.1347885809596181E-30,-8.7378720733890564E-31,-6.67255685604255E-31,-5.0600222824989326E-31,-3.8144783360376557E-31,-2.860858752028241E-31,-2.1361078681810861E-31,-1.5887302269596823E-31,-1.177529462334823E-31,-8.7006343605850789E-32],"epsG":[0,0.99999999999997513,3.2632445325288464E-14,3.1316066078479336E-14,3.0932374323387087E-14,2.9778588685964156E-14,2.8634613888819461E-14,2.80728325836413E-14,2.728900484549515E-14,2.6480107949310749E-14,2.5726610966337241E-14,2.5181535897454763E-14,2.3949271681287105E-14,2.3584658941698373E-14,2.2590403587798497E-14,2.2004053618246198E-14,2.1342038584998393E-14,2.0788898723648363E-14,2.0074086148192677E-14,1.9330896120774066E-14,1.8790946830326831E-14],"Yf":[0,0.33472803347279251,0.033472803347297242,0.0033472803347467384,0.00033472803349121616,3.3472803364853476E-5,3.347280351451154E-6,3.3472804955581026E-7,3.3472819183089086E-8,3.3472954963365E-9,3.347427335320674E-10,3.3487046469105053E-11,3.3609226512965051E-12,3.4799940706875532E-13,4.6518344731794059E-14,1.5820678100908481E-14,1.226796442210798E-14,1.2045919817182948E-14,1.1046719095020308E-14,1.1046719095020308E-14,1.0602629885170245E-14],"Gf":[0,0.99999999999996225,0.10000000000004117,0.010000000000047082,0.0010000000000471854,0.00010000000004561915,1.0000000043919322E-5,1.0000000429943867E-6,1.0000004180277244E-7,1.0000040573387992E-8,1.0000393846354427E-9,1.0003831096838667E-10,1.0036971254123728E-11,1.0362821711851211E-12,1.3489209749195652E-13,4.3742787170231168E-14,3.3750779948604759E-14,3.1974423109204508E-14,3.0753177782116836E-14,2.964295475749168E-14,2.886579864025407E-14],"interest":[0,-0.92100509224151739,-1.2504321670232155,-1.6487507007433666,-1.973866589919069,-2.2264305375450419,-2.4185648651561529,-2.5612774333018828,-2.6636386206095062,-2.7330496699129547,-2.7755518749019115,-2.796084924690871,-2.7986959729645298,-2.7867081902541777,-2.7628565215921959,-2.7293967485776855,-2.6881922866120558,-2.6407810268927725,-2.58842080640637,-2.5321038158857592,-2.4725098204523697],"inflation":[0,-0.45895702251087789,-0.897937149185044,-1.32638658129538,-1.7453716047727017,-1.6961022220510786,-1.6575489435261541,-1.6202645320386486,-1.5831654123858916,-1.5460622280394289,-1.5088988312345697,-1.4716650933517263,-1.4343794706031823,-1.3970804372003105,-1.3598203164075602,-1.3226605687040089,-1.2856682357238174,-1.2489134160468016,-1.2124678727689211,-1.1764053612988103,-1.1408054743285592],"inflationq":[0,-1.83582809004351,-1.755920506696671,-1.7137977284421371,-1.6759400939097393,-1.6387505591570115,-1.601707392596954,-1.5646600824920924,-1.5275436152986936,-1.4903378217711298,-1.4530538053774842,-1.4157251309606953,-1.3784011243044949,-1.3411416881596137,-1.3040133222064421,-1.2670861401464555,-1.2304317923837007,-1.194122409451517,-1.1582311490948975,-1.1228360942659967,-1.0880322445026636],"outputgap":[0,-0.21648388193236673,-0.0183954495947874,0.013003449527773239,0.0245819057907816,0.031687371704647319,0.036387621816397132,0.039319486076765421,0.040893496020106362,0.041430290162154652,0.041187114555668786,0.040370860650182055,0.039147785888226393,0.037651365786030115,0.035988852968784381,0.034247159624636522,0.032499129794136723,0.030812566356698691,0.029267852682819048,0.027999151037723397,0.027298089895733839],"output":[0,0.11824415154041663,0.015077353752491855,0.016350729862506463,0.024916633824259807,0.031720844508000022,0.036390969096737232,0.039319820804804548,0.040893529492915914,0.04143029350944058,0.041187114890402922,0.040370860683661018,0.039147785891576234,0.0376513657863669,0.035988852968827464,0.034247159624647007,0.032499129794135224,0.030812566356704221,0.029267852682818833,0.027999151037729268,0.027298089895736795],"fispol":[0,0.99999999999998768,1.631558364352246E-14,1.5657969137327496E-14,1.5466180771502314E-14,1.4889293703962948E-14,1.4317306880507816E-14,1.4036416285430474E-14,1.364450242210854E-14,1.3240053974591475E-14,1.2863305483162242E-14,1.2590767948726741E-14,1.1974635840643477E-14,1.1792329470849177E-14,1.1295201793899253E-14,1.1002026809123097E-14,1.0671019292499195E-14,1.0394449361824182E-14,1.0037043074096341E-14,9.6654480603870282E-15,9.3954734151634123E-15],"AUX_ENDO_LEAD_89":[0,-1.7559205066966697,-1.7137977284421246,-1.6759400939097231,-1.6387505591569931,-1.6017073925969387,-1.5646600824920749,-1.5275436152986761,-1.4903378217711067,-1.453053805377468,-1.4157251309606778,-1.3784011243044749,-1.3411416881595959,-1.304013322206427,-1.2670861401464393,-1.2304317923836821,-1.1941224094515028,-1.1582311490948785,-1.122836094265979,-1.088032244502646,-1.053964129395532],"AUX_ENDO_LEAD_93":[0,-1.7137977284421244,-1.6759400939097273,-1.6387505591569926,-1.6017073925969358,-1.5646600824920731,-1.5275436152986748,-1.4903378217711116,-1.4530538053774567,-1.4157251309606786,-1.3784011243044769,-1.3411416881595926,-1.3040133222064219,-1.2670861401464404,-1.2304317923836832,-1.1941224094514979,-1.1582311490948807,-1.1228360942659772,-1.0880322445026422,-1.0539641293955277,-1.0209118795779981],"AUX_ENDO_LEAD_97":[0,-1.6759400939097269,-1.6387505591569924,-1.6017073925969338,-1.5646600824920656,-1.5275436152986723,-1.4903378217711063,-1.4530538053774593,-1.4157251309606684,-1.3784011243044749,-1.3411416881595928,-1.3040133222064192,-1.2670861401464344,-1.2304317923836809,-1.1941224094514979,-1.1582311490948771,-1.1228360942659763,-1.0880322445026402,-1.0539641293955277,-1.0209118795779968,-0.98853371458427364],"AUX_ENDO_LEAD_124":[0,-0.018395449594787505,0.013003449527775587,0.024581905790782684,0.031687371704647527,0.036387621816397528,0.0393194860767661,0.040893496020107591,0.041430290162154354,0.041187114555669938,0.040370860650182923,0.039147785888226046,0.037651365786030788,0.035988852968786365,0.034247159624636633,0.032499129794134517,0.030812566356698785,0.029267852682817352,0.027999151037724265,0.027298089895733083,0.027881395022005654],"AUX_ENDO_LEAD_128":[0,0.013003449527777175,0.024581905790781376,0.03168737170465024,0.036387621816398021,0.039319486076765831,0.040893496020106973,0.041430290162152307,0.0411871145556695,0.040370860650183839,0.039147785888228218,0.037651365786028533,0.03598885296878427,0.0342471596246365,0.032499129794132928,0.0308125663566977,0.029267852682815444,0.027999151037724775,0.02729808989573319,0.027881395022003756,0.026641856176408126],"AUX_ENDO_LEAD_132":[0,0.024581905790780983,0.031687371704650726,0.036387621816398895,0.039319486076765449,0.040893496020105592,0.0414302901621526,0.041187114555670444,0.040370860650185483,0.039147785888227822,0.037651365786030268,0.03598885296878726,0.034247159624638292,0.032499129794133615,0.030812566356697647,0.029267852682815631,0.027999151037725666,0.027298089895736555,0.027881395022005633,0.026641856176408654,0.025487959308578386],"AUX_ENDO_LEAD_159":[0,0.015077353752491853,0.016350729862506325,0.024916633824259616,0.031720844507999162,0.036390969096736933,0.0393198208048038,0.040893529492914971,0.041430293509440136,0.041187114890403026,0.040370860683660324,0.039147785891575367,0.037651365786367304,0.035988852968826972,0.034247159624646,0.032499129794134961,0.030812566356703867,0.029267852682818556,0.027999151037728674,0.027298089895735744,0.02788139502200827],"AUX_ENDO_LEAD_163":[0,0.016350729862506349,0.024916633824259182,0.031720844508001222,0.036390969096736087,0.0393198208048036,0.040893529492914631,0.041430293509439615,0.041187114890402832,0.040370860683660408,0.039147785891575207,0.037651365786368,0.035988852968825806,0.034247159624645383,0.032499129794134732,0.03081256635670257,0.029267852682818989,0.027999151037728785,0.027298089895736118,0.0278813950220085,0.026641856176411374],"AUX_ENDO_LEAD_167":[0,0.02491663382425921,0.031720844508002381,0.036390969096736676,0.039319820804801647,0.04089352949291436,0.041430293509438935,0.041187114890401874,0.040370860683661552,0.03914778589157468,0.037651365786369434,0.0359888529688258,0.034247159624645321,0.032499129794134364,0.030812566356702587,0.029267852682819388,0.0279991510377263,0.027298089895737065,0.02788139502200938,0.026641856176410697,0.025487959308580187],"AUX_ENDO_LAG_7_1":[0,0,-0.45895702251076403,-0.43898012667405217,-0.42844943211041953,-0.41898502347732247,-0.40968763978914213,-0.40042684814913004,-0.39116502062291741,-0.38188590382457083,-0.37258445544268148,-0.36326345134427257,-0.35393128274007668,-0.34460028107603113,-0.33528542203981426,-0.32600333055152375,-0.31677153503652944,-0.30760794809584319,-0.29853060236279821,-0.28955778727364678,-0.28070902356642424],"AUX_ENDO_LAG_7_2":[0,0,8.3066366285411419E-14,-0.45895702251068249,-0.43898012667397363,-0.42844943211034237,-0.41898502347724742,-0.40968763978906841,-0.40042684814905855,-0.39116502062284814,-0.38188590382450349,-0.37258445544261576,-0.3632634513442089,-0.35393128274001467,-0.34460028107597035,-0.33528542203975586,-0.32600333055146852,-0.31677153503647532,-0.3076079480957899,-0.29853060236274775,-0.28955778727359743],"AUX_ENDO_LAG_32_1":[0,0,0.11824415154041663,0.015077353752491855,0.016350729862506463,0.024916633824259807,0.031720844508000022,0.036390969096737232,0.039319820804804548,0.040893529492915914,0.04143029350944058,0.041187114890402922,0.040370860683661018,0.039147785891576234,0.0376513657863669,0.035988852968827464,0.034247159624647007,0.032499129794135224,0.030812566356704221,0.029267852682818833,0.027999151037729268],"AUX_ENDO_LAG_32_2":[0,0,0,0.11824415154041663,0.015077353752491855,0.016350729862506463,0.024916633824259807,0.031720844508000022,0.036390969096737232,0.039319820804804548,0.040893529492915914,0.04143029350944058,0.041187114890402922,0.040370860683661018,0.039147785891576234,0.0376513657863669,0.035988852968827464,0.034247159624647007,0.032499129794135224,0.030812566356704221,0.029267852682818833],"AUX_ENDO_LAG_32_3":[0,0,0,0,0.11824415154041663,0.015077353752491855,0.016350729862506463,0.024916633824259807,0.031720844508000022,0.036390969096737232,0.039319820804804548,0.040893529492915914,0.04143029350944058,0.041187114890402922,0.040370860683661018,0.039147785891576234,0.0376513657863669,0.035988852968827464,0.034247159624647007,0.032499129794135224,0.030812566356704221],"AUX_ENDO_LAG_31_1":[0,0,-0.21648388193237117,-0.018395449594791755,0.013003449527768999,0.024581905790777452,0.03168737170464328,0.036387621816393219,0.039319486076761605,0.040893496020102685,0.041430290162151065,0.041187114555665295,0.040370860650178676,0.039147785888223131,0.037651365786026958,0.035988852968781321,0.034247159624633552,0.032499129794133857,0.030812566356695908,0.029267852682816363,0.027999151037720812],"AUX_ENDO_LAG_31_2":[0,0,0,-0.21648388193237117,-0.018395449594791755,0.013003449527768999,0.024581905790777452,0.03168737170464328,0.036387621816393219,0.039319486076761605,0.040893496020102685,0.041430290162151065,0.041187114555665295,0.040370860650178676,0.039147785888223131,0.037651365786026958,0.035988852968781321,0.034247159624633552,0.032499129794133857,0.030812566356695908,0.029267852682816363],"AUX_ENDO_LAG_31_3":[0,0,0,0,-0.21648388193237117,-0.018395449594791755,0.013003449527768999,0.024581905790777452,0.03168737170464328,0.036387621816393219,0.039319486076761605,0.040893496020102685,0.041430290162151065,0.041187114555665295,0.040370860650178676,0.039147785888223131,0.037651365786026958,0.035988852968781321,0.034247159624633552,0.032499129794133857,0.030812566356695908],"AUX_ENDO_LAG_28_1":[0,0,-0.92100509224151728,-1.2504321670232155,-1.6487507007433666,-1.973866589919069,-2.2264305375450419,-2.4185648651561529,-2.5612774333018828,-2.6636386206095062,-2.7330496699129547,-2.7755518749019115,-2.796084924690871,-2.7986959729645298,-2.7867081902541777,-2.7628565215921959,-2.7293967485776855,-2.6881922866120558,-2.6407810268927725,-2.58842080640637,-2.5321038158857592],"AUX_ENDO_LAG_28_2":[0,0,0,-0.92100509224151728,-1.2504321670232155,-1.6487507007433666,-1.973866589919069,-2.2264305375450419,-2.4185648651561529,-2.5612774333018828,-2.6636386206095062,-2.7330496699129547,-2.7755518749019115,-2.796084924690871,-2.7986959729645298,-2.7867081902541777,-2.7628565215921959,-2.7293967485776855,-2.6881922866120558,-2.6407810268927725,-2.58842080640637],"AUX_ENDO_LAG_28_3":[0,0,0,0,-0.92100509224151728,-1.2504321670232155,-1.6487507007433666,-1.973866589919069,-2.2264305375450419,-2.4185648651561529,-2.5612774333018828,-2.6636386206095062,-2.7330496699129547,-2.7755518749019115,-2.796084924690871,-2.7986959729645298,-2.7867081902541777,-2.7628565215921959,-2.7293967485776855,-2.6881922866120558,-2.6407810268927725],"AUX_ENDO_LAG_30_1":[0,0,-1.83582809004351,-1.755920506696671,-1.7137977284421371,-1.6759400939097393,-1.6387505591570115,-1.601707392596954,-1.5646600824920924,-1.5275436152986936,-1.4903378217711298,-1.4530538053774842,-1.4157251309606953,-1.3784011243044949,-1.3411416881596137,-1.3040133222064421,-1.2670861401464555,-1.2304317923837007,-1.194122409451517,-1.1582311490948975,-1.1228360942659967],"AUX_ENDO_LAG_30_2":[0,0,0,-1.83582809004351,-1.755920506696671,-1.7137977284421371,-1.6759400939097393,-1.6387505591570115,-1.601707392596954,-1.5646600824920924,-1.5275436152986936,-1.4903378217711298,-1.4530538053774842,-1.4157251309606953,-1.3784011243044949,-1.3411416881596137,-1.3040133222064421,-1.2670861401464555,-1.2304317923837007,-1.194122409451517,-1.1582311490948975],"AUX_ENDO_LAG_30_3":[0,0,0,0,-1.83582809004351,-1.755920506696671,-1.7137977284421371,-1.6759400939097393,-1.6387505591570115,-1.601707392596954,-1.5646600824920924,-1.5275436152986936,-1.4903378217711298,-1.4530538053774842,-1.4157251309606953,-1.3784011243044949,-1.3411416881596137,-1.3040133222064421,-1.2670861401464555,-1.2304317923837007,-1.194122409451517],"AUX_ENDO_LAG_13_1":[0,0,7.0946490924244765,0.90464122514863765,0.98104379174945333,1.4949980294546932,1.9032506704790917,2.1834581458033204,2.359189248287358,2.4536117695741022,2.4858176105656846,2.4712268934233865,2.422251641018867,2.3488671534938064,2.259081947181214,2.1593311781290443,2.0548295774780749,1.949947787647395,1.8487539814015745,1.7560711609685229,1.679949062263135],"AUX_ENDO_LAG_13_2":[0,0,1.7641443861293737E-13,7.0946490924246284,0.9046412251487953,0.98104379174961764,1.4949980294548506,1.9032506704792391,2.1834581458034692,2.3591892482875014,2.4536117695742465,2.4858176105658276,2.4712268934235206,2.4222516410189945,2.3488671534939356,2.2590819471813419,2.1593311781291571,2.0548295774781917,1.9499477876475046,1.8487539814016776,1.7560711609686246],"AUX_ENDO_LAG_13_3":[0,0,4.2271741662602835E-14,2.1324608745487694E-13,7.0946490924246808,0.90464122514884515,0.9810437917496666,1.49499802945489,1.9032506704792798,2.1834581458035203,2.3591892482875529,2.4536117695742909,2.4858176105658747,2.4712268934235659,2.4222516410190451,2.3488671534939765,2.2590819471813917,2.1593311781292033,2.0548295774782357,1.9499477876475495,1.8487539814017198],"AUX_ENDO_LAG_13_4":[0,0,-1.8818280267396403E-14,3.422262473407045E-14,2.0433654768226006E-13,7.09464909242467,0.90464122514883438,0.98104379174966672,1.4949980294548897,1.9032506704792778,2.1834581458035158,2.3591892482875569,2.4536117695742887,2.4858176105658671,2.4712268934235597,2.4222516410190518,2.3488671534939778,2.2590819471813921,2.1593311781292033,2.0548295774782357,1.9499477876475502],"AUX_ENDO_LAG_7_3":[0,0,3.8728568962920207E-14,1.2269785881757755E-13,-0.45895702251064358,-0.43898012667393288,-0.42844943211030118,-0.41898502347720579,-0.4096876397890275,-0.40042684814901758,-0.39116502062280878,-0.38188590382446508,-0.37258445544257818,-0.36326345134417254,-0.35393128273997931,-0.34460028107593627,-0.33528542203972367,-0.32600333055143654,-0.3167715350364429,-0.30760794809575948,-0.29853060236271828],"AUX_ENDO_LAG_13_5":[0,0,-8.1629147885564635E-14,-9.43689570931383E-14,-3.9968028886505635E-14,1.2664869153411473E-13,7.0946490924246026,0.90464122514875889,0.98104379174960121,1.494998029454824,1.9032506704792169,2.1834581458034608,2.359189248287497,2.453611769574231,2.4858176105658156,2.471226893423506,2.42225164101901,2.3488671534939312,2.259081947181353,2.159331178129166,2.0548295774781997],"AUX_ENDO_LAG_7_4":[0,0,-8.6666784859801282E-15,3.03368441478824E-14,1.1482741840707078E-13,-0.4589570225106499,-0.43898012667393888,-0.42844943211030734,-0.418985023477211,-0.40968763978903255,-0.40042684814902146,-0.39116502062281266,-0.38188590382446819,-0.372584455442581,-0.36326345134417531,-0.35393128273998148,-0.34460028107593871,-0.33528542203972556,-0.32600333055143854,-0.31677153503644451,-0.307607948095761],"AUX_ENDO_LAG_13_6":[0,0,6.106226635438361E-15,-7.5661699128204418E-14,-8.9234175604246957E-14,-3.3528735343679728E-14,1.3913870056114774E-13,7.0946490924246062,0.90464122514877465,0.98104379174961232,1.4949980294548435,1.9032506704792311,2.18345814580347,2.3591892482875108,2.4536117695742465,2.4858176105658361,2.4712268934235273,2.422251641019026,2.34886715349395,2.2590819471813641,2.1593311781291811],"AUX_ENDO_LAG_7_5":[0,0,-5.381979584218044E-15,-1.6211858244741251E-14,2.1081227041808148E-14,1.0555618878971273E-13,-0.45895702251065723,-0.43898012667394615,-0.42844943211031428,-0.41898502347721828,-0.40968763978903888,-0.40042684814902813,-0.39116502062281888,-0.38188590382447479,-0.37258445544258767,-0.36326345134418153,-0.3539312827399882,-0.3446002810759452,-0.33528542203973116,-0.32600333055144493,-0.31677153503645028],"AUX_ENDO_LAG_13_7":[0,0,5.2985393850235596E-14,4.393707619954057E-14,-3.2279734440976426E-14,-4.4242387531312488E-14,7.2719608112947753E-15,1.8382517730231029E-13,7.0946490924246559,0.90464122514881551,0.98104379174964584,1.4949980294548821,1.9032506704792691,2.1834581458035105,2.3591892482875485,2.453611769574283,2.4858176105658711,2.4712268934235544,2.4222516410190655,2.3488671534939831,2.2590819471813983],"AUX_ENDO_LAG_7_6":[0,0,1.4244681822983551E-14,8.7915785762504584E-15,-2.5326962749261384E-15,3.3446335978570829E-14,1.1837492791544335E-13,-0.45895702251064613,-0.43898012667393504,-0.42844943211030334,-0.4189850234772074,-0.40968763978902839,-0.40042684814901774,-0.39116502062280867,-0.38188590382446441,-0.37258445544257712,-0.36326345134417137,-0.35393128273997831,-0.34460028107593582,-0.33528542203972195,-0.3260033305514361],"AUX_ENDO_LAG_13_8":[0,0,7.102651800039439E-14,1.1737832927849468E-13,1.0447198661722723E-13,2.4313884239290928E-14,1.5792922525292852E-14,6.1284310959308641E-14,2.3075985566833879E-13,7.0946490924247092,0.90464122514885859,0.98104379174969647,1.4949980294549277,1.903250670479318,2.1834581458035451,2.3591892482875916,2.453611769574326,2.485817610565908,2.4712268934235908,2.4222516410190984,2.3488671534940173],"AUX_ENDO_LAG_7_7":[0,0,-1.8669094048462398E-14,-2.1016174911459018E-15,-5.9743876512641236E-15,-1.6911819167297892E-14,1.9711662857524459E-14,1.0607747319424377E-13,-0.45895702251065867,-0.43898012667394753,-0.42844943211031633,-0.41898502347722028,-0.40968763978904049,-0.4004268481490299,-0.39116502062282049,-0.38188590382447574,-0.37258445544258834,-0.36326345134418236,-0.35393128273998903,-0.34460028107594665,-0.33528542203973166],"AUX_ENDO_LAG_13_9":[0,0,-6.2727600891321345E-15,5.6288307348495437E-14,9.9309449552720253E-14,9.0094598448331453E-14,1.3183898417423734E-14,-6.1617377866696188E-15,4.7101211819722266E-14,2.0811130596598559E-13,7.0946490924246994,0.90464122514883538,0.981043791749685,1.4949980294549141,1.9032506704793062,2.183458145803542,2.3591892482875787,2.4536117695743154,2.4858176105658987,2.4712268934235788,2.4222516410190917],"AUX_ENDO_LAG_7_8":[0,0,3.1267523292743959E-14,9.54011175613445E-15,2.4347711347072476E-14,1.9377728588398924E-14,7.8496237287950521E-15,4.4729844828061971E-14,1.2968098817012219E-13,-0.45895702251063575,-0.43898012667392627,-0.42844943211029579,-0.41898502347720029,-0.40968763978902117,-0.40042684814901114,-0.3911650206228024,-0.38188590382445836,-0.37258445544257174,-0.3632634513441666,-0.35393128273997432,-0.34460028107593171],"AUX_ENDO_LAG_13_10":[0,0,-1.1554646128786317E-13,-1.0758061108617767E-13,-4.6712633761103461E-14,-3.4139358007223564E-15,-2.0788926136106056E-14,-9.2786889283047458E-14,-1.0408340855860843E-13,-4.3992587350771828E-14,1.1673995103933521E-13,7.0946490924246124,0.90464122514874978,0.98104379174959877,1.4949980294548275,1.9032506704792271,2.1834581458034625,2.3591892482875076,2.4536117695742496,2.4858176105658378,2.471226893423518],"AUX_ENDO_LAG_7_9":[0,0,-2.727939402147328E-14,3.8476166697165581E-15,-1.6793857970931469E-14,-2.194425197110661E-16,-3.9438938226332709E-15,-1.5035715728028975E-14,2.2057876358783091E-14,1.0687197654624114E-13,-0.45895702251065851,-0.43898012667394776,-0.42844943211031589,-0.41898502347721939,-0.40968763978904038,-0.40042684814903018,-0.39116502062282105,-0.3818859038244769,-0.37258445544258978,-0.36326345134418431,-0.35393128273999142],"AUX_ENDO_LAG_13_11":[0,0,-1.3952727861976655E-13,-2.4225066397320916E-13,-2.3697710460623966E-13,-1.8410273305846658E-13,-1.4527268277220173E-13,-1.5440426714974365E-13,-2.164657342262899E-13,-2.2690183065776637E-13,-1.5729084701376905E-13,-8.18789480661053E-15,7.0946490924245094,0.9046412251486311,0.98104379174949241,1.4949980294547212,1.9032506704791237,2.1834581458033631,2.3591892482874108,2.4536117695741524,2.4858176105657432],"AUX_ENDO_LAG_7_10":[0,0,-3.4867941867133823E-15,-2.9374072618715275E-14,2.2057008997045102E-15,-1.8950986613308629E-14,-3.3965885659625883E-15,-7.5243630770494E-15,-1.7877192781678986E-14,1.9677835749742911E-14,1.0504704744951354E-13,-0.45895702251065967,-0.43898012667394926,-0.42844943211031694,-0.41898502347722055,-0.40968763978904132,-0.4004268481490309,-0.39116502062282155,-0.38188590382447724,-0.37258445544259017,-0.36326345134418447],"AUX_ENDO_LAG_13_12":[0,0,4.163336342344337E-16,-1.3206102877916237E-13,-2.4150126343158718E-13,-2.3142598948311388E-13,-1.8240964294591322E-13,-1.3819501099021636E-13,-1.5148993171010261E-13,-2.1213586443025179E-13,-2.1654900095313678E-13,-1.4949153026577733E-13,-5.9119376061289586E-15,7.0946490924245094,0.90464122514862821,0.981043791749492,1.4949980294547183,1.9032506704791186,2.1834581458033568,2.3591892482874082,2.4536117695741497],"AUX_ENDO_LAG_7_11":[0,0,9.8398719727832429E-14,9.1199617302528679E-14,6.1652939697953713E-14,9.0972368527175718E-14,6.8215398607573974E-14,8.2053287775440964E-14,7.5896754159199276E-14,6.27978571920984E-14,9.7826260980760082E-14,1.8136273732816122E-13,-0.45895702251058507,-0.4389801266738767,-0.42844943211024644,-0.4189850234771515,-0.40968763978897438,-0.40042684814896617,-0.39116502062275882,-0.3818859038244164,-0.37258445544253105],"AUX_ENDO_LAG_13_13":[0,0,1.4213630272763567E-13,1.3725132141928498E-13,2.4980018054066022E-16,-1.1074474670635936E-13,-9.4868557454219626E-14,-6.5614180755346752E-14,-1.5432100042289676E-14,-3.1002977962657496E-14,-1.0647038806155251E-13,-1.0141887329950805E-13,-4.31044089310717E-14,1.0272338535344261E-13,7.09464909242461,0.90464122514872591,0.98104379174959222,1.4949980294548055,1.9032506704792023,2.18345814580345,2.3591892482874925],"AUX_ENDO_LAG_7_12":[0,0,-6.0808996726891E-14,4.0588192529167344E-14,3.6884557907956861E-14,9.9755273486046292E-15,4.0386097244216046E-14,1.78537740147533E-14,3.1617070073153286E-14,2.6541269182445149E-14,1.5463325064857258E-14,5.2860493759965266E-14,1.3718800401241182E-13,-0.45895702251062881,-0.43898012667391911,-0.42844943211028863,-0.41898502347719152,-0.4096876397890139,-0.40042684814900492,-0.39116502062279657,-0.38188590382445337],"AUX_ENDO_LAG_13_14":[0,0,1.8604562335156061E-13,3.152478278423132E-13,3.0606073231354003E-13,1.6839307726002062E-13,5.1680881796301037E-14,7.1193051454088163E-14,8.6985973979381015E-14,1.3633538742396922E-13,1.0824674490095276E-13,2.8949065367100957E-14,3.2029934260435766E-14,9.5451424542147834E-14,2.3214763444912023E-13,7.0946490924247438,0.904641225148835,0.98104379174970391,1.494998029454921,1.903250670479308,2.18345814580355],"AUX_ENDO_LAG_7_13":[0,0,-7.5577565039619543E-14,-1.3645942015250156E-13,-3.43908929112402E-14,-3.6817771054131754E-14,-6.1776972426486054E-14,-2.8606457480595537E-14,-4.8881905467812459E-14,-3.3240771246667578E-14,-3.7099663618977985E-14,-4.6598142011688992E-14,-8.1991705092043787E-15,7.9189259316603255E-14,-0.45895702251068571,-0.43898012667397407,-0.42844943211034103,-0.41898502347724276,-0.40968763978906386,-0.40042684814905316,-0.39116502062284286],"AUX_ENDO_LAG_13_15":[0,0,1.3211653993039363E-13,3.0844771181648412E-13,4.2815750944669162E-13,4.1652792326374311E-13,2.8532731732866523E-13,1.6528445279107018E-13,1.7841284005726266E-13,1.9101387138675818E-13,2.3439583607398617E-13,1.9911849946652183E-13,1.1621259510263826E-13,1.1898815266420115E-13,1.7233436899743992E-13,3.1263880373444408E-13,7.0946490924248131,0.90464122514891565,0.98104379174977308,1.4949980294549865,1.9032506704793681],"AUX_ENDO_LAG_7_14":[0,0,1.6778245459647678E-14,-5.841074152135306E-14,-1.2026924595121002E-13,-1.9075019341840971E-14,-2.1527918336872176E-14,-4.6811512999234139E-14,-1.457167719820518E-14,-3.5462952019393867E-14,-1.9789725413943415E-14,-2.3304275176272427E-14,-3.3207811500624018E-14,4.9118695222283293E-15,9.0648842598906043E-14,-0.45895702251067588,-0.43898012667396491,-0.428449432110333,-0.418985023477234,-0.4096876397890552,-0.40042684814904472],"AUX_ENDO_LAG_13_16":[0,0,7.3274719625260332E-14,1.982303210468217E-13,3.6848302187308946E-13,4.84751128126959E-13,4.824751709264774E-13,3.4702796192220831E-13,2.2143398226148747E-13,2.3511748103999253E-13,2.3331336862497665E-13,2.8602120671905595E-13,2.4394375408576252E-13,1.48991929904696E-13,1.5720758028692217E-13,2.09277040141842E-13,3.5416114485542494E-13,7.0946490924248558,0.90464122514894518,0.98104379174980239,1.4949980294550183],"AUX_ENDO_LAG_7_15":[0,0,9.4542429440735987E-15,2.8487628922491126E-14,-4.5477510646207975E-14,-1.0725621779617E-13,-7.0898148463172106E-15,-1.0930492622129862E-14,-3.6653839685651946E-14,-3.2049016218671511E-15,-2.2812481070833002E-14,-6.4228136698041283E-15,-9.9122099417314757E-15,-1.9301400755455944E-14,1.8236280541206185E-14,1.0341033584992942E-13,-0.45895702251066495,-0.43898012667395719,-0.42844943211032277,-0.41898502347722349,-0.40968763978904477],"AUX_ENDO_LAG_13_17":[0,0,-2.5229818234606682E-14,5.23192600354605E-14,1.6467383012752634E-13,3.4419689320941416E-13,4.5791148650664582E-13,4.5477510646207975E-13,3.2368552282946439E-13,1.9562129693895258E-13,2.0114465648646274E-13,2.1108115255685789E-13,2.5696111904949248E-13,2.0977664050292333E-13,1.19598775327745E-13,1.3788969965844444E-13,1.8912649224489542E-13,3.2865377086466196E-13,7.0946490924248335,0.90464122514892686,0.98104379174977985],"AUX_ENDO_LAG_7_16":[0,0,-2.2473342631279536E-15,1.2215922717828676E-14,3.2028199536959789E-14,-4.253021546052338E-14,-1.0513465098505037E-13,-5.863365348801608E-15,-1.0515893711371405E-14,-3.6697207772551366E-14,-3.1424515767319861E-15,-2.1854913712093804E-14,-4.3662989890336235E-15,-7.3005837486483927E-15,-1.6571813366006438E-14,2.03517758201599E-14,1.0560996521746802E-13,-0.45895702251066167,-0.43898012667395586,-0.42844943211032105,-0.41898502347722216],"AUX_ENDO_LAG_13_18":[0,0,-9.3813845580825728E-15,-3.6221026178395732E-14,3.3223424011907809E-14,1.5512591211575E-13,3.2537861294201775E-13,4.4431125445498765E-13,4.408140519274184E-13,3.0989100174849682E-13,1.739441923831464E-13,1.9306778398231472E-13,1.8532397838555426E-13,2.420008637926685E-13,1.9897972158844368E-13,1.0047518372857667E-13,1.168232177661821E-13,1.7388868123191514E-13,3.0606073231354003E-13,7.094649092424822,0.90464122514891721],"AUX_ENDO_LAG_7_17":[0,0,-5.73456213071033E-14,-5.917141776556889E-14,-4.5020411010288086E-14,-2.3445655139564536E-14,-9.6423737050432834E-14,-1.5896051835939673E-13,-6.0397867263084493E-14,-6.52594298045095E-14,-9.0271540242881088E-14,-5.5106093299617243E-14,-7.2725679645113672E-14,-5.4293375351122108E-14,-5.6171213513867E-14,-6.3745016209981742E-14,-2.5418035731750166E-14,6.106226635438361E-14,-0.45895702251070525,-0.43898012667399428,-0.42844943211036257]}}