{"interest_": {"cs": [0, -0.04603882107, -0.03352369905, -0.02442990882, -0.01782625743, -0.0130357739, -0.009558598103, -0.00703240531, -0.005194948252, -0.003856426238, -0.002879461162, -0.002164607746, -0.001639869731, -0.001253114463, -0.0009665845135, -0.0007529265106, -0.0005923176967, -0.0004703867105, -0.0003767090111, -0.0003037180761, -0.0002459174308], "cn": [0, -0.03886858925, -0.0280851, -0.0203180519, -0.01469149228, -0.01062236725, -0.007680333635, -0.00555356111, -0.004016431752, -0.002905728953, -0.002103383116, -0.001523986769, -0.001105761877, -0.0008040248787, -0.0005864587992, -0.0004296927685, -0.0003168274164, -0.0002356446012, -0.0001773122391, -0.0001354473274, -0.0001054381133], "R": [0, 0.2438407215, -0.004477357721, -0.003267777603, -0.002390377746, -0.001716394589, -0.001226114303, -0.0008709599488, -0.0006137253642, -0.0004273629034, -0.0002922940328, -0.0001943516302, -0.0001232843282, -7.167397297e-05, -3.415236838e-05, -6.834579628e-06, 1.309108229e-05, 2.765971637e-05, 3.834447138e-05, 4.621184621e-05, 5.203405766e-05], "i": [0, -0.03448198539, -0.0249266848, -0.01805311486, -0.01312949002, -0.009619124896, -0.007126417971, -0.005365181435, -0.00412878553, -0.003268145023, -0.002675770765, -0.002274233133, -0.002007818582, -0.001836496179, -0.001731555133, -0.001672451017, -0.001644526252, -0.001637362904, -0.00164359277, -0.001658038135, -0.001677091623], "k": [0, -0.03942955554, -0.0285964485, -0.02080600054, -0.01515995633, -0.01107455269, -0.008118813138, -0.005980421625, -0.00443338583, -0.003314197589, -0.002504557676, -0.001918875588, -0.001495225589, -0.001188803447, -0.0009671924101, -0.0008069381413, -0.0006910706989, -0.0006073116841, -0.0005467771104, -0.0005030389243, -0.0004714460102], "v": [0, -0.03942955554, -0.02765281201, -0.01920604222, -0.01310973975, -0.008721139917, -0.005566566362, -0.003302997751, -0.001682408589, -0.0005255151473, 0.0002972457723, 0.0008794788409, 0.001288785699, 0.001573966495, 0.001770229058, 0.001902956717, 0.001990433396, 0.002045814401, 0.002078551526, 0.002095423458, 0.002101280654], "l": [0, -0.04469497293, -0.03211744028, -0.02308797092, -0.01655894828, -0.01184807562, -0.008451992727, -0.006006065681, -0.004246557389, -0.002982751796, -0.002076755611, -0.001428883995, -0.0009670879193, -0.0006393056831, -0.0004079299651, -0.0002458053853, -0.0001333333209, -5.63777576e-05, -4.750637694e-06, 2.888357471e-05, 4.980006664e-05], "y": [0, -0.04897141912, -0.03528928481, -0.02546180959, -0.01835090027, -0.01321580688, -0.009509929547, -0.006837267582, -0.004911360283, -0.003525026954, -0.002528440534, -0.001813262592, -0.001301165619, -0.0009355295377, -0.000675434692, -0.0004913162821, -0.0003618207874, -0.0002715319868, -0.000209326086, -0.000167181969, -0.0001393206981], "gc": [0, 1.652491498e-16, 0.0005678141247, 0.0003197503277, 0.0001116804055, -6.715869758e-05, -0.0002245949544, -0.0003664240583, -0.0004968423901, -0.0006188818711, -0.0007347318395, -0.000845972342, -0.0009537429137, -0.001058864663, -0.001161928575, -0.001263359368, -0.001363461686, -0.001462453481, -0.001560490166, -0.00165768206, -0.001754107004], "c": [0, -0.04603882107, -0.03352369905, -0.02442990882, -0.01782625743, -0.0130357739, -0.009558598103, -0.00703240531, -0.005194948252, -0.003856426238, -0.002879461162, -0.002164607746, -0.001639869731, -0.001253114463, -0.0009665845135, -0.0007529265106, -0.0005923176967, -0.0004703867105, -0.0003767090111, -0.0003037180761, -0.0002459174308], "q": [0, -0.2301905936, 0.01440843224, 0.0104727945, 0.007587311719, 0.005461626214, 0.003924101126, 0.002814168567, 0.002013495267, 0.001436355663, 0.001020740311, 0.0007218041066, 0.0005071189654, 0.0003532388752, 0.0002432148548, 0.0001647971756, 0.0001091348015, 6.983455151e-05, 4.228051024e-05, 2.314171561e-05, 1.001605633e-05], "rk": [0, -0.005699735558, -0.003997349545, -0.002776327562, -0.001895077152, -0.001260683531, -0.0008046744579, -0.000477464518, -0.0002432004097, -7.596579089e-05, 4.296833364e-05, 0.0001271329781, 0.0001863002912, 0.0002275245733, 0.000255895289, 0.0002750817227, 0.0002877269056, 0.0002957325013, 0.0003004648133, 0.0003029037337, 0.0003037504202], "w": [0, -0.0004343181681, -0.0004763577682, -0.0004943571813, -0.0004960852079, -0.0004871606056, -0.0004714948695, -0.0004518204623, -0.0004300288505, -0.0004074115836, -0.0003848337316, -0.0003628586151, -0.0003418373783, -0.000321973191, -0.0003033671561, -0.0002860510332, -0.0002700104724, -0.0002552014252, -0.0002415616594, -0.0002290187652, -0.0002174956566], "pi": [0, -0.0001009361895, -7.558946256e-05, -5.027809208e-05, -3.057015751e-05, -1.534556417e-05, -3.46781217e-06, 5.912864536e-06, 1.341963489e-05, 1.950988846e-05, 2.45203692e-05, 2.869995765e-05, 3.223344918e-05, 3.525880859e-05, 3.787969956e-05, 4.017459101e-05, 4.220338274e-05, 4.401223262e-05, 4.563707931e-05, 4.71062182e-05, 4.844218968e-05], "b": [0, -0.2145636341, 0.03441228134, 0.03373032167, 0.03328458119, 0.0330099196, 0.03289667754, 0.03290140878, 0.03299050352, 0.03313952393, 0.03333079373, 0.03355153514, 0.03379251385, 0.03404705824, 0.03431034992, 0.03457891046, 0.03485023023, 0.03512249982, 0.03539441589, 0.0356650407, 0.03593370058], "sb": [0, -0.165592215, 0.06970156615, 0.05919213126, 0.05163548146, 0.04622572648, 0.04240660708, 0.03973867636, 0.0379018638, 0.03666455089, 0.03585923426, 0.03536479773, 0.03509367947, 0.03498258778, 0.03498578461, 0.03507022675, 0.03521205102, 0.03539403181, 0.03560374197, 0.03583222267, 0.03607302128], "tauk": [0, -2.552204125e-16, 4.286651286e-16, 2.641212392e-16, 1.975588042e-16, 1.49615169e-16, 1.154858095e-16, 9.129814137e-17, 7.424411887e-17, 6.229705834e-17, 5.399579418e-17, 4.828786869e-17, 4.441608322e-17, 4.183645715e-17, 4.015890889e-17, 3.910437284e-17, 3.847380451e-17, 3.812578388e-17, 3.796033683e-17, 3.790725302e-17, 3.791765489e-17], "taul": [0, 9.512402246e-18, 6.755545326e-15, -2.158276031e-16, -1.496972481e-16, -1.003215388e-16, -6.441545766e-17, -3.93563251e-17, -2.214458349e-17, -1.055011131e-17, -2.961501386e-18, 1.781748458e-18, 4.514218422e-18, 5.835162557e-18, 6.174020624e-18, 5.837773471e-18, 5.045165653e-18, 3.951430289e-18, 2.66614572e-18, 1.266126123e-18, -1.952780253e-19], "tauc": [0, 0, 0, 0, 0, 0, 0, 0, 0, 0, 0, 0, 0, 0, 0, 0, 0, 0, 0, 0, 0], "r": [0, 0.243916311, -0.004427079629, -0.003237207446, -0.002375032182, -0.001712926776, -0.001232027168, -0.0008843795837, -0.0006332352527, -0.0004518832726, -0.0003209939905, -0.0002265850793, -0.0001585431368, -0.0001095536725, -7.43269594e-05, -4.903796237e-05, -3.092115034e-05, -1.797736294e-05, -8.761746818e-06, -2.230343476e-06, 2.370890196e-06], "z": [0, 2.016506886e-16, -9.35525626e-05, -5.23030893e-05, -1.781598944e-05, 1.171218249e-05, 3.759350937e-05, 6.07995696e-05, 8.203424117e-05, 0.0001018064983, 0.0001204842811, 0.0001383335385, 0.0001555464752, 0.0001722619829, 0.0001885804183, 0.0002045742911, 0.0002202959926, 0.0002357833848, 0.0002510638406, 0.0002661571646, 0.000281077704], "mc": [0, -0.002171905907, -0.001638285055, -0.001247407407, -0.0009577525495, -0.0007424231709, -0.0005814441337, -0.0004602830007, -0.000368375465, -0.000298034472, -0.00024365905, -0.0002011613894, -0.0001675519474, -0.0001406389288, -0.0001188105492, -0.0001008772238, -8.595713764e-05, -7.339322946e-05, -6.26929234e-05, -5.348434058e-05, -4.548445126e-05], "kbar": [0, -0.000943636492, -0.001599958317, -0.002050216582, -0.002353412776, -0.002552246776, -0.002677423874, -0.002750977241, -0.002788682441, -0.002801803449, -0.002798354429, -0.002784011288, -0.002762769943, -0.002737421468, -0.002709894858, -0.002681504095, -0.002653126085, -0.002625328637, -0.002598462382, -0.002572726665, -0.002548216652], "lambda": [0, 0.2279811015, -0.01593520949, -0.01150812986, -0.008270922417, -0.005895890234, -0.004182963458, -0.00295093629, -0.002066556706, -0.001433321454, -0.0009814381811, -0.0006604441907, -0.0004338591113, -0.0002753159745, -0.000165762302, -9.143534258e-05, -4.23973802e-05, -1.147622987e-05, 6.501133068e-06, 1.526287988e-05, 1.749322336e-05], "Pb": [0, -0.2310800253, 0.0134649879, 0.00948367777, 0.006558969724, 0.004398665976, 0.002830311998, 0.001692736986, 0.0008671327663, 0.0002673935285, -0.0001687984457, -0.0004865412129, -0.0007184728556, -0.0008882156624, -0.00101286811, -0.001104807902, -0.001172996539, -0.001223923256, -0.001262288024, -0.001291495759, -0.001314013942], "cstar": [0, -0.04603882107, -0.03352369905, -0.02442990882, -0.01782625743, -0.0130357739, -0.009558598103, -0.00703240531, -0.005194948252, -0.003856426238, -0.002879461162, -0.002164607746, -0.001639869731, -0.001253114463, -0.0009665845135, -0.0007529265106, -0.0005923176968, -0.0004703867105, -0.0003767090111, -0.0003037180761, -0.0002459174308], "piL": [0, 0.000477341782, 0.0005834487678, 0.0006687036753, 0.0007378683337, 0.0007947854726, 0.000842310685, 0.0008825605036, 0.0009171107146, 0.0009471414413, 0.0009735426111, 0.0009969906517, 0.00101800433, 0.001036985464, 0.001054248666, 0.001070043112, 0.001084568523, 0.001097986941, 0.001110431425, 0.001122012524, 0.001132823104], "rL": [0, 0.2306026835, -0.01404843667, -0.01015238145, -0.007296838058, -0.005193451449, -0.003672622683, -0.00257529749, -0.001784243481, -0.00121453497, -0.0008047441654, -0.0005104494388, -0.000299531474, -0.0001487698017, -4.138055581e-05, 3.476478995e-05, 8.842801533e-05, 0.0001259363154, 0.0001518565991, 0.0001694832348, 0.0001811908382], "S": [0, -0.647435736, -0.4715481639, -0.3407816741, -0.2458621159, -0.1770271392, -0.1270717939, -0.09077443244, -0.0643569287, -0.04508604267, -0.03098451285, -0.02062200501, -0.01296386515, -0.007261694851, -0.002974184853, 0.000290159944, 0.00281445731, 0.004803425833, 0.006405072891, 0.007726384846, 0.008844677956], "rb": [0, -0.2188923551, 0.243916311, -0.004427079629, -0.003237207446, -0.002375032182, -0.001712926776, -0.001232027168, -0.0008843795837, -0.0006332352527, -0.0004518832726, -0.0003209939905, -0.0002265850793, -0.0001585431368, -0.0001095536725, -7.432695939e-05, -4.903796237e-05, -3.092115034e-05, -1.797736294e-05, -8.761746817e-06, -2.230343475e-06], "Tk": [0, -0.0451292911, -0.03259379805, -0.0235823281, -0.01705503349, -0.01233523622, -0.008923487596, -0.006457886143, -0.004676586239, -0.003390163379, -0.002461589343, -0.00179174261, -0.001308925298, -0.0009612788741, -0.0007112971212, -0.0005318564186, -0.0004033437933, -0.0003115791828, -0.0002463122971, -0.0002001351905, -0.00016769559], "Tl": [0, -0.0451292911, -0.03259379805, -0.0235823281, -0.01705503349, -0.01233523622, -0.008923487596, -0.006457886143, -0.004676586239, -0.003390163379, -0.002461589343, -0.00179174261, -0.001308925298, -0.0009612788741, -0.0007112971212, -0.0005318564186, -0.0004033437933, -0.0003115791828, -0.0002463122971, -0.0002001351905, -0.00016769559], "Tc": [0, -0.04603882107, -0.03352369905, -0.02442990882, -0.01782625743, -0.0130357739, -0.009558598103, -0.00703240531, -0.005194948252, -0.003856426238, -0.002879461162, -0.002164607746, -0.001639869731, -0.001253114463, -0.0009665845135, -0.0007529265106, -0.0005923176967, -0.0004703867105, -0.0003767090111, -0.0003037180761, -0.0002459174308], "cobs": [0, -4.603882107, 1.251512202, 0.909379023, 0.660365139, 0.4790483528, 0.3477175796, 0.2526192793, 0.1837457058, 0.1338522013, 0.09769650769, 0.07148534156, 0.05247380151, 0.03867552679, 0.02865299495, 0.02136580029, 0.01606088139, 0.01219309862, 0.00936776994, 0.0072990935, 0.005780064529], "iobs": [0, -3.448198539, 0.955530059, 0.6873569937, 0.4923624846, 0.351036512, 0.2492706925, 0.1761236536, 0.1236395904, 0.08606405075, 0.0592374258, 0.04015376316, 0.02664145512, 0.01713224027, 0.0104941046, 0.005910411611, 0.002792476516, 0.0007163347941, -0.000622986562, -0.001444536537, -0.001905348774], "gcobs": [0, 1.65226096e-14, 0.05678141247, -0.0248063797, -0.02080699222, -0.0178839103, -0.01574362568, -0.01418291039, -0.01304183318, -0.0122039481, -0.01158499685, -0.01112405025, -0.01077705717, -0.01051217496, -0.01030639112, -0.01014307938, -0.01001023173, -0.009899179547, -0.009803668507, -0.009719189439, -0.009642494381], "wobs": [0, -0.04343181681, -0.004203960009, -0.001799941308, -0.0001728026652, 0.0008924602381, 0.001566573604, 0.00196744072, 0.002179161179, 0.002261726694, 0.002257785204, 0.002197511642, 0.002102123683, 0.001986418732, 0.001860603489, 0.001731612288, 0.001604056085, 0.001480904716, 0.001363976582, 0.001254289414, 0.001152310863], "bobs": [0, -21.45636341, 24.89759155, -0.06819596717, -0.04457404743, -0.02746615946, -0.01132420618, 0.0004731244614, 0.008909473851, 0.01490204134, 0.01912697931, 0.0220741411, 0.02409787106, 0.02545443941, 0.02632916752, 0.02685605458, 0.02713197668, 0.02722695895, 0.0271916067, 0.02706248117, 0.02686598828], "Robs": [0, 24.38407215, -0.4477357721, -0.3267777603, -0.2390377746, -0.1716394589, -0.1226114303, -0.08709599488, -0.06137253642, -0.04273629034, -0.02922940328, -0.01943516302, -0.01232843282, -0.007167397297, -0.003415236838, -0.0006834579628, 0.001309108229, 0.002765971637, 0.003834447138, 0.004621184621, 0.005203405766], "Piobs": [0, -0.01009361895, -0.007558946256, -0.005027809208, -0.003057015751, -0.001534556417, -0.000346781217, 0.0005912864536, 0.001341963489, 0.001950988846, 0.00245203692, 0.002869995765, 0.003223344918, 0.003525880859, 0.003787969956, 0.004017459101, 0.004220338274, 0.004401223262, 0.004563707931, 0.00471062182, 0.004844218968], "Lobs": [0, -4.469497293, -3.211744028, -2.308797092, -1.655894828, -1.184807562, -0.8451992727, -0.6006065681, -0.4246557389, -0.2982751796, -0.2076755611, -0.1428883995, -0.09670879193, -0.06393056831, -0.04079299651, -0.02458053853, -0.01333333209, -0.00563777576, -0.0004750637694, 0.002888357471, 0.004980006664], "ugc": [0, -2.819299222e-18, 1.633796553e-14, 1.469071577e-16, 1.096152214e-16, 8.690324024e-17, 7.367738375e-17, 6.470642213e-17, 5.86158903e-17, 5.456021488e-17, 5.194032651e-17, 5.032675465e-17, 4.941188657e-17, 4.897594381e-17, 4.886242507e-17, 4.896036712e-17, 4.91915342e-17, 4.950117085e-17, 4.985133077e-17, 5.021606755e-17, 5.057797085e-17], "uz": [0, 0, -1.818323067e-33, -2.403201481e-33, -2.430096848e-33, -2.222812271e-33, -1.935640902e-33, -1.64006649e-33, -1.366988636e-33, -1.127595285e-33, -9.23757494e-34, -7.532053877e-34, -6.120805956e-34, -4.961644531e-34, -4.014387217e-34, -3.243128155e-34, -2.616878211e-34, -2.109440257e-34, -1.698958079e-34, -1.367357107e-34, -1.099781931e-34], "ua": [0, -2.305378864e-20, -5.796454843e-21, -1.457412891e-21, -3.664399003e-22, -9.213463209e-23, -2.316557347e-23, -5.824561104e-24, -1.4644797e-24, -3.682167221e-25, -9.258138268e-26, -2.327790159e-26, -5.852804569e-27, -1.471581448e-27, -3.700026498e-28, -9.303065617e-29, -2.33910335e-29, -5.88137307e-30, -1.478854063e-30, -3.718961565e-31, -9.355380567e-32], "ub": [0, 0, -5.254675221e-33, -4.699095158e-33, -3.397171511e-33, -2.344719537e-33, -1.614433701e-33, -1.12224775e-33, -7.885905251e-34, -5.590910049e-34, -3.989887751e-34, -2.86045501e-34, -2.05722513e-34, -1.482746172e-34, -1.070272738e-34, -7.733290736e-35, -5.591652102e-35, -4.045094231e-35, -2.927289198e-35, -2.118881239e-35, -1.533983249e-35], "um": [0, 0, 0, 0, 0, 0, 0, 0, 0, 0, 0, 0, 0, 0, 0, 0, 0, 0, 0, 0, 0], "ui": [0, 6.327544219e-17, 3.235981117e-17, 1.654919101e-17, 8.463452448e-18, 4.328309903e-18, 2.21354899e-18, 1.132035192e-18, 5.789362157e-19, 2.960748431e-19, 1.514161843e-19, 7.743603145e-20, 3.960170437e-20, 2.025278103e-20, 1.035751229e-20, 5.296954556e-21, 2.708925347e-21, 1.385376533e-21, 7.084979804e-22, 3.623342653e-22, 1.853020382e-22], "uw": [0, 2.292131918e-17, 7.492858385e-18, 2.449375899e-18, 8.006880668e-19, 2.617407073e-19, 8.556165716e-20, 2.796965459e-20, 9.143132613e-21, 2.988841843e-21, 9.770366394e-22, 3.193881259e-22, 1.044062943e-22, 3.412986713e-23, 1.115687361e-23, 3.647123157e-24, 1.19222533e-24, 3.897321743e-25, 1.274013929e-25, 4.16468436e-26, 1.361413359e-26], "up": [0, 4.013855513e-18, 2.907032259e-18, 2.105416234e-18, 1.524846345e-18, 1.104368979e-18, 7.99838519e-19, 5.7928253e-19, 4.195449977e-19, 3.038551932e-19, 2.200669271e-19, 1.593833296e-19, 1.154332734e-19, 8.36024736e-20, 6.054903743e-20, 4.385260119e-20, 3.176021805e-20, 2.300231738e-20, 1.665941348e-20, 1.206556944e-20, 8.738480863e-21], "csf": [0, -2.234121966e-16, -4.365957739e-16, -2.10390603e-15, -3.266444997e-15, -4.181019478e-15, -4.918878161e-15, -5.528542159e-15, -6.043432376e-15, -6.486908204e-15, -6.875538808e-15, -7.221255019e-15, -7.532779498e-15, -7.816587357e-15, -8.077558522e-15, -8.319425779e-15, -8.545086026e-15, -8.756818992e-15, -8.956442706e-15, -9.145425277e-15, -9.324966186e-15], "cnf": [0, 7.154404881e-16, 2.786283181e-15, 4.031288406e-15, 3.740843854e-15, 3.560484129e-15, 3.449981492e-15, 3.384794619e-15, 3.348942069e-15, 3.332058657e-15, 3.327394014e-15, 3.330532528e-15, 3.338575503e-15, 3.349615894e-15, 3.362398819e-15, 3.376100597e-15, 3.390183926e-15, 3.404302288e-15, 3.418236435e-15, 3.431851936e-15, 3.445070665e-15], "if": [0, 4.68357965e-15, 1.044371309e-14, 1.193772032e-14, 1.333200865e-14, 1.461461598e-14, 1.579014122e-14, 1.68665249e-14, 1.785321825e-14, 1.87599403e-14, 1.959598978e-14, 2.036990963e-14, 2.108936012e-14, 2.176110851e-14, 2.239107882e-14, 2.29844288e-14, 2.35456352e-14, 2.407857768e-14, 2.458661635e-14, 2.507266128e-14, 2.553923347e-14], "kf": [0, 7.258319705e-16, 3.931231412e-15, 4.736866255e-15, 4.272508734e-15, 3.944016922e-15, 3.704964811e-15, 3.526332608e-15, 3.38884692e-15, 3.279682653e-15, 3.190239818e-15, 3.114703257e-15, 3.049107591e-15, 2.990726132e-15, 2.937668463e-15, 2.888613272e-15, 2.842629525e-15, 2.799055767e-15, 2.757418014e-15, 2.717373467e-15, 2.678671656e-15], "vf": [0, 7.339135593e-16, 2.789945861e-15, 1.155793124e-15, 2.068679076e-15, 2.963540287e-15, 3.825665413e-15, 4.649410955e-15, 5.434000462e-15, 6.180844616e-15, 6.892325896e-15, 7.571153707e-15, 8.220030021e-15, 8.841488773e-15, 9.437830518e-15, 1.00111074e-14, 1.056313312e-14, 1.109550389e-14, 1.160962307e-14, 1.210672552e-14, 1.258790018e-14], "lf": [0, 8.608393607e-16, 3.334088976e-15, 4.826495682e-15, 4.550268702e-15, 4.40815052e-15, 4.350094108e-15, 4.345531865e-15, 4.37462469e-15, 4.424557757e-15, 4.487035184e-15, 4.556677583e-15, 4.629997703e-15, 4.704742252e-15, 4.77946642e-15, 4.853257008e-15, 4.925551091e-15, 4.996016503e-15, 5.064472628e-15, 5.130837656e-15, 5.195093358e-15], "yf": [0, 9.096377114e-16, 7.069112711e-15, 5.488411801e-15, 5.106752231e-15, 4.876815431e-15, 4.745088416e-15, 4.676801437e-15, 4.649533038e-15, 4.648681616e-15, 4.664687929e-15, 4.691267463e-15, 4.724276047e-15, 4.760977218e-15, 4.799565829e-15, 4.838856094e-15, 4.878075841e-15, 4.916729858e-15, 4.954508554e-15, 4.991226544e-15, 5.026781177e-15], "gcf": [0, -1.722973978e-16, 3.958514698e-14, 3.889501839e-14, 3.824467288e-14, 3.763388285e-14, 3.705909492e-14, 3.651119556e-14, 3.598309992e-14, 3.546957907e-14, 3.496678703e-14, 3.447189225e-14, 3.398280615e-14, 3.349798442e-14, 3.301628177e-14, 3.253684579e-14, 3.205903947e-14, 3.158238456e-14, 3.110652025e-14, 3.063117289e-14, 3.015613384e-14], "cf": [0, -2.141802047e-16, -4.113714634e-16, -2.10396786e-15, -3.266032934e-15, -4.180237456e-15, -4.917814749e-15, -5.527267222e-15, -6.041997683e-15, -6.485352069e-15, -6.873889714e-15, -7.219534263e-15, -7.53100311e-15, -7.8147675e-15, -8.075704506e-15, -8.317544804e-15, -8.543183719e-15, -8.754899805e-15, -8.954510206e-15, -9.143482359e-15, -9.323015227e-15], "qf": [0, -6.210037475e-15, -7.597239593e-15, -1.186540798e-14, -1.141311303e-14, -1.117206749e-14, -1.106275345e-14, -1.103850258e-14, -1.10687712e-14, -1.113373574e-14, -1.122049085e-14, -1.132060687e-14, -1.14285658e-14, -1.154075476e-14, -1.165481425e-14, -1.176921309e-14, -1.188296939e-14, -1.19954662e-14, -1.210632882e-14, -1.221534285e-14, -1.232239917e-14], "rkf": [0, 1.043945982e-16, 1.237045746e-16, 1.334050477e-16, 2.622408673e-16, 3.890723824e-16, 5.116653016e-16, 6.291132428e-16, 7.411987313e-16, 8.480469605e-16, 9.499450298e-16, 1.047242957e-15, 1.140301042e-15, 1.229463525e-15, 1.315046877e-15, 1.397335996e-15, 1.476584453e-15, 1.553016668e-15, 1.626830844e-15, 1.69820204e-15, 1.767285104e-15], "wf": [0, -3.016032988e-17, -7.362425391e-17, -1.318819602e-16, -1.951824123e-16, -2.584967456e-16, -3.204077105e-16, -3.80228054e-16, -4.376725513e-16, -4.926786131e-16, -5.453023966e-16, -5.956588411e-16, -6.438876449e-16, -6.901344724e-16, -7.345410135e-16, -7.77240121e-16, -8.183538038e-16, -8.579927829e-16, -8.962568632e-16, -9.332356961e-16, -9.69009696e-16], "bf": [0, -1.250167011e-16, -4.828595205e-15, -7.941429412e-16, 2.522862534e-15, 5.606776964e-15, 8.533985533e-15, 1.135541042e-14, 1.410451018e-14, 1.680337851e-14, 1.946667492e-14, 2.210416561e-14, 2.472237535e-14, 2.732566833e-14, 2.99169605e-14, 3.24981922e-14, 3.507064406e-14, 3.763514955e-14, 4.019223875e-14, 4.274223621e-14, 4.528532769e-14], "sbf": [0, -9.980449797e-16, -1.134379622e-14, -6.558920445e-15, -2.825713836e-15, 5.145979567e-16, 3.593443394e-15, 6.498072252e-15, 9.285662138e-15, 1.199386443e-14, 1.464759688e-14, 1.726342204e-14, 1.98523846e-14, 2.242186203e-14, 2.497678011e-14, 2.752041707e-14, 3.00549394e-14, 3.258176125e-14, 3.510178711e-14, 3.761557643e-14, 4.012345588e-14], "taukf": [0, 0, 0, 0, 0, 0, 0, 0, 0, 0, 0, 0, 0, 0, 0, 0, 0, 0, 0, 0, 0], "taulf": [0, 0, 0, 0, 0, 0, 0, 0, 0, 0, 0, 0, 0, 0, 0, 0, 0, 0, 0, 0, 0], "taucf": [0, 0, 0, 0, 0, 0, 0, 0, 0, 0, 0, 0, 0, 0, 0, 0, 0, 0, 0, 0, 0], "rf": [0, -1.095321694e-15, -2.380032642e-15, 7.369697932e-16, 5.197126735e-16, 3.849667141e-16, 3.006138642e-16, 2.490508372e-16, 2.187006449e-16, 2.020932421e-16, 1.943936732e-16, 1.924564323e-16, 1.94224827e-16, 1.983482625e-16, 2.039370383e-16, 2.104042389e-16, 2.173630664e-16, 2.245596861e-16, 2.318289768e-16, 2.390651665e-16, 2.462022172e-16], "zf": [0, 0, -1.575988322e-16, -8.686318234e-17, -7.258434099e-17, -9.728356251e-17, -1.490258439e-16, -2.192059997e-16, -3.016265853e-16, -3.91833123e-16, -4.866322796e-16, -5.837426271e-16, -6.815416145e-16, -7.788823297e-16, -8.749608618e-16, -9.692203338e-16, -1.061281502e-15, -1.150892592e-15, -1.237893064e-15, -1.322187454e-15, -1.403726508e-15], "mcf": [0, 0, 0, 0, 0, 0, 0, 0, 0, 0, 0, 0, 0, 0, 0, 0, 0, 0, 0, 0, 0], "kbarf": [0, 1.464904145e-16, 3.758524022e-15, 2.379631848e-15, 1.156391135e-15, 5.568192959e-17, -9.458498039e-16, -1.866804511e-15, -2.721499876e-15, -3.520977976e-15, -4.273806444e-15, -4.98668372e-15, -5.664892852e-15, -6.312640977e-15, -6.93331319e-15, -7.529662594e-15, -8.103952883e-15, -8.658065696e-15, -9.193581789e-15, -9.711842755e-15, -1.021399825e-14], "lambdaf": [0, 1.365686202e-15, 2.459256347e-15, 7.451941171e-15, 7.080541545e-15, 6.918229223e-15, 6.884823495e-15, 6.932702127e-15, 7.030798219e-15, 7.159126861e-15, 7.304829994e-15, 7.459636421e-15, 7.618240335e-15, 7.777261685e-15, 7.93457572e-15, 8.088877935e-15, 8.239400032e-15, 8.385723402e-15, 8.527656048e-15, 8.665151058e-15, 8.798252487e-15], "cstarf": [0, -2.759412845e-16, -5.801195151e-16, -2.103554225e-15, -3.268789595e-15, -4.185469104e-15, -4.92492887e-15, -5.535796418e-15, -6.051595632e-15, -6.495762452e-15, -6.884921984e-15, -7.231045948e-15, -7.542886965e-15, -7.826942158e-15, -8.088107682e-15, -8.330128337e-15, -8.555909959e-15, -8.767738968e-15, -8.967438431e-15, -9.156480283e-15, -9.336066938e-15], "Sf": [0, 1.203755586e-14, -2.457571512e-13, -2.269156502e-13, -2.279201727e-13, -2.269438161e-13, -2.247521644e-13, -2.217770866e-13, -2.182976018e-13, -2.144952517e-13, -2.104888033e-13, -2.063563248e-13, -2.021493221e-13, -1.979018488e-13, -1.936364167e-13, -1.893678603e-13, -1.851058812e-13, -1.808567363e-13, -1.766243669e-13, -1.724111568e-13, -1.682184458e-13], "rbf": [0, -1.09157546e-15, 1.67569184e-15, 9.541481361e-16, 7.269497029e-16, 5.828572904e-16, 4.92689363e-16, 4.374569626e-16, 4.049619007e-16, 3.873071581e-16, 3.793501008e-16, 3.777225574e-16, 3.802066086e-16, 3.853348911e-16, 3.921331127e-16, 3.999530559e-16, 4.0836348e-16, 4.170783143e-16, 4.259090401e-16, 4.347328903e-16, 4.434714697e-16], "Tkf": [0, 8.302284991e-16, 4.05386353e-15, 4.869833739e-15, 4.534375482e-15, 4.332765006e-15, 4.216345289e-15, 4.155192766e-15, 4.129818414e-15, 4.127523695e-15, 4.139996727e-15, 4.161773127e-15, 4.189248382e-15, 4.220040474e-15, 4.252575787e-15, 4.285818159e-15, 4.319090325e-15, 4.351955406e-15, 4.384137745e-15, 4.415469703e-15, 4.445855739e-15], "Tlf": [0, 8.306789705e-16, 3.260464316e-15, 4.694613442e-15, 4.355086035e-15, 4.149653541e-15, 4.029686185e-15, 3.965303615e-15, 3.936951958e-15, 3.931878978e-15, 3.941732633e-15, 3.961018599e-15, 3.986109924e-15, 4.014607655e-15, 4.04492529e-15, 4.076016778e-15, 4.107197185e-15, 4.138023624e-15, 4.168215674e-15, 4.197601875e-15, 4.226083581e-15], "Tcf": [0, -2.141802047e-16, -4.113714634e-16, -2.10396786e-15, -3.266032934e-15, -4.180237456e-15, -4.917814749e-15, -5.527267222e-15, -6.041997683e-15, -6.485352069e-15, -6.873889714e-15, -7.219534263e-15, -7.53100311e-15, -7.8147675e-15, -8.075704506e-15, -8.317544804e-15, -8.543183719e-15, -8.754899805e-15, -8.954510206e-15, -9.143482359e-15, -9.323015227e-15], "cobsf": [0, -2.142032585e-14, -1.971970552e-14, -1.692597854e-13, -1.16206544e-13, -9.142046144e-14, -7.37577316e-14, -6.094524791e-14, -5.147304627e-14, -4.433543857e-14, -3.885376455e-14, -3.456445485e-14, -3.114688473e-14, -2.837643898e-14, -2.609370065e-14, -2.418402973e-14, -2.256389151e-14, -2.117160866e-14, -1.996104012e-14, -1.889721521e-14, -1.795328689e-14], "iobsf": [0, 4.683556596e-13, 5.760127642e-13, 1.494005778e-13, 1.394287961e-13, 1.282607235e-13, 1.175525218e-13, 1.076383678e-13, 9.866933456e-14, 9.067220488e-14, 8.360494798e-14, 7.739198489e-14, 7.194504938e-14, 6.717483839e-14, 6.299703136e-14, 5.933499787e-14, 5.612064045e-14, 5.329424735e-14, 5.080386705e-14, 4.860449368e-14, 4.66572187e-14], "gcobsf": [0, -1.723204516e-14, 3.975743859e-12, -6.901300553e-14, -6.503458698e-14, -6.107901223e-14, -5.747879593e-14, -5.478993621e-14, -5.280956389e-14, -5.135208569e-14, -5.027920391e-14, -4.948947806e-14, -4.89086101e-14, -4.84821727e-14, -4.817026489e-14, -4.794359772e-14, -4.778063241e-14, -4.766549077e-14, -4.758643094e-14, -4.753473622e-14, -4.75039053e-14], "wobsf": [0, -3.018338367e-15, -4.346972049e-15, -5.82591637e-15, -6.330081851e-15, -6.331442546e-15, -6.191098812e-15, -5.982034928e-15, -5.744449878e-15, -5.500606211e-15, -5.262378359e-15, -5.035644458e-15, -4.822880384e-15, -4.624682741e-15, -4.440654113e-15, -4.269910753e-15, -4.111368277e-15, -3.963897908e-15, -3.826408033e-15, -3.697883292e-15, -3.577399986e-15], "bobsf": [0, -1.250397549e-14, -4.7035843e-13, 4.034450806e-13, 3.317005108e-13, 3.083914338e-13, 2.927208546e-13, 2.821424883e-13, 2.749099752e-13, 2.698868333e-13, 2.663296412e-13, 2.637490693e-13, 2.61820973e-13, 2.603292985e-13, 2.591292172e-13, 2.581231695e-13, 2.572451861e-13, 2.564505488e-13, 2.557089205e-13, 2.549997458e-13, 2.543091485e-13], "Lobsf": [0, 8.608396219e-14, 3.334088672e-13, 4.826495565e-13, 4.5502686e-13, 4.40815043e-13, 4.350094029e-13, 4.345531794e-13, 4.374624626e-13, 4.424557699e-13, 4.487035131e-13, 4.556677535e-13, 4.629997658e-13, 4.70474221e-13, 4.779466381e-13, 4.853256971e-13, 4.925551056e-13, 4.996016471e-13, 5.064472598e-13, 5.130837628e-13, 5.195093331e-13], "interest": [0, 0.9753628862, -0.01790943088, -0.01307111041, -0.009561510986, -0.006865578355, -0.004904457212, -0.003483839795, -0.002454901457, -0.001709451614, -0.001169176131, -0.0007774065206, -0.0004931373129, -0.0002866958919, -0.0001366094735, -2.733831851e-05, 5.236432914e-05, 0.0001106388655, 0.0001533778855, 0.0001848473848, 0.0002081362306], "inflation": [0, -0.0001009361895, -0.0001765256521, -0.0002268037441, -0.0002573739016, -0.0001717832763, -9.966162592e-05, -4.347066931e-05, 5.191230819e-07, 3.537457571e-05, 6.336275709e-05, 8.61498502e-05, 0.0001049636645, 0.0001207125846, 0.000134071915, 0.0001455465483, 0.0001555164819, 0.0001642699059, 0.0001720272857, 0.0001789589129, 0.0001851977198], "inflationq": [0, -0.000403744758, -0.0003023578502, -0.0002011123683, -0.00012228063, -6.138225668e-05, -1.387124868e-05, 2.365145814e-05, 5.367853955e-05, 7.803955384e-05, 9.808147682e-05, 0.0001147998306, 0.0001289337967, 0.0001410352344, 0.0001515187982, 0.0001606983641, 0.000168813531, 0.0001760489305, 0.0001825483172, 0.0001884248728, 0.0001937687587], "outputgap": [0, -0.04897141912, -0.03528928481, -0.02546180959, -0.01835090027, -0.01321580688, -0.009509929547, -0.006837267582, -0.004911360283, -0.003525026954, -0.002528440534, -0.001813262592, -0.001301165619, -0.0009355295377, -0.000675434692, -0.0004913162821, -0.0003618207874, -0.0002715319868, -0.000209326086, -0.000167181969, -0.0001393206982], "output": [0, -0.04897141912, -0.03528928481, -0.02546180959, -0.01835090027, -0.01321580688, -0.009509929547, -0.006837267582, -0.004911360283, -0.003525026954, -0.002528440534, -0.001813262592, -0.001301165619, -0.0009355295377, -0.000675434692, -0.0004913162821, -0.0003618207874, -0.0002715319868, -0.000209326086, -0.000167181969, -0.0001393206981], "fispol": [0, -1.409649611e-18, 8.168995354e-15, 7.346798482e-17, 5.481420711e-17, 4.34515704e-17, 3.683284721e-17, 3.234219326e-17, 2.929220831e-17, 2.725998437e-17, 2.594589914e-17, 2.513515413e-17, 2.467389733e-17, 2.445220663e-17, 2.43918077e-17, 2.443720189e-17, 2.454925909e-17, 2.470059281e-17, 2.487222366e-17, 2.505117397e-17, 2.522873543e-17], "AUX_ENDO_LEAD_83": [0, -0.0003023578502, -0.0002011123683, -0.00012228063, -6.138225668e-05, -1.387124868e-05, 2.365145814e-05, 5.367853955e-05, 7.803955384e-05, 9.808147682e-05, 0.0001147998306, 0.0001289337967, 0.0001410352344, 0.0001515187982, 0.0001606983641, 0.000168813531, 0.0001760489305, 0.0001825483172, 0.0001884248728, 0.0001937687587, 0.0001986526699], "AUX_ENDO_LEAD_87": [0, -0.0002011123683, -0.00012228063, -6.138225668e-05, -1.387124868e-05, 2.365145814e-05, 5.367853955e-05, 7.803955384e-05, 9.808147682e-05, 0.0001147998306, 0.0001289337967, 0.0001410352344, 0.0001515187982, 0.0001606983641, 0.000168813531, 0.0001760489305, 0.0001825483172, 0.0001884248728, 0.0001937687587, 0.0001986526699, 0.0002031359319], "AUX_ENDO_LEAD_91": [0, -0.00012228063, -6.138225668e-05, -1.387124868e-05, 2.365145814e-05, 5.367853955e-05, 7.803955384e-05, 9.808147682e-05, 0.0001147998306, 0.0001289337967, 0.0001410352344, 0.0001515187982, 0.0001606983641, 0.000168813531, 0.0001760489305, 0.0001825483172, 0.0001884248728, 0.0001937687587, 0.0001986526699, 0.0002031359319, 0.0002072675381], "AUX_ENDO_LEAD_118": [0, -0.03528928481, -0.02546180959, -0.01835090027, -0.01321580688, -0.009509929547, -0.006837267582, -0.004911360283, -0.003525026954, -0.002528440534, -0.001813262592, -0.001301165619, -0.0009355295377, -0.000675434692, -0.0004913162821, -0.0003618207874, -0.0002715319868, -0.000209326086, -0.000167181969, -0.0001393206982, -0.0001215831975], "AUX_ENDO_LEAD_122": [0, -0.02546180959, -0.01835090027, -0.01321580688, -0.009509929547, -0.006837267582, -0.004911360283, -0.003525026954, -0.002528440534, -0.001813262592, -0.001301165619, -0.0009355295377, -0.000675434692, -0.0004913162821, -0.0003618207874, -0.0002715319868, -0.000209326086, -0.000167181969, -0.0001393206982, -0.0001215831975, -0.0001109802354], "AUX_ENDO_LEAD_126": [0, -0.01835090027, -0.01321580688, -0.009509929547, -0.006837267582, -0.004911360283, -0.003525026954, -0.002528440534, -0.001813262592, -0.001301165619, -0.0009355295377, -0.000675434692, -0.0004913162821, -0.0003618207874, -0.0002715319868, -0.000209326086, -0.000167181969, -0.0001393206982, -0.0001215831975, -0.0001109802354, -0.0001053670431], "AUX_ENDO_LEAD_153": [0, -0.03528928481, -0.02546180959, -0.01835090027, -0.01321580688, -0.009509929547, -0.006837267582, -0.004911360283, -0.003525026954, -0.002528440534, -0.001813262592, -0.001301165619, -0.0009355295377, -0.000675434692, -0.0004913162821, -0.0003618207874, -0.0002715319868, -0.000209326086, -0.000167181969, -0.0001393206981, -0.0001215831975], "AUX_ENDO_LEAD_157": [0, -0.02546180959, -0.01835090027, -0.01321580688, -0.009509929547, -0.006837267582, -0.004911360283, -0.003525026954, -0.002528440534, -0.001813262592, -0.001301165619, -0.0009355295377, -0.000675434692, -0.0004913162821, -0.0003618207874, -0.0002715319868, -0.000209326086, -0.000167181969, -0.0001393206981, -0.0001215831975, -0.0001109802354], "AUX_ENDO_LEAD_161": [0, -0.01835090027, -0.01321580688, -0.009509929547, -0.006837267582, -0.004911360283, -0.003525026954, -0.002528440534, -0.001813262592, -0.001301165619, -0.0009355295377, -0.000675434692, -0.0004913162821, -0.0003618207874, -0.0002715319868, -0.000209326086, -0.000167181969, -0.0001393206981, -0.0001215831975, -0.0001109802354, -0.0001053670431], "AUX_ENDO_LAG_13_1": [0, 0, -0.0001009361895, -7.558946256e-05, -5.027809208e-05, -3.057015751e-05, -1.534556417e-05, -3.46781217e-06, 5.912864536e-06, 1.341963489e-05, 1.950988846e-05, 2.45203692e-05, 2.869995765e-05, 3.223344918e-05, 3.525880859e-05, 3.787969956e-05, 4.017459101e-05, 4.220338274e-05, 4.401223262e-05, 4.563707931e-05, 4.71062182e-05], "AUX_ENDO_LAG_13_2": [0, 0, -3.251195911e-17, -0.0001009361895, -7.558946256e-05, -5.027809208e-05, -3.057015751e-05, -1.534556417e-05, -3.46781217e-06, 5.912864536e-06, 1.341963489e-05, 1.950988846e-05, 2.45203692e-05, 2.869995765e-05, 3.223344918e-05, 3.525880859e-05, 3.787969956e-05, 4.017459101e-05, 4.220338274e-05, 4.401223262e-05, 4.563707931e-05], "AUX_ENDO_LAG_87_1": [0, 0, -0.04897141912, -0.03528928481, -0.02546180959, -0.01835090027, -0.01321580688, -0.009509929547, -0.006837267582, -0.004911360283, -0.003525026954, -0.002528440534, -0.001813262592, -0.001301165619, -0.0009355295377, -0.000675434692, -0.0004913162821, -0.0003618207874, -0.0002715319868, -0.000209326086, -0.000167181969], "AUX_ENDO_LAG_87_2": [0, 0, 0, -0.04897141912, -0.03528928481, -0.02546180959, -0.01835090027, -0.01321580688, -0.009509929547, -0.006837267582, -0.004911360283, -0.003525026954, -0.002528440534, -0.001813262592, -0.001301165619, -0.0009355295377, -0.000675434692, -0.0004913162821, -0.0003618207874, -0.0002715319868, -0.000209326086], "AUX_ENDO_LAG_87_3": [0, 0, 0, 0, -0.04897141912, -0.03528928481, -0.02546180959, -0.01835090027, -0.01321580688, -0.009509929547, -0.006837267582, -0.004911360283, -0.003525026954, -0.002528440534, -0.001813262592, -0.001301165619, -0.0009355295377, -0.000675434692, -0.0004913162821, -0.0003618207874, -0.0002715319868], "AUX_ENDO_LAG_86_1": [0, 0, -0.04897141912, -0.03528928481, -0.02546180959, -0.01835090027, -0.01321580688, -0.009509929547, -0.006837267582, -0.004911360283, -0.003525026954, -0.002528440534, -0.001813262592, -0.001301165619, -0.0009355295377, -0.000675434692, -0.0004913162821, -0.0003618207874, -0.0002715319868, -0.000209326086, -0.000167181969], "AUX_ENDO_LAG_86_2": [0, 0, 0, -0.04897141912, -0.03528928481, -0.02546180959, -0.01835090027, -0.01321580688, -0.009509929547, -0.006837267582, -0.004911360283, -0.003525026954, -0.002528440534, -0.001813262592, -0.001301165619, -0.0009355295377, -0.000675434692, -0.0004913162821, -0.0003618207874, -0.0002715319868, -0.000209326086], "AUX_ENDO_LAG_86_3": [0, 0, 0, 0, -0.04897141912, -0.03528928481, -0.02546180959, -0.01835090027, -0.01321580688, -0.009509929547, -0.006837267582, -0.004911360283, -0.003525026954, -0.002528440534, -0.001813262592, -0.001301165619, -0.0009355295377, -0.000675434692, -0.0004913162821, -0.0003618207874, -0.0002715319868], "AUX_ENDO_LAG_83_1": [0, 0, 0.9753628862, -0.01790943088, -0.01307111041, -0.009561510986, -0.006865578355, -0.004904457212, -0.003483839795, -0.002454901457, -0.001709451614, -0.001169176131, -0.0007774065206, -0.0004931373129, -0.0002866958919, -0.0001366094735, -2.733831851e-05, 5.236432914e-05, 0.0001106388655, 0.0001533778855, 0.0001848473848], "AUX_ENDO_LAG_83_2": [0, 0, 0, 0.9753628862, -0.01790943088, -0.01307111041, -0.009561510986, -0.006865578355, -0.004904457212, -0.003483839795, -0.002454901457, -0.001709451614, -0.001169176131, -0.0007774065206, -0.0004931373129, -0.0002866958919, -0.0001366094735, -2.733831851e-05, 5.236432914e-05, 0.0001106388655, 0.0001533778855], "AUX_ENDO_LAG_83_3": [0, 0, 0, 0, 0.9753628862, -0.01790943088, -0.01307111041, -0.009561510986, -0.006865578355, -0.004904457212, -0.003483839795, -0.002454901457, -0.001709451614, -0.001169176131, -0.0007774065206, -0.0004931373129, -0.0002866958919, -0.0001366094735, -2.733831851e-05, 5.236432914e-05, 0.0001106388655], "AUX_ENDO_LAG_85_1": [0, 0, -0.000403744758, -0.0003023578502, -0.0002011123683, -0.00012228063, -6.138225668e-05, -1.387124868e-05, 2.365145814e-05, 5.367853955e-05, 7.803955384e-05, 9.808147682e-05, 0.0001147998306, 0.0001289337967, 0.0001410352344, 0.0001515187982, 0.0001606983641, 0.000168813531, 0.0001760489305, 0.0001825483172, 0.0001884248728], "AUX_ENDO_LAG_85_2": [0, 0, -1.59101386e-16, -0.000403744758, -0.0003023578502, -0.0002011123683, -0.00012228063, -6.138225668e-05, -1.387124868e-05, 2.365145814e-05, 5.367853955e-05, 7.803955384e-05, 9.808147682e-05, 0.0001147998306, 0.0001289337967, 0.0001410352344, 0.0001515187982, 0.0001606983641, 0.000168813531, 0.0001760489305, 0.0001825483172], "AUX_ENDO_LAG_85_3": [0, 0, 3.108411633e-17, -1.590742738e-16, -0.000403744758, -0.0003023578502, -0.0002011123683, -0.00012228063, -6.138225668e-05, -1.387124868e-05, 2.365145814e-05, 5.367853955e-05, 7.803955384e-05, 9.808147682e-05, 0.0001147998306, 0.0001289337967, 0.0001410352344, 0.0001515187982, 0.0001606983641, 0.000168813531, 0.0001760489305]}, "fiscal_": {"cs": [0, -0.1370532822, -0.2431080598, -0.3223245744, -0.3794010929, -0.4187090541, -0.4446152544, -0.4606342137, -0.4694838103, -0.4732200223, -0.4733719724, -0.4710605803, -0.4670965971, -0.4620586158, -0.456353592, -0.450262944, -0.4439771857, -0.4376216615, -0.431275494, -0.4249854245, -0.4187758475], "cn": [0, 0.844650219, 0.7102008982, 0.6022501744, 0.516773917, 0.4498054516, 0.3973265395, 0.3560335643, 0.3233109331, 0.2971267824, 0.2759222622, 0.2585114093, 0.243996829, 0.2317015912, 0.2211156907, 0.2118547287, 0.2036284401, 0.1962169427, 0.189452934, 0.1832084085, 0.1773847783], "R": [0, 0.02518688449, 0.03517119205, 0.03838718965, 0.0385926738, 0.03450616897, 0.03031793487, 0.02659526415, 0.02346006298, 0.02089959761, 0.01884852005, 0.01722592324, 0.01595279028, 0.01495930663, 0.01418701311, 0.01358850048, 0.01312607957, 0.01277015749, 0.01249766614, 0.01229068648, 0.01213530776], "i": [0, -0.2805487312, -0.5266511154, -0.7390362266, -0.9206682786, -1.075458917, -1.20767114, -1.321045009, -1.41872644, -1.503311632, -1.576922481, -1.641286579, -1.69781074, -1.747644025, -1.791729664, -1.830846823, -1.865643702, -1.896663558, -1.924365075, -1.949138299, -1.971317135], "k": [0, 0.8568405327, 0.7195522908, 0.6082599465, 0.5190224115, 0.4479432059, 0.3910566294, 0.345104303, 0.307510174, 0.2762771854, 0.2498772432, 0.2271516086, 0.2072269944, 0.189447809, 0.1733229164, 0.1584845809, 0.1446572291, 0.1316339082, 0.1192586723, 0.1074134684, 0.09600840988], "v": [0, 0.8568405327, 0.7272298075, 0.6301397321, 0.5605279518, 0.5135079769, 0.4842582362, 0.4688045633, 0.4639770568, 0.4672871539, 0.4767997535, 0.4910183152, 0.5087882723, 0.5292189501, 0.551622008, 0.5754637153, 0.6003283683, 0.6258904579, 0.6518935931, 0.6781345766, 0.7044513821], "l": [0, 0.9816028991, 0.8268503637, 0.7032072483, 0.605870182, 0.5301353431, 0.4712728447, 0.4254031969, 0.3894596231, 0.361062662, 0.3383886765, 0.3200515662, 0.3050034583, 0.2924546555, 0.281810792, 0.272624387, 0.264557974, 0.2573562979, 0.2508254873, 0.2448175255, 0.2392187067], "y": [0, 1.072091703, 0.9022438796, 0.7659370882, 0.6580198762, 0.5734336091, 0.5070737028, 0.4547512006, 0.4131545876, 0.3797151384, 0.35246509, 0.3299098214, 0.3109204367, 0.2946471316, 0.2804511641, 0.2678524061, 0.2564894301, 0.2460894166, 0.2364456197, 0.2274005728, 0.218833612], "gc": [0, 9.090909091, 8.948959458, 8.806701545, 8.664175238, 8.5214377, 8.37854852, 8.235571802, 8.09256301, 7.94956868, 7.806627527, 7.663771781, 7.521028448, 7.378420413, 7.235967337, 7.093686384, 6.951592778, 6.809700241, 6.66802132, 6.526567642, 6.385350104], "c": [0, -0.1370532822, -0.2431080598, -0.3223245744, -0.3794010929, -0.4187090541, -0.4446152544, -0.4606342137, -0.4694838103, -0.4732200223, -0.4733719724, -0.4710605803, -0.4670965971, -0.4620586158, -0.456353592, -0.450262944, -0.4439771857, -0.4376216615, -0.431275494, -0.4249854245, -0.4187758475], "q": [0, -0.1933407957, -0.1877552176, -0.170616048, -0.1487186339, -0.1252039589, -0.104624633, -0.08732257407, -0.07303622132, -0.06134568831, -0.0518112308, -0.04403087613, -0.03766096824, -0.03241872226, -0.0280767633, -0.02445481554, -0.02141107818, -0.01883441325, -0.0166377383, -0.01475265902, -0.01312521927], "rk": [0, 0.1238604997, 0.1051246339, 0.09108978755, 0.08102706344, 0.07423009556, 0.07000190214, 0.06776799795, 0.06707015822, 0.067548649, 0.06892374189, 0.07097910469, 0.07354783911, 0.07650119375, 0.0797396656, 0.08318610127, 0.08678040876, 0.09047553415, 0.09423441481, 0.09802767763, 0.1018319009], "w": [0, -0.0009018667192, -0.002173439004, -0.003857514306, -0.005820707017, -0.007962041588, -0.01021431321, -0.01253089587, -0.0148792908, -0.01723682768, -0.01958769143, -0.02192085288, -0.02422862476, -0.02650565274, -0.02874821004, -0.03095370477, -0.03312033616, -0.03524685548, -0.03733240018, -0.03937637952, -0.04137839595], "pi": [0, 0.008724786016, 0.008737686506, 0.008324722034, 0.007967953625, 0.007680508837, 0.007449523869, 0.007263192669, 0.007112027957, 0.006988528205, 0.006886788858, 0.006802167866, 0.006731012548, 0.006670441995, 0.006618176358, 0.006572404201, 0.006531679996, 0.006494845131, 0.006460967042, 0.006429292242, 0.006399209952], "b": [0, 0.1771092568, 0.7575306803, 1.36129533, 1.97802736, 2.601695317, 3.225600218, 3.847774738, 4.467253024, 5.083530494, 5.696351196, 6.305593147, 6.91120445, 7.513168118, 8.11148313, 8.706154565, 9.297188738, 9.884591016, 10.46836502, 11.04851253, 11.62503366], "sb": [0, -0.8949824459, -0.1447131993, 0.5953582414, 1.320007484, 2.028261708, 2.718526515, 3.393023537, 4.054098436, 4.703815355, 5.343886106, 5.975683326, 6.600284013, 7.218520986, 7.831031965, 8.438302159, 9.040699308, 9.638501599, 10.2319194, 10.82111196, 11.40620005], "tauk": [0, -2.631782873e-16, 1.186459844e-13, 1.212921264e-13, 1.236323086e-13, 1.254792509e-13, 1.269335648e-13, 1.280914318e-13, 1.290223002e-13, 1.297765867e-13, 1.303914512e-13, 1.308947229e-13, 1.313075741e-13, 1.316463615e-13, 1.3192391e-13, 1.321504162e-13, 1.323340942e-13, 1.324816404e-13, 1.325985729e-13, 1.326894832e-13, 1.327582228e-13], "taul": [0, -2.426356676e-16, 3.356734023e-14, 3.360474547e-14, 3.405775652e-14, 3.447632831e-14, 3.495586813e-14, 3.556488593e-14, 3.627661858e-14, 3.706418208e-14, 3.790575704e-14, 3.878411381e-14, 3.968578455e-14, 4.060029939e-14, 4.151954135e-14, 4.24372231e-14, 4.334847295e-14, 4.424951247e-14, 4.513740806e-14, 4.600988076e-14, 4.68651612e-14], "tauc": [0, 0, 0, 0, 0, 0, 0, 0, 0, 0, 0, 0, 0, 0, 0, 0, 0, 0, 0, 0, 0], "r": [0, 0.01644919798, 0.02684647002, 0.03041923602, 0.03091216496, 0.02705664511, 0.0230547422, 0.01948323619, 0.01647153478, 0.01401280875, 0.01204635218, 0.0104949107, 0.009282348289, 0.008341130273, 0.007614608913, 0.007056820482, 0.006631234444, 0.006309190443, 0.006068373901, 0.005891476527, 0.00576508393], "z": [0, -1.558403032e-15, -0.0005056270387, -0.0005772713042, -0.0002293737788, 0.0005209618152, 0.001656424228, 0.003159147667, 0.005012878784, 0.007203014497, 0.009716409936, 0.01254115023, 0.0156663343, 0.01908188752, 0.02277840729, 0.02674703933, 0.03097938057, 0.03546740377, 0.04020339939, 0.04517993094, 0.0503898006], "mc": [0, 0.0402697142, 0.03323492507, 0.02747509531, 0.02283905724, 0.01916136367, 0.01625703785, 0.01396773909, 0.01216402738, 0.01074237962, 0.009621081568, 0.008736133121, 0.008037608313, 0.0074866066, 0.007052788919, 0.006712431224, 0.006446909662, 0.006241533098, 0.006084648765, 0.005966959344, 0.005881002002], "kbar": [0, -0.007677516755, -0.02187978558, -0.04150554032, -0.06556477104, -0.09320160686, -0.1237002602, -0.1564668827, -0.1910099686, -0.2269225103, -0.2638667066, -0.3015612779, -0.339771141, -0.3782990916, -0.4169791343, -0.4556711392, -0.4942565497, -0.5326349208, -0.5707211082, -0.6084429722, -0.6457394846], "lambda": [0, 0.6786785047, 0.6622293067, 0.6353828367, 0.6049636006, 0.5740514357, 0.5469947906, 0.5239400484, 0.5044568122, 0.4879852774, 0.4739724686, 0.4619261165, 0.4514312058, 0.4421488575, 0.4338077272, 0.4261931183, 0.4191362978, 0.4125050634, 0.4061958729, 0.400127499, 0.3942360225], "Pb": [0, -0.3810017463, -0.375453087, -0.3590628206, -0.3383744427, -0.3163274012, -0.297375582, -0.2817971614, -0.2692870658, -0.2593947499, -0.2516582379, -0.2456590116, -0.241040826, -0.2375111523, -0.2348349843, -0.2328260306, -0.2313377442, -0.2302552588, -0.2294885949, -0.2289671478, -0.2286353241], "cstar": [0, -0.1370532822, -0.2431080598, -0.3223245744, -0.3794010929, -0.4187090541, -0.4446152544, -0.4606342137, -0.4694838103, -0.4732200223, -0.4733719724, -0.4710605803, -0.4670965971, -0.4620586158, -0.456353592, -0.450262944, -0.4439771857, -0.4376216615, -0.431275494, -0.4249854245, -0.4187758475], "piL": [0, 0.1277758556, 0.1256081543, 0.1237565696, 0.122179251, 0.1208181861, 0.1196257345, 0.1185640841, 0.1176033466, 0.1167198999, 0.1158950483, 0.1151139627, 0.1143648497, 0.1136383051, 0.1129268112, 0.1122243467, 0.1115260835, 0.1108281494, 0.1101274427, 0.1094214854, 0.1087083073], "rL": [0, 0.2532258907, 0.2498449327, 0.235306251, 0.2161951917, 0.1955092151, 0.1777498475, 0.1632330773, 0.1516837192, 0.14267485, 0.1357631897, 0.1305450489, 0.1266759763, 0.1238728472, 0.1219081731, 0.1206016839, 0.1198116607, 0.1194271094, 0.1193611522, 0.1195456624, 0.1199270168], "S": [0, -54.51362465, -55.63969187, -56.3305226, -56.65325207, -56.67388387, -56.45922536, -56.06420308, -55.53225196, -54.89706298, -54.1844382, -53.41396671, -52.60043475, -51.75496386, -50.88590501, -49.99952806, -49.10054656, -48.19251332, -47.27811667, -46.35940111, -45.43793123], "rb": [0, -0.3697980823, 0.01644919798, 0.02684647002, 0.03041923602, 0.03091216496, 0.02705664511, 0.0230547422, 0.01948323619, 0.01647153478, 0.01401280875, 0.01204635218, 0.0104949107, 0.009282348289, 0.008341130273, 0.007614608913, 0.007056820482, 0.006631234444, 0.006309190443, 0.006068373901, 0.005891476527], "Tk": [0, 0.9807010324, 0.8246769247, 0.699349734, 0.6000494749, 0.5221733015, 0.4610585315, 0.412872301, 0.3745803323, 0.3438258344, 0.3188009851, 0.2981307133, 0.2807748335, 0.2659490028, 0.253062582, 0.2416706822, 0.2314376378, 0.2221094424, 0.2134930871, 0.205441146, 0.1978403108], "Tl": [0, 0.9807010324, 0.8246769247, 0.699349734, 0.600049475, 0.5221733015, 0.4610585315, 0.412872301, 0.3745803323, 0.3438258344, 0.3188009851, 0.2981307133, 0.2807748335, 0.2659490028, 0.253062582, 0.2416706822, 0.2314376378, 0.2221094424, 0.2134930871, 0.205441146, 0.1978403108], "Tc": [0, -0.1370532822, -0.2431080598, -0.3223245744, -0.3794010929, -0.4187090541, -0.4446152544, -0.4606342137, -0.4694838103, -0.4732200223, -0.4733719724, -0.4710605803, -0.4670965971, -0.4620586158, -0.456353592, -0.450262944, -0.4439771857, -0.4376216615, -0.431275494, -0.4249854245, -0.4187758475], "cobs": [0, -13.70532822, -10.60547776, -7.921651462, -5.707651849, -3.930796124, -2.590620023, -1.601895935, -0.8849596549, -0.3736212033, -0.01519500628, 0.2311392076, 0.3963983221, 0.5037981267, 0.5705023777, 0.6090648058, 0.6285758263, 0.6355524204, 0.6346167499, 0.6290069473, 0.6209577059], "iobs": [0, -28.05487312, -24.61023842, -21.23851112, -18.16320521, -15.47906381, -13.22122228, -11.33738696, -9.768143098, -8.458519219, -7.361084887, -6.436409757, -5.652416079, -4.983328498, -4.408563986, -3.911715875, -3.479687868, -3.101985602, -2.770151681, -2.477322417, -2.217883575], "gcobs": [0, 909.0909091, -14.19496327, -14.2257913, -14.25263074, -14.27375378, -14.28891802, -14.29767182, -14.30087921, -14.29943301, -14.29411523, -14.28557463, -14.27433327, -14.26080356, -14.24530756, -14.22809532, -14.20936058, -14.18925374, -14.16789208, -14.14536773, -14.12175387], "wobs": [0, -0.09018667192, -0.1271572285, -0.1684075302, -0.1963192711, -0.2141334571, -0.2252271626, -0.2316582654, -0.234839493, -0.235753688, -0.235086375, -0.2333161449, -0.2307771888, -0.2277027975, -0.2242557304, -0.2205494727, -0.2166631393, -0.2126519315, -0.2085544703, -0.2043979334, -0.2002016438], "bobs": [0, 17.71092568, 58.04214235, 60.37646493, 61.67320303, 62.36679569, 62.39049009, 62.21745203, 61.94782861, 61.62774695, 61.28207028, 60.92419508, 60.56113027, 60.19636681, 59.83150117, 59.46714352, 59.10341734, 58.74022778, 58.37740073, 58.01475103, 57.65211255], "Robs": [0, 2.518688449, 3.517119205, 3.838718965, 3.85926738, 3.450616897, 3.031793487, 2.659526415, 2.346006298, 2.089959761, 1.884852005, 1.722592324, 1.595279028, 1.495930663, 1.418701311, 1.358850048, 1.312607957, 1.277015749, 1.249766614, 1.229068648, 1.213530776], "Piobs": [0, 0.8724786016, 0.8737686506, 0.8324722034, 0.7967953625, 0.7680508837, 0.7449523869, 0.7263192669, 0.7112027957, 0.6988528205, 0.6886788858, 0.6802167866, 0.6731012548, 0.6670441995, 0.6618176358, 0.6572404201, 0.6531679996, 0.6494845131, 0.6460967042, 0.6429292242, 0.6399209952], "Lobs": [0, 98.16028991, 82.68503637, 70.32072483, 60.5870182, 53.01353431, 47.12728447, 42.54031969, 38.94596231, 36.1062662, 33.83886765, 32.00515662, 30.50034583, 29.24546555, 28.1810792, 27.2624387, 26.4557974, 25.73562979, 25.08254873, 24.48175255, 23.92187067], "ugc": [0, 9.090909091, 6.633537306e-14, 6.662267421e-14, 6.656123962e-14, 6.630156251e-14, 6.586281319e-14, 6.542979256e-14, 6.499207736e-14, 6.453912983e-14, 6.4066667e-14, 6.357400593e-14, 6.306221978e-14, 6.253312045e-14, 6.198872788e-14, 6.143100971e-14, 6.086176708e-14, 6.028259682e-14, 5.969489127e-14, 5.909985505e-14, 5.84985278e-14], "uz": [0, 0, 9.515897101e-34, 1.648145585e-33, 1.985733756e-33, 2.06506961e-33, 1.988691767e-33, 1.829144365e-33, 1.632615867e-33, 1.426978838e-33, 1.228226868e-33, 1.044862609e-33, 8.807547654e-34, 7.369725996e-34, 6.12957387e-34, 5.072657093e-34, 4.180355287e-34, 3.432723469e-34, 2.810187113e-34, 2.294485324e-34, 1.869135373e-34], "ua": [0, -1.077648121e-16, -2.709549726e-17, -6.812668788e-18, -1.71292136e-18, -4.306828465e-19, -1.082873497e-19, -2.722687981e-20, -6.845702535e-21, -1.721227093e-21, -4.327711717e-22, -1.08812421e-22, -2.735889941e-23, -6.878896454e-24, -1.729573097e-24, -4.348696209e-25, -1.093400368e-25, -2.749155807e-26, -6.912250536e-27, -1.737958998e-27, -4.369778308e-28], "ub": [0, 0, 1.628086456e-32, 1.71127084e-32, 1.412073374e-32, 1.078112624e-32, 7.982904381e-33, 5.83501951e-33, 4.241457263e-33, 3.075856923e-33, 2.228432944e-33, 1.613896311e-33, 1.16869998e-33, 8.463003641e-34, 6.128508418e-34, 4.438100483e-34, 3.21403565e-34, 2.327627006e-34, 1.685710892e-34, 1.220837888e-34, 8.841718659e-35], "um": [0, 0, 0, 0, 0, 0, 0, 0, 0, 0, 0, 0, 0, 0, 0, 0, 0, 0, 0, 0, 0], "ui": [0, -2.020719712e-17, -1.033420013e-17, -5.285032443e-18, -2.702828238e-18, -1.382258399e-18, -7.069033296e-19, -3.61518742e-19, -1.848849699e-19, -9.455236516e-20, -4.835520032e-20, -2.472942262e-20, -1.264691986e-20, -6.467784725e-21, -3.307701774e-21, -1.691597895e-21, -8.651032149e-22, -4.424240386e-22, -2.262608976e-22, -1.15712505e-22, -5.917674666e-23], "uw": [0, 1.102213734e-17, 3.603078581e-18, 1.177827391e-18, 3.850255637e-19, 1.258628267e-19, 4.114389442e-20, 1.344972215e-20, 4.396643256e-21, 1.437239498e-21, 4.69826014e-22, 1.535836468e-22, 5.020568434e-23, 1.64119735e-23, 5.364987602e-24, 1.753786159e-24, 5.733034484e-25, 1.874098744e-25, 6.126329976e-26, 2.002664964e-26, 6.546606151e-27], "up": [0, -2.315645436e-17, -1.677104709e-17, -1.214642001e-17, -8.797036836e-18, -6.371248238e-18, -4.614372416e-18, -3.341956237e-18, -2.420409643e-18, -1.752980119e-18, -1.269594717e-18, -9.195031527e-19, -6.659495636e-19, -4.823135407e-19, -3.493152699e-19, -2.529913583e-19, -1.832288276e-19, -1.327033599e-19, -9.611032255e-20, -6.960783894e-20, -5.041343233e-20], "csf": [0, -0.2697538492, -0.4182236043, -0.4961828656, -0.5335186357, -0.5477752835, -0.5492094124, -0.5437797477, -0.5349149784, -0.5245584756, -0.5137851848, -0.5031654594, -0.4929792645, -0.4833419515, -0.4742778144, -0.4657628458, -0.4577493563, -0.450179944, -0.4429952328, -0.4361379877, -0.4295551424], "cnf": [0, 0.6775119556, 0.5086253887, 0.4051422036, 0.3405679775, 0.2991974881, 0.2717146676, 0.2525877631, 0.2385271684, 0.2275723159, 0.2185509562, 0.2107588943, 0.2037702413, 0.1973249454, 0.1912620833, 0.1854802572, 0.1799140474, 0.1745199853, 0.1692681686, 0.1641372302, 0.1591112971], "if": [0, -0.4846757703, -0.8152502337, -1.049725214, -1.22301384, -1.356291774, -1.462541087, -1.549839394, -1.623313434, -1.686301279, -1.741045401, -1.789107412, -1.831617509, -1.869425592, -1.903193755, -1.933453707, -1.960643103, -1.98512911, -2.007224158, -2.027196859, -2.045279847], "kf": [0, 0.6872900662, 0.5143162305, 0.4065003624, 0.3373457654, 0.2911633135, 0.2586616998, 0.2343371225, 0.2149281152, 0.198500871, 0.1839077789, 0.1704668795, 0.1577720943, 0.1455808656, 0.1337476229, 0.1221843776, 0.1108373786, 0.09967327645, 0.08867091883, 0.07781648084, 0.06710057054], "vf": [0, 0.6872900662, 0.5275799025, 0.4417112563, 0.4003199311, 0.3858832084, 0.3879058615, 0.4000683837, 0.4185369791, 0.4409614723, 0.465880628, 0.492368813, 0.5198256785, 0.5478506418, 0.5761676907, 0.6045800832, 0.6329428418, 0.6611458641, 0.6891033933, 0.7167473177, 0.7440227952], "lf": [0, 0.8355753626, 0.6281434863, 0.5018011499, 0.423716226, 0.3744189994, 0.3423537804, 0.3206533109, 0.3052289693, 0.2936398899, 0.284423195, 0.2766972165, 0.2699263485, 0.2637816061, 0.2580578682, 0.2526246985, 0.2473970664, 0.2423178674, 0.237347447, 0.2324572848, 0.2276261566], "yf": [0, 0.8967709848, 0.6732617608, 0.5362011547, 0.4505439304, 0.3955168703, 0.3587983489, 0.3330726244, 0.3139898437, 0.2989581756, 0.2864285427, 0.2754709741, 0.2655236069, 0.2562439124, 0.2474204555, 0.2389205076, 0.2306589012, 0.2225794737, 0.2146439797, 0.2068254342, 0.199104093], "gcf": [0, 9.090909091, 8.946983471, 8.801380794, 8.654821826, 8.507739642, 8.360396667, 8.212953998, 8.065512465, 7.918136972, 7.770870928, 7.623744811, 7.476781263, 7.329998118, 7.183410211, 7.037030467, 6.890870553, 6.744941277, 6.599252832, 6.453814951, 6.308637006], "cf": [0, -0.2697538492, -0.4182236043, -0.4961828656, -0.5335186357, -0.5477752835, -0.5492094124, -0.5437797477, -0.5349149784, -0.5245584756, -0.5137851848, -0.5031654594, -0.4929792645, -0.4833419515, -0.4742778144, -0.4657628458, -0.4577493563, -0.450179944, -0.4429952328, -0.4361379877, -0.4295551424], "qf": [0, -0.8245833783, -0.5157042038, -0.3296050572, -0.2165794879, -0.1471564702, -0.1038487894, -0.07626796597, -0.05823201246, -0.04605288021, -0.03752226337, -0.03131084002, -0.02661228982, -0.02293224781, -0.0199630901, -0.0175095613, -0.01544452762, -0.01368258957, -0.01216429022, -0.01084661627, -0.00969724257], "rkf": [0, 0.09935114854, 0.07626426139, 0.06385152761, 0.05786820863, 0.05578130958, 0.056073694, 0.05783184622, 0.06050157223, 0.06374314265, 0.06734532877, 0.07117432578, 0.07514335029, 0.07919449613, 0.08328786437, 0.08739501501, 0.09149499081, 0.09557187595, 0.09961327386, 0.1036093387, 0.1075521426], "wf": [0, -0.04893414779, -0.03756299441, -0.03144925987, -0.02850225201, -0.02747437636, -0.0276183866, -0.02848434217, -0.02979928184, -0.03139587623, -0.03317008731, -0.03505601121, -0.03701090387, -0.03900624436, -0.04102238096, -0.0430453059, -0.04506469697, -0.04707271502, -0.04906325429, -0.05103146531, -0.05297344339], "bf": [0, 0.57804777, 1.513177928, 2.332361054, 3.081098246, 3.786368073, 4.464179136, 5.124041366, 5.77161336, 6.410269977, 7.042030736, 7.668109808, 8.289241947, 8.90587576, 9.518288403, 10.12665374, 10.7310829, 11.33164851, 11.9283992, 12.52136833, 13.11057932], "sbf": [0, -0.3187232148, 0.8399161675, 1.796159899, 2.630554315, 3.390851202, 4.105380787, 4.790968741, 5.457623517, 6.111311801, 6.755602193, 7.392638834, 8.02371834, 8.649631848, 9.270867948, 9.88773323, 10.500424, 11.10906904, 11.71375522, 12.31454289, 12.91147523], "taukf": [0, 0, 0, 0, 0, 0, 0, 0, 0, 0, 0, 0, 0, 0, 0, 0, 0, 0, 0, 0, 0], "taulf": [0, 0, 0, 0, 0, 0, 0, 0, 0, 0, 0, 0, 0, 0, 0, 0, 0, 0, 0, 0, 0], "taucf": [0, 0, 0, 0, 0, 0, 0, 0, 0, 0, 0, 0, 0, 0, 0, 0, 0, 0, 0, 0, 0], "rf": [0, 0.3308367122, 0.2006934001, 0.1232054961, 0.07695046925, 0.04923959129, 0.03255490885, 0.02244006845, 0.01625173148, 0.01242040868, 0.01001284527, 0.008472912249, 0.007468169191, 0.006798984563, 0.006344692481, 0.006031678275, 0.00581444961, 0.005664398718, 0.005563121287, 0.005498436113, 0.005462006541], "zf": [0, 0, -0.0001800650684, 0.000298053165, 0.001306846095, 0.002766860543, 0.004627210126, 0.006854031559, 0.009423644616, 0.01231849702, 0.01552475847, 0.01903089138, 0.02282680025, 0.02690332405, 0.03125193189, 0.03586453956, 0.04073339774, 0.045851023, 0.05121015433, 0.05680372502, 0.0626248438], "mcf": [0, 0, 0, 0, 0, 0, 0, 0, 0, 0, 0, 0, 0, 0, 0, 0, 0, 0, 0, 0, 0], "kbarf": [0, -0.01326367199, -0.03521089391, -0.06297416575, -0.09471989489, -0.1292441617, -0.1657312612, -0.2036088639, -0.2424606013, -0.2819728491, -0.3219019335, -0.3620535841, -0.4022697762, -0.4424200678, -0.4823957056, -0.5221054632, -0.5614725877, -0.6004324745, -0.6389308369, -0.6769222246, -0.7143687978], "lambdaf": [0, 1.335802661, 1.004965949, 0.8042725486, 0.6810670525, 0.6041165832, 0.5548769919, 0.5223220831, 0.4998820146, 0.4836302831, 0.4712098745, 0.4611970292, 0.452724117, 0.4452559478, 0.4384569632, 0.4321122707, 0.4260805924, 0.4202661428, 0.4146017441, 0.4090386228, 0.4035401867], "cstarf": [0, -0.2697538492, -0.4182236043, -0.4961828656, -0.5335186357, -0.5477752835, -0.5492094124, -0.5437797477, -0.5349149784, -0.5245584756, -0.5137851848, -0.5031654594, -0.4929792645, -0.4833419515, -0.4742778144, -0.4657628458, -0.4577493563, -0.450179944, -0.4429952328, -0.4361379877, -0.4295551424], "Sf": [0, -57.22672923, -58.91616667, -59.51661151, -59.4720713, -59.04556773, -58.39296801, -57.60669078, -56.74157924, -55.83021851, -54.89200434, -53.93851288, -52.97668072, -52.01068858, -51.04307748, -50.0754105, -49.10866537, -48.14346767, -47.18022955, -46.21923246, -45.26067666], "rbf": [0, 0.3308367122, 0.2006934001, 0.1232054961, 0.07695046925, 0.04923959129, 0.03255490885, 0.02244006845, 0.01625173148, 0.01242040868, 0.01001284527, 0.008472912249, 0.007468169191, 0.006798984563, 0.006344692481, 0.006031678276, 0.00581444961, 0.005664398718, 0.005563121287, 0.005498436113, 0.005462006541], "Tkf": [0, 0.7866412148, 0.5905804919, 0.47035189, 0.395213974, 0.3469446231, 0.3147353938, 0.2921689687, 0.2754296875, 0.2622440137, 0.2512531076, 0.2416412053, 0.2329154446, 0.2247753617, 0.2170354872, 0.2095793926, 0.2023323695, 0.1952451524, 0.1882841927, 0.1814258195, 0.1746527132], "Tlf": [0, 0.7866412148, 0.5905804919, 0.47035189, 0.395213974, 0.3469446231, 0.3147353938, 0.2921689687, 0.2754296875, 0.2622440137, 0.2512531076, 0.2416412053, 0.2329154446, 0.2247753617, 0.2170354872, 0.2095793926, 0.2023323695, 0.1952451524, 0.1882841927, 0.1814258195, 0.1746527132], "Tcf": [0, -0.2697538492, -0.4182236043, -0.4961828656, -0.5335186357, -0.5477752835, -0.5492094124, -0.5437797477, -0.5349149784, -0.5245584756, -0.5137851848, -0.5031654594, -0.4929792645, -0.4833419515, -0.4742778144, -0.4657628458, -0.4577493563, -0.450179944, -0.4429952328, -0.4361379877, -0.4295551424], "cobsf": [0, -26.97538492, -14.8469755, -7.795926133, -3.733577012, -1.425664782, -0.1434128884, 0.542966472, 0.8864769334, 1.035650276, 1.077329079, 1.061972536, 1.018619493, 0.9637313031, 0.9064137028, 0.851496861, 0.8013489502, 0.7569412325, 0.7184711224, 0.6857245095, 0.6582845317], "iobsf": [0, -48.46757703, -33.05744634, -23.44749802, -17.32886256, -13.32779344, -10.62493131, -8.729830721, -7.347404004, -6.298784506, -5.474412182, -4.806201103, -4.251009726, -3.780808287, -3.376816291, -3.025995174, -2.718939606, -2.44860066, -2.209504889, -1.997270016, -1.808298881], "gcobsf": [0, 909.0909091, -14.39256201, -14.56026766, -14.6558968, -14.70821844, -14.73429747, -14.74426692, -14.74415328, -14.73754929, -14.72660445, -14.71261167, -14.69635479, -14.67831456, -14.65879068, -14.63797438, -14.61599138, -14.59292763, -14.56884451, -14.54378807, -14.51779455], "wobsf": [0, -4.893414779, 1.137115337, 0.6113734546, 0.2947007857, 0.1027875651, -0.01440102357, -0.08659555712, -0.1314939678, -0.1596594388, -0.1774211074, -0.18859239, -0.1954892668, -0.1995340489, -0.2016136595, -0.202292494, -0.2019391069, -0.2008018055, -0.1990539264, -0.196821102, -0.1941978085], "bobsf": [0, 57.804777, 93.51301582, 81.91831257, 74.87371916, 70.52698272, 67.78110628, 65.98622303, 64.75719945, 63.86566164, 63.17607595, 62.60790722, 62.1132139, 61.66338126, 61.24126434, 60.83653348, 60.44291609, 60.05656114, 59.67506862, 59.29691292, 58.92109959], "Lobsf": [0, 83.55753626, 62.81434863, 50.18011499, 42.3716226, 37.44189994, 34.23537804, 32.06533109, 30.52289693, 29.36398899, 28.4423195, 27.66972165, 26.99263485, 26.37816061, 25.80578682, 25.26246985, 24.73970664, 24.23178674, 23.7347447, 23.24572848, 22.76261566], "interest": [0, 0.100747538, 0.1406847682, 0.1535487586, 0.1543706952, 0.1380246759, 0.1212717395, 0.1063810566, 0.09384025193, 0.08359839045, 0.07539408018, 0.06890369298, 0.06381116113, 0.05983722653, 0.05674805245, 0.05435400191, 0.0525043183, 0.05108062994, 0.04999066457, 0.04916274592, 0.04854123103], "inflation": [0, 0.008724786016, 0.01746247252, 0.02578719456, 0.03375514818, 0.032710871, 0.03142270836, 0.030361179, 0.02950525333, 0.0288132727, 0.02825053769, 0.02778951289, 0.02740849748, 0.02709041127, 0.02682179877, 0.0265920351, 0.02639270255, 0.02621710569, 0.02605989637, 0.02591678441, 0.02578431437], "inflationq": [0, 0.03489914407, 0.03495074602, 0.03329888814, 0.0318718145, 0.03072203535, 0.02979809548, 0.02905277067, 0.02844811183, 0.02795411282, 0.02754715543, 0.02720867146, 0.02692405019, 0.02668176798, 0.02647270543, 0.0262896168, 0.02612671998, 0.02597938052, 0.02584386817, 0.02571716897, 0.02559683981], "outputgap": [0, 0.1753207179, 0.2289821188, 0.2297359335, 0.2074759458, 0.1779167388, 0.1482753539, 0.1216785762, 0.09916474386, 0.0807569628, 0.0660365473, 0.0544388473, 0.04539682984, 0.03840321925, 0.03303070861, 0.02893189851, 0.02583052895, 0.02350994283, 0.02180164003, 0.0205751386, 0.01972951896], "output": [0, 1.072091703, 0.9022438796, 0.7659370882, 0.6580198762, 0.5734336091, 0.5070737028, 0.4547512006, 0.4131545876, 0.3797151384, 0.35246509, 0.3299098214, 0.3109204367, 0.2946471316, 0.2804511641, 0.2678524061, 0.2564894301, 0.2460894166, 0.2364456197, 0.2274005728, 0.218833612], "fispol": [0, 9.090909091, 3.354308324e-14, 3.368096418e-14, 3.364442804e-14, 3.350873919e-14, 3.328349437e-14, 3.30611019e-14, 3.283635561e-14, 3.260399042e-14, 3.236186757e-14, 3.21096476e-14, 3.184786858e-14, 3.157743767e-14, 3.129936578e-14, 3.101463754e-14, 3.07241542e-14, 3.042871478e-14, 3.0129016e-14, 2.982566067e-14, 2.951916907e-14], "AUX_ENDO_LEAD_83": [0, 0.03495074602, 0.03329888814, 0.0318718145, 0.03072203535, 0.02979809548, 0.02905277067, 0.02844811183, 0.02795411282, 0.02754715543, 0.02720867146, 0.02692405019, 0.02668176798, 0.02647270543, 0.0262896168, 0.02612671998, 0.02597938052, 0.02584386817, 0.02571716897, 0.02559683981, 0.02548089531], "AUX_ENDO_LEAD_87": [0, 0.03329888814, 0.0318718145, 0.03072203535, 0.02979809548, 0.02905277067, 0.02844811183, 0.02795411282, 0.02754715543, 0.02720867146, 0.02692405019, 0.02668176798, 0.02647270543, 0.0262896168, 0.02612671998, 0.02597938052, 0.02584386817, 0.02571716897, 0.02559683981, 0.02548089531, 0.02536771939], "AUX_ENDO_LEAD_91": [0, 0.0318718145, 0.03072203535, 0.02979809548, 0.02905277067, 0.02844811183, 0.02795411282, 0.02754715543, 0.02720867146, 0.02692405019, 0.02668176798, 0.02647270543, 0.0262896168, 0.02612671998, 0.02597938052, 0.02584386817, 0.02571716897, 0.02559683981, 0.02548089531, 0.02536771939, 0.02525599567], "AUX_ENDO_LEAD_118": [0, 0.2289821188, 0.2297359335, 0.2074759458, 0.1779167388, 0.1482753539, 0.1216785762, 0.09916474386, 0.0807569628, 0.0660365473, 0.0544388473, 0.04539682984, 0.03840321925, 0.03303070861, 0.02893189851, 0.02583052895, 0.02350994283, 0.02180164003, 0.0205751386, 0.01972951896, 0.01918662462], "AUX_ENDO_LEAD_122": [0, 0.2297359335, 0.2074759458, 0.1779167388, 0.1482753539, 0.1216785762, 0.09916474386, 0.0807569628, 0.0660365473, 0.0544388473, 0.04539682984, 0.03840321925, 0.03303070861, 0.02893189851, 0.02583052895, 0.02350994283, 0.02180164003, 0.0205751386, 0.01972951896, 0.01918662462, 0.01888572279], "AUX_ENDO_LEAD_126": [0, 0.2074759458, 0.1779167388, 0.1482753539, 0.1216785762, 0.09916474386, 0.0807569628, 0.0660365473, 0.0544388473, 0.04539682984, 0.03840321925, 0.03303070861, 0.02893189851, 0.02583052895, 0.02350994283, 0.02180164003, 0.0205751386, 0.01972951896, 0.01918662462, 0.01888572279, 0.01877937777], "AUX_ENDO_LEAD_153": [0, 0.9022438796, 0.7659370882, 0.6580198762, 0.5734336091, 0.5070737028, 0.4547512006, 0.4131545876, 0.3797151384, 0.35246509, 0.3299098214, 0.3109204367, 0.2946471316, 0.2804511641, 0.2678524061, 0.2564894301, 0.2460894166, 0.2364456197, 0.2274005728, 0.218833612, 0.2106516257], "AUX_ENDO_LEAD_157": [0, 0.7659370882, 0.6580198762, 0.5734336091, 0.5070737028, 0.4547512006, 0.4131545876, 0.3797151384, 0.35246509, 0.3299098214, 0.3109204367, 0.2946471316, 0.2804511641, 0.2678524061, 0.2564894301, 0.2460894166, 0.2364456197, 0.2274005728, 0.218833612, 0.2106516257, 0.2027822026], "AUX_ENDO_LEAD_161": [0, 0.6580198762, 0.5734336091, 0.5070737028, 0.4547512006, 0.4131545876, 0.3797151384, 0.35246509, 0.3299098214, 0.3109204367, 0.2946471316, 0.2804511641, 0.2678524061, 0.2564894301, 0.2460894166, 0.2364456197, 0.2274005728, 0.218833612, 0.2106516257, 0.2027822026, 0.1951685545], "AUX_ENDO_LAG_13_1": [0, 0, 0.008724786016, 0.008737686506, 0.008324722034, 0.007967953625, 0.007680508837, 0.007449523869, 0.007263192669, 0.007112027957, 0.006988528205, 0.006886788858, 0.006802167866, 0.006731012548, 0.006670441995, 0.006618176358, 0.006572404201, 0.006531679996, 0.006494845131, 0.006460967042, 0.006429292242], "AUX_ENDO_LAG_13_2": [0, 0, -2.523745516e-15, 0.008724786016, 0.008737686506, 0.008324722034, 0.007967953625, 0.007680508837, 0.007449523869, 0.007263192669, 0.007112027957, 0.006988528205, 0.006886788858, 0.006802167866, 0.006731012548, 0.006670441995, 0.006618176358, 0.006572404201, 0.006531679996, 0.006494845131, 0.006460967043], "AUX_ENDO_LAG_87_1": [0, 0, 1.072091703, 0.9022438796, 0.7659370882, 0.6580198762, 0.5734336091, 0.5070737028, 0.4547512006, 0.4131545876, 0.3797151384, 0.35246509, 0.3299098214, 0.3109204367, 0.2946471316, 0.2804511641, 0.2678524061, 0.2564894301, 0.2460894166, 0.2364456197, 0.2274005728], "AUX_ENDO_LAG_87_2": [0, 0, 0, 1.072091703, 0.9022438796, 0.7659370882, 0.6580198762, 0.5734336091, 0.5070737028, 0.4547512006, 0.4131545876, 0.3797151384, 0.35246509, 0.3299098214, 0.3109204367, 0.2946471316, 0.2804511641, 0.2678524061, 0.2564894301, 0.2460894166, 0.2364456197], "AUX_ENDO_LAG_87_3": [0, 0, 0, 0, 1.072091703, 0.9022438796, 0.7659370882, 0.6580198762, 0.5734336091, 0.5070737028, 0.4547512006, 0.4131545876, 0.3797151384, 0.35246509, 0.3299098214, 0.3109204367, 0.2946471316, 0.2804511641, 0.2678524061, 0.2564894301, 0.2460894166], "AUX_ENDO_LAG_86_1": [0, 0, 0.1753207179, 0.2289821188, 0.2297359335, 0.2074759458, 0.1779167388, 0.1482753539, 0.1216785762, 0.09916474386, 0.0807569628, 0.0660365473, 0.0544388473, 0.04539682984, 0.03840321925, 0.03303070861, 0.02893189851, 0.02583052895, 0.02350994283, 0.02180164003, 0.0205751386], "AUX_ENDO_LAG_86_2": [0, 0, 0, 0.1753207179, 0.2289821188, 0.2297359335, 0.2074759458, 0.1779167388, 0.1482753539, 0.1216785762, 0.09916474386, 0.0807569628, 0.0660365473, 0.0544388473, 0.04539682984, 0.03840321925, 0.03303070861, 0.02893189851, 0.02583052895, 0.02350994283, 0.02180164003], "AUX_ENDO_LAG_86_3": [0, 0, 0, 0, 0.1753207179, 0.2289821188, 0.2297359335, 0.2074759458, 0.1779167388, 0.1482753539, 0.1216785762, 0.09916474386, 0.0807569628, 0.0660365473, 0.0544388473, 0.04539682984, 0.03840321925, 0.03303070861, 0.02893189851, 0.02583052895, 0.02350994283], "AUX_ENDO_LAG_83_1": [0, 0, 0.100747538, 0.1406847682, 0.1535487586, 0.1543706952, 0.1380246759, 0.1212717395, 0.1063810566, 0.09384025193, 0.08359839045, 0.07539408018, 0.06890369298, 0.06381116113, 0.05983722653, 0.05674805245, 0.05435400191, 0.0525043183, 0.05108062994, 0.04999066457, 0.04916274592], "AUX_ENDO_LAG_83_2": [0, 0, 0, 0.100747538, 0.1406847682, 0.1535487586, 0.1543706952, 0.1380246759, 0.1212717395, 0.1063810566, 0.09384025193, 0.08359839045, 0.07539408018, 0.06890369298, 0.06381116113, 0.05983722653, 0.05674805245, 0.05435400191, 0.0525043183, 0.05108062994, 0.04999066457], "AUX_ENDO_LAG_83_3": [0, 0, 0, 0, 0.100747538, 0.1406847682, 0.1535487586, 0.1543706952, 0.1380246759, 0.1212717395, 0.1063810566, 0.09384025193, 0.08359839045, 0.07539408018, 0.06890369298, 0.06381116113, 0.05983722653, 0.05674805245, 0.05435400191, 0.0525043183, 0.05108062994], "AUX_ENDO_LAG_85_1": [0, 0, 0.03489914407, 0.03495074602, 0.03329888814, 0.0318718145, 0.03072203535, 0.02979809548, 0.02905277067, 0.02844811183, 0.02795411282, 0.02754715543, 0.02720867146, 0.02692405019, 0.02668176798, 0.02647270543, 0.0262896168, 0.02612671998, 0.02597938052, 0.02584386817, 0.02571716897], "AUX_ENDO_LAG_85_2": [0, 0, -5.987157907e-15, 0.03489914407, 0.03495074602, 0.03329888814, 0.0318718145, 0.03072203535, 0.02979809548, 0.02905277067, 0.02844811183, 0.02795411282, 0.02754715543, 0.02720867146, 0.02692405019, 0.02668176798, 0.02647270543, 0.0262896168, 0.02612671998, 0.02597938052, 0.02584386817], "AUX_ENDO_LAG_85_3": [0, 0, 1.438678041e-17, -5.975688987e-15, 0.03489914407, 0.03495074602, 0.03329888814, 0.0318718145, 0.03072203535, 0.02979809548, 0.02905277067, 0.02844811183, 0.02795411282, 0.02754715543, 0.02720867146, 0.02692405019, 0.02668176798, 0.02647270543, 0.0262896168, 0.02612671998, 0.02597938052]}}