{"interest_": {"interest": [0, 0.7680757942, 0.4659680691, 0.2842548367, 0.1766287811, 0.1136075306, 0.07699549064, 0.05581440814, 0.04355408096, 0.0364062789, 0.03216791193, 0.02957616531, 0.02791280263, 0.02677203044, 0.025925891, 0.02524695616, 0.02466428892, 0.02413853055, 0.02364789245, 0.02318032144, 0.02272913865], "inflation": [0, -0.2565851911, -0.4133857311, -0.5042901252, -0.5549526798, -0.3249724736, -0.1806419991, -0.09402929094, -0.04299779177, -0.01341360856, 0.003463804972, 0.0129158876, 0.01807814614, 0.02078635214, 0.02210322288, 0.02263819301, 0.02273796417, 0.02259840128, 0.02232946992, 0.02199255548, 0.0216217348], "inflationq": [0, -1.026340764, -0.6272021599, -0.3636175764, -0.2026502186, -0.1064199395, -0.04988026197, -0.01716674378, 0.001475778136, 0.01191679335, 0.01762939218, 0.02064158672, 0.02212481231, 0.02274961734, 0.02289687514, 0.02278146728, 0.02252389691, 0.02219136582, 0.02182114968, 0.02143380951, 0.02104061418], "outputgap": [0, -0.547044473, -0.4925911671, -0.3465569128, -0.23561383, -0.1591426955, -0.1092563843, -0.07780897266, -0.05840604452, -0.046572544, -0.03936984006, -0.03494509912, -0.03216268517, -0.03034092759, -0.02907716919, -0.02813657136, -0.02738357195, -0.02674056864, -0.02616343553, -0.02562720965, -0.02511781478], "output": [0, -0.547044473, -0.4925911671, -0.3465569128, -0.23561383, -0.1591426955, -0.1092563843, -0.07780897266, -0.05840604452, -0.046572544, -0.03936984006, -0.03494509912, -0.03216268517, -0.03034092759, -0.02907716919, -0.02813657136, -0.02738357195, -0.02674056864, -0.02616343553, -0.02562720965, -0.02511781478], "c": [0, -0.1717413513, -0.1855800268, -0.1531040035, -0.1148980927, -0.08355174696, -0.06103792274, -0.04593065411, -0.03617641349, -0.03000656102, -0.02612772709, -0.02366844383, -0.02206982802, -0.02098515276, -0.02020437817, -0.01960252971, -0.01910627606, -0.01867305843, -0.01827838863, -0.01790826602, -0.01755471786], "i": [0, -0.2963197129, -0.2269336337, -0.1355240296, -0.08076915183, -0.04846245884, -0.02962161522, -0.01873036136, -0.01247283332, -0.00888840396, -0.006832866609, -0.005645575558, -0.004948473252, -0.004526846378, -0.004259542686, -0.004078587485, -0.00394603007, -0.003840772941, -0.003751130266, -0.00367064817, -0.003595769298], "y": [0, -0.4412900145, -0.3973636039, -0.2795606439, -0.1900650415, -0.1283772817, -0.08813497585, -0.06276696753, -0.04711500711, -0.03756915504, -0.03175887547, -0.028189524, -0.0259450054, -0.0244754294, -0.02345598036, -0.02269721859, -0.02208978878, -0.02157109067, -0.02110552874, -0.02067296587, -0.02026204705], "n": [0, -0.2003115332, -0.1754933483, -0.1184053614, -0.07576217558, -0.04669363235, -0.02791828249, -0.01621764469, -0.009111306946, -0.004879741111, -0.002400317124, -0.0009679963584, -0.0001518991255, 0.0003060246303, 0.0005579121015, 0.0006923380681, 0.0007603413808, 0.0007910778419, 0.0008010793033, 0.0007996589392, 0.0007920329557], "w": [0, -1.599358263, -0.9632720204, -0.5850763964, -0.3631037018, -0.2340660454, -0.1595344186, -0.1166072715, -0.09183510701, -0.07741214322, -0.06885204285, -0.06359736448, -0.06020040467, -0.05784658611, -0.05607996107, -0.05464646557, -0.05340506379, -0.05227769532, -0.05122123623, -0.0502118691, -0.04923640873], "k": [0, -0.2963197129, -0.5158453537, -0.6384732495, -0.7032805701, -0.7341610146, -0.7454286045, -0.7455232507, -0.7393580028, -0.7297624567, -0.7183512619, -0.7060380559, -0.6933355777, -0.6805290347, -0.6677753515, -0.6551595552, -0.6427265964, -0.6304992044, -0.6184878546, -0.6066963064, -0.595124668], "delta_k": [0, -0.2963197129, -0.2195256409, -0.1226278958, -0.06480732059, -0.03088044459, -0.01126758986, -9.464624946e-05, 0.00616524795, 0.00959554611, 0.01141119481, 0.01231320599, 0.01270247815, 0.01280654307, 0.01275368318, 0.0126157963, 0.01243295881, 0.01222739197, 0.01201134984, 0.01179154819, 0.01157163836], "m": [0, -6.862261864, -4.187063563, -2.565971663, -1.600243005, -1.032113572, -0.7007944567, -0.5085046416, -0.3969038221, -0.3316981624, -0.2929689445, -0.2692604585, -0.2540385768, -0.2436025009, -0.2358687884, -0.2296705724, -0.2243571729, -0.2195670155, -0.2150996636, -0.2108441042, -0.2067387603], "d": [0, -0.1202189459, -0.1299060188, -0.1071728025, -0.08042866487, -0.05848622287, -0.04272654592, -0.03215145787, -0.02532348945, -0.02100459272, -0.01828940896, -0.01656791068, -0.01544887961, -0.01468960693, -0.01414306472, -0.0137217708, -0.01337439324, -0.0130711409, -0.01279487204, -0.01253578621, -0.0122883025], "b": [0, -0.9220413834, -0.6463158821, -0.383522629, -0.2249184393, -0.1308341843, -0.07577608603, -0.04390621585, -0.02562192321, -0.01520714034, -0.009308061867, -0.005979704846, -0.004104934626, -0.003047303951, -0.002446739781, -0.002100759966, -0.001896106322, -0.001769726494, -0.001686665928, -0.00162761947, -0.001581960483], "l": [0, -1.042260329, -0.7762219008, -0.4906954314, -0.3053471042, -0.1893204071, -0.1185026319, -0.07605767372, -0.05094541265, -0.03621173306, -0.02759747083, -0.02254761552, -0.01955381424, -0.01773691089, -0.0165898045, -0.01582253077, -0.01527049956, -0.01484086739, -0.01448153797, -0.01416340568, -0.01387026299], "R": [0, 0.192983868, 0.1170774044, 0.07142081328, 0.04437909076, 0.02854460571, 0.01934560068, 0.01402372065, 0.01094323643, 0.009147306262, 0.008082389938, 0.007431197318, 0.007013266998, 0.006726640819, 0.006514042969, 0.006343456327, 0.006197057522, 0.006064957429, 0.005941681524, 0.005824201371, 0.00571083886], "Rd": [0, 0.1108899849, 0.06698999862, 0.04072696561, 0.02523785422, 0.0161993552, 0.01096345389, 0.007941594507, 0.006195957627, 0.005179929995, 0.004578233065, 0.004210601954, 0.003974729799, 0.00381292254, 0.003692823259, 0.003596370814, 0.003513523987, 0.003438718025, 0.003368875567, 0.003302295839, 0.003238037162], "Rl": [0, 0.1942865091, 0.1178676769, 0.07190290377, 0.04467864962, 0.0287372818, 0.01947618348, 0.01411838076, 0.01101710327, 0.00920905058, 0.00813694607, 0.0074813579, 0.00706060655, 0.006772045644, 0.006558012759, 0.006386274657, 0.00623888766, 0.006105895892, 0.005981787875, 0.005863514731, 0.005749387023], "lambda": [0, 1.44290085, 0.8690398197, 0.5278412279, 0.3275830387, 0.2111685065, 0.143927945, 0.1052001512, 0.08285132668, 0.06983929105, 0.06211658352, 0.05737594469, 0.05431129288, 0.0521877369, 0.05059393217, 0.04930066853, 0.04818070703, 0.04716362352, 0.04621051266, 0.045299887, 0.04441985115], "xi": [0, -1.393343203, -0.5197197692, -0.1586003326, -0.0211092491, 0.02328369228, 0.03177992012, 0.0283495118, 0.02233979896, 0.01693237017, 0.01287908455, 0.01008667728, 0.008247347087, 0.007062433622, 0.006302675953, 0.005809460982, 0.005479355271, 0.005247443385, 0.005074063888, 0.004935461164, 0.004817620791], "psi": [0, 0.8726770951, -0.3470753911, -0.2063594293, -0.1211176325, -0.07040836924, -0.04066758841, -0.02342285581, -0.01351673421, -0.007869775292, -0.004670750572, -0.002867173395, -0.001853524059, -0.001284342342, -0.000963944882, -0.0007821754009, -0.0006773609893, -0.0006151396221, -0.0005764484904, -0.000550753132, -0.0005322521812], "pi": [0, -0.2565851913, -0.1568005401, -0.09090439416, -0.05066255467, -0.02660498488, -0.0124700655, -0.004291685948, 0.0003689445343, 0.00297919834, 0.004407348048, 0.005160396684, 0.00553120308, 0.005687404339, 0.005724218788, 0.005695366823, 0.005630974232, 0.005547841458, 0.005455287425, 0.005358452381, 0.005260153549], "rmc": [0, -0.9763540145, -0.6441544013, -0.393140437, -0.2348503574, -0.137831827, -0.07960676059, -0.04522904518, -0.02519659884, -0.01365101343, -0.007060352948, -0.003331418289, -0.001240377804, -7.954382449e-05, 0.000556567086, 0.0008984816204, 0.00107638215, 0.00116335415, 0.001200215101, 0.001209654446, 0.00120423065], "yk": [0, -0.01984313824, -0.01648702064, -0.01016683168, -0.005571081542, -0.002495200918, -0.0005417475474, 0.0006514649606, 0.001355715328, 0.00175622471, 0.00197277364, 0.002080095218, 0.002123640521, 0.002130525504, 0.002116685019, 0.002091368754, 0.002059890248, 0.002025273876, 0.001989226157, 0.001952701398, 0.001916227711], "yn": [0, 0.6489264426, 0.5391719561, 0.3324839976, 0.1821900395, 0.08160009013, 0.01771666953, -0.02130473619, -0.04433570439, -0.0574334879, -0.06451524708, -0.06802496463, -0.06944901856, -0.06967417686, -0.06922155408, -0.06839364102, -0.06736420532, -0.06623215259, -0.06505329078, -0.06385882842, -0.06266603628], "f": [0, 0.02677105828, 0.01515006185, 0.009067392286, 0.005602204721, 0.003636924967, 0.002524562532, 0.001894048081, 0.001534239688, 0.00132580984, 0.001201718084, 0.001124495211, 0.001073295678, 0.00103656955, 0.001007940299, 0.0009838984127, 0.0009625171523, 0.0009427405117, 0.0009239899795, 0.0009059481333, 0.0008884399368], "EFP": [0, 0.001302641109, 0.0007902724795, 0.0004820904897, 0.0002995588626, 0.0001926760885, 0.0001305828046, 9.466011438e-05, 7.38668459e-05, 6.174431727e-05, 5.455613208e-05, 5.01605819e-05, 4.733955224e-05, 4.540482553e-05, 4.396979004e-05, 4.281833021e-05, 4.183013827e-05, 4.093846265e-05, 4.010635029e-05, 3.931335926e-05, 3.854816231e-05], "IMP": [0, 0.08209388314, 0.05008740575, 0.03069384767, 0.01914123654, 0.01234525051, 0.008382146787, 0.006082126141, 0.004747278802, 0.003967376267, 0.003504156873, 0.003220595364, 0.0030385372, 0.002913718278, 0.00282121971, 0.002747085513, 0.002683533535, 0.002626239404, 0.002572805957, 0.002521905532, 0.002472801699], "alpha": [0, -2.220446049e-16, -3.330669074e-16, -3.330669074e-16, -3.330669074e-16, -3.330669074e-16, -3.330669074e-16, -3.330669074e-16, -3.330669074e-16, -2.220446049e-16, -2.220446049e-16, -2.220446049e-16, -2.220446049e-16, -2.220446049e-16, -2.220446049e-16, -2.220446049e-16, -2.220446049e-16, -2.220446049e-16, -1.110223025e-16, -1.110223025e-16, -1.110223025e-16], "omega": [0, -5.204170428e-18, -3.07913417e-17, -6.635317296e-17, -1.073360151e-16, -1.500535807e-16, -1.916869441e-16, -2.307182223e-16, -2.66496894e-16, -2.985892783e-16, -3.269953752e-16, -3.514983443e-16, -3.729655473e-16, -3.911801438e-16, -4.065758147e-16, -4.193694003e-16, -4.299945816e-16, -4.384513586e-16, -4.45173412e-16, -4.50160742e-16, -4.538470294e-16], "A": [0, 0, -1.110223025e-16, -2.220446049e-16, -3.330669074e-16, -4.440892099e-16, -5.551115123e-16, -6.661338148e-16, -6.661338148e-16, -7.771561172e-16, -8.881784197e-16, -8.881784197e-16, -9.992007222e-16, -9.992007222e-16, -1.110223025e-15, -1.110223025e-15, -1.221245327e-15, -1.221245327e-15, -1.221245327e-15, -1.33226763e-15, -1.33226763e-15], "theta": [0, 5.47602424e-17, -8.379897982e-17, -2.186161995e-16, -3.440693397e-16, -4.590688709e-16, -5.641227553e-16, -6.601565176e-16, -7.480865942e-16, -8.286992511e-16, -9.026419409e-16, -9.704481206e-16, -1.03256603e-15, -1.089382316e-15, -1.141239112e-15, -1.188445632e-15, -1.231285809e-15, -1.270023265e-15, -1.304904575e-15, -1.336161459e-15, -1.364012311e-15], "c_fe": [0, -4.440892099e-16, -7.771561172e-16, -6.661338148e-16, -6.661338148e-16, -6.661338148e-16, -6.661338148e-16, -6.661338148e-16, -6.661338148e-16, -6.661338148e-16, -6.661338148e-16, -6.661338148e-16, -6.661338148e-16, -6.661338148e-16, -6.661338148e-16, -6.661338148e-16, -6.661338148e-16, -6.661338148e-16, -6.661338148e-16, -6.661338148e-16, -6.661338148e-16], "i_fe": [0, 1.276756478e-15, 1.221245327e-15, 7.494005416e-16, 8.604228441e-16, 8.326672685e-16, 8.049116929e-16, 7.771561172e-16, 7.494005416e-16, 7.21644966e-16, 6.938893904e-16, 6.661338148e-16, 6.383782392e-16, 6.106226635e-16, 5.828670879e-16, 5.551115123e-16, 5.273559367e-16, 5.273559367e-16, 4.996003611e-16, 4.718447855e-16, 4.718447855e-16], "y_fe": [0, 6.661338148e-16, 5.551115123e-16, 0, 1.110223025e-16, 0, 0, 0, -1.110223025e-16, -1.110223025e-16, -2.220446049e-16, -2.220446049e-16, -2.220446049e-16, -3.330669074e-16, -3.330669074e-16, -3.330669074e-16, -3.330669074e-16, -4.440892099e-16, -4.440892099e-16, -4.440892099e-16, -4.440892099e-16], "n_fe": [0, 2.498001805e-16, 3.330669074e-16, 5.551115123e-17, 1.387778781e-16, 1.110223025e-16, 1.387778781e-16, 1.387778781e-16, 1.387778781e-16, 1.110223025e-16, 1.110223025e-16, 1.110223025e-16, 1.110223025e-16, 1.110223025e-16, 1.110223025e-16, 1.110223025e-16, 1.110223025e-16, 8.326672685e-17, 8.326672685e-17, 8.326672685e-17, 8.326672685e-17], "w_fe": [0, -6.661338148e-16, -2.664535259e-15, -1.554312234e-15, -1.554312234e-15, -1.554312234e-15, -1.554312234e-15, -1.554312234e-15, -1.776356839e-15, -1.776356839e-15, -1.776356839e-15, -1.776356839e-15, -1.998401444e-15, -1.998401444e-15, -1.998401444e-15, -1.998401444e-15, -1.998401444e-15, -1.998401444e-15, -1.998401444e-15, -1.998401444e-15, -2.220446049e-15], "k_fe": [0, 8.881784197e-16, 2.664535259e-15, 3.552713679e-15, 4.440892099e-15, 5.329070518e-15, 5.329070518e-15, 6.217248938e-15, 7.105427358e-15, 7.993605777e-15, 7.993605777e-15, 8.881784197e-15, 9.769962617e-15, 9.769962617e-15, 1.065814104e-14, 1.065814104e-14, 1.065814104e-14, 1.154631946e-14, 1.154631946e-14, 1.154631946e-14, 1.243449788e-14], "delta_k_fe": [0, 1.247434896e-15, 1.185549465e-15, 7.175728287e-16, 8.471866652e-16, 8.060986067e-16, 7.755156235e-16, 7.311627625e-16, 6.84855049e-16, 6.37836915e-16, 5.917880084e-16, 5.473572791e-16, 5.048899677e-16, 4.645128947e-16, 4.262458058e-16, 3.900496209e-16, 3.558557174e-16, 3.235814616e-16, 2.931387909e-16, 2.644388156e-16, 2.373942519e-16], "m_fe": [0, 3.769207169e-14, -3.513855873e-14, -1.743050149e-14, -2.448041769e-14, -2.781108677e-14, -3.241851232e-14, -3.669287096e-14, -4.0745185e-14, -4.440892099e-14, -4.762856776e-14, -5.051514762e-14, -5.295763827e-14, -5.501155087e-14, -5.678790771e-14, -5.823119764e-14, -5.939693182e-14, -6.028511024e-14, -6.10067552e-14, -6.150635556e-14, -6.183942247e-14], "d_fe": [0, -2.775557562e-16, -5.551115123e-16, -6.106226635e-16, -6.106226635e-16, -6.106226635e-16, -6.106226635e-16, -5.551115123e-16, -5.551115123e-16, -5.551115123e-16, -5.551115123e-16, -5.551115123e-16, -4.996003611e-16, -4.996003611e-16, -4.996003611e-16, -4.996003611e-16, -4.996003611e-16, -4.996003611e-16, -4.996003611e-16, -4.996003611e-16, -4.996003611e-16], "b_fe": [0, 1.859623566e-15, 1.748601264e-15, 1.082467449e-15, 1.33226763e-15, 1.304512054e-15, 1.276756478e-15, 1.221245327e-15, 1.1379786e-15, 1.082467449e-15, 1.026956298e-15, 9.714451465e-16, 9.159339953e-16, 8.604228441e-16, 8.049116929e-16, 7.771561172e-16, 7.21644966e-16, 6.938893904e-16, 6.661338148e-16, 6.106226635e-16, 5.828670879e-16], "l_fe": [0, 1.554312234e-15, 1.110223025e-15, 4.440892099e-16, 6.661338148e-16, 6.661338148e-16, 6.661338148e-16, 6.661338148e-16, 5.551115123e-16, 5.551115123e-16, 4.440892099e-16, 4.440892099e-16, 4.440892099e-16, 3.330669074e-16, 3.330669074e-16, 2.220446049e-16, 2.220446049e-16, 2.220446049e-16, 2.220446049e-16, 1.110223025e-16, 1.110223025e-16], "R_fe": [0, -1.110223025e-15, 8.881784197e-16, 2.220446049e-16, 2.220446049e-16, 2.220446049e-16, 2.220446049e-16, 2.220446049e-16, 2.220446049e-16, 2.220446049e-16, 2.220446049e-16, 2.220446049e-16, 2.220446049e-16, 2.220446049e-16, 2.220446049e-16, 2.220446049e-16, 2.220446049e-16, 2.220446049e-16, 2.220446049e-16, 2.220446049e-16, 2.220446049e-16], "Rd_fe": [0, -6.661338148e-16, 6.661338148e-16, 2.220446049e-16, 2.220446049e-16, 4.440892099e-16, 4.440892099e-16, 4.440892099e-16, 4.440892099e-16, 4.440892099e-16, 6.661338148e-16, 6.661338148e-16, 6.661338148e-16, 6.661338148e-16, 6.661338148e-16, 6.661338148e-16, 6.661338148e-16, 6.661338148e-16, 6.661338148e-16, 6.661338148e-16, 6.661338148e-16], "Rl_fe": [0, -1.110223025e-15, 1.110223025e-15, 4.440892099e-16, 4.440892099e-16, 4.440892099e-16, 4.440892099e-16, 4.440892099e-16, 2.220446049e-16, 2.220446049e-16, 2.220446049e-16, 2.220446049e-16, 2.220446049e-16, 2.220446049e-16, 2.220446049e-16, 2.220446049e-16, 2.220446049e-16, 2.220446049e-16, 2.220446049e-16, 2.220446049e-16, 2.220446049e-16], "lambda_fe": [0, 6.661338148e-16, 2.442490654e-15, 1.554312234e-15, 1.554312234e-15, 1.33226763e-15, 1.554312234e-15, 1.554312234e-15, 1.554312234e-15, 1.554312234e-15, 1.554312234e-15, 1.776356839e-15, 1.776356839e-15, 1.776356839e-15, 1.776356839e-15, 1.776356839e-15, 1.776356839e-15, 1.776356839e-15, 1.776356839e-15, 1.998401444e-15, 1.998401444e-15], "xi_fe": [0, 6.921546669e-16, -7.511352651e-16, 6.808789643e-16, 5.976122375e-16, 5.941427905e-16, 4.935288289e-16, 3.894454204e-16, 2.870967353e-16, 1.925543058e-16, 1.084202172e-16, 3.382710778e-17, -3.209238431e-17, -9.020562075e-17, -1.413799633e-16, -1.856154119e-16, -2.246466901e-16, -2.584737979e-16, -2.870967353e-16, -3.122502257e-16, -3.339342691e-16], "psi_fe": [0, 4.440892099e-16, 1.33226763e-15, -5.551115123e-16, 0, -1.110223025e-16, -1.110223025e-16, -1.110223025e-16, -1.110223025e-16, -1.110223025e-16, -1.110223025e-16, -1.110223025e-16, -1.110223025e-16, -1.110223025e-16, -1.110223025e-16, -1.110223025e-16, -1.110223025e-16, -1.110223025e-16, -1.110223025e-16, -1.110223025e-16, -1.110223025e-16], "rmc_fe": [0, 0, -1.110223025e-16, -1.110223025e-16, 0, 0, 0, 0, 0, 0, 0, 0, 0, 0, 0, 0, 0, 0, 0, 0, 0], "yk_fe": [0, 3.469446952e-17, 9.020562075e-17, 1.110223025e-16, 1.387778781e-16, 1.45716772e-16, 1.387778781e-16, 1.387778781e-16, 1.318389842e-16, 1.249000903e-16, 1.179611964e-16, 1.110223025e-16, 1.040834086e-16, 9.714451465e-17, 9.020562075e-17, 8.326672685e-17, 7.632783294e-17, 6.938893904e-17, 6.245004514e-17, 6.245004514e-17, 5.551115123e-17], "yn_fe": [0, -4.440892099e-16, -1.776356839e-15, -8.881784197e-16, -8.881784197e-16, -8.881784197e-16, -1.33226763e-15, -1.33226763e-15, -1.33226763e-15, -1.33226763e-15, -1.776356839e-15, -1.776356839e-15, -1.776356839e-15, -1.776356839e-15, -1.776356839e-15, -1.776356839e-15, -1.776356839e-15, -2.220446049e-15, -2.220446049e-15, -2.220446049e-15, -2.220446049e-15], "f_fe": [0, -1.856154119e-16, 1.439820485e-16, 8.67361738e-18, -3.469446952e-18, -3.729655473e-17, -6.418476861e-17, -8.933825901e-17, -1.118896642e-16, -1.318389842e-16, -1.500535807e-16, -1.647987302e-16, -1.78676518e-16, -1.899522206e-16, -2.003605615e-16, -2.081668171e-16, -2.15105711e-16, -2.211772432e-16, -2.255140519e-16, -2.289834988e-16, -2.324529458e-16], "EFP_fe": [0, -2.949029909e-17, 3.053113318e-16, 2.064320936e-16, 1.491862189e-16, 1.153591112e-16, 9.454242944e-17, 8.239936511e-17, 7.459310947e-17, 6.938893904e-17, 6.678685383e-17, 6.418476861e-17, 6.245004514e-17, 6.071532166e-17, 5.984795992e-17, 5.811323645e-17, 5.724587471e-17, 5.637851297e-17, 5.464378949e-17, 5.377642776e-17, 5.290906602e-17], "IMP_fe": [0, -5.160802341e-16, 3.2439329e-16, 1.994931997e-17, -4.33680869e-18, -7.979727989e-17, -1.396452398e-16, -1.968911145e-16, -2.480654571e-16, -2.949029909e-16, -3.356689926e-16, -3.720981856e-16, -4.033232082e-16, -4.30211422e-16, -4.53630189e-16, -4.727121472e-16, -4.891920202e-16, -5.022024463e-16, -5.134781489e-16, -5.221517663e-16, -5.282232984e-16], "AUX_ENDO_LEAD_84": [0, -0.6272021599, -0.3636175764, -0.2026502186, -0.1064199395, -0.04988026197, -0.01716674378, 0.001475778136, 0.01191679335, 0.01762939218, 0.02064158672, 0.02212481231, 0.02274961734, 0.02289687514, 0.02278146728, 0.02252389691, 0.02219136582, 0.02182114968, 0.02143380951, 0.02104061418, 0.02064768892], "AUX_ENDO_LEAD_88": [0, -0.3636175764, -0.2026502186, -0.1064199395, -0.04988026197, -0.01716674378, 0.001475778136, 0.01191679335, 0.01762939218, 0.02064158672, 0.02212481231, 0.02274961734, 0.02289687514, 0.02278146728, 0.02252389691, 0.02219136582, 0.02182114968, 0.02143380951, 0.02104061418, 0.02064768892, 0.02025832296], "AUX_ENDO_LEAD_92": [0, -0.2026502186, -0.1064199395, -0.04988026197, -0.01716674378, 0.001475778136, 0.01191679335, 0.01762939218, 0.02064158672, 0.02212481231, 0.02274961734, 0.02289687514, 0.02278146728, 0.02252389691, 0.02219136582, 0.02182114968, 0.02143380951, 0.02104061418, 0.02064768892, 0.02025832296, 0.01987424783], "AUX_ENDO_LEAD_119": [0, -0.4925911671, -0.3465569128, -0.23561383, -0.1591426955, -0.1092563843, -0.07780897266, -0.05840604452, -0.046572544, -0.03936984006, -0.03494509912, -0.03216268517, -0.03034092759, -0.02907716919, -0.02813657136, -0.02738357195, -0.02674056864, -0.02616343553, -0.02562720965, -0.02511781478, -0.02462731956], "AUX_ENDO_LEAD_123": [0, -0.3465569128, -0.23561383, -0.1591426955, -0.1092563843, -0.07780897266, -0.05840604452, -0.046572544, -0.03936984006, -0.03494509912, -0.03216268517, -0.03034092759, -0.02907716919, -0.02813657136, -0.02738357195, -0.02674056864, -0.02616343553, -0.02562720965, -0.02511781478, -0.02462731956, -0.02415124182], "AUX_ENDO_LEAD_127": [0, -0.23561383, -0.1591426955, -0.1092563843, -0.07780897266, -0.05840604452, -0.046572544, -0.03936984006, -0.03494509912, -0.03216268517, -0.03034092759, -0.02907716919, -0.02813657136, -0.02738357195, -0.02674056864, -0.02616343553, -0.02562720965, -0.02511781478, -0.02462731956, -0.02415124182, -0.02368702621], "AUX_ENDO_LEAD_154": [0, -0.4925911671, -0.3465569128, -0.23561383, -0.1591426955, -0.1092563843, -0.07780897266, -0.05840604452, -0.046572544, -0.03936984006, -0.03494509912, -0.03216268517, -0.03034092759, -0.02907716919, -0.02813657136, -0.02738357195, -0.02674056864, -0.02616343553, -0.02562720965, -0.02511781478, -0.02462731956], "AUX_ENDO_LEAD_158": [0, -0.3465569128, -0.23561383, -0.1591426955, -0.1092563843, -0.07780897266, -0.05840604452, -0.046572544, -0.03936984006, -0.03494509912, -0.03216268517, -0.03034092759, -0.02907716919, -0.02813657136, -0.02738357195, -0.02674056864, -0.02616343553, -0.02562720965, -0.02511781478, -0.02462731956, -0.02415124182], "AUX_ENDO_LEAD_162": [0, -0.23561383, -0.1591426955, -0.1092563843, -0.07780897266, -0.05840604452, -0.046572544, -0.03936984006, -0.03494509912, -0.03216268517, -0.03034092759, -0.02907716919, -0.02813657136, -0.02738357195, -0.02674056864, -0.02616343553, -0.02562720965, -0.02511781478, -0.02462731956, -0.02415124182, -0.02368702621], "AUX_ENDO_LAG_2_1": [0, 0, -1.026340764, -0.6272021599, -0.3636175764, -0.2026502186, -0.1064199395, -0.04988026197, -0.01716674378, 0.001475778136, 0.01191679335, 0.01762939218, 0.02064158672, 0.02212481231, 0.02274961734, 0.02289687514, 0.02278146728, 0.02252389691, 0.02219136582, 0.02182114968, 0.02143380951], "AUX_ENDO_LAG_2_2": [0, 0, 0, -1.026340764, -0.6272021599, -0.3636175764, -0.2026502186, -0.1064199395, -0.04988026197, -0.01716674378, 0.001475778136, 0.01191679335, 0.01762939218, 0.02064158672, 0.02212481231, 0.02274961734, 0.02289687514, 0.02278146728, 0.02252389691, 0.02219136582, 0.02182114968], "AUX_ENDO_LAG_4_1": [0, 0, -0.547044473, -0.4925911671, -0.3465569128, -0.23561383, -0.1591426955, -0.1092563843, -0.07780897266, -0.05840604452, -0.046572544, -0.03936984006, -0.03494509912, -0.03216268517, -0.03034092759, -0.02907716919, -0.02813657136, -0.02738357195, -0.02674056864, -0.02616343553, -0.02562720965], "AUX_ENDO_LAG_4_2": [0, 0, 0, -0.547044473, -0.4925911671, -0.3465569128, -0.23561383, -0.1591426955, -0.1092563843, -0.07780897266, -0.05840604452, -0.046572544, -0.03936984006, -0.03494509912, -0.03216268517, -0.03034092759, -0.02907716919, -0.02813657136, -0.02738357195, -0.02674056864, -0.02616343553], "AUX_ENDO_LAG_4_3": [0, 0, 0, 0, -0.547044473, -0.4925911671, -0.3465569128, -0.23561383, -0.1591426955, -0.1092563843, -0.07780897266, -0.05840604452, -0.046572544, -0.03936984006, -0.03494509912, -0.03216268517, -0.03034092759, -0.02907716919, -0.02813657136, -0.02738357195, -0.02674056864], "AUX_ENDO_LAG_3_1": [0, 0, -0.547044473, -0.4925911671, -0.3465569128, -0.23561383, -0.1591426955, -0.1092563843, -0.07780897266, -0.05840604452, -0.046572544, -0.03936984006, -0.03494509912, -0.03216268517, -0.03034092759, -0.02907716919, -0.02813657136, -0.02738357195, -0.02674056864, -0.02616343553, -0.02562720965], "AUX_ENDO_LAG_3_2": [0, 0, 0, -0.547044473, -0.4925911671, -0.3465569128, -0.23561383, -0.1591426955, -0.1092563843, -0.07780897266, -0.05840604452, -0.046572544, -0.03936984006, -0.03494509912, -0.03216268517, -0.03034092759, -0.02907716919, -0.02813657136, -0.02738357195, -0.02674056864, -0.02616343553], "AUX_ENDO_LAG_3_3": [0, 0, 0, 0, -0.547044473, -0.4925911671, -0.3465569128, -0.23561383, -0.1591426955, -0.1092563843, -0.07780897266, -0.05840604452, -0.046572544, -0.03936984006, -0.03494509912, -0.03216268517, -0.03034092759, -0.02907716919, -0.02813657136, -0.02738357195, -0.02674056864], "AUX_ENDO_LAG_0_1": [0, 0, 0.7680757942, 0.4659680691, 0.2842548367, 0.1766287811, 0.1136075306, 0.07699549064, 0.05581440814, 0.04355408096, 0.0364062789, 0.03216791193, 0.02957616531, 0.02791280263, 0.02677203044, 0.025925891, 0.02524695616, 0.02466428892, 0.02413853055, 0.02364789245, 0.02318032144], "AUX_ENDO_LAG_0_2": [0, 0, 0, 0.7680757942, 0.4659680691, 0.2842548367, 0.1766287811, 0.1136075306, 0.07699549064, 0.05581440814, 0.04355408096, 0.0364062789, 0.03216791193, 0.02957616531, 0.02791280263, 0.02677203044, 0.025925891, 0.02524695616, 0.02466428892, 0.02413853055, 0.02364789245], "AUX_ENDO_LAG_0_3": [0, 0, 0, 0, 0.7680757942, 0.4659680691, 0.2842548367, 0.1766287811, 0.1136075306, 0.07699549064, 0.05581440814, 0.04355408096, 0.0364062789, 0.03216791193, 0.02957616531, 0.02791280263, 0.02677203044, 0.025925891, 0.02524695616, 0.02466428892, 0.02413853055], "AUX_ENDO_LAG_2_3": [0, 0, 0, 0, -1.026340764, -0.6272021599, -0.3636175764, -0.2026502186, -0.1064199395, -0.04988026197, -0.01716674378, 0.001475778136, 0.01191679335, 0.01762939218, 0.02064158672, 0.02212481231, 0.02274961734, 0.02289687514, 0.02278146728, 0.02252389691, 0.02219136582]}}