{"interest_": {"interest": [0, 0.6782546403, 0.4018913039, 0.2406651975, 0.1447142999, 0.08769234676, 0.05383202957, 0.03373126855, 0.02179460508, 0.01469733527, 0.01046654922, 0.007932735857, 0.006403219273, 0.005468026808, 0.004884644067, 0.00450967792, 0.004258371902, 0.004080640126, 0.003946888564, 0.00383963089, 0.003748532823], "inflation": [0, -0.3107841961, -0.5098157878, -0.6334674913, -0.7093606955, -0.4446925051, -0.2734333836, -0.1663568269, -0.1002520518, -0.05983433036, -0.03530673098, -0.02051089228, -0.01162977657, -0.00632219858, -0.003163593278, -0.001292469201, -0.0001903577987, 0.0004535792509, 0.0008251321344, 0.001035077106, 0.001149332819], "inflationq": [0, -1.243136784, -0.7961263668, -0.4946068142, -0.3035728169, -0.1844640224, -0.1110898808, -0.0663005875, -0.03915371644, -0.02279313668, -0.01297948332, -0.007117232663, -0.0036292536, -0.001562824738, -0.0003450621107, 0.0003672636432, 0.0007791920105, 0.00101292346, 0.001141149423, 0.00120704353, 0.001236214863], "outputgap": [0, -0.6271952053, -0.5599773576, -0.4049595728, -0.2836594391, -0.197312206, -0.139039336, -0.1009512938, -0.07653337048, -0.06103864559, -0.05122777143, -0.04497647588, -0.0409279383, -0.03823133466, -0.03636021202, -0.03499204025, -0.0339306947, -0.03305758782, -0.03230131551, -0.03161901006, -0.03098497973], "output": [0, -0.6271952053, -0.5599773576, -0.4049595728, -0.2836594391, -0.197312206, -0.139039336, -0.1009512938, -0.07653337048, -0.06103864559, -0.05122777143, -0.04497647588, -0.0409279383, -0.03823133466, -0.03636021202, -0.03499204025, -0.0339306947, -0.03305758782, -0.03230131551, -0.03161901006, -0.03098497973], "c": [0, -0.1903406882, -0.2094666066, -0.1763618459, -0.1351652555, -0.1002373434, -0.07437263171, -0.05646228327, -0.0445128443, -0.03669776647, -0.03162350078, -0.02831442505, -0.02612038751, -0.02462157602, -0.02355268356, -0.02274859569, -0.0221076989, -0.02156797589, -0.02109180609, -0.02065646593, -0.02024826569], "i": [0, -0.3374379327, -0.2538214224, -0.156835513, -0.09736310876, -0.06105069415, -0.0390097096, -0.02568342771, -0.01764222221, -0.01278922261, -0.009851643048, -0.008061238263, -0.006956340133, -0.006260480009, -0.005808553029, -0.005502176132, -0.005282825687, -0.005115734613, -0.004980268437, -0.004864187373, -0.004760231969], "y": [0, -0.505946036, -0.4517227203, -0.3266729223, -0.2288224903, -0.1591678757, -0.1121602976, -0.08143542315, -0.06173796465, -0.04923867484, -0.04132443563, -0.03628163846, -0.03301576283, -0.03084046571, -0.02933106787, -0.02822739062, -0.02737122404, -0.02666690589, -0.0260568359, -0.02550643351, -0.02499497371], "n": [0, -0.2296603658, -0.1994911587, -0.1386878782, -0.09192891635, -0.05900646639, -0.03699453006, -0.02275344637, -0.01374473694, -0.008137529834, -0.004689824536, -0.002590281269, -0.001322065064, -0.0005617236598, -0.0001094296868, 0.0001570788118, 0.0003120539087, 0.0004003313552, 0.0004488619365, 0.0004737873995, 0.0004847474934], "w": [0, -1.779393668, -1.107245532, -0.6985455177, -0.4504355889, -0.3003681406, -0.2097463115, -0.1549796574, -0.1217524885, -0.1014256073, -0.0888081618, -0.08079197999, -0.07552104282, -0.07188944311, -0.06923934327, -0.06717993744, -0.065479265, -0.06399971385, -0.06265964423, -0.06141059007, -0.06022373184], "k": [0, -0.3374379327, -0.5828234068, -0.7250883346, -0.804324235, -0.8452668233, -0.8631448623, -0.8672496684, -0.8632106489, -0.8544196053, -0.8429107582, -0.8298992275, -0.816108087, -0.8019658648, -0.7877252712, -0.7735343156, -0.7594787834, -0.7456075484, -0.7319476281, -0.7185131248, -0.7053105286], "delta_k": [0, -0.3374379327, -0.2453854741, -0.1422649278, -0.07923590039, -0.04094258828, -0.01787803902, -0.004104806151, 0.004039019501, 0.008791043613, 0.01150884709, 0.01301153069, 0.01379114056, 0.01414222217, 0.01424059359, 0.01419095565, 0.0140555322, 0.01387123497, 0.01365992027, 0.01343450333, 0.01320259615], "m": [0, -6.0711471, -3.625819776, -2.186234498, -1.323168155, -0.8071904496, -0.4992895575, -0.3157561521, -0.2063800703, -0.1411386323, -0.1021250229, -0.07868036665, -0.06447037484, -0.05573568799, -0.05024751019, -0.04668558115, -0.04426834277, -0.04253336262, -0.04120711798, -0.04012784606, -0.03919986979], "d": [0, -0.1332384817, -0.1466266246, -0.1234532922, -0.09461567887, -0.07016614035, -0.0520608422, -0.03952359829, -0.03115899101, -0.02568843653, -0.02213645054, -0.01982009753, -0.01828427125, -0.01723510321, -0.01648687849, -0.01592401698, -0.01547538923, -0.01509758312, -0.01476426426, -0.01445952615, -0.01417378598], "b": [0, -1.046509208, -0.7345112819, -0.4525464784, -0.277592012, -0.1699760613, -0.1043317568, -0.06453847938, -0.04052571507, -0.02608028686, -0.01740457683, -0.0121939863, -0.009057731631, -0.007160166708, -0.006000935954, -0.00528127085, -0.004823166469, -0.004520754895, -0.004311159074, -0.004157075157, -0.004036388668], "l": [0, -1.179747689, -0.8811379066, -0.5759997705, -0.3722076908, -0.2401422017, -0.156392599, -0.1040620777, -0.07168470608, -0.05176872339, -0.03954102738, -0.03201408384, -0.02734200289, -0.02439526992, -0.02248781445, -0.02120528783, -0.0202985557, -0.01961833802, -0.01907542334, -0.01861660131, -0.01821017465], "R": [0, 0.1704157388, 0.1009777146, 0.0604686426, 0.03636037685, 0.02203325295, 0.01352563557, 0.008475193104, 0.005476031427, 0.003692797807, 0.002629786236, 0.001993149713, 0.001608849064, 0.001373876082, 0.001227297504, 0.001133084905, 0.001069942689, 0.001025286464, 0.0009916805438, 0.0009647313795, 0.0009418424179], "Rd": [0, 0.09778770484, 0.05760604292, 0.03431889027, 0.02053483592, 0.01237960337, 0.00755478099, 0.004699489788, 0.003008476045, 0.002005511916, 0.001409078248, 0.001052815775, 0.0008384454616, 0.0007079210664, 0.000626965164, 0.000575339032, 0.0005410940143, 0.0005171760492, 0.0004994205367, 0.0004853684485, 0.0004735674248], "Rl": [0, 0.171566045, 0.1016593141, 0.06087680593, 0.03660580939, 0.02218197741, 0.01361693361, 0.008532400658, 0.00551299464, 0.003717724192, 0.002647537293, 0.002006603473, 0.001619708795, 0.001383149746, 0.001235581762, 0.001140733228, 0.001077164802, 0.001032207148, 0.0009983743875, 0.0009712433163, 0.0009481998542], "lambda": [0, 1.605324269, 0.9989291053, 0.6302102188, 0.4063716735, 0.2709845913, 0.1892278534, 0.1398187538, 0.1098420367, 0.09150363513, 0.08012049274, 0.07288849488, 0.06813318776, 0.06485684973, 0.06246599622, 0.06060805202, 0.05907374807, 0.05773893418, 0.05652995703, 0.05540309174, 0.05433233806], "xi": [0, -1.553039334, -0.6123751976, -0.214386366, -0.05484053641, 0.002726468555, 0.01892767836, 0.01985442205, 0.01620404047, 0.01200702593, 0.008533609281, 0.005995237597, 0.004255389918, 0.003106631811, 0.002364955092, 0.001891868569, 0.001591128467, 0.001398891898, 0.001274062405, 0.001190726609, 0.001132785086], "psi": [0, 0.9709119792, -0.3667522755, -0.2230039069, -0.1353792061, -0.08188310766, -0.04944707911, -0.0298829885, -0.01813014002, -0.01109120076, -0.006884608624, -0.004373965744, -0.002876044877, -0.001981553448, -0.001446005868, -0.00112369838, -0.0009279583701, -0.0008073052998, -0.0007311983124, -0.0006815364523, -0.0006475997369], "pi": [0, -0.3107841961, -0.1990315917, -0.1236517035, -0.07589320423, -0.04611600559, -0.0277724702, -0.01657514688, -0.009788429109, -0.00569828417, -0.00324487083, -0.001779308166, -0.0009073134, -0.0003907061844, -8.626552767e-05, 9.181591081e-05, 0.0001947980026, 0.0002532308651, 0.0002852873559, 0.0003017608824, 0.0003090537156], "rmc": [0, -1.094592859, -0.7378153407, -0.4673394135, -0.2913255179, -0.1794332781, -0.1095119326, -0.06636286498, -0.03998509466, -0.02397606595, -0.01431454145, -0.008509658357, -0.00503436058, -0.002959798849, -0.001724417068, -0.000990328655, -0.0005549934582, -0.0002973667741, -0.0001452825111, -5.579927301e-05, -3.405603039e-06], "yk": [0, -0.02275047418, -0.0187397241, -0.01197315998, -0.00691021208, -0.003408851946, -0.001104298205, 0.0003605983627, 0.001265447637, 0.001808670591, 0.002123575759, 0.00229669752, 0.002382915032, 0.002416460216, 0.002418426318, 0.002401690273, 0.002374055935, 0.002340224652, 0.002303014251, 0.002264105596, 0.002224496332], "yn": [0, 0.744004507, 0.6128416967, 0.3915560146, 0.2259833754, 0.1114790491, 0.03611365868, -0.01179258008, -0.04138369687, -0.05914861566, -0.06944690052, -0.07510846917, -0.07792802437, -0.07902504624, -0.07908934333, -0.0785420276, -0.07763830701, -0.07653192889, -0.07531504412, -0.07404262166, -0.07274728731], "f": [0, 0.02183258483, 0.01156530871, 0.006524436585, 0.003705873961, 0.002120161814, 0.001222043687, 0.0007102878283, 0.0004171018575, 0.0002483142322, 0.0001507081961, 9.402484992e-05, 6.096481408e-05, 4.159031858e-05, 3.01687138e-05, 2.338120674e-05, 1.930054231e-05, 1.680461153e-05, 1.523863236e-05, 1.421979823e-05, 1.352394627e-05], "EFP": [0, 0.001150306237, 0.0006815995733, 0.0004081633375, 0.0002454325437, 0.0001487244574, 9.12980401e-05, 5.720755345e-05, 3.696321213e-05, 2.492638519e-05, 1.775105709e-05, 1.345376056e-05, 1.085973118e-05, 9.273663555e-06, 8.284258153e-06, 7.648323106e-06, 7.22211315e-06, 6.920683631e-06, 6.693843671e-06, 6.511936811e-06, 6.357436321e-06], "IMP": [0, 0.07262803393, 0.04337167164, 0.02614975233, 0.01582554093, 0.009653649584, 0.00597085458, 0.003775703316, 0.002467555382, 0.00168728589, 0.001220707988, 0.0009403339379, 0.000770403602, 0.0006659550159, 0.0006003323403, 0.0005577458726, 0.0005288486746, 0.0005081104147, 0.0004922600071, 0.000479362931, 0.0004682749931], "alpha": [0, -2.220446049e-16, -1.110223025e-16, 0, -1.110223025e-16, -1.110223025e-16, -1.110223025e-16, -2.220446049e-16, -2.220446049e-16, -2.220446049e-16, -3.330669074e-16, -3.330669074e-16, -3.330669074e-16, -4.440892099e-16, -4.440892099e-16, -4.440892099e-16, -4.440892099e-16, -4.440892099e-16, -4.440892099e-16, -4.440892099e-16, -4.440892099e-16], "omega": [0, -1.235990477e-17, -3.25911173e-16, -5.067560954e-16, -5.971785566e-16, -6.301383026e-16, -6.284035792e-16, -6.069363762e-16, -5.752776727e-16, -5.388484797e-16, -5.013350846e-16, -4.646890511e-16, -4.297777412e-16, -3.97251676e-16, -3.671108556e-16, -3.395721204e-16, -3.1441863e-16, -2.91433544e-16, -2.706168623e-16, -2.51534904e-16, -2.341876693e-16], "A": [0, -3.330669074e-16, -8.881784197e-16, -9.992007222e-16, -1.110223025e-15, -1.110223025e-15, -1.110223025e-15, -1.110223025e-15, -1.110223025e-15, -9.992007222e-16, -9.992007222e-16, -9.992007222e-16, -8.881784197e-16, -8.881784197e-16, -7.771561172e-16, -7.771561172e-16, -7.771561172e-16, -7.771561172e-16, -6.661338148e-16, -6.661338148e-16, -6.661338148e-16], "theta": [0, -3.039754178e-16, -6.735588622e-16, -8.661469787e-16, -9.578606605e-16, -9.904294057e-16, -9.888363902e-16, -9.679605711e-16, -9.366221303e-16, -9.000206123e-16, -8.611983197e-16, -8.219157324e-16, -7.831737752e-16, -7.455246987e-16, -7.092567752e-16, -6.745038392e-16, -6.413101433e-16, -6.096686891e-16, -5.795438303e-16, -5.50884563e-16, -5.23632305e-16], "c_fe": [0, 0, 2.220446049e-16, 0, -1.110223025e-16, -2.220446049e-16, -3.330669074e-16, -3.330669074e-16, -4.440892099e-16, -4.440892099e-16, -4.440892099e-16, -4.440892099e-16, -4.440892099e-16, -5.551115123e-16, -5.551115123e-16, -5.551115123e-16, -5.551115123e-16, -5.551115123e-16, -5.551115123e-16, -5.551115123e-16, -5.551115123e-16], "i_fe": [0, -8.326672685e-16, -8.326672685e-16, -4.718447855e-16, -6.661338148e-16, -6.938893904e-16, -7.21644966e-16, -7.494005416e-16, -7.494005416e-16, -7.21644966e-16, -7.21644966e-16, -7.21644966e-16, -6.938893904e-16, -6.938893904e-16, -6.661338148e-16, -6.661338148e-16, -6.661338148e-16, -6.383782392e-16, -6.383782392e-16, -6.106226635e-16, -6.106226635e-16], "y_fe": [0, -8.881784197e-16, -9.992007222e-16, -7.771561172e-16, -1.110223025e-15, -1.221245327e-15, -1.33226763e-15, -1.33226763e-15, -1.33226763e-15, -1.33226763e-15, -1.33226763e-15, -1.33226763e-15, -1.33226763e-15, -1.33226763e-15, -1.221245327e-15, -1.221245327e-15, -1.221245327e-15, -1.221245327e-15, -1.221245327e-15, -1.221245327e-15, -1.221245327e-15], "n_fe": [0, -3.330669074e-16, -1.942890293e-16, 0, -8.326672685e-17, -1.110223025e-16, -1.110223025e-16, -1.387778781e-16, -1.387778781e-16, -1.387778781e-16, -1.387778781e-16, -1.387778781e-16, -1.387778781e-16, -1.387778781e-16, -1.387778781e-16, -1.110223025e-16, -1.110223025e-16, -1.110223025e-16, -1.110223025e-16, -1.110223025e-16, -1.110223025e-16], "w_fe": [0, 0, 2.220446049e-16, -1.110223025e-15, -1.554312234e-15, -1.776356839e-15, -1.998401444e-15, -1.998401444e-15, -1.998401444e-15, -1.998401444e-15, -1.998401444e-15, -1.998401444e-15, -1.998401444e-15, -1.998401444e-15, -1.998401444e-15, -1.998401444e-15, -1.998401444e-15, -1.998401444e-15, -1.998401444e-15, -1.998401444e-15, -1.998401444e-15], "k_fe": [0, -8.881784197e-16, -1.776356839e-15, -1.776356839e-15, -2.664535259e-15, -3.552713679e-15, -4.440892099e-15, -5.329070518e-15, -6.217248938e-15, -7.105427358e-15, -7.105427358e-15, -7.993605777e-15, -8.881784197e-15, -9.769962617e-15, -9.769962617e-15, -1.065814104e-14, -1.154631946e-14, -1.154631946e-14, -1.243449788e-14, -1.243449788e-14, -1.33226763e-14], "delta_k_fe": [0, -8.272538809e-16, -8.722941701e-16, -5.487009567e-16, -7.335618565e-16, -7.542766107e-16, -7.683446997e-16, -7.588331651e-16, -7.39206739e-16, -7.130861504e-16, -6.837116961e-16, -6.528633994e-16, -6.216511892e-16, -5.907208569e-16, -5.604444357e-16, -5.310261051e-16, -5.025697308e-16, -4.751194896e-16, -4.486845438e-16, -4.232538538e-16, -3.988050397e-16], "m_fe": [0, -7.716050021e-15, -3.830269435e-15, -5.029310302e-14, -6.311617895e-14, -7.110978473e-14, -7.283063042e-14, -7.155387394e-14, -6.850076062e-14, -6.461498003e-14, -6.045164369e-14, -5.62327962e-14, -5.218048216e-14, -4.835021272e-14, -4.474198789e-14, -4.146682997e-14, -3.84692278e-14, -3.574918139e-14, -3.325117959e-14, -3.097522239e-14, -2.892130979e-14], "d_fe": [0, -5.551115123e-17, -1.110223025e-16, -2.220446049e-16, -3.330669074e-16, -4.440892099e-16, -4.996003611e-16, -5.551115123e-16, -6.106226635e-16, -6.661338148e-16, -7.21644966e-16, -7.21644966e-16, -7.771561172e-16, -7.771561172e-16, -7.771561172e-16, -8.326672685e-16, -8.326672685e-16, -8.326672685e-16, -8.326672685e-16, -8.326672685e-16, -8.326672685e-16], "b_fe": [0, -1.360023205e-15, -9.714451465e-16, -4.718447855e-16, -8.049116929e-16, -8.604228441e-16, -8.881784197e-16, -8.881784197e-16, -8.604228441e-16, -8.049116929e-16, -7.771561172e-16, -7.21644966e-16, -6.661338148e-16, -6.383782392e-16, -6.106226635e-16, -5.551115123e-16, -5.273559367e-16, -4.996003611e-16, -4.718447855e-16, -4.440892099e-16, -4.163336342e-16], "l_fe": [0, -1.443289932e-15, -1.110223025e-15, -7.771561172e-16, -1.110223025e-15, -1.33226763e-15, -1.443289932e-15, -1.443289932e-15, -1.443289932e-15, -1.443289932e-15, -1.443289932e-15, -1.443289932e-15, -1.443289932e-15, -1.443289932e-15, -1.443289932e-15, -1.33226763e-15, -1.33226763e-15, -1.33226763e-15, -1.33226763e-15, -1.33226763e-15, -1.33226763e-15], "R_fe": [0, 2.220446049e-16, -8.881784197e-16, -2.220446049e-16, -2.220446049e-16, -2.220446049e-16, 0, 0, 0, 0, 0, 0, 0, 0, 0, 0, 0, 0, 0, 0, 0], "Rd_fe": [0, 2.220446049e-16, -2.220446049e-16, 4.440892099e-16, 6.661338148e-16, 8.881784197e-16, 8.881784197e-16, 8.881784197e-16, 8.881784197e-16, 6.661338148e-16, 6.661338148e-16, 6.661338148e-16, 6.661338148e-16, 6.661338148e-16, 4.440892099e-16, 4.440892099e-16, 4.440892099e-16, 4.440892099e-16, 4.440892099e-16, 4.440892099e-16, 4.440892099e-16], "Rl_fe": [0, 4.440892099e-16, -1.33226763e-15, -4.440892099e-16, -4.440892099e-16, -2.220446049e-16, 0, 0, 0, 0, 0, 0, 0, 0, 0, 0, 0, 0, 0, 0, 0], "lambda_fe": [0, 0, -4.440892099e-16, 8.881784197e-16, 1.33226763e-15, 1.554312234e-15, 1.776356839e-15, 1.776356839e-15, 1.776356839e-15, 1.776356839e-15, 1.776356839e-15, 1.776356839e-15, 1.776356839e-15, 1.776356839e-15, 1.776356839e-15, 1.776356839e-15, 1.776356839e-15, 1.776356839e-15, 1.776356839e-15, 1.776356839e-15, 1.776356839e-15], "xi_fe": [0, 2.090341789e-16, -2.836272883e-16, -1.353084311e-15, -1.288032181e-15, -1.324461374e-15, -1.266348137e-15, -1.189152943e-15, -1.097212599e-15, -1.001802807e-15, -9.081277397e-16, -8.187894807e-16, -7.363901156e-16, -6.600622826e-16, -5.906733436e-16, -5.282232984e-16, -4.709774237e-16, -4.198030812e-16, -3.729655473e-16, -3.313321839e-16, -2.940356292e-16], "psi_fe": [0, 0, -1.110223025e-16, 8.881784197e-16, 2.220446049e-16, 2.220446049e-16, 1.110223025e-16, 1.110223025e-16, 1.110223025e-16, 1.110223025e-16, 1.110223025e-16, 1.110223025e-16, 0, 0, 0, 0, 0, 0, 0, 0, 0], "rmc_fe": [0, 0, 1.110223025e-16, 0, 0, 0, 0, 0, 0, 0, 0, 0, 0, 0, 0, 0, 0, 0, 0, 0, 0], "yk_fe": [0, -6.245004514e-17, -2.775557562e-16, -2.220446049e-16, -1.942890293e-16, -1.734723476e-16, -1.595945598e-16, -1.45716772e-16, -1.318389842e-16, -1.249000903e-16, -1.179611964e-16, -1.110223025e-16, -1.040834086e-16, -9.714451465e-17, -9.020562075e-17, -9.020562075e-17, -8.326672685e-17, -7.632783294e-17, -7.632783294e-17, -6.938893904e-17, -6.938893904e-17], "yn_fe": [0, 4.440892099e-16, -8.881784197e-16, -2.220446049e-15, -2.220446049e-15, -2.220446049e-15, -2.220446049e-15, -2.220446049e-15, -2.220446049e-15, -2.220446049e-15, -2.220446049e-15, -2.220446049e-15, -2.220446049e-15, -2.220446049e-15, -2.220446049e-15, -2.220446049e-15, -2.220446049e-15, -2.220446049e-15, -2.220446049e-15, -2.220446049e-15, -2.220446049e-15], "f_fe": [0, 1.474514955e-17, -3.77302356e-16, -3.582203978e-16, -4.041905699e-16, -4.050579316e-16, -3.955169525e-16, -3.764349943e-16, -3.547509508e-16, -3.304648222e-16, -3.070460552e-16, -2.844946501e-16, -2.636779683e-16, -2.437286484e-16, -2.255140519e-16, -2.090341789e-16, -1.942890293e-16, -1.804112415e-16, -1.682681772e-16, -1.569924746e-16, -1.465841337e-16], "EFP_fe": [0, 1.847480502e-16, -3.920475056e-16, -2.498001805e-16, -1.517883041e-16, -8.760353554e-17, -4.683753385e-17, -2.081668171e-17, -5.204170428e-18, 3.469446952e-18, 9.540979118e-18, 1.214306433e-17, 1.474514955e-17, 1.561251128e-17, 1.561251128e-17, 1.561251128e-17, 1.561251128e-17, 1.561251128e-17, 1.561251128e-17, 1.561251128e-17, 1.474514955e-17], "IMP_fe": [0, 3.816391647e-17, -8.092485015e-16, -7.971054372e-16, -9.185360805e-16, -9.280770596e-16, -9.098624631e-16, -8.682290997e-16, -8.170547572e-16, -7.61543606e-16, -7.068998165e-16, -6.531233887e-16, -6.036837696e-16, -5.568462358e-16, -5.143455106e-16, -4.753142324e-16, -4.397524012e-16, -4.076600169e-16, -3.781697178e-16, -3.512815039e-16, -3.269953752e-16], "AUX_ENDO_LEAD_84": [0, -0.7961263668, -0.4946068142, -0.3035728169, -0.1844640224, -0.1110898808, -0.0663005875, -0.03915371644, -0.02279313668, -0.01297948332, -0.007117232663, -0.0036292536, -0.001562824738, -0.0003450621107, 0.0003672636432, 0.0007791920105, 0.00101292346, 0.001141149423, 0.00120704353, 0.001236214863, 0.001243837216], "AUX_ENDO_LEAD_88": [0, -0.4946068142, -0.3035728169, -0.1844640224, -0.1110898808, -0.0663005875, -0.03915371644, -0.02279313668, -0.01297948332, -0.007117232663, -0.0036292536, -0.001562824738, -0.0003450621107, 0.0003672636432, 0.0007791920105, 0.00101292346, 0.001141149423, 0.00120704353, 0.001236214863, 0.001243837216, 0.001238892613], "AUX_ENDO_LEAD_92": [0, -0.3035728169, -0.1844640224, -0.1110898808, -0.0663005875, -0.03915371644, -0.02279313668, -0.01297948332, -0.007117232663, -0.0036292536, -0.001562824738, -0.0003450621107, 0.0003672636432, 0.0007791920105, 0.00101292346, 0.001141149423, 0.00120704353, 0.001236214863, 0.001243837216, 0.001238892613, 0.001226693042], "AUX_ENDO_LEAD_119": [0, -0.5599773576, -0.4049595728, -0.2836594391, -0.197312206, -0.139039336, -0.1009512938, -0.07653337048, -0.06103864559, -0.05122777143, -0.04497647588, -0.0409279383, -0.03823133466, -0.03636021202, -0.03499204025, -0.0339306947, -0.03305758782, -0.03230131551, -0.03161901006, -0.03098497973, -0.03038383216], "AUX_ENDO_LEAD_123": [0, -0.4049595728, -0.2836594391, -0.197312206, -0.139039336, -0.1009512938, -0.07653337048, -0.06103864559, -0.05122777143, -0.04497647588, -0.0409279383, -0.03823133466, -0.03636021202, -0.03499204025, -0.0339306947, -0.03305758782, -0.03230131551, -0.03161901006, -0.03098497973, -0.03038383216, -0.02980633265], "AUX_ENDO_LEAD_127": [0, -0.2836594391, -0.197312206, -0.139039336, -0.1009512938, -0.07653337048, -0.06103864559, -0.05122777143, -0.04497647588, -0.0409279383, -0.03823133466, -0.03636021202, -0.03499204025, -0.0339306947, -0.03305758782, -0.03230131551, -0.03161901006, -0.03098497973, -0.03038383216, -0.02980633265, -0.02924691955], "AUX_ENDO_LEAD_154": [0, -0.5599773576, -0.4049595728, -0.2836594391, -0.197312206, -0.139039336, -0.1009512938, -0.07653337048, -0.06103864559, -0.05122777143, -0.04497647588, -0.0409279383, -0.03823133466, -0.03636021202, -0.03499204025, -0.0339306947, -0.03305758782, -0.03230131551, -0.03161901006, -0.03098497973, -0.03038383216], "AUX_ENDO_LEAD_158": [0, -0.4049595728, -0.2836594391, -0.197312206, -0.139039336, -0.1009512938, -0.07653337048, -0.06103864559, -0.05122777143, -0.04497647588, -0.0409279383, -0.03823133466, -0.03636021202, -0.03499204025, -0.0339306947, -0.03305758782, -0.03230131551, -0.03161901006, -0.03098497973, -0.03038383216, -0.02980633265], "AUX_ENDO_LEAD_162": [0, -0.2836594391, -0.197312206, -0.139039336, -0.1009512938, -0.07653337048, -0.06103864559, -0.05122777143, -0.04497647588, -0.0409279383, -0.03823133466, -0.03636021202, -0.03499204025, -0.0339306947, -0.03305758782, -0.03230131551, -0.03161901006, -0.03098497973, -0.03038383216, -0.02980633265, -0.02924691955], "AUX_ENDO_LAG_2_1": [0, 0, -1.243136784, -0.7961263668, -0.4946068142, -0.3035728169, -0.1844640224, -0.1110898808, -0.0663005875, -0.03915371644, -0.02279313668, -0.01297948332, -0.007117232663, -0.0036292536, -0.001562824738, -0.0003450621107, 0.0003672636432, 0.0007791920105, 0.00101292346, 0.001141149423, 0.00120704353], "AUX_ENDO_LAG_2_2": [0, 0, 0, -1.243136784, -0.7961263668, -0.4946068142, -0.3035728169, -0.1844640224, -0.1110898808, -0.0663005875, -0.03915371644, -0.02279313668, -0.01297948332, -0.007117232663, -0.0036292536, -0.001562824738, -0.0003450621107, 0.0003672636432, 0.0007791920105, 0.00101292346, 0.001141149423], "AUX_ENDO_LAG_4_1": [0, 0, -0.6271952053, -0.5599773576, -0.4049595728, -0.2836594391, -0.197312206, -0.139039336, -0.1009512938, -0.07653337048, -0.06103864559, -0.05122777143, -0.04497647588, -0.0409279383, -0.03823133466, -0.03636021202, -0.03499204025, -0.0339306947, -0.03305758782, -0.03230131551, -0.03161901006], "AUX_ENDO_LAG_4_2": [0, 0, 0, -0.6271952053, -0.5599773576, -0.4049595728, -0.2836594391, -0.197312206, -0.139039336, -0.1009512938, -0.07653337048, -0.06103864559, -0.05122777143, -0.04497647588, -0.0409279383, -0.03823133466, -0.03636021202, -0.03499204025, -0.0339306947, -0.03305758782, -0.03230131551], "AUX_ENDO_LAG_4_3": [0, 0, 0, 0, -0.6271952053, -0.5599773576, -0.4049595728, -0.2836594391, -0.197312206, -0.139039336, -0.1009512938, -0.07653337048, -0.06103864559, -0.05122777143, -0.04497647588, -0.0409279383, -0.03823133466, -0.03636021202, -0.03499204025, -0.0339306947, -0.03305758782], "AUX_ENDO_LAG_3_1": [0, 0, -0.6271952053, -0.5599773576, -0.4049595728, -0.2836594391, -0.197312206, -0.139039336, -0.1009512938, -0.07653337048, -0.06103864559, -0.05122777143, -0.04497647588, -0.0409279383, -0.03823133466, -0.03636021202, -0.03499204025, -0.0339306947, -0.03305758782, -0.03230131551, -0.03161901006], "AUX_ENDO_LAG_3_2": [0, 0, 0, -0.6271952053, -0.5599773576, -0.4049595728, -0.2836594391, -0.197312206, -0.139039336, -0.1009512938, -0.07653337048, -0.06103864559, -0.05122777143, -0.04497647588, -0.0409279383, -0.03823133466, -0.03636021202, -0.03499204025, -0.0339306947, -0.03305758782, -0.03230131551], "AUX_ENDO_LAG_3_3": [0, 0, 0, 0, -0.6271952053, -0.5599773576, -0.4049595728, -0.2836594391, -0.197312206, -0.139039336, -0.1009512938, -0.07653337048, -0.06103864559, -0.05122777143, -0.04497647588, -0.0409279383, -0.03823133466, -0.03636021202, -0.03499204025, -0.0339306947, -0.03305758782], "AUX_ENDO_LAG_0_1": [0, 0, 0.6782546403, 0.4018913039, 0.2406651975, 0.1447142999, 0.08769234676, 0.05383202957, 0.03373126855, 0.02179460508, 0.01469733527, 0.01046654922, 0.007932735857, 0.006403219273, 0.005468026808, 0.004884644067, 0.00450967792, 0.004258371902, 0.004080640126, 0.003946888564, 0.00383963089], "AUX_ENDO_LAG_0_2": [0, 0, 0, 0.6782546403, 0.4018913039, 0.2406651975, 0.1447142999, 0.08769234676, 0.05383202957, 0.03373126855, 0.02179460508, 0.01469733527, 0.01046654922, 0.007932735857, 0.006403219273, 0.005468026808, 0.004884644067, 0.00450967792, 0.004258371902, 0.004080640126, 0.003946888564], "AUX_ENDO_LAG_0_3": [0, 0, 0, 0, 0.6782546403, 0.4018913039, 0.2406651975, 0.1447142999, 0.08769234676, 0.05383202957, 0.03373126855, 0.02179460508, 0.01469733527, 0.01046654922, 0.007932735857, 0.006403219273, 0.005468026808, 0.004884644067, 0.00450967792, 0.004258371902, 0.004080640126], "AUX_ENDO_LAG_2_3": [0, 0, 0, 0, -1.243136784, -0.7961263668, -0.4946068142, -0.3035728169, -0.1844640224, -0.1110898808, -0.0663005875, -0.03915371644, -0.02279313668, -0.01297948332, -0.007117232663, -0.0036292536, -0.001562824738, -0.0003450621107, 0.0003672636432, 0.0007791920105, 0.00101292346]}}