{"interest_": {"interest": [0, 0.6291827184, 0.2628718015, 0.107139533, 0.04255952927, 0.01653512428, 0.006406266558, 0.002637349873, 0.001320133425, 0.0009020101061, 0.0007899920594, 0.0007694815056, 0.0007689849391, 0.0007680625295, 0.0007628801519, 0.0007541110852, 0.0007431072537, 0.0007309247888, 0.0007182246765, 0.0007053784381, 0.0006925809386], "inflation": [0, -0.07154060741, -0.1060100418, -0.120994474, -0.1273532511, -0.05843549259, -0.02500784413, -0.01041312531, -0.004183199899, -0.001588811301, -0.0005389035745, -0.0001288841289, 2.361692964e-05, 7.612091391e-05, 9.159427248e-05, 9.427958323e-05, 9.305039892e-05, 9.091768738e-05, 8.877460804e-05, 8.681088024e-05, 8.501638634e-05], "inflationq": [0, -0.2861624296, -0.1378777375, -0.05993772887, -0.02543510834, -0.01049139568, -0.004167143628, -0.001558853578, -0.0005154067114, -0.0001138412852, 3.248727694e-05, 8.12242041e-05, 9.459752269e-05, 9.617465193e-05, 9.438071119e-05, 9.196544712e-05, 8.968078546e-05, 8.764380576e-05, 8.580839382e-05, 8.411053595e-05, 8.250280984e-05], "outputgap": [0, -0.1792220662, -0.1662951637, -0.09095645077, -0.05039925666, -0.02954527961, -0.01915532241, -0.01407894523, -0.01161031129, -0.01038666956, -0.009743871218, -0.009366959975, -0.009110114815, -0.008907292709, -0.008729202662, -0.008563115748, -0.008403608065, -0.008248408129, -0.008096573743, -0.007947709103, -0.007801636526], "output": [0, -0.1792220662, -0.1662951637, -0.09095645077, -0.05039925666, -0.02954527961, -0.01915532241, -0.01407894523, -0.01161031129, -0.01038666956, -0.009743871218, -0.009366959975, -0.009110114815, -0.008907292709, -0.008729202662, -0.008563115748, -0.008403608065, -0.008248408129, -0.008096573743, -0.007947709103, -0.007801636526], "c": [0, -0.06452029688, -0.05831310404, -0.04073248438, -0.0264343739, -0.01728419899, -0.01201945695, -0.009157925095, -0.007644011801, -0.00684157547, -0.006399437316, -0.006134315329, -0.005954349816, -0.005814937828, -0.005694984667, -0.005584737581, -0.005479775546, -0.005378126351, -0.005278918315, -0.005181764019, -0.005086484678], "i": [0, -0.1053522239, -0.08567162631, -0.03652279244, -0.01568854775, -0.007068782119, -0.003596444642, -0.00223748802, -0.001720039137, -0.00152511172, -0.001447641014, -0.001409858088, -0.001383902697, -0.001360646075, -0.00133756683, -0.001314250907, -0.001290830839, -0.001267502931, -0.001244411339, -0.001221641678, -0.001199238367], "y": [0, -0.1445749158, -0.1341470378, -0.07337277984, -0.04065608906, -0.02383359594, -0.01545222182, -0.0113572082, -0.009365809761, -0.008378722038, -0.007860189262, -0.007556142375, -0.007348950437, -0.007185337834, -0.007041676095, -0.006907697048, -0.006779025338, -0.006653828602, -0.006531346789, -0.006411260612, -0.006293426738], "n": [0, -0.06562582899, -0.05915772328, -0.03020366862, -0.01482901044, -0.007025225897, -0.003199175321, -0.001376512806, -0.0005302005733, -0.0001468469576, 2.222711361e-05, 9.432309553e-05, 0.0001234802602, 0.0001340507131, 0.0001367745148, 0.0001362853044, 0.0001345357039, 0.0001323270301, 0.0001299778482, 0.0001276096845, 0.00012526619], "w": [0, -0.6152310226, -0.2655396926, -0.1183756808, -0.0579368949, -0.03375177577, -0.02431392307, -0.02068274454, -0.01924545021, -0.0185917227, -0.01819532032, -0.01787220371, -0.01756453424, -0.01725781015, -0.01695068874, -0.01664482881, -0.01634192502, -0.01604310909, -0.01574901023, -0.01545992712, -0.01517596749], "k": [0, -0.1053522239, -0.1883900447, -0.220203086, -0.2303865566, -0.2316956748, -0.2294997275, -0.2259997224, -0.2220697685, -0.218043136, -0.2140396986, -0.2100985642, -0.2062300028, -0.2024348988, -0.1987115932, -0.1950580542, -0.1914724337, -0.1879531258, -0.184498709, -0.181107883, -0.1777794243], "delta_k": [0, -0.1053522239, -0.08303782071, -0.03181304132, -0.0101834706, -0.001309118205, 0.002195947228, 0.003500005169, 0.003929953922, 0.004026632492, 0.004003437385, 0.003941134376, 0.003868561408, 0.003795103995, 0.00372330564, 0.003653538922, 0.003585620517, 0.003519307912, 0.003454416806, 0.003390826047, 0.003328458707], "m": [0, -5.598940525, -2.348453776, -0.9621572426, -0.3852181859, -0.1517270674, -0.06034985844, -0.02608321551, -0.01395607299, -0.0100118865, -0.00888839728, -0.008628516621, -0.008571179076, -0.008521993012, -0.008440750515, -0.008330554018, -0.008202092816, -0.008064153211, -0.007922340829, -0.007779836585, -0.007638316073], "d": [0, -0.04516420781, -0.04081917283, -0.02851273906, -0.01850406173, -0.01209893929, -0.008413619862, -0.006410547567, -0.005350808261, -0.004789102829, -0.004479606121, -0.00429402073, -0.004168044871, -0.004070456479, -0.003986489267, -0.003909316307, -0.003835842882, -0.003764688445, -0.00369524282, -0.003627234813, -0.003560539275], "b": [0, -0.3262909641, -0.2159302369, -0.09126233858, -0.03801538486, -0.01581390973, -0.006803624981, -0.003259783166, -0.001916697909, -0.00142882111, -0.001258185751, -0.001197613074, -0.001171235632, -0.00115328811, -0.001136110901, -0.001118062064, -0.001099211513, -0.001079944225, -0.001060583377, -0.00104133526, -0.001022315482], "l": [0, -0.3714551719, -0.2567494098, -0.1197750776, -0.05651944659, -0.02791284902, -0.01521724484, -0.009670330732, -0.00726750617, -0.006217923939, -0.005737791872, -0.005491633804, -0.005339280503, -0.005223744589, -0.005122600168, -0.005027378371, -0.004935054395, -0.004844632671, -0.004755826197, -0.004668570073, -0.004582854756], "R": [0, 0.1580861101, 0.06604819132, 0.02691948065, 0.01069334906, 0.00415455384, 0.001609614713, 0.0006626507218, 0.0003316918154, 0.000226635705, 0.0001984904672, 0.0001933370617, 0.0001932122963, 0.000192980535, 0.0001916784301, 0.000189475147, 0.0001867103653, 0.0001836494444, 0.0001804584614, 0.0001772307633, 0.0001740153112], "Rd": [0, 0.09110311082, 0.03795352761, 0.0154097377, 0.006085556337, 0.002339909033, 0.0008880148867, 0.0003509139641, 0.0001649901722, 0.0001070938839, 9.237449616e-05, 9.032099809e-05, 9.087591282e-05, 9.122772812e-05, 9.089340154e-05, 9.00046399e-05, 8.877308205e-05, 8.735889995e-05, 8.586107477e-05, 8.433488375e-05, 8.280923507e-05], "Rl": [0, 0.1591531914, 0.06649401662, 0.02710118714, 0.01076552917, 0.004182597078, 0.001620479612, 0.0006671236142, 0.0003339307351, 0.0002281654961, 0.0001998302778, 0.0001946420869, 0.0001945164793, 0.0001942831537, 0.0001929722595, 0.0001907541043, 0.0001879706602, 0.0001848890782, 0.0001816765561, 0.000178427071, 0.0001751899146], "lambda": [0, 0.5550459742, 0.2395632404, 0.1067955656, 0.05226921122, 0.03045000427, 0.02193541063, 0.01865945258, 0.01736276174, 0.0167729852, 0.01641536093, 0.01612385324, 0.01584628158, 0.01556956281, 0.01529248558, 0.01501654644, 0.01474327425, 0.01447369002, 0.01420836142, 0.0139475579, 0.01369137665], "xi": [0, -0.5419877542, -0.1154394112, 0.005853406377, 0.02813938271, 0.02372243127, 0.01541027916, 0.008961028588, 0.00492546849, 0.002647137102, 0.001438446527, 0.0008237624411, 0.0005203639037, 0.0003734694383, 0.0003027671427, 0.00026818829, 0.0002503543433, 0.0002401363208, 0.0002333331031, 0.000228052957, 0.0002234617314], "psi": [0, 0.3356959062, -0.1908062884, -0.08029887067, -0.03297794203, -0.01319641758, -0.005149689143, -0.001981323634, -0.0007842482003, -0.0003567012092, -0.0002162938038, -0.000176306004, -0.0001678773908, -0.0001673615589, -0.0001675783523, -0.0001668900328, -0.0001652770371, -0.0001630465327, -0.0001604727033, -0.0001577358925, -0.0001549403125], "pi": [0, -0.07154060741, -0.03446943437, -0.01498443222, -0.006358777085, -0.00262284892, -0.001041785907, -0.0003897133946, -0.0001288516778, -2.846032129e-05, 8.121819234e-06, 2.030605102e-05, 2.364938067e-05, 2.404366298e-05, 2.35951778e-05, 2.299136178e-05, 2.242019636e-05, 2.191095144e-05, 2.145209845e-05, 2.102763399e-05, 2.062570246e-05], "rmc": [0, -0.3615725087, -0.1898942652, -0.08404940087, -0.03639695339, -0.01540005677, -0.006349454647, -0.002538787176, -0.0009760142646, -0.0003547573676, -0.0001173028941, -3.131017831e-05, -2.660704611e-06, 5.499392928e-06, 6.978086176e-06, 6.633377956e-06, 6.007513573e-06, 5.496018349e-06, 5.141558931e-06, 4.903291218e-06, 4.736760038e-06], "yk": [0, -0.006500985587, -0.005541119474, -0.002421357532, -0.0008019564371, 1.944430876e-06, 0.0003849238063, 0.0005588274507, 0.0006320623093, 0.0006581334708, 0.0006626849506, 0.0006576999077, 0.0006486500106, 0.0006379787217, 0.0006267526454, 0.0006154257709, 0.0006041853735, 0.0005931052341, 0.0005822120458, 0.0005715135414, 0.0005610101061], "yn": [0, 0.2126005172, 0.1812101951, 0.07918520321, 0.02622623175, -6.358814433e-05, -0.01258809111, -0.01827522951, -0.02067021541, -0.02152281574, -0.02167166194, -0.02150863701, -0.02121267992, -0.02086369876, -0.02049657448, -0.02012615383, -0.01975856122, -0.01939620949, -0.01903997159, -0.01869010041, -0.01834660853], "f": [0, 0.02529760507, 0.009837692589, 0.003882496977, 0.001466832588, 0.000519385165, 0.0001636797641, 3.82049139e-05, -1.758822309e-06, -1.203484894e-05, -1.311093171e-05, -1.19689582e-05, -1.069792414e-05, -9.753931115e-06, -9.124597562e-06, -8.708560444e-06, -8.418952194e-06, -8.199320287e-06, -8.017135454e-06, -7.854915507e-06, -7.703692204e-06], "EFP": [0, 0.001067081243, 0.0004458252914, 0.0001817064944, 7.218010617e-05, 2.804323842e-05, 1.086489931e-05, 4.472892372e-06, 2.238919754e-06, 1.529791009e-06, 1.339810653e-06, 1.305025166e-06, 1.304183e-06, 1.302618612e-06, 1.293829403e-06, 1.278957242e-06, 1.260294965e-06, 1.23963375e-06, 1.218094615e-06, 1.196307652e-06, 1.174603351e-06], "IMP": [0, 0.06698299933, 0.02809466371, 0.01150974294, 0.004607792726, 0.001814644807, 0.0007215998264, 0.0003117367577, 0.0001667016431, 0.0001195418212, 0.000106115971, 0.0001030160636, 0.0001023363834, 0.0001017528069, 0.0001007850286, 9.947050713e-05, 9.793728321e-05, 9.629054447e-05, 9.459738667e-05, 9.289587959e-05, 9.120607613e-05], "alpha": [0, 0, 0, 0, 0, 1.110223025e-16, 1.110223025e-16, 1.110223025e-16, 1.110223025e-16, 1.110223025e-16, 1.110223025e-16, 1.110223025e-16, 2.220446049e-16, 2.220446049e-16, 2.220446049e-16, 2.220446049e-16, 2.220446049e-16, 2.220446049e-16, 2.220446049e-16, 2.220446049e-16, 2.220446049e-16], "omega": [0, -8.67361738e-18, 1.78676518e-16, 2.174909558e-16, 1.968911145e-16, 1.55691432e-16, 1.097212599e-16, 6.526897078e-17, 2.45029691e-17, -1.214306433e-17, -4.445228907e-17, -7.307522643e-17, -9.844555726e-17, -1.203464411e-16, -1.396452398e-16, -1.563419533e-16, -1.708702624e-16, -1.834470076e-16, -1.942890293e-16, -2.033963276e-16, -2.109857428e-16], "A": [0, 2.220446049e-16, 2.220446049e-16, 4.440892099e-16, 6.661338148e-16, 6.661338148e-16, 6.661338148e-16, 8.881784197e-16, 8.881784197e-16, 8.881784197e-16, 8.881784197e-16, 8.881784197e-16, 1.110223025e-15, 1.110223025e-15, 1.110223025e-15, 1.110223025e-15, 1.110223025e-15, 1.110223025e-15, 1.110223025e-15, 1.110223025e-15, 1.110223025e-15], "theta": [0, 1.062201961e-16, 3.346166365e-16, 4.748016161e-16, 5.715933826e-16, 6.461899531e-16, 7.084635252e-16, 7.629868808e-16, 8.119053922e-16, 8.562726756e-16, 8.96658095e-16, 9.334173524e-16, 9.668106112e-16, 9.97053084e-16, 1.02433634e-15, 1.048837202e-15, 1.0707215e-15, 1.090145757e-15, 1.107258052e-15, 1.122198582e-15, 1.135100088e-15], "c_fe": [0, 1.110223025e-16, -6.661338148e-16, -3.330669074e-16, -1.110223025e-16, 0, 1.110223025e-16, 1.110223025e-16, 2.220446049e-16, 2.220446049e-16, 3.330669074e-16, 3.330669074e-16, 3.330669074e-16, 3.330669074e-16, 4.440892099e-16, 4.440892099e-16, 4.440892099e-16, 4.440892099e-16, 4.440892099e-16, 4.440892099e-16, 4.440892099e-16], "i_fe": [0, -5.828670879e-16, 2.498001805e-16, -1.942890293e-16, -1.110223025e-16, -1.110223025e-16, -8.326672685e-17, -8.326672685e-17, -5.551115123e-17, -5.551115123e-17, -5.551115123e-17, -2.775557562e-17, -2.775557562e-17, 0, 0, 0, 0, 2.775557562e-17, 2.775557562e-17, 2.775557562e-17, 2.775557562e-17], "y_fe": [0, -5.551115123e-16, 4.440892099e-16, 1.110223025e-16, 3.330669074e-16, 4.440892099e-16, 5.551115123e-16, 5.551115123e-16, 5.551115123e-16, 5.551115123e-16, 6.661338148e-16, 6.661338148e-16, 6.661338148e-16, 6.661338148e-16, 6.661338148e-16, 6.661338148e-16, 6.661338148e-16, 7.771561172e-16, 7.771561172e-16, 7.771561172e-16, 7.771561172e-16], "n_fe": [0, -3.330669074e-16, 1.387778781e-16, -8.326672685e-17, -2.775557562e-17, -2.775557562e-17, -2.775557562e-17, -2.775557562e-17, -2.775557562e-17, 0, 0, 0, 0, 0, 0, 0, 0, 0, 0, 0, 0], "w_fe": [0, 8.881784197e-16, -4.440892099e-16, 8.881784197e-16, 1.110223025e-15, 1.33226763e-15, 1.554312234e-15, 1.554312234e-15, 1.554312234e-15, 1.554312234e-15, 1.554312234e-15, 1.776356839e-15, 1.776356839e-15, 1.776356839e-15, 1.776356839e-15, 1.776356839e-15, 1.776356839e-15, 1.776356839e-15, 1.776356839e-15, 1.776356839e-15, 1.776356839e-15], "k_fe": [0, -8.881784197e-16, -8.881784197e-16, -1.776356839e-15, -1.776356839e-15, -2.664535259e-15, -2.664535259e-15, -3.552713679e-15, -3.552713679e-15, -4.440892099e-15, -4.440892099e-15, -5.329070518e-15, -5.329070518e-15, -5.329070518e-15, -5.329070518e-15, -6.217248938e-15, -6.217248938e-15, -6.217248938e-15, -6.217248938e-15, -7.105427358e-15, -7.105427358e-15], "delta_k_fe": [0, -5.552506965e-16, -5.95629833e-16, -7.915446265e-16, -5.80196854e-16, -5.290937114e-16, -4.781557845e-16, -4.413825233e-16, -4.082362671e-16, -3.778627455e-16, -3.493032359e-16, -3.223337269e-16, -2.968306494e-16, -2.727277073e-16, -2.49965788e-16, -2.284862837e-16, -2.082294949e-16, -1.891357833e-16, -1.711466534e-16, -1.542054989e-16, -1.38257998e-16], "m_fe": [0, 1.981748099e-14, -8.10462808e-15, 2.181588243e-14, 2.065014826e-14, 1.815214645e-14, 1.326716514e-14, 8.271161533e-15, 3.552713679e-15, -7.21644966e-16, -4.551914401e-15, -7.882583475e-15, -1.082467449e-14, -1.34336986e-14, -1.565414465e-14, -1.759703494e-14, -1.931788063e-14, -2.076117056e-14, -2.203792704e-14, -2.309263891e-14, -2.398081733e-14], "d_fe": [0, 0, 2.220446049e-16, 3.885780586e-16, 4.996003611e-16, 5.551115123e-16, 6.661338148e-16, 6.661338148e-16, 7.21644966e-16, 7.771561172e-16, 7.771561172e-16, 7.771561172e-16, 8.326672685e-16, 8.326672685e-16, 8.326672685e-16, 8.326672685e-16, 8.881784197e-16, 8.881784197e-16, 8.881784197e-16, 8.881784197e-16, 8.881784197e-16], "b_fe": [0, -9.714451465e-16, 2.220446049e-16, -4.996003611e-16, -3.60822483e-16, -4.163336342e-16, -4.163336342e-16, -4.440892099e-16, -4.440892099e-16, -4.440892099e-16, -4.440892099e-16, -4.440892099e-16, -4.440892099e-16, -4.440892099e-16, -4.440892099e-16, -4.440892099e-16, -4.440892099e-16, -4.163336342e-16, -4.163336342e-16, -4.163336342e-16, -3.885780586e-16], "l_fe": [0, -9.992007222e-16, 4.440892099e-16, -1.110223025e-16, 1.110223025e-16, 1.110223025e-16, 2.220446049e-16, 2.220446049e-16, 3.330669074e-16, 3.330669074e-16, 3.330669074e-16, 3.330669074e-16, 3.330669074e-16, 3.330669074e-16, 4.440892099e-16, 4.440892099e-16, 4.440892099e-16, 4.440892099e-16, 4.440892099e-16, 4.440892099e-16, 4.440892099e-16], "R_fe": [0, -6.661338148e-16, 8.881784197e-16, 2.220446049e-16, 0, 0, 0, 0, 0, 0, 0, 0, 0, 0, 0, 0, 0, 0, 0, 0, 0], "Rd_fe": [0, -4.440892099e-16, 6.661338148e-16, 2.220446049e-16, 2.220446049e-16, 2.220446049e-16, 2.220446049e-16, 2.220446049e-16, 2.220446049e-16, 4.440892099e-16, 4.440892099e-16, 4.440892099e-16, 4.440892099e-16, 4.440892099e-16, 4.440892099e-16, 4.440892099e-16, 4.440892099e-16, 4.440892099e-16, 4.440892099e-16, 4.440892099e-16, 4.440892099e-16], "Rl_fe": [0, -4.440892099e-16, 8.881784197e-16, 2.220446049e-16, 2.220446049e-16, 0, 0, 0, 0, 0, 0, 0, 0, 0, 0, 0, 0, 0, 0, 0, 0], "lambda_fe": [0, -8.881784197e-16, 4.440892099e-16, -8.881784197e-16, -1.110223025e-15, -1.33226763e-15, -1.33226763e-15, -1.33226763e-15, -1.33226763e-15, -1.554312234e-15, -1.554312234e-15, -1.554312234e-15, -1.554312234e-15, -1.554312234e-15, -1.554312234e-15, -1.554312234e-15, -1.554312234e-15, -1.554312234e-15, -1.554312234e-15, -1.554312234e-15, -1.554312234e-15], "xi_fe": [0, 5.915407053e-16, 2.467644145e-15, 2.842344415e-15, 2.39044895e-15, 2.167536983e-15, 1.948961825e-15, 1.771152669e-15, 1.619364365e-15, 1.488392742e-15, 1.373900993e-15, 1.27241967e-15, 1.181346687e-15, 1.099814684e-15, 1.026088936e-15, 9.593020822e-16, 8.977193988e-16, 8.422082476e-16, 7.919012668e-16, 7.459310947e-16, 7.034303695e-16], "psi_fe": [0, -5.551115123e-16, 6.661338148e-16, -8.881784197e-16, -2.220446049e-16, -1.110223025e-16, -1.110223025e-16, -1.110223025e-16, -1.110223025e-16, -1.110223025e-16, -1.110223025e-16, -1.110223025e-16, -1.110223025e-16, -1.110223025e-16, 0, 0, 0, 0, 0, 0, 0], "rmc_fe": [0, 0, 0, 0, 0, 0, 0, 0, 0, 0, 0, 0, 0, 0, 0, 0, 0, 0, 0, 0, 0], "yk_fe": [0, -4.163336342e-17, 1.387778781e-16, 3.469446952e-17, 6.938893904e-18, -6.938893904e-18, -6.938893904e-18, -6.938893904e-18, -6.938893904e-18, 0, 0, 6.938893904e-18, 6.938893904e-18, 1.387778781e-17, 1.387778781e-17, 2.081668171e-17, 2.081668171e-17, 2.081668171e-17, 2.081668171e-17, 2.775557562e-17, 2.775557562e-17], "yn_fe": [0, 1.33226763e-15, -4.440892099e-16, 1.33226763e-15, 1.33226763e-15, 1.33226763e-15, 1.776356839e-15, 1.776356839e-15, 1.776356839e-15, 1.776356839e-15, 1.776356839e-15, 1.776356839e-15, 1.776356839e-15, 1.776356839e-15, 1.776356839e-15, 1.776356839e-15, 1.776356839e-15, 2.220446049e-15, 2.220446049e-15, 2.220446049e-15, 2.220446049e-15], "f_fe": [0, -1.153591112e-16, 2.567390744e-16, 1.500535807e-16, 1.344410694e-16, 9.801187639e-17, 6.85215773e-17, 4.076600169e-17, 1.647987302e-17, -5.204170428e-18, -2.51534904e-17, -4.163336342e-17, -5.724587471e-17, -7.025630078e-17, -8.153200337e-17, -9.194034423e-17, -1.006139616e-16, -1.075528555e-16, -1.144917494e-16, -1.196959198e-16, -1.240327285e-16], "EFP_fe": [0, 1.127570259e-16, 7.285838599e-17, 5.898059818e-17, 5.551115123e-17, 5.377642776e-17, 5.290906602e-17, 5.204170428e-17, 5.117434254e-17, 5.03069808e-17, 4.943961907e-17, 4.857225733e-17, 4.770489559e-17, 4.683753385e-17, 4.597017211e-17, 4.510281038e-17, 4.423544864e-17, 4.33680869e-17, 4.250072516e-17, 4.163336342e-17, 4.076600169e-17], "IMP_fe": [0, -2.133709875e-16, 1.743397093e-16, -1.994931997e-17, -4.250072516e-17, -1.196959198e-16, -1.847480502e-16, -2.454633719e-16, -2.992397996e-16, -3.460773335e-16, -3.868433351e-16, -4.224051664e-16, -4.527628272e-16, -4.787836794e-16, -5.004677228e-16, -5.195496811e-16, -5.351621923e-16, -5.481726184e-16, -5.585809593e-16, -5.663872149e-16, -5.724587471e-16], "AUX_ENDO_LEAD_84": [0, -0.1378777375, -0.05993772887, -0.02543510834, -0.01049139568, -0.004167143628, -0.001558853578, -0.0005154067114, -0.0001138412852, 3.248727694e-05, 8.12242041e-05, 9.459752269e-05, 9.617465193e-05, 9.438071119e-05, 9.196544712e-05, 8.968078546e-05, 8.764380576e-05, 8.580839382e-05, 8.411053595e-05, 8.250280984e-05, 8.09559632e-05], "AUX_ENDO_LEAD_88": [0, -0.05993772887, -0.02543510834, -0.01049139568, -0.004167143628, -0.001558853578, -0.0005154067114, -0.0001138412852, 3.248727694e-05, 8.12242041e-05, 9.459752269e-05, 9.617465193e-05, 9.438071119e-05, 9.196544712e-05, 8.968078546e-05, 8.764380576e-05, 8.580839382e-05, 8.411053595e-05, 8.250280984e-05, 8.09559632e-05, 7.945346567e-05], "AUX_ENDO_LEAD_92": [0, -0.02543510834, -0.01049139568, -0.004167143628, -0.001558853578, -0.0005154067114, -0.0001138412852, 3.248727694e-05, 8.12242041e-05, 9.459752269e-05, 9.617465193e-05, 9.438071119e-05, 9.196544712e-05, 8.968078546e-05, 8.764380576e-05, 8.580839382e-05, 8.411053595e-05, 8.250280984e-05, 8.09559632e-05, 7.945346567e-05, 7.798639567e-05], "AUX_ENDO_LEAD_119": [0, -0.1662951637, -0.09095645077, -0.05039925666, -0.02954527961, -0.01915532241, -0.01407894523, -0.01161031129, -0.01038666956, -0.009743871218, -0.009366959975, -0.009110114815, -0.008907292709, -0.008729202662, -0.008563115748, -0.008403608065, -0.008248408129, -0.008096573743, -0.007947709103, -0.007801636526, -0.007658262458], "AUX_ENDO_LEAD_123": [0, -0.09095645077, -0.05039925666, -0.02954527961, -0.01915532241, -0.01407894523, -0.01161031129, -0.01038666956, -0.009743871218, -0.009366959975, -0.009110114815, -0.008907292709, -0.008729202662, -0.008563115748, -0.008403608065, -0.008248408129, -0.008096573743, -0.007947709103, -0.007801636526, -0.007658262458, -0.007517524495], "AUX_ENDO_LEAD_127": [0, -0.05039925666, -0.02954527961, -0.01915532241, -0.01407894523, -0.01161031129, -0.01038666956, -0.009743871218, -0.009366959975, -0.009110114815, -0.008907292709, -0.008729202662, -0.008563115748, -0.008403608065, -0.008248408129, -0.008096573743, -0.007947709103, -0.007801636526, -0.007658262458, -0.007517524495, -0.007379371282], "AUX_ENDO_LEAD_154": [0, -0.1662951637, -0.09095645077, -0.05039925666, -0.02954527961, -0.01915532241, -0.01407894523, -0.01161031129, -0.01038666956, -0.009743871218, -0.009366959975, -0.009110114815, -0.008907292709, -0.008729202662, -0.008563115748, -0.008403608065, -0.008248408129, -0.008096573743, -0.007947709103, -0.007801636526, -0.007658262458], "AUX_ENDO_LEAD_158": [0, -0.09095645077, -0.05039925666, -0.02954527961, -0.01915532241, -0.01407894523, -0.01161031129, -0.01038666956, -0.009743871218, -0.009366959975, -0.009110114815, -0.008907292709, -0.008729202662, -0.008563115748, -0.008403608065, -0.008248408129, -0.008096573743, -0.007947709103, -0.007801636526, -0.007658262458, -0.007517524495], "AUX_ENDO_LEAD_162": [0, -0.05039925666, -0.02954527961, -0.01915532241, -0.01407894523, -0.01161031129, -0.01038666956, -0.009743871218, -0.009366959975, -0.009110114815, -0.008907292709, -0.008729202662, -0.008563115748, -0.008403608065, -0.008248408129, -0.008096573743, -0.007947709103, -0.007801636526, -0.007658262458, -0.007517524495, -0.007379371282], "AUX_ENDO_LAG_2_1": [0, 0, -0.2861624296, -0.1378777375, -0.05993772887, -0.02543510834, -0.01049139568, -0.004167143628, -0.001558853578, -0.0005154067114, -0.0001138412852, 3.248727694e-05, 8.12242041e-05, 9.459752269e-05, 9.617465193e-05, 9.438071119e-05, 9.196544712e-05, 8.968078546e-05, 8.764380576e-05, 8.580839382e-05, 8.411053595e-05], "AUX_ENDO_LAG_2_2": [0, 0, 0, -0.2861624296, -0.1378777375, -0.05993772887, -0.02543510834, -0.01049139568, -0.004167143628, -0.001558853578, -0.0005154067114, -0.0001138412852, 3.248727694e-05, 8.12242041e-05, 9.459752269e-05, 9.617465193e-05, 9.438071119e-05, 9.196544712e-05, 8.968078546e-05, 8.764380576e-05, 8.580839382e-05], "AUX_ENDO_LAG_4_1": [0, 0, -0.1792220662, -0.1662951637, -0.09095645077, -0.05039925666, -0.02954527961, -0.01915532241, -0.01407894523, -0.01161031129, -0.01038666956, -0.009743871218, -0.009366959975, -0.009110114815, -0.008907292709, -0.008729202662, -0.008563115748, -0.008403608065, -0.008248408129, -0.008096573743, -0.007947709103], "AUX_ENDO_LAG_4_2": [0, 0, 0, -0.1792220662, -0.1662951637, -0.09095645077, -0.05039925666, -0.02954527961, -0.01915532241, -0.01407894523, -0.01161031129, -0.01038666956, -0.009743871218, -0.009366959975, -0.009110114815, -0.008907292709, -0.008729202662, -0.008563115748, -0.008403608065, -0.008248408129, -0.008096573743], "AUX_ENDO_LAG_4_3": [0, 0, 0, 0, -0.1792220662, -0.1662951637, -0.09095645077, -0.05039925666, -0.02954527961, -0.01915532241, -0.01407894523, -0.01161031129, -0.01038666956, -0.009743871218, -0.009366959975, -0.009110114815, -0.008907292709, -0.008729202662, -0.008563115748, -0.008403608065, -0.008248408129], "AUX_ENDO_LAG_3_1": [0, 0, -0.1792220662, -0.1662951637, -0.09095645077, -0.05039925666, -0.02954527961, -0.01915532241, -0.01407894523, -0.01161031129, -0.01038666956, -0.009743871218, -0.009366959975, -0.009110114815, -0.008907292709, -0.008729202662, -0.008563115748, -0.008403608065, -0.008248408129, -0.008096573743, -0.007947709103], "AUX_ENDO_LAG_3_2": [0, 0, 0, -0.1792220662, -0.1662951637, -0.09095645077, -0.05039925666, -0.02954527961, -0.01915532241, -0.01407894523, -0.01161031129, -0.01038666956, -0.009743871218, -0.009366959975, -0.009110114815, -0.008907292709, -0.008729202662, -0.008563115748, -0.008403608065, -0.008248408129, -0.008096573743], "AUX_ENDO_LAG_3_3": [0, 0, 0, 0, -0.1792220662, -0.1662951637, -0.09095645077, -0.05039925666, -0.02954527961, -0.01915532241, -0.01407894523, -0.01161031129, -0.01038666956, -0.009743871218, -0.009366959975, -0.009110114815, -0.008907292709, -0.008729202662, -0.008563115748, -0.008403608065, -0.008248408129], "AUX_ENDO_LAG_0_1": [0, 0, 0.6291827184, 0.2628718015, 0.107139533, 0.04255952927, 0.01653512428, 0.006406266558, 0.002637349873, 0.001320133425, 0.0009020101061, 0.0007899920594, 0.0007694815056, 0.0007689849391, 0.0007680625295, 0.0007628801519, 0.0007541110852, 0.0007431072537, 0.0007309247888, 0.0007182246765, 0.0007053784381], "AUX_ENDO_LAG_0_2": [0, 0, 0, 0.6291827184, 0.2628718015, 0.107139533, 0.04255952927, 0.01653512428, 0.006406266558, 0.002637349873, 0.001320133425, 0.0009020101061, 0.0007899920594, 0.0007694815056, 0.0007689849391, 0.0007680625295, 0.0007628801519, 0.0007541110852, 0.0007431072537, 0.0007309247888, 0.0007182246765], "AUX_ENDO_LAG_0_3": [0, 0, 0, 0, 0.6291827184, 0.2628718015, 0.107139533, 0.04255952927, 0.01653512428, 0.006406266558, 0.002637349873, 0.001320133425, 0.0009020101061, 0.0007899920594, 0.0007694815056, 0.0007689849391, 0.0007680625295, 0.0007628801519, 0.0007541110852, 0.0007431072537, 0.0007309247888], "AUX_ENDO_LAG_2_3": [0, 0, 0, 0, -0.2861624296, -0.1378777375, -0.05993772887, -0.02543510834, -0.01049139568, -0.004167143628, -0.001558853578, -0.0005154067114, -0.0001138412852, 3.248727694e-05, 8.12242041e-05, 9.459752269e-05, 9.617465193e-05, 9.438071119e-05, 9.196544712e-05, 8.968078546e-05, 8.764380576e-05]}}