{"interest_": {"interest": [0, 0.916990811, 0.4977669855, 0.2251014478, 0.05150093127, 0.000904245009, -0.005154473542, -0.001046397424, 0.002587882053, 0.004311530995, 0.004861046365, 0.00492890042, 0.004854397281, 0.004755808604, 0.004661130479, 0.004572206825, 0.0044867516, 0.004403302064, 0.004321352261, 0.004240816326, 0.004161711504], "inflation": [0, -0.09004477156, -0.1279968893, -0.1384586741, -0.1386241364, -0.04647911908, -0.006587650851, 0.005360075744, 0.006732857235, 0.005717172641, 0.00481381322, 0.00434034913, 0.004127665067, 0.004020261933, 0.003943651023, 0.003872753621, 0.003802116234, 0.003731686331, 0.003662095991, 0.003593691912, 0.003526571257], "inflationq": [0, -0.3601790863, -0.151808471, -0.04184713917, -0.0006618491535, 0.008400982975, 0.007757401938, 0.005943767215, 0.00482927681, 0.004338244599, 0.004143964257, 0.004049910853, 0.003978540559, 0.003908632061, 0.003837520617, 0.003766321246, 0.00369599101, 0.003626912449, 0.003559159257, 0.003492704933, 0.003427508387], "outputgap": [0, -0.2474572213, -0.2270763088, -0.1194633726, -0.05609100571, -0.02484216404, -0.01472583526, -0.01239217349, -0.01213789851, -0.0121390305, -0.01203568492, -0.0118468984, -0.01162735524, -0.0114050137, -0.0111881509, -0.01097742026, -0.01077183794, -0.01057059611, -0.01037326945, -0.01017966133, -0.009989669771], "output": [0, -0.2474572213, -0.2270763088, -0.1194633726, -0.05609100571, -0.02484216404, -0.01472583526, -0.01239217349, -0.01213789851, -0.0121390305, -0.01203568492, -0.0118468984, -0.01162735524, -0.0114050137, -0.0111881509, -0.01097742026, -0.01077183794, -0.01057059611, -0.01037326945, -0.01017966133, -0.009989669771], "c": [0, -0.09146522338, -0.08255839619, -0.05351669647, -0.02992790033, -0.01715526608, -0.01154948983, -0.009413890077, -0.00864204903, -0.008318926406, -0.00812130139, -0.007955557458, -0.007799899819, -0.007650109255, -0.007505017734, -0.007363820014, -0.00722589447, -0.0070908394, -0.006958426725, -0.00682853051, -0.006701074173], "i": [0, -0.1451918062, -0.1201543109, -0.05170458123, -0.01720189038, -0.002813339821, -5.620939636e-05, -0.0004924741168, -0.001212033652, -0.001607761519, -0.001745193364, -0.001762141614, -0.001738411239, -0.001705572116, -0.001672595388, -0.001640886345, -0.001610182093, -0.001580175465, -0.001550732367, -0.001521817416, -0.001493426083], "y": [0, -0.1996188731, -0.1831779919, -0.09636875294, -0.04524751104, -0.02003968511, -0.01187904166, -0.009996522614, -0.009791403987, -0.00979231714, -0.009708950293, -0.009556659919, -0.009379558768, -0.009200200226, -0.009025261269, -0.008855269005, -0.008689429795, -0.008527091964, -0.008367912433, -0.00821173257, -0.008058470115], "n": [0, -0.09061152803, -0.08075801338, -0.03943472274, -0.01548603272, -0.003886716254, -0.00026633664, 0.0004609611645, 0.0004372126576, 0.0003347108335, 0.0002795335707, 0.0002602305978, 0.0002546796321, 0.0002519111495, 0.0002487003962, 0.0002447667426, 0.00024045325, 0.0002360346391, 0.0002316410218, 0.0002273172184, 0.0002230734784], "w": [0, -0.8677203777, -0.3804708532, -0.1344688862, -0.03154679319, -0.01189817472, -0.01502242594, -0.02008194705, -0.0227605786, -0.02355854257, -0.02348215141, -0.02311236693, -0.02267911216, -0.02224795201, -0.02182931832, -0.02142138825, -0.02102193463, -0.02062994689, -0.02024511487, -0.01986734701, -0.01949657215], "k": [0, -0.1451918062, -0.261716322, -0.3068779952, -0.3164079357, -0.3113110771, -0.3035845096, -0.2964873709, -0.2902872203, -0.2846378013, -0.2792670497, -0.274047515, -0.2689347384, -0.2639169421, -0.2589916139, -0.2541577099, -0.2494139492, -0.244758776, -0.2401905389, -0.2357075929, -0.2313083291], "delta_k": [0, -0.1451918062, -0.1165245157, -0.04516167318, -0.009529940505, 0.00509685857, 0.007726567531, 0.007097138622, 0.006200150621, 0.005649418989, 0.005370751669, 0.005219534628, 0.005112776637, 0.005017796344, 0.004925328163, 0.004833904002, 0.004743760654, 0.004655173265, 0.004568237033, 0.004482946058, 0.004399263739], "m": [0, -8.159317697, -4.438774017, -2.012073267, -0.4655433702, -0.01306529831, 0.04231582843, 0.006511138154, -0.02549277006, -0.0406840636, -0.04549936174, -0.04605238081, -0.04534585911, -0.04442745836, -0.04354512084, -0.04271496264, -0.04191652698, -0.04113672324, -0.04037099724, -0.03961855042, -0.03887951321], "d": [0, -0.06402565637, -0.05779087733, -0.03746168753, -0.02094953023, -0.01200868626, -0.008084642882, -0.006589723054, -0.006049434321, -0.005823248484, -0.005684910973, -0.00556889022, -0.005459929874, -0.005355076478, -0.005253512413, -0.00515467401, -0.005058126129, -0.00496358758, -0.004870898708, -0.004779971357, -0.004690751921], "b": [0, -0.4529267114, -0.3001850654, -0.1181587309, -0.0320002359, -0.0007241297707, 0.003967258275, 0.00215810956, 0.0002174116843, -0.0007813422306, -0.001139547604, -0.001219703643, -0.001211936704, -0.00118637864, -0.001161181571, -0.001138392339, -0.001117027515, -0.001096319632, -0.001075983162, -0.001055967357, -0.001036285664], "l": [0, -0.5169523677, -0.3579759428, -0.1556204184, -0.05294976613, -0.01273281603, -0.004117384607, -0.004431613494, -0.005832022637, -0.006604590715, -0.006824458577, -0.006788593863, -0.006671866578, -0.006541455118, -0.006414693985, -0.006293066349, -0.006175153645, -0.006059907211, -0.00594688187, -0.005835938714, -0.005727037586], "R": [0, 0.2303997013, 0.1250670818, 0.0565581527, 0.01293993248, 0.0002271972384, -0.001295093855, -0.0002629139255, 0.0006502216214, 0.001083299245, 0.001221368433, 0.001238417191, 0.001219697809, 0.001194926785, 0.001171138311, 0.001148795685, 0.001127324523, 0.001106357302, 0.0010857669, 0.00106553174, 0.001045656157], "Rd": [0, 0.1327854458, 0.07196481685, 0.03248773462, 0.007371254825, 7.148568686e-05, -0.0007884260912, -0.000184685538, 0.0003455306527, 0.0005968494785, 0.0006773018855, 0.0006877285614, 0.0006774565014, 0.000663667909, 0.0006504305743, 0.0006380149532, 0.0006260913855, 0.0006144489493, 0.000603014998, 0.0005917775068, 0.0005807392458], "Rl": [0, 0.2319548992, 0.1259112846, 0.05693992023, 0.01302727702, 0.0002287308198, -0.001303835738, -0.0002646885945, 0.0006546106173, 0.001090611515, 0.00122961267, 0.001246776507, 0.001227930769, 0.001202992541, 0.001179043495, 0.001156550055, 0.001134933963, 0.001113825214, 0.001093095826, 0.001072724079, 0.001052714336], "lambda": [0, 0.7828355279, 0.3432512464, 0.1213144513, 0.02846072438, 0.01073423436, 0.01355285532, 0.01811742818, 0.02053402228, 0.02125392533, 0.02118500714, 0.02085139687, 0.0204605253, 0.02007154344, 0.01969386265, 0.01932583838, 0.01896546136, 0.01861181986, 0.01826463409, 0.01792382141, 0.01758931765], "xi": [0, -0.7626060551, -0.1692693189, 0.03483303927, 0.07573867745, 0.05138636556, 0.0255575422, 0.01073085899, 0.004276704881, 0.001991569784, 0.001321412766, 0.001153380563, 0.001106378257, 0.001079494822, 0.00105474274, 0.001031339555, 0.001009738013, 0.0009896782583, 0.0009706729687, 0.0009523503632, 0.0009345043155], "psi": [0, 0.4734647114, -0.2658638214, -0.1342290135, -0.05615862011, -0.01072111214, 0.001704722786, 0.002760687388, 0.001461573966, 0.0004354026833, -4.168222598e-05, -0.0002017699586, -0.0002364020154, -0.0002352590984, -0.0002284241367, -0.0002225837967, -0.0002179586838, -0.0002138849889, -0.0002099805232, -0.0002061260228, -0.0002023103497], "pi": [0, -0.09004477156, -0.03795211774, -0.01046178479, -0.0001654622884, 0.002100245744, 0.001939350485, 0.001485941804, 0.001207319202, 0.00108456115, 0.001035991064, 0.001012477713, 0.0009946351398, 0.0009771580153, 0.0009593801543, 0.0009415803116, 0.0009239977526, 0.0009067281121, 0.0008897898143, 0.0008731762332, 0.0008568770968], "rmc": [0, -0.5075751066, -0.2673931482, -0.09996816277, -0.02189429938, 0.001656164116, 0.004473972701, 0.002763566376, 0.0012444225, 0.0005218233124, 0.0002774228056, 0.0002215028982, 0.000217106629, 0.0002191633121, 0.000218512684, 0.0002155497346, 0.0002116735199, 0.0002076345219, 0.0002036756126, 0.0001998316915, 0.0001960861862], "yk": [0, -0.008976103575, -0.007560194501, -0.003113683019, -0.0006044915743, 0.0005734203148, 0.0009166210417, 0.0009652633185, 0.0009414125347, 0.00091247744, 0.000889898625, 0.000871717689, 0.0008553571035, 0.0008395955395, 0.0008240778721, 0.0008087686923, 0.0007936988215, 0.0007788915945, 0.0007643551869, 0.0007500890371, 0.0007360891768], "yn": [0, 0.2935438383, 0.2472396285, 0.1018261943, 0.01976857531, -0.01875245713, -0.02997608639, -0.03156682569, -0.03078683797, -0.02984057898, -0.02910218821, -0.02850762047, -0.0279725833, -0.02745713582, -0.02694966445, -0.02644901121, -0.02595618404, -0.02547194607, -0.02499656465, -0.02453002142, -0.02407218661], "f": [0, 0.03703815636, 0.01953471515, 0.008852524737, 0.001882279677, -7.107919941e-05, -0.0002733424299, -9.0158418e-05, 6.267869667e-05, 0.0001343707859, 0.0001575444631, 0.0001610391538, 0.0001587522921, 0.0001554811457, 0.0001523518544, 0.0001494373558, 0.0001466467697, 0.000143922903, 0.0001412466604, 0.0001386153573, 0.0001360301422], "EFP": [0, 0.001555197983, 0.000844202802, 0.0003817675307, 8.734454423e-05, 1.533581359e-06, -8.74188352e-06, -1.774668997e-06, 4.388995944e-06, 7.312269903e-06, 8.244236926e-06, 8.359316039e-06, 8.232960213e-06, 8.065755798e-06, 7.905183602e-06, 7.754370871e-06, 7.609440527e-06, 7.467911792e-06, 7.328926573e-06, 7.192339246e-06, 7.058179059e-06], "IMP": [0, 0.09761425543, 0.05310226492, 0.02407041809, 0.005568677654, 0.0001557115516, -0.0005066677636, -7.822838749e-05, 0.0003046909687, 0.0004864497664, 0.000544066548, 0.0005506886296, 0.0005422413079, 0.0005312588759, 0.000520707737, 0.0005107807313, 0.000501233137, 0.0004919083532, 0.0004827519017, 0.0004737542333, 0.000464916911], "alpha": [0, 0, 1.110223025e-16, 3.330669074e-16, 3.330669074e-16, 2.220446049e-16, 2.220446049e-16, 2.220446049e-16, 2.220446049e-16, 2.220446049e-16, 1.110223025e-16, 1.110223025e-16, 1.110223025e-16, 1.110223025e-16, 1.110223025e-16, 1.110223025e-16, 1.110223025e-16, 1.110223025e-16, 1.110223025e-16, 1.110223025e-16, 1.110223025e-16], "omega": [0, 1.387778781e-17, 8.04478012e-17, 1.320558246e-16, 1.383441972e-16, 1.270684946e-16, 1.123233451e-16, 9.86623977e-17, 8.695301423e-17, 7.676151381e-17, 6.7871056e-17, 6.006480036e-17, 5.290906602e-17, 4.640385298e-17, 4.076600169e-17, 3.556183126e-17, 3.100818213e-17, 2.688821388e-17, 2.320192649e-17, 1.994931997e-17, 1.691355389e-17], "A": [0, -2.220446049e-16, -2.220446049e-16, -3.330669074e-16, -4.440892099e-16, -4.440892099e-16, -4.440892099e-16, -4.440892099e-16, -4.440892099e-16, -3.330669074e-16, -3.330669074e-16, -3.330669074e-16, -3.330669074e-16, -3.330669074e-16, -3.330669074e-16, -3.330669074e-16, -2.220446049e-16, -2.220446049e-16, -2.220446049e-16, -2.220446049e-16, -2.220446049e-16], "theta": [0, -1.582063162e-16, -3.125841399e-16, -4.520390209e-16, -4.828838688e-16, -4.717919595e-16, -4.499541418e-16, -4.282539846e-16, -4.087596337e-16, -3.910776655e-16, -3.746265824e-16, -3.590707714e-16, -3.44261473e-16, -3.301343512e-16, -3.166529423e-16, -3.037874731e-16, -2.91509407e-16, -2.797908817e-16, -2.686050304e-16, -2.579261965e-16, -2.477299774e-16], "c_fe": [0, -2.220446049e-16, -2.220446049e-16, -3.330669074e-16, -3.330669074e-16, -4.440892099e-16, -3.330669074e-16, -3.330669074e-16, -3.330669074e-16, -3.330669074e-16, -3.330669074e-16, -3.330669074e-16, -3.330669074e-16, -2.220446049e-16, -2.220446049e-16, -2.220446049e-16, -2.220446049e-16, -2.220446049e-16, -2.220446049e-16, -2.220446049e-16, -2.220446049e-16], "i_fe": [0, -1.110223025e-16, -2.775557562e-17, -5.551115123e-17, 1.110223025e-16, -8.326672685e-17, -5.551115123e-17, -5.551115123e-17, -2.775557562e-17, -2.775557562e-17, -2.775557562e-17, -2.775557562e-17, -2.775557562e-17, -2.775557562e-17, -2.775557562e-17, -2.775557562e-17, -2.775557562e-17, -2.775557562e-17, -2.775557562e-17, -2.775557562e-17, 0], "y_fe": [0, -3.330669074e-16, -1.110223025e-16, -3.330669074e-16, -1.110223025e-16, -3.330669074e-16, -3.330669074e-16, -3.330669074e-16, -2.220446049e-16, -2.220446049e-16, -2.220446049e-16, -2.220446049e-16, -2.220446049e-16, -2.220446049e-16, -2.220446049e-16, -2.220446049e-16, -2.220446049e-16, -2.220446049e-16, -2.220446049e-16, -2.220446049e-16, -2.220446049e-16], "n_fe": [0, 0, 5.551115123e-17, -8.326672685e-17, 1.110223025e-16, 0, 2.775557562e-17, 2.775557562e-17, 2.775557562e-17, 2.775557562e-17, 2.775557562e-17, 2.775557562e-17, 2.775557562e-17, 2.775557562e-17, 2.775557562e-17, 2.775557562e-17, 2.775557562e-17, 2.775557562e-17, 2.775557562e-17, 2.775557562e-17, 2.775557562e-17], "w_fe": [0, -1.110223025e-15, -8.881784197e-16, 0, -1.110223025e-15, -8.881784197e-16, -8.881784197e-16, -8.881784197e-16, -8.881784197e-16, -8.881784197e-16, -8.881784197e-16, -6.661338148e-16, -6.661338148e-16, -6.661338148e-16, -6.661338148e-16, -6.661338148e-16, -6.661338148e-16, -6.661338148e-16, -6.661338148e-16, -6.661338148e-16, -6.661338148e-16], "k_fe": [0, 0, 0, 0, 0, 0, -8.881784197e-16, -8.881784197e-16, -8.881784197e-16, -8.881784197e-16, -8.881784197e-16, -8.881784197e-16, -8.881784197e-16, -8.881784197e-16, -8.881784197e-16, -8.881784197e-16, -8.881784197e-16, -8.881784197e-16, -8.881784197e-16, -8.881784197e-16, -8.881784197e-16], "delta_k_fe": [0, -1.455660658e-16, -1.501852068e-16, -1.080416184e-16, 3.31161673e-17, -1.503286112e-16, -9.668894698e-17, -9.10205045e-17, -8.003448466e-17, -7.39803375e-17, -6.87633843e-17, -6.406172186e-17, -5.956554276e-17, -5.526858808e-17, -5.117876999e-17, -4.73023673e-17, -4.363546829e-17, -4.016961825e-17, -3.689490866e-17, -3.380147169e-17, -3.087989953e-17], "m_fe": [0, -4.440892099e-16, -9.492406861e-15, 4.224398609e-14, 1.12687637e-14, 1.58206781e-14, 1.287858709e-14, 1.176836406e-14, 1.043609643e-14, 9.270362256e-15, 8.215650382e-15, 7.271960811e-15, 6.383782392e-15, 5.662137426e-15, 4.996003611e-15, 4.385380947e-15, 3.830269435e-15, 3.330669074e-15, 2.886579864e-15, 2.498001805e-15, 2.164934898e-15], "d_fe": [0, -1.110223025e-16, -1.665334537e-16, -5.551115123e-17, -1.110223025e-16, -1.110223025e-16, -1.110223025e-16, -1.110223025e-16, -1.110223025e-16, -1.110223025e-16, -1.110223025e-16, -1.110223025e-16, -1.110223025e-16, -1.110223025e-16, -1.110223025e-16, -1.110223025e-16, -1.110223025e-16, -1.110223025e-16, -1.110223025e-16, -1.110223025e-16, -1.110223025e-16], "b_fe": [0, -2.220446049e-16, 5.551115123e-17, -8.326672685e-17, 1.387778781e-16, -1.665334537e-16, -8.326672685e-17, -8.326672685e-17, -5.551115123e-17, -5.551115123e-17, -2.775557562e-17, -2.775557562e-17, -2.775557562e-17, -2.775557562e-17, 0, 0, 0, 0, 0, 0, 0], "l_fe": [0, -3.330669074e-16, -1.110223025e-16, -2.220446049e-16, 0, -3.330669074e-16, -2.220446049e-16, -2.220446049e-16, -2.220446049e-16, -1.110223025e-16, -1.110223025e-16, -1.110223025e-16, -1.110223025e-16, -1.110223025e-16, -1.110223025e-16, -1.110223025e-16, -1.110223025e-16, -1.110223025e-16, -1.110223025e-16, -1.110223025e-16, -1.110223025e-16], "R_fe": [0, 0, 4.440892099e-16, -6.661338148e-16, 2.220446049e-16, 0, 0, 0, 0, 0, 0, 0, 0, 0, 0, 0, 0, 0, 0, 0, 0], "Rd_fe": [0, 0, 2.220446049e-16, -6.661338148e-16, -2.220446049e-16, -2.220446049e-16, -2.220446049e-16, -2.220446049e-16, 0, 0, 0, 0, 0, 0, 0, 0, 0, 0, 0, 0, 0], "Rl_fe": [0, 0, 4.440892099e-16, -8.881784197e-16, 2.220446049e-16, 0, 0, 0, 0, 0, 0, 0, 0, 0, 0, 0, 0, 0, 0, 0, 0], "lambda_fe": [0, 8.881784197e-16, 6.661338148e-16, 0, 1.110223025e-15, 8.881784197e-16, 8.881784197e-16, 8.881784197e-16, 6.661338148e-16, 6.661338148e-16, 6.661338148e-16, 6.661338148e-16, 6.661338148e-16, 6.661338148e-16, 6.661338148e-16, 6.661338148e-16, 6.661338148e-16, 6.661338148e-16, 6.661338148e-16, 4.440892099e-16, 4.440892099e-16], "xi_fe": [0, -2.949029909e-16, -3.235259283e-16, 1.346145417e-15, -4.076600169e-17, 4.00721123e-16, 3.339342691e-16, 3.07913417e-16, 2.619432449e-16, 2.281161371e-16, 2.02095285e-16, 1.812786032e-16, 1.647987302e-16, 1.491862189e-16, 1.353084311e-16, 1.231653668e-16, 1.127570259e-16, 1.023486851e-16, 9.36750677e-17, 8.500145032e-17, 7.806255642e-17], "psi_fe": [0, 5.551115123e-16, 0, -4.440892099e-16, 7.771561172e-16, -1.110223025e-16, 0, 0, 0, 0, 0, 0, 0, 0, 0, 0, 0, 0, 0, 0, 0], "rmc_fe": [0, -1.110223025e-16, 0, 1.110223025e-16, 0, 0, 0, 0, 0, 0, 0, 0, 0, 0, 0, 0, 0, 0, 0, 0, 0], "yk_fe": [0, -6.938893904e-18, -1.179611964e-16, -6.938893904e-18, -6.245004514e-17, -4.163336342e-17, -2.775557562e-17, -2.081668171e-17, -1.387778781e-17, -1.387778781e-17, -1.387778781e-17, -1.387778781e-17, -1.387778781e-17, -1.387778781e-17, -1.387778781e-17, -1.387778781e-17, -1.387778781e-17, -6.938893904e-18, -6.938893904e-18, -6.938893904e-18, -6.938893904e-18], "yn_fe": [0, -8.881784197e-16, -8.881784197e-16, 0, -1.33226763e-15, -8.881784197e-16, -8.881784197e-16, -8.881784197e-16, -8.881784197e-16, -8.881784197e-16, -8.881784197e-16, -8.881784197e-16, -8.881784197e-16, -8.881784197e-16, -8.881784197e-16, -8.881784197e-16, -8.881784197e-16, -8.881784197e-16, -8.881784197e-16, -8.881784197e-16, -8.881784197e-16], "f_fe": [0, 1.561251128e-17, 1.413799633e-16, -5.551115123e-17, 1.075528555e-16, 6.938893904e-17, 6.678685383e-17, 5.637851297e-17, 4.943961907e-17, 4.33680869e-17, 3.816391647e-17, 3.382710778e-17, 2.949029909e-17, 2.51534904e-17, 2.255140519e-17, 1.908195824e-17, 1.647987302e-17, 1.387778781e-17, 1.214306433e-17, 9.540979118e-18, 7.806255642e-18], "EFP_fe": [0, -5.811323645e-17, -2.168404345e-17, -7.806255642e-17, 6.071532166e-18, 6.071532166e-18, 3.469446952e-18, 1.734723476e-18, 0, 0, 0, 0, 0, 0, 0, 0, 0, 0, 0, 0, 0], "IMP_fe": [0, 2.081668171e-17, 3.703634621e-16, -1.396452398e-16, 2.576064362e-16, 1.543903894e-16, 1.405126016e-16, 1.136243877e-16, 9.714451465e-17, 8.326672685e-17, 7.112366252e-17, 5.984795992e-17, 5.03069808e-17, 4.163336342e-17, 3.469446952e-17, 2.775557562e-17, 2.081668171e-17, 1.561251128e-17, 1.127570259e-17, 6.938893904e-18, 2.602085214e-18], "AUX_ENDO_LEAD_84": [0, -0.151808471, -0.04184713917, -0.0006618491535, 0.008400982975, 0.007757401938, 0.005943767215, 0.00482927681, 0.004338244599, 0.004143964257, 0.004049910853, 0.003978540559, 0.003908632061, 0.003837520617, 0.003766321246, 0.00369599101, 0.003626912449, 0.003559159257, 0.003492704933, 0.003427508387, 0.003363535188], "AUX_ENDO_LEAD_88": [0, -0.04184713917, -0.0006618491535, 0.008400982975, 0.007757401938, 0.005943767215, 0.00482927681, 0.004338244599, 0.004143964257, 0.004049910853, 0.003978540559, 0.003908632061, 0.003837520617, 0.003766321246, 0.00369599101, 0.003626912449, 0.003559159257, 0.003492704933, 0.003427508387, 0.003363535188, 0.003300757787], "AUX_ENDO_LEAD_92": [0, -0.0006618491535, 0.008400982975, 0.007757401938, 0.005943767215, 0.00482927681, 0.004338244599, 0.004143964257, 0.004049910853, 0.003978540559, 0.003908632061, 0.003837520617, 0.003766321246, 0.00369599101, 0.003626912449, 0.003559159257, 0.003492704933, 0.003427508387, 0.003363535188, 0.003300757787, 0.00323915236], "AUX_ENDO_LEAD_119": [0, -0.2270763088, -0.1194633726, -0.05609100571, -0.02484216404, -0.01472583526, -0.01239217349, -0.01213789851, -0.0121390305, -0.01203568492, -0.0118468984, -0.01162735524, -0.0114050137, -0.0111881509, -0.01097742026, -0.01077183794, -0.01057059611, -0.01037326945, -0.01017966133, -0.009989669771, -0.00980322254], "AUX_ENDO_LEAD_123": [0, -0.1194633726, -0.05609100571, -0.02484216404, -0.01472583526, -0.01239217349, -0.01213789851, -0.0121390305, -0.01203568492, -0.0118468984, -0.01162735524, -0.0114050137, -0.0111881509, -0.01097742026, -0.01077183794, -0.01057059611, -0.01037326945, -0.01017966133, -0.009989669771, -0.00980322254, -0.009620254295], "AUX_ENDO_LEAD_127": [0, -0.05609100571, -0.02484216404, -0.01472583526, -0.01239217349, -0.01213789851, -0.0121390305, -0.01203568492, -0.0118468984, -0.01162735524, -0.0114050137, -0.0111881509, -0.01097742026, -0.01077183794, -0.01057059611, -0.01037326945, -0.01017966133, -0.009989669771, -0.00980322254, -0.009620254295, -0.009440700916], "AUX_ENDO_LEAD_154": [0, -0.2270763088, -0.1194633726, -0.05609100571, -0.02484216404, -0.01472583526, -0.01239217349, -0.01213789851, -0.0121390305, -0.01203568492, -0.0118468984, -0.01162735524, -0.0114050137, -0.0111881509, -0.01097742026, -0.01077183794, -0.01057059611, -0.01037326945, -0.01017966133, -0.009989669771, -0.00980322254], "AUX_ENDO_LEAD_158": [0, -0.1194633726, -0.05609100571, -0.02484216404, -0.01472583526, -0.01239217349, -0.01213789851, -0.0121390305, -0.01203568492, -0.0118468984, -0.01162735524, -0.0114050137, -0.0111881509, -0.01097742026, -0.01077183794, -0.01057059611, -0.01037326945, -0.01017966133, -0.009989669771, -0.00980322254, -0.009620254295], "AUX_ENDO_LEAD_162": [0, -0.05609100571, -0.02484216404, -0.01472583526, -0.01239217349, -0.01213789851, -0.0121390305, -0.01203568492, -0.0118468984, -0.01162735524, -0.0114050137, -0.0111881509, -0.01097742026, -0.01077183794, -0.01057059611, -0.01037326945, -0.01017966133, -0.009989669771, -0.00980322254, -0.009620254295, -0.009440700916], "AUX_ENDO_LAG_2_1": [0, 0, -0.3601790863, -0.151808471, -0.04184713917, -0.0006618491535, 0.008400982975, 0.007757401938, 0.005943767215, 0.00482927681, 0.004338244599, 0.004143964257, 0.004049910853, 0.003978540559, 0.003908632061, 0.003837520617, 0.003766321246, 0.00369599101, 0.003626912449, 0.003559159257, 0.003492704933], "AUX_ENDO_LAG_2_2": [0, 0, 4.760619624e-16, -0.3601790863, -0.151808471, -0.04184713917, -0.0006618491535, 0.008400982975, 0.007757401938, 0.005943767215, 0.00482927681, 0.004338244599, 0.004143964257, 0.004049910853, 0.003978540559, 0.003908632061, 0.003837520617, 0.003766321246, 0.00369599101, 0.003626912449, 0.003559159257], "AUX_ENDO_LAG_4_1": [0, 0, -0.2474572213, -0.2270763088, -0.1194633726, -0.05609100571, -0.02484216404, -0.01472583526, -0.01239217349, -0.01213789851, -0.0121390305, -0.01203568492, -0.0118468984, -0.01162735524, -0.0114050137, -0.0111881509, -0.01097742026, -0.01077183794, -0.01057059611, -0.01037326945, -0.01017966133], "AUX_ENDO_LAG_4_2": [0, 0, 0, -0.2474572213, -0.2270763088, -0.1194633726, -0.05609100571, -0.02484216404, -0.01472583526, -0.01239217349, -0.01213789851, -0.0121390305, -0.01203568492, -0.0118468984, -0.01162735524, -0.0114050137, -0.0111881509, -0.01097742026, -0.01077183794, -0.01057059611, -0.01037326945], "AUX_ENDO_LAG_4_3": [0, 0, 0, 0, -0.2474572213, -0.2270763088, -0.1194633726, -0.05609100571, -0.02484216404, -0.01472583526, -0.01239217349, -0.01213789851, -0.0121390305, -0.01203568492, -0.0118468984, -0.01162735524, -0.0114050137, -0.0111881509, -0.01097742026, -0.01077183794, -0.01057059611], "AUX_ENDO_LAG_3_1": [0, 0, -0.2474572213, -0.2270763088, -0.1194633726, -0.05609100571, -0.02484216404, -0.01472583526, -0.01239217349, -0.01213789851, -0.0121390305, -0.01203568492, -0.0118468984, -0.01162735524, -0.0114050137, -0.0111881509, -0.01097742026, -0.01077183794, -0.01057059611, -0.01037326945, -0.01017966133], "AUX_ENDO_LAG_3_2": [0, 0, 0, -0.2474572213, -0.2270763088, -0.1194633726, -0.05609100571, -0.02484216404, -0.01472583526, -0.01239217349, -0.01213789851, -0.0121390305, -0.01203568492, -0.0118468984, -0.01162735524, -0.0114050137, -0.0111881509, -0.01097742026, -0.01077183794, -0.01057059611, -0.01037326945], "AUX_ENDO_LAG_3_3": [0, 0, 0, 0, -0.2474572213, -0.2270763088, -0.1194633726, -0.05609100571, -0.02484216404, -0.01472583526, -0.01239217349, -0.01213789851, -0.0121390305, -0.01203568492, -0.0118468984, -0.01162735524, -0.0114050137, -0.0111881509, -0.01097742026, -0.01077183794, -0.01057059611], "AUX_ENDO_LAG_0_1": [0, 0, 0.916990811, 0.4977669855, 0.2251014478, 0.05150093127, 0.000904245009, -0.005154473542, -0.001046397424, 0.002587882053, 0.004311530995, 0.004861046365, 0.00492890042, 0.004854397281, 0.004755808604, 0.004661130479, 0.004572206825, 0.0044867516, 0.004403302064, 0.004321352261, 0.004240816326], "AUX_ENDO_LAG_0_2": [0, 0, 0, 0.916990811, 0.4977669855, 0.2251014478, 0.05150093127, 0.000904245009, -0.005154473542, -0.001046397424, 0.002587882053, 0.004311530995, 0.004861046365, 0.00492890042, 0.004854397281, 0.004755808604, 0.004661130479, 0.004572206825, 0.0044867516, 0.004403302064, 0.004321352261], "AUX_ENDO_LAG_0_3": [0, 0, 0, 0, 0.916990811, 0.4977669855, 0.2251014478, 0.05150093127, 0.000904245009, -0.005154473542, -0.001046397424, 0.002587882053, 0.004311530995, 0.004861046365, 0.00492890042, 0.004854397281, 0.004755808604, 0.004661130479, 0.004572206825, 0.0044867516, 0.004403302064], "AUX_ENDO_LAG_2_3": [0, 0, -2.886404132e-17, 4.965766204e-16, -0.3601790863, -0.151808471, -0.04184713917, -0.0006618491535, 0.008400982975, 0.007757401938, 0.005943767215, 0.00482927681, 0.004338244599, 0.004143964257, 0.004049910853, 0.003978540559, 0.003908632061, 0.003837520617, 0.003766321246, 0.00369599101, 0.003626912449]}}