{"interest_": {"interest": [0, 0.938808337, -0.06762953288, -0.0215175212, -0.02144576222, 0.008219734887, 0.006363357489, 0.003992973239, 0.003524309578, 0.003702864487, 0.003733794753, 0.003655688137, 0.003574330961, 0.003505031984, 0.003439200662, 0.003373545041, 0.003308603643, 0.003244896649, 0.003182460011, 0.003121227076, 0.00306116417], "inflation": [0, -0.01919974489, -0.01768729679, -0.01500505945, -0.01366460737, 0.006346009349, 0.005705481851, 0.003955115707, 0.003534016273, 0.003617295492, 0.003620373212, 0.003547276242, 0.003470546821, 0.003402814341, 0.003338293873, 0.003274394633, 0.003211353831, 0.003149516957, 0.003088906807, 0.003029468505, 0.002971169603], "inflationq": [0, -0.07679897957, 0.006049792391, 0.01072894936, 0.005361808327, 0.003243487315, 0.003487682399, 0.003727484785, 0.003677410593, 0.003576604191, 0.003499993281, 0.003435096905, 0.003370492909, 0.003305674267, 0.00324191141, 0.003179499944, 0.003118329704, 0.003058326772, 0.00299947081, 0.002941746734, 0.002885134096], "outputgap": [0, -0.06478409126, -0.08219717539, 0.001980135961, -0.001897702318, -0.002598558273, -0.004389730577, -0.003879400642, -0.003553429663, -0.003446157502, -0.003393530132, -0.003330452453, -0.003262978543, -0.003198379054, -0.003136480294, -0.003076093816, -0.003016854207, -0.002958757575, -0.002901800401, -0.002845951363, -0.002791180468], "output": [0, -0.06478409126, -0.08219717539, 0.001980135961, -0.001897702318, -0.002598558273, -0.004389730577, -0.003879400642, -0.003553429663, -0.003446157502, -0.003393530132, -0.003330452453, -0.003262978543, -0.003198379054, -0.003136480294, -0.003076093816, -0.003016854207, -0.002958757575, -0.002901800401, -0.002845951363, -0.002791180468], "c": [0, -0.03583844357, -0.01144771916, -0.004783069404, -0.002923707013, -0.003077441511, -0.002878417127, -0.002659230277, -0.002534994729, -0.002467537046, -0.002414439586, -0.002364402285, -0.002316834513, -0.00227138043, -0.002227356651, -0.002184363844, -0.002142264123, -0.002101007605, -0.002060562036, -0.00202090222, -0.001982008566], "i": [0, -0.05671939373, -0.05121738296, 0.00724089518, 0.002319829696, 0.0006265900447, -0.0009196756244, -0.0006283341071, -0.0004714583922, -0.0004605766443, -0.0004726403018, -0.0004686109096, -0.0004584762704, -0.0004490542449, -0.0004405158642, -0.0004321679895, -0.0004238794638, -0.0004157192579, -0.0004077181845, -0.0003998734095, -0.0003921790065], "y": [0, -0.0522600518, -0.06630684416, 0.001597336721, -0.001530839123, -0.002096205833, -0.003541109289, -0.003129436172, -0.002866481796, -0.002779947454, -0.00273749399, -0.002686610468, -0.002632180592, -0.002580069455, -0.002530136944, -0.00248142436, -0.002433636933, -0.002386771523, -0.002340825291, -0.00229577297, -0.002251590368], "n": [0, -0.02372202125, -0.02916427679, 0.002478930896, 0.000895910943, 0.0005613116642, -0.0001427004084, 2.26928442e-05, 0.0001163191292, 0.0001279247259, 0.0001200337, 0.0001168469409, 0.0001158607051, 0.0001142974013, 0.0001122204767, 0.000110067773, 0.0001079642806, 0.0001059006729, 0.0001038688911, 0.0001018717982, 9.99119381e-05], "w": [0, -0.3762422331, 0.04898836453, 0.01326591049, 0.001012028259, -0.01024342943, -0.008086157841, -0.006884503102, -0.006740642836, -0.006764483164, -0.006671997231, -0.006535825373, -0.006405809156, -0.006283332608, -0.006163379894, -0.006044986241, -0.005928637406, -0.005814539943, -0.005702653993, -0.005592916429, -0.005485285188], "k": [0, -0.05671939373, -0.1065187918, -0.09661492687, -0.091879724, -0.08895614086, -0.08765191296, -0.08608894924, -0.08440818391, -0.08275855595, -0.08116223236, -0.07960178746, -0.07807021904, -0.07656751781, -0.07509384573, -0.07364866757, -0.07223133035, -0.07084126635, -0.06947795287, -0.06814087746, -0.06682953453], "delta_k": [0, -0.05671939373, -0.04979939812, 0.009903864976, 0.004735202867, 0.002923583145, 0.001304227897, 0.001562963717, 0.001680765339, 0.001649627953, 0.001596323597, 0.001560444899, 0.001531568416, 0.001502701231, 0.001473672081, 0.001445178154, 0.001417337226, 0.001390064001, 0.001363313474, 0.001337075412, 0.00131134293], "m": [0, -8.336442744, 0.5964111126, 0.189423109, 0.1893336072, -0.07380259251, -0.05728061231, -0.03619418825, -0.03200126305, -0.03356495094, -0.03382364094, -0.0331162282, -0.03238071394, -0.03175276056, -0.03115598107, -0.03056106304, -0.02997274184, -0.02939561607, -0.02882999508, -0.02827528036, -0.02773116749], "d": [0, -0.0250869105, -0.008013403413, -0.003348148583, -0.002046594909, -0.002154209058, -0.002014891989, -0.001861461194, -0.00177449631, -0.001727275932, -0.00169010771, -0.001655081599, -0.001621784159, -0.001589966301, -0.001559149656, -0.001529054691, -0.001499584886, -0.001470705323, -0.001442393425, -0.001414631554, -0.001387405996], "b": [0, -0.1644402518, -0.08472644078, 0.01826690312, 0.006241027586, 0.001366326405, -0.001089596464, -0.000364077739, -8.919534691e-05, -0.0001100449642, -0.0001516537927, -0.0001560513199, -0.0001500672968, -0.0001461631343, -0.0001436787118, -0.000141172374, -0.0001384971752, -0.0001358231741, -0.0001332089689, -0.0001306491172, -0.0001281367567], "l": [0, -0.1895271623, -0.0927398442, 0.01491875454, 0.004194432677, -0.0007878826531, -0.003104488453, -0.002225538933, -0.001863691657, -0.001837320897, -0.001841761503, -0.001811132919, -0.001771851456, -0.001736129435, -0.001702828367, -0.001670227065, -0.001638082061, -0.001606528497, -0.001575602394, -0.001545280671, -0.001515542753], "R": [0, 0.2358814921, -0.01699234497, -0.00540641237, -0.005388382475, 0.002065260025, 0.001598833542, 0.001003259609, 0.0008855049205, 0.000930367963, 0.0009381393865, 0.0009185146088, 0.0008980731071, 0.0008806613039, 0.0008641207707, 0.0008476243835, 0.0008313074494, 0.0008153006667, 0.0007996130692, 0.0007842279097, 0.0007691367273], "Rd": [0, 0.1361455402, -0.009856481167, -0.003139986684, -0.003123092694, 0.001182393513, 0.000913629044, 0.0005703254282, 0.0005027305493, 0.0005288832668, 0.0005335578638, 0.0005223948206, 0.0005107513464, 0.0005008507863, 0.0004914485819, 0.000482068289, 0.000472788556, 0.000463685062, 0.0004547631381, 0.0004460131972, 0.0004374304197], "Rl": [0, 0.2374736922, -0.0171070433, -0.005442905653, -0.005424754056, 0.00207920053, 0.001609625669, 0.001010031612, 0.0008914820787, 0.0009366479468, 0.0009444718274, 0.0009247145824, 0.0009041351006, 0.0008866057677, 0.0008699535859, 0.0008533458481, 0.0008369187747, 0.0008208039462, 0.0008050104574, 0.0007895214481, 0.0007743284002], "lambda": [0, 0.3394362916, -0.0441960719, -0.01196817121, -0.0009130264734, 0.009241364719, 0.007295128481, 0.006211025762, 0.006081238643, 0.006102746788, 0.006019308303, 0.005896457473, 0.005779160108, 0.005668664843, 0.005560446518, 0.005453634738, 0.005348667742, 0.005245731877, 0.005144791183, 0.005045788709, 0.004948686508], "xi": [0, -0.3455245975, 0.1076601991, 0.03569990326, 0.0126753285, -0.001233033916, 0.0007732495108, 0.001469496917, 0.001171724937, 0.0008786397438, 0.0007913286925, 0.0007722226901, 0.0007547877629, 0.000735856201, 0.0007192346632, 0.0007046134783, 0.0006908303152, 0.000677424954, 0.0006643233273, 0.0006515088014, 0.0006389593875], "psi": [0, 0.2052935771, -0.232023688, 0.01949167246, 0.00668623322, 0.006141450821, -0.001177098056, -0.0006556733351, -7.849620804e-05, 1.300828491e-05, -5.046421254e-05, -7.430108958e-05, -7.094231291e-05, -6.682835254e-05, -6.545124276e-05, -6.460055361e-05, -6.348481508e-05, -6.225637182e-05, -6.104967741e-05, -5.987742757e-05, -5.872812874e-05], "pi": [0, -0.01919974492, 0.0015124481, 0.002682237345, 0.001340452084, 0.00081087183, 0.0008719206011, 0.0009318711977, 0.0009193526497, 0.0008941510491, 0.0008749983216, 0.0008587742276, 0.0008426232287, 0.000826418568, 0.0008104778538, 0.0007948749873, 0.0007795824272, 0.0007645816941, 0.0007498677036, 0.0007354366846, 0.0007212835251], "rmc": [0, -0.201007454, -0.01122650525, 0.01309156635, 0.005180702636, -0.0005503572976, -0.0005367857934, 0.000166161143, 0.000288069121, 0.0002284149406, 0.0001991952456, 0.0001977016178, 0.0001974359822, 0.0001940997144, 0.0001900623863, 0.0001863075015, 0.0001827461874, 0.0001792481533, 0.0001758004658, 0.0001724158949, 0.0001690975771], "yk": [0, -0.002349936325, -0.002717242743, 0.0005682266278, 0.0003814102858, 0.0003339208264, 0.0002553244725, 0.0002677578691, 0.0002722981834, 0.0002683565769, 0.0002625779275, 0.0002574267557, 0.0002526022523, 0.0002478080546, 0.0002430504197, 0.0002383732114, 0.0002337871901, 0.0002292894539, 0.0002248774848, 0.0002205499831, 0.0002163056485], "yn": [0, 0.07684952862, 0.08886148184, -0.01858260915, -0.01247318923, -0.01092015032, -0.00834982844, -0.008756435486, -0.008904916537, -0.00877601492, -0.00858703683, -0.00841857902, -0.008260804189, -0.00810402044, -0.007948432396, -0.007795474527, -0.00764549873, -0.007498410104, -0.007354126304, -0.007212604826, -0.007073803146], "f": [0, 0.04029778691, -0.003641742152, -0.0008604892514, -0.0009269619036, 0.0003546455743, 0.0002569833981, 0.0001581281443, 0.0001399712578, 0.0001481661707, 0.0001495858332, 0.0001464026639, 0.0001431301293, 0.0001403651595, 0.0001377355119, 0.0001351074158, 0.0001325065972, 0.0001299552837, 0.000127454874, 0.0001250026052, 0.0001225971519], "EFP": [0, 0.001592200072, -0.0001146983286, -3.64932835e-05, -3.63715817e-05, 1.394050517e-05, 1.079212641e-05, 6.772002363e-06, 5.977158213e-06, 6.27998375e-06, 6.332440859e-06, 6.199973609e-06, 6.061993473e-06, 5.944463801e-06, 5.832815202e-06, 5.721464588e-06, 5.611325283e-06, 5.503279501e-06, 5.397388217e-06, 5.293538391e-06, 5.19167291e-06], "IMP": [0, 0.09973595191, -0.007135863805, -0.002266425686, -0.00226528978, 0.0008828665122, 0.0006852044984, 0.000432934181, 0.0003827743712, 0.0004014846962, 0.0004045815228, 0.0003961197882, 0.0003873217607, 0.0003798105176, 0.0003726721888, 0.0003655560944, 0.0003585188934, 0.0003516156048, 0.0003448499311, 0.0003382147125, 0.0003317063076], "alpha": [0, 0, 1.110223025e-16, 1.110223025e-16, 1.110223025e-16, 1.110223025e-16, 0, 0, 0, 0, 0, 0, 0, 0, 0, 0, 0, 0, 0, 0, 0], "omega": [0, -4.770489559e-18, 6.22332047e-17, 4.96564595e-17, 4.27175656e-17, 3.686287386e-17, 3.361026735e-17, 3.057450126e-17, 2.753873518e-17, 2.493664997e-17, 2.255140519e-17, 2.038300084e-17, 1.843143693e-17, 1.669671346e-17, 1.517883041e-17, 1.366094737e-17, 1.235990477e-17, 1.127570259e-17, 1.019150042e-17, 9.324138683e-18, 8.456776945e-18], "A": [0, 0, 0, 0, 0, 0, 0, 0, 0, 0, 0, 0, 0, 0, 0, 0, 0, 0, 0, 0, 0], "theta": [0, 3.253930328e-17, -8.804166308e-18, -1.405561401e-17, -1.64074379e-17, -1.043269769e-17, -6.387576261e-18, -3.356568194e-18, -5.858130339e-19, 2.08219985e-18, 4.586152203e-18, 6.907298349e-18, 9.059269024e-18, 1.105552783e-17, 1.290525034e-17, 1.461630437e-17, 1.619640786e-17, 1.765301199e-17, 1.899316922e-17, 2.022354301e-17, 2.135044416e-17], "c_fe": [0, 1.110223025e-16, 0, 0, 0, 0, 0, 0, 0, 0, 0, 0, 0, 0, 0, 0, 0, 0, 0, 0, 0], "i_fe": [0, -5.551115123e-17, -2.775557562e-17, 2.775557562e-17, 0, -2.775557562e-17, -2.775557562e-17, -2.775557562e-17, -2.775557562e-17, -2.775557562e-17, -2.775557562e-17, -2.775557562e-17, -2.775557562e-17, -2.775557562e-17, 0, 0, 0, 0, 0, 0, 0], "y_fe": [0, 0, 0, 0, 0, 0, 0, 0, 0, 0, 0, 0, 0, 0, 0, 0, 0, 0, 0, 0, 0], "n_fe": [0, 0, -2.775557562e-17, 0, 0, 0, 0, 0, 0, 0, 0, 0, 0, 0, 0, 0, 0, 0, 0, 0, 0], "w_fe": [0, 2.220446049e-16, 2.220446049e-16, 0, -2.220446049e-16, 0, 0, 0, 0, 0, 0, 0, 0, 0, 0, 0, 0, 0, 0, 0, 0], "k_fe": [0, 0, 0, 0, 0, 0, 0, 0, 0, 0, 0, 0, 0, 0, 0, 0, 0, 0, 0, 0, 0], "delta_k_fe": [0, -3.165149894e-17, -3.251894098e-17, 1.366676259e-17, -1.167050029e-17, -3.343022887e-17, -2.113769178e-17, -1.879917211e-17, -1.729666773e-17, -1.626653702e-17, -1.498644861e-17, -1.374743987e-17, -1.260111473e-17, -1.15327382e-17, -1.052672671e-17, -9.578829356e-18, -8.686936297e-18, -7.848284649e-18, -7.059919008e-18, -6.319082556e-18, -5.623218453e-18], "m_fe": [0, -2.2759572e-15, 1.204591982e-14, 8.382183836e-15, 3.275157923e-15, 4.329869796e-15, 4.05231404e-15, 3.663735981e-15, 3.275157923e-15, 2.942091015e-15, 2.72004641e-15, 2.442490654e-15, 2.220446049e-15, 1.998401444e-15, 1.831867991e-15, 1.665334537e-15, 1.498801083e-15, 1.387778781e-15, 1.276756478e-15, 1.165734176e-15, 1.054711873e-15], "d_fe": [0, 5.551115123e-17, 5.551115123e-17, 5.551115123e-17, 5.551115123e-17, 5.551115123e-17, 5.551115123e-17, 5.551115123e-17, 0, 0, 0, 0, 0, 0, 0, 0, 0, 0, 0, 0, 0], "b_fe": [0, -5.551115123e-17, -8.326672685e-17, -2.775557562e-17, -5.551115123e-17, -8.326672685e-17, -5.551115123e-17, -5.551115123e-17, -5.551115123e-17, -5.551115123e-17, -5.551115123e-17, -5.551115123e-17, -5.551115123e-17, -5.551115123e-17, -5.551115123e-17, -5.551115123e-17, -5.551115123e-17, -2.775557562e-17, -2.775557562e-17, -2.775557562e-17, -2.775557562e-17], "l_fe": [0, 0, 0, 0, 0, 0, 0, 0, 0, 0, 0, 0, 0, 0, 0, 0, 0, 0, 0, 0, 0], "R_fe": [0, 0, -2.220446049e-16, 0, 0, 0, 0, 0, 0, 0, 0, 0, 0, 0, 0, 0, 0, 0, 0, 0, 0], "Rd_fe": [0, 0, -2.220446049e-16, 0, 0, 0, 0, 0, 0, 0, 0, 0, 0, 0, 0, 0, 0, 0, 0, 0, 0], "Rl_fe": [0, 0, -2.220446049e-16, 0, 0, 0, 0, 0, 0, 0, 0, 0, 0, 0, 0, 0, 0, 0, 0, 0, 0], "lambda_fe": [0, -2.220446049e-16, -2.220446049e-16, 0, 0, 0, 0, 0, 0, 0, 0, 0, 0, 0, 0, 0, 0, 0, 0, 0, 0], "xi_fe": [0, -1.890848589e-16, 1.925543058e-16, 1.726049859e-16, -3.295974604e-17, 7.979727989e-17, 7.459310947e-17, 6.765421556e-17, 5.898059818e-17, 5.377642776e-17, 4.857225733e-17, 4.423544864e-17, 3.989863995e-17, 3.556183126e-17, 3.209238431e-17, 2.862293735e-17, 2.602085214e-17, 2.341876693e-17, 2.081668171e-17, 1.908195824e-17, 1.734723476e-17], "psi_fe": [0, -1.110223025e-16, -1.110223025e-16, 1.110223025e-16, 1.110223025e-16, 0, 0, 0, 0, 0, 0, 0, 0, 0, 0, 0, 0, 0, 0, 0, 0], "rmc_fe": [0, 0, 0, 0, 0, 0, 0, 0, 0, 0, 0, 0, 0, 0, 0, 0, 0, 0, 0, 0, 0], "yk_fe": [0, 6.938893904e-18, -6.245004514e-17, -1.387778781e-17, 6.938893904e-18, 0, -6.938893904e-18, -6.938893904e-18, -6.938893904e-18, -6.938893904e-18, 0, 0, 0, 0, 0, 0, 0, 0, 0, 0, 0], "yn_fe": [0, 0, 4.440892099e-16, 0, 0, 0, 0, 0, 0, 0, 0, 0, 0, 0, 0, 0, 0, 0, 0, 0, 0], "f_fe": [0, 6.071532166e-18, 1.387778781e-17, 1.734723476e-17, 3.469446952e-17, 2.168404345e-17, 1.994931997e-17, 1.82145965e-17, 1.647987302e-17, 1.474514955e-17, 1.301042607e-17, 1.214306433e-17, 1.040834086e-17, 9.540979118e-18, 8.67361738e-18, 7.806255642e-18, 6.938893904e-18, 6.938893904e-18, 6.071532166e-18, 5.204170428e-18, 5.204170428e-18], "EFP_fe": [0, 3.556183126e-17, 1.387778781e-17, 9.540979118e-18, 5.204170428e-18, 9.540979118e-18, 9.540979118e-18, 8.67361738e-18, 8.67361738e-18, 8.67361738e-18, 7.806255642e-18, 7.806255642e-18, 7.806255642e-18, 7.806255642e-18, 7.806255642e-18, 7.806255642e-18, 6.938893904e-18, 6.938893904e-18, 6.938893904e-18, 6.938893904e-18, 6.938893904e-18], "IMP_fe": [0, 3.295974604e-17, 3.556183126e-17, 2.949029909e-17, 7.806255642e-17, 4.770489559e-17, 4.163336342e-17, 3.729655473e-17, 3.469446952e-17, 3.035766083e-17, 2.688821388e-17, 2.428612866e-17, 2.168404345e-17, 1.908195824e-17, 1.734723476e-17, 1.474514955e-17, 1.301042607e-17, 1.214306433e-17, 1.040834086e-17, 9.540979118e-18, 7.806255642e-18], "AUX_ENDO_LEAD_84": [0, 0.006049792391, 0.01072894936, 0.005361808327, 0.003243487315, 0.003487682399, 0.003727484785, 0.003677410593, 0.003576604191, 0.003499993281, 0.003435096905, 0.003370492909, 0.003305674267, 0.00324191141, 0.003179499944, 0.003118329704, 0.003058326772, 0.00299947081, 0.002941746734, 0.002885134096, 0.002829611047], "AUX_ENDO_LEAD_88": [0, 0.01072894936, 0.005361808327, 0.003243487315, 0.003487682399, 0.003727484785, 0.003677410593, 0.003576604191, 0.003499993281, 0.003435096905, 0.003370492909, 0.003305674267, 0.00324191141, 0.003179499944, 0.003118329704, 0.003058326772, 0.00299947081, 0.002941746734, 0.002885134096, 0.002829611047, 0.002775156426], "AUX_ENDO_LEAD_92": [0, 0.005361808327, 0.003243487315, 0.003487682399, 0.003727484785, 0.003677410593, 0.003576604191, 0.003499993281, 0.003435096905, 0.003370492909, 0.003305674267, 0.00324191141, 0.003179499944, 0.003118329704, 0.003058326772, 0.00299947081, 0.002941746734, 0.002885134096, 0.002829611047, 0.002775156426, 0.002721749715], "AUX_ENDO_LEAD_119": [0, -0.08219717539, 0.001980135961, -0.001897702318, -0.002598558273, -0.004389730577, -0.003879400642, -0.003553429663, -0.003446157502, -0.003393530132, -0.003330452453, -0.003262978543, -0.003198379054, -0.003136480294, -0.003076093816, -0.003016854207, -0.002958757575, -0.002901800401, -0.002845951363, -0.002791180468, -0.002737464412], "AUX_ENDO_LEAD_123": [0, 0.001980135961, -0.001897702318, -0.002598558273, -0.004389730577, -0.003879400642, -0.003553429663, -0.003446157502, -0.003393530132, -0.003330452453, -0.003262978543, -0.003198379054, -0.003136480294, -0.003076093816, -0.003016854207, -0.002958757575, -0.002901800401, -0.002845951363, -0.002791180468, -0.002737464412, -0.002684782546], "AUX_ENDO_LEAD_127": [0, -0.001897702318, -0.002598558273, -0.004389730577, -0.003879400642, -0.003553429663, -0.003446157502, -0.003393530132, -0.003330452453, -0.003262978543, -0.003198379054, -0.003136480294, -0.003076093816, -0.003016854207, -0.002958757575, -0.002901800401, -0.002845951363, -0.002791180468, -0.002737464412, -0.002684782546, -0.002633114815], "AUX_ENDO_LEAD_154": [0, -0.08219717539, 0.001980135961, -0.001897702318, -0.002598558273, -0.004389730577, -0.003879400642, -0.003553429663, -0.003446157502, -0.003393530132, -0.003330452453, -0.003262978543, -0.003198379054, -0.003136480294, -0.003076093816, -0.003016854207, -0.002958757575, -0.002901800401, -0.002845951363, -0.002791180468, -0.002737464412], "AUX_ENDO_LEAD_158": [0, 0.001980135961, -0.001897702318, -0.002598558273, -0.004389730577, -0.003879400642, -0.003553429663, -0.003446157502, -0.003393530132, -0.003330452453, -0.003262978543, -0.003198379054, -0.003136480294, -0.003076093816, -0.003016854207, -0.002958757575, -0.002901800401, -0.002845951363, -0.002791180468, -0.002737464412, -0.002684782546], "AUX_ENDO_LEAD_162": [0, -0.001897702318, -0.002598558273, -0.004389730577, -0.003879400642, -0.003553429663, -0.003446157502, -0.003393530132, -0.003330452453, -0.003262978543, -0.003198379054, -0.003136480294, -0.003076093816, -0.003016854207, -0.002958757575, -0.002901800401, -0.002845951363, -0.002791180468, -0.002737464412, -0.002684782546, -0.002633114815], "AUX_ENDO_LAG_2_1": [0, 0, -0.07679897957, 0.006049792391, 0.01072894936, 0.005361808327, 0.003243487315, 0.003487682399, 0.003727484785, 0.003677410593, 0.003576604191, 0.003499993281, 0.003435096905, 0.003370492909, 0.003305674267, 0.00324191141, 0.003179499944, 0.003118329704, 0.003058326772, 0.00299947081, 0.002941746734], "AUX_ENDO_LAG_2_2": [0, 0, 6.412223574e-16, -0.07679897957, 0.006049792391, 0.01072894936, 0.005361808327, 0.003243487315, 0.003487682399, 0.003727484785, 0.003677410593, 0.003576604191, 0.003499993281, 0.003435096905, 0.003370492909, 0.003305674267, 0.00324191141, 0.003179499944, 0.003118329704, 0.003058326772, 0.00299947081], "AUX_ENDO_LAG_4_1": [0, 0, -0.06478409126, -0.08219717539, 0.001980135961, -0.001897702318, -0.002598558273, -0.004389730577, -0.003879400642, -0.003553429663, -0.003446157502, -0.003393530132, -0.003330452453, -0.003262978543, -0.003198379054, -0.003136480294, -0.003076093816, -0.003016854207, -0.002958757575, -0.002901800401, -0.002845951363], "AUX_ENDO_LAG_4_2": [0, 0, 0, -0.06478409126, -0.08219717539, 0.001980135961, -0.001897702318, -0.002598558273, -0.004389730577, -0.003879400642, -0.003553429663, -0.003446157502, -0.003393530132, -0.003330452453, -0.003262978543, -0.003198379054, -0.003136480294, -0.003076093816, -0.003016854207, -0.002958757575, -0.002901800401], "AUX_ENDO_LAG_4_3": [0, 0, 0, 0, -0.06478409126, -0.08219717539, 0.001980135961, -0.001897702318, -0.002598558273, -0.004389730577, -0.003879400642, -0.003553429663, -0.003446157502, -0.003393530132, -0.003330452453, -0.003262978543, -0.003198379054, -0.003136480294, -0.003076093816, -0.003016854207, -0.002958757575], "AUX_ENDO_LAG_3_1": [0, 0, -0.06478409126, -0.08219717539, 0.001980135961, -0.001897702318, -0.002598558273, -0.004389730577, -0.003879400642, -0.003553429663, -0.003446157502, -0.003393530132, -0.003330452453, -0.003262978543, -0.003198379054, -0.003136480294, -0.003076093816, -0.003016854207, -0.002958757575, -0.002901800401, -0.002845951363], "AUX_ENDO_LAG_3_2": [0, 0, 0, -0.06478409126, -0.08219717539, 0.001980135961, -0.001897702318, -0.002598558273, -0.004389730577, -0.003879400642, -0.003553429663, -0.003446157502, -0.003393530132, -0.003330452453, -0.003262978543, -0.003198379054, -0.003136480294, -0.003076093816, -0.003016854207, -0.002958757575, -0.002901800401], "AUX_ENDO_LAG_3_3": [0, 0, 0, 0, -0.06478409126, -0.08219717539, 0.001980135961, -0.001897702318, -0.002598558273, -0.004389730577, -0.003879400642, -0.003553429663, -0.003446157502, -0.003393530132, -0.003330452453, -0.003262978543, -0.003198379054, -0.003136480294, -0.003076093816, -0.003016854207, -0.002958757575], "AUX_ENDO_LAG_0_1": [0, 0, 0.938808337, -0.06762953288, -0.0215175212, -0.02144576222, 0.008219734887, 0.006363357489, 0.003992973239, 0.003524309578, 0.003702864487, 0.003733794753, 0.003655688137, 0.003574330961, 0.003505031984, 0.003439200662, 0.003373545041, 0.003308603643, 0.003244896649, 0.003182460011, 0.003121227076], "AUX_ENDO_LAG_0_2": [0, 0, 0, 0.938808337, -0.06762953288, -0.0215175212, -0.02144576222, 0.008219734887, 0.006363357489, 0.003992973239, 0.003524309578, 0.003702864487, 0.003733794753, 0.003655688137, 0.003574330961, 0.003505031984, 0.003439200662, 0.003373545041, 0.003308603643, 0.003244896649, 0.003182460011], "AUX_ENDO_LAG_0_3": [0, 0, 0, 0, 0.938808337, -0.06762953288, -0.0215175212, -0.02144576222, 0.008219734887, 0.006363357489, 0.003992973239, 0.003524309578, 0.003702864487, 0.003733794753, 0.003655688137, 0.003574330961, 0.003505031984, 0.003439200662, 0.003373545041, 0.003308603643, 0.003244896649], "AUX_ENDO_LAG_2_3": [0, 0, -1.92240154e-16, 6.589528719e-16, -0.07679897957, 0.006049792391, 0.01072894936, 0.005361808327, 0.003243487315, 0.003487682399, 0.003727484785, 0.003677410593, 0.003576604191, 0.003499993281, 0.003435096905, 0.003370492909, 0.003305674267, 0.00324191141, 0.003179499944, 0.003118329704, 0.003058326772]}}