{"interest_": {"c": [0, -0.3546645636, -0.2849238562, -0.1789859469, -0.1012338394, -0.05244743734, -0.02411183803, -0.008672239362, -0.0008543227934, 0.002695159041, 0.003981262653, 0.004144206267, 0.003803934421, 0.003283087366, 0.002741263173, 0.002251348487, 0.001841069514, 0.001515064778, 0.001266623441, 0.00108408733, 0.0009544449333], "lam": [0, 0.5724233629, 0.3372428009, 0.1912996825, 0.1028694655, 0.05109463815, 0.02211458674, 0.006783058961, -0.0007290517228, -0.003968358987, -0.004993607189, -0.004948765693, -0.00444443865, -0.003793827741, -0.003149863008, -0.002580925948, -0.002111232011, -0.001742162189, -0.001463786242, -0.001261367732, -0.001119152796], "pdot": [0, -0.01122364131, -0.01226714146, -0.01067864123, -0.008356071322, -0.006074941804, -0.004177217774, -0.002756388482, -0.00177054993, -0.001123168651, -0.0007126364464, -0.0004557201232, -0.0002936036151, -0.0001888837165, -0.0001194985442, -7.291535327e-05, -4.187741231e-05, -2.181509662e-05, -9.512966547e-06, -2.5347425e-06, 9.855496663e-07], "w": [0, -0.1078232576, -0.1777777719, -0.1992487003, -0.1883597295, -0.1612244539, -0.1289984993, -0.09816543296, -0.0718172325, -0.05089015041, -0.03512073994, -0.02370166692, -0.01568318273, -0.010185552, -0.006486396336, -0.004035403271, -0.002433862978, -0.001402403964, -0.0007493336554, -0.0003446869589, -0.0001009481898], "cn": [0, -0.3568663055, -0.2875328827, -0.1811429687, -0.1028308061, -0.05359095705, -0.02491827961, -0.009232166861, -0.001236298117, 0.002439103333, 0.003812265266, 0.00403399156, 0.003732471028, 0.003236536035, 0.002710295265, 0.002229834638, 0.001825091112, 0.001502189746, 0.001255390815, 0.001073651622, 0.0009443385761], "cp": [0, -0.3140274678, -0.2385010072, -0.1423091127, -0.07528734892, -0.03456428901, -0.01186668876, -0.0003669646764, 0.004698806847, 0.006350665994, 0.006354394898, 0.005670108366, 0.004783521216, 0.00391978366, 0.003169383058, 0.002557283675, 0.002078746022, 0.001716991129, 0.001451602626, 0.001262447268, 0.001131470347], "ce": [0, -0.3150080938, -0.2379316186, -0.1401349499, -0.07247022162, -0.03185103855, -0.009586690663, 0.001412842622, 0.006025590155, 0.007307082581, 0.007025143347, 0.006129328183, 0.005091090676, 0.004121542328, 0.003299038762, 0.002638843167, 0.002128863011, 0.001746962221, 0.001468938827, 0.001272049115, 0.001136474646], "cu": [0, -0.3164268463, -0.2371078372, -0.1369894092, -0.0683944512, -0.0279255553, -0.006288029367, 0.003987836642, 0.007945157002, 0.008690809344, 0.007995570452, 0.006793719369, 0.005536076781, 0.004413443235, 0.003486622364, 0.002756842009, 0.002201371393, 0.001790323871, 0.001494020539, 0.001285940898, 0.001143714778], "pc": [0, -0.005504303449, -0.00652259606, -0.005392668429, -0.003992564508, -0.002858941486, -0.002016223441, -0.001399912027, -0.0009550078446, -0.000640189397, -0.0004225286217, -0.0002755608337, -0.0001786746034, -0.0001163889017, -7.742656516e-05, -5.3788896e-05, -3.994863137e-05, -3.218915122e-05, -2.808247219e-05, -2.608977354e-05, -2.52661555e-05], "pu": [0, -0.09045800423, -0.1322409745, -0.133975454, -0.1166591655, -0.09360462869, -0.07131558533, -0.0523624639, -0.03735038915, -0.02600721575, -0.01773646625, -0.01188225342, -0.007846410176, -0.005131524798, -0.003347694762, -0.00220250975, -0.00148451357, -0.001045547686, -0.0007846871497, -0.0006349115663, -0.0005527414944], "pp": [0, -0.1144517893, -0.1183092741, -0.08077841896, -0.04773018827, -0.02721729161, -0.01552899144, -0.008814450721, -0.004886887596, -0.002605782251, -0.001324710716, -0.0006461433863, -0.0003208545252, -0.0001949290511, -0.0001753016982, -0.0002069264095, -0.0002582598542, -0.0003122202736, -0.00036050802, -0.0003999752661, -0.000430297187], "va": [0, -0.4210168436, -0.3719721944, -0.2567746531, -0.1543158285, -0.07919732357, -0.03026925516, -0.00212680582, 0.01140312362, 0.01580558885, 0.01527418828, 0.01262392191, 0.009499694976, 0.006701369133, 0.00450274655, 0.002901723317, 0.001785523911, 0.001022370436, 0.0005015107926, 0.0001431734342, -0.0001053782397], "h": [0, -0.4350436372, -0.3761177247, -0.2535226712, -0.1471838173, -0.07075571457, -0.02206994539, 0.00504407149, 0.0172660376, 0.0203803343, 0.01873066783, 0.01518452951, 0.01138265172, 0.008093414847, 0.00555063621, 0.003714153355, 0.002439638212, 0.001571288566, 0.0009810752335, 0.0005772634425, 0.0002990181511], "k": [0, -0.004895150467, -0.008681458378, -0.01099863281, -0.01227400052, -0.01290435067, -0.01316173908, -0.01321588739, -0.0131667742, -0.01307042141, -0.01295663591, -0.01284031293, -0.01272822335, -0.01262289278, -0.01252473075, -0.01243316516, -0.01234723526, -0.01226589725, -0.01218817696, -0.01211323881, -0.01204040731], "pvc": [0, -0.02499970949, -0.1187882818, -0.1529158565, -0.1513645842, -0.1320043065, -0.1063450055, -0.08096782602, -0.05903883719, -0.04158516642, -0.0284567602, -0.01897734243, -0.01233483387, -0.007781207202, -0.004709874407, -0.002664998784, -0.001320060535, -0.000447763649, 0.0001078514785, 0.0004532455607, 0.0006609862015], "wk": [0, -0.1618702096, -0.1592394949, -0.1211837018, -0.08177192048, -0.04963286256, -0.02633786643, -0.01099591444, -0.001829756512, 0.003054236855, 0.005270839743, 0.006008527627, 0.006038661719, 0.005802081898, 0.005515212349, 0.005262522541, 0.005062649146, 0.004908463935, 0.004787340361, 0.004689004502, 0.004607001072], "q": [0, -0.3931084857, -0.3481953925, -0.2393852155, -0.1476208274, -0.08390846756, -0.04360024773, -0.01981127837, -0.006708680679, -8.417584843e-05, 0.002841402149, 0.003787653257, 0.003760199192, 0.00331570951, 0.002744291191, 0.002185702653, 0.001698915458, 0.001301598436, 0.0009915639932, 0.0007580327287, 0.0005874121183], "b": [0, -0.3934580531, -0.3480683524, -0.2389555497, -0.1471149758, -0.0834734926, -0.04328942582, -0.01961802654, -0.00660192959, -3.079461573e-05, 0.002866677677, 0.003800343866, 0.003768034572, 0.003321577291, 0.002748738149, 0.002188531083, 0.001699956519, 0.001300939945, 0.0009895066049, 0.0007549645124, 0.0005837002029], "e": [0, -0.3868374578, -0.3504744148, -0.2470931607, -0.1566954981, -0.09171165475, -0.04917620451, -0.02327809911, -0.008623730521, -0.001041802811, 0.002387974493, 0.003559991414, 0.003619637218, 0.003210445081, 0.002664515469, 0.002134962331, 0.001680239451, 0.001313411378, 0.001028472293, 0.0008130746701, 0.0006540016308], "vn": [0, -0.4222075217, -0.3732482067, -0.2577960849, -0.1549392947, -0.07944137625, -0.03023366747, -0.001930683342, 0.01165854566, 0.01605218524, 0.01547669658, 0.01277178286, 0.009597054604, 0.006758748336, 0.004531606151, 0.002911727705, 0.001783704516, 0.001013336965, 0.0004880650912, 0.0001269447155, -0.0001234425493], "mn": [0, -0.3310551165, -0.2934135387, -0.1980607164, -0.1301316887, -0.09222551179, -0.0716279552, -0.05800976768, -0.046237698, -0.0349401415, -0.02450433988, -0.01567285567, -0.008884302504, -0.004139067278, -0.001121114211, 0.000618777096, 0.001518175041, 0.001925204371, 0.002077924044, 0.002118129867, 0.002118608028], "ip": [0, -0.3868374578, -0.3504744148, -0.2470931607, -0.1566954981, -0.09171165475, -0.04917620451, -0.02327809911, -0.008623730521, -0.001041802811, 0.002387974493, 0.003559991414, 0.003619637218, 0.003210445081, 0.002664515469, 0.002134962331, 0.001680239451, 0.001313411378, 0.001028472293, 0.0008130746701, 0.0006540016308], "iu": [0, -0.3868374578, -0.3504744148, -0.2470931607, -0.1566954981, -0.09171165475, -0.04917620451, -0.02327809911, -0.008623730521, -0.001041802811, 0.002387974493, 0.003559991414, 0.003619637218, 0.003210445081, 0.002664515469, 0.002134962331, 0.001680239451, 0.001313411378, 0.001028472293, 0.0008130746701, 0.0006540016308], "wdot": [0, -0.1190468989, -0.08222165577, -0.03214956956, 0.002532899424, 0.02106033382, 0.02804873679, 0.0280766779, 0.02457765053, 0.01980391343, 0.01505677402, 0.01096335289, 0.007724880581, 0.005308747014, 0.003579657115, 0.002378077712, 0.00155966288, 0.001009643918, 0.0006435573417, 0.000402111954, 0.0002447243187], "mu": [0, -0.05607962766, -0.1431212021, -0.1688919527, -0.1558165592, -0.125072357, -0.09121710106, -0.06199213727, -0.04006668801, -0.02514631169, -0.01567823778, -0.009921299374, -0.006453577969, -0.004304917619, -0.002897360021, -0.001922945961, -0.001229372131, -0.0007397565737, -0.0004073059575, -0.0001952290117, -7.090265329e-05], "qu": [0, -0.3582929959, -0.3045156043, -0.2024570998, -0.1208982537, -0.06585277003, -0.03178933831, -0.01222448876, -0.001906703519, 0.002903798157, 0.004661293895, 0.004870944727, 0.004396561817, 0.003698140532, 0.002997797604, 0.002387072353, 0.001891506341, 0.001506751703, 0.001217205552, 0.001004774639, 0.0008525313407], "ig": [0, -0.3582929959, -0.3045156043, -0.2024570998, -0.1208982537, -0.06585277003, -0.03178933831, -0.01222448876, -0.001906703519, 0.002903798157, 0.004661293895, 0.004870944727, 0.004396561817, 0.003698140532, 0.002997797604, 0.002387072353, 0.001891506341, 0.001506751703, 0.001217205552, 0.001004774639, 0.0008525313407], "vu": [0, -0.3582929959, -0.3045156043, -0.2024570998, -0.1208982537, -0.06585277003, -0.03178933831, -0.01222448876, -0.001906703519, 0.002903798157, 0.004661293895, 0.004870944727, 0.004396561817, 0.003698140532, 0.002997797604, 0.002387072353, 0.001891506341, 0.001506751703, 0.001217205552, 0.001004774639, 0.0008525313407], "qp": [0, -0.356228138, -0.3034007943, -0.2030419469, -0.1224715122, -0.06768690219, -0.03349128409, -0.01364625819, -0.003022935811, 0.002065991075, 0.004055457631, 0.00444708458, 0.004108934051, 0.003508651019, 0.002876761803, 0.002312506224, 0.001847771614, 0.001483076306, 0.001206356285, 0.00100199091, 0.0008547294793], "io": [0, -0.356228138, -0.3034007943, -0.2030419469, -0.1224715122, -0.06768690219, -0.03349128409, -0.01364625819, -0.003022935811, 0.002065991075, 0.004055457631, 0.00444708458, 0.004108934051, 0.003508651019, 0.002876761803, 0.002312506224, 0.001847771614, 0.001483076306, 0.001206356285, 0.00100199091, 0.0008547294793], "vp": [0, -0.356228138, -0.3034007943, -0.2030419469, -0.1224715122, -0.06768690219, -0.03349128409, -0.01364625819, -0.003022935811, 0.002065991075, 0.004055457631, 0.00444708458, 0.004108934051, 0.003508651019, 0.002876761803, 0.002312506224, 0.001847771614, 0.001483076306, 0.001206356285, 0.00100199091, 0.0008547294793], "ppb": [0, -0.2988297371, -0.308901499, -0.2109097101, -0.1246219015, -0.07106342456, -0.04054566955, -0.02301423165, -0.01275949764, -0.006803609009, -0.003458774715, -0.00168705845, -0.0008377402746, -0.0005089531359, -0.0004577067838, -0.0005402778316, -0.0006743077132, -0.0008151965369, -0.0009412742037, -0.001044321844, -0.00112349135], "rg": [0, 0.2229134206, 0.1352644771, 0.08007414567, 0.04569988553, 0.02480283364, 0.0125751393, 0.005741560754, 0.002116138613, 0.000312611756, -0.0005005616193, -0.0007979306576, -0.000839494626, -0.0007634632772, -0.000641852413, -0.0005115713491, -0.0003908849193, -0.0002878889127, -0.0002049532525, -0.0001412293869, -9.420665543e-05], "xo": [0, 0.7827469523, 0.666668412, 0.4461479826, 0.2691090138, 0.1487297345, 0.07359104392, 0.0299851861, 0.006642355112, -0.004539642001, -0.008911135204, -0.009771664646, -0.009028639971, -0.007709626499, -0.006321164146, -0.00508131449, -0.004060144174, -0.003258792146, -0.002650749913, -0.002201693936, -0.001878113556], "xg": [0, -4.523901463, -3.844893993, -2.556276513, -1.526493102, -0.8314743691, -0.4013805342, -0.1543496055, -0.02407453938, 0.03666411814, 0.0588547209, 0.06150182736, 0.05551214415, 0.04669369359, 0.03785097985, 0.03013980243, 0.02388265582, 0.01902464271, 0.01536875697, 0.01268654847, 0.01076428461], "s": [0, 0.5750744907, 0.3398939287, 0.1939508103, 0.1055205933, 0.05374576597, 0.02476571455, 0.009434186772, 0.001922076088, -0.001317231176, -0.002342479378, -0.002297637882, -0.001793310839, -0.00114269993, -0.0004987351969, 7.020186289e-05, 0.0005398957996, 0.0009089656224, 0.001187341569, 0.001389760079, 0.001531975015], "bfc": [0, -0.009016680439, -0.007557884851, 0.003994177636, 0.02081550595, 0.03790257527, 0.05233980244, 0.06325046047, 0.07096647447, 0.07626322305, 0.07990431459, 0.08246216501, 0.0843036553, 0.0856435838, 0.08660690913, 0.08727466071, 0.08770938294, 0.08796527362, 0.08809001743, 0.08812370571, 0.08809781942], "z": [0, -0.3525815935, -0.3468514373, -0.2639592721, -0.1781135275, -0.108109045, -0.05736847403, -0.02395102253, -0.003985529322, 0.006652661413, 0.01148080972, 0.0130876228, 0.01315326012, 0.01263794794, 0.01201309595, 0.0114626934, 0.01102733423, 0.01069149191, 0.01042766361, 0.01021347092, 0.01003485313], "pe": [0, -0.09788648009, -0.12792772, -0.1175056519, -0.09531875414, -0.07305110913, -0.05404405586, -0.03887999902, -0.02729968907, -0.01876213194, -0.01265538674, -0.008403553754, -0.005516498146, -0.003603154755, -0.002365521869, -0.001584677147, -0.00110486542, -0.0008185095189, -0.0006533612911, -0.0005621752877, -0.0005148327368], "xn": [0, -0.5044553433, -0.5076048127, -0.380891169, -0.2507086778, -0.1512400289, -0.08451934482, -0.04336810061, -0.01969248052, -0.007020842723, -0.0008602309884, 0.001658320044, 0.00226162675, 0.001941403805, 0.001243561375, 0.0004547456086, -0.0002847862188, -0.000915587882, -0.001421688113, -0.001809382445, -0.002095104075], "pm": [0, -0.1161521148, -0.1986229498, -0.212651225, -0.1761721901, -0.1192201709, -0.06495071778, -0.02488874168, -0.001142593526, 0.009407160315, 0.01152427626, 0.009467296099, 0.006146523238, 0.003116608412, 0.0009428459557, -0.0003720481743, -0.00105453106, -0.001359631056, -0.001482007474, -0.001537939591, -0.001581064376], "pg": [0, -0.5750744907, -0.3398939287, -0.1939508103, -0.1055205933, -0.05374576597, -0.02476571455, -0.009434186772, -0.001922076088, 0.001317231176, 0.002342479378, 0.002297637882, 0.001793310839, 0.00114269993, 0.0004987351969, -7.020186289e-05, -0.0005398957996, -0.0009089656224, -0.001187341569, -0.001389760079, -0.001531975015], "pudot": [0, -0.1016816455, -0.05405011171, -0.01241312072, 0.008960217152, 0.016979595, 0.01811182558, 0.01619673294, 0.01324152483, 0.01022000475, 0.007558113046, 0.00539849271, 0.00374223963, 0.002526001661, 0.001664331492, 0.001072269659, 0.0006761187672, 0.0004171507878, 0.0002513475694, 0.0001472408409, 8.315562154e-05], "ppbdot": [0, -0.3100533784, -0.02233890334, 0.08731314766, 0.07793173728, 0.04748353512, 0.02634053724, 0.01477504942, 0.008484184076, 0.00483271998, 0.002632197848, 0.001315996142, 0.00055571456, 0.0001399034223, -6.825219213e-05, -0.000155486401, -0.0001759072939, -0.0001627039203, -0.0001355906333, -0.0001055823824, -7.818395667e-05], "ppdot": [0, -0.1187504439, -0.008555799978, 0.03344093556, 0.02984785538, 0.01818619395, 0.01008842576, 0.005658843927, 0.003249442501, 0.001850931752, 0.001008131776, 0.0005040265223, 0.0002128386765, 5.358301073e-05, -2.614058959e-05, -5.95512916e-05, -6.737249358e-05, -6.231560149e-05, -5.193121255e-05, -4.043805248e-05, -2.99444554e-05], "po": [0, -0.5750744907, -0.3398939287, -0.1939508103, -0.1055205933, -0.05374576597, -0.02476571455, -0.009434186772, -0.001922076088, 0.001317231176, 0.002342479378, 0.002297637882, 0.001793310839, 0.00114269993, 0.0004987351969, -7.020186289e-05, -0.0005398957996, -0.0009089656224, -0.001187341569, -0.001389760079, -0.001531975015], "pmfshock": [0, -8.377300376e-17, 2.220926463e-16, 2.004593863e-16, 5.039045674e-17, -1.441957056e-16, -2.935780554e-16, -3.506551104e-16, -3.189001231e-16, -2.257824459e-16, -1.021341909e-16, 2.74402173e-17, 1.47273889e-16, 2.498514032e-16, 3.335486145e-16, 4.001508791e-16, 4.528456428e-16, 4.949300929e-16, 5.291723986e-16, 5.576305246e-16, 5.817213463e-16], "ashock": [0, -5.782447503e-18, 7.119519291e-16, 8.73555887e-16, 1.00826606e-15, 1.149707774e-15, 1.289976862e-15, 1.423924184e-15, 1.546388033e-15, 1.653141983e-15, 1.742106121e-15, 1.813355641e-15, 1.868504238e-15, 1.909986941e-15, 1.940462563e-15, 1.962405791e-15, 1.977890672e-15, 1.988528033e-15, 1.995502151e-15, 1.999654377e-15, 2.001575556e-15], "ishock": [0, 1.481799708e-16, -3.072949251e-16, -7.187104938e-17, 4.660231148e-18, -3.519615043e-17, -8.737527629e-17, -1.195793212e-16, -1.334344669e-16, -1.370063043e-16, -1.363104933e-16, -1.345343197e-16, -1.329736522e-16, -1.319283275e-16, -1.312830338e-16, -1.308250891e-16, -1.303846225e-16, -1.298706441e-16, -1.292578802e-16, -1.285593153e-16, -1.278021189e-16], "gshock": [0, 3.969460898e-16, 7.906730476e-16, 1.588200859e-15, 1.833786621e-15, 1.747867945e-15, 1.544660802e-15, 1.334927982e-15, 1.15885783e-15, 1.023666827e-15, 9.243980673e-16, 8.530415592e-16, 8.020499861e-16, 7.654305186e-16, 7.388184964e-16, 7.191759302e-16, 7.044208356e-16, 6.931161606e-16, 6.842504571e-16, 6.770979893e-16, 6.711332413e-16], "poshock": [0, 2.918308454e-17, -4.465199127e-16, -4.238915597e-16, -4.15555906e-16, -4.861592038e-16, -5.314568225e-16, -5.277532628e-16, -4.936522986e-16, -4.512613154e-16, -4.14216268e-16, -3.879244901e-16, -3.725920473e-16, -3.659468498e-16, -3.650573339e-16, -3.673183547e-16, -3.708306153e-16, -3.744148937e-16, -3.774584156e-16, -3.797233771e-16, -3.811841884e-16], "yfshock": [0, 3.434131377e-19, 2.026959764e-15, 3.059120161e-15, 3.177100141e-15, 2.78478684e-15, 2.191300606e-15, 1.574884798e-15, 1.019720095e-15, 5.565192265e-16, 1.886301518e-16, -9.337016538e-17, -3.03733818e-16, -4.573282423e-16, -5.675848912e-16, -6.456997097e-16, -7.005191454e-16, -7.387626761e-16, -7.653773864e-16, -7.839128975e-16, -7.968615737e-16], "rfshock": [0, 4.517141153e-18, 3.798924432e-16, 2.923718389e-16, 1.321604302e-16, 5.109039469e-17, 1.172709544e-17, -1.474814008e-17, -3.870684438e-17, -6.285342478e-17, -8.763229795e-17, -1.128194524e-16, -1.379270963e-16, -1.623737711e-16, -1.856070371e-16, -2.071864783e-16, -2.268225989e-16, -2.443780922e-16, -2.598443359e-16, -2.733066337e-16, -2.849088328e-16], "mushock": [0, -2.53725232e-18, -9.695035568e-16, -3.279346783e-16, -1.21609405e-16, -4.468491871e-17, -1.576804939e-17, -3.48673277e-18, 2.971885437e-18, 6.810307402e-18, 9.032916225e-18, 1.015897197e-17, 1.059565661e-17, 1.066245778e-17, 1.057568816e-17, 1.045609991e-17, 1.035458679e-17, 1.028122367e-17, 1.022826054e-17, 1.01842426e-17, 1.014048526e-17], "pgshock": [0, 4.811132262e-19, -3.44421389e-16, -2.502259843e-16, -1.097739114e-16, -2.916607873e-17, 2.338408588e-17, 6.237371822e-17, 8.962525577e-17, 1.061582977e-16, 1.144603507e-16, 1.174109667e-16, 1.173696934e-16, 1.159258081e-16, 1.140044576e-16, 1.120699716e-16, 1.103107322e-16, 1.087720353e-16, 1.074377797e-16, 1.062735403e-16, 1.052451887e-16], "bshock": [0, 2.19035661e-16, 7.342281422e-16, 4.487349051e-16, -5.639818311e-17, -4.564275571e-16, -7.119123474e-16, -8.539180371e-16, -9.235415501e-16, -9.538457841e-16, -9.660431217e-16, -9.713150825e-16, -9.74280197e-16, -9.76137671e-16, -9.767902896e-16, -9.759618444e-16, -9.736065922e-16, -9.699351213e-16, -9.652969068e-16, -9.600552631e-16, -9.545082337e-16], "cf": [0, 5.59044599e-15, 1.261260129e-14, 1.154725674e-14, 1.102191529e-14, 1.048851083e-14, 1.008080364e-14, 9.845431824e-15, 9.753016338e-15, 9.75726005e-15, 9.817315484e-15, 9.901717244e-15, 9.988044428e-15, 1.006193695e-14, 1.01157e-14, 1.014657503e-14, 1.015498909e-14, 1.01430789e-14, 1.011363213e-14, 1.006944206e-14, 1.001298877e-14], "lamf": [0, -9.070383882e-15, -1.779697536e-14, -9.389207759e-15, -1.187216589e-14, -1.11523e-14, -1.012908474e-14, -9.793127903e-15, -1.005678293e-14, -1.058010709e-14, -1.11134142e-14, -1.154276281e-14, -1.184409609e-14, -1.203487438e-14, -1.214373801e-14, -1.219616301e-14, -1.221007969e-14, -1.219641652e-14, -1.216131041e-14, -1.210827099e-14, -1.203966318e-14], "wf": [0, -7.668349535e-15, -1.999988185e-14, -2.798694576e-14, -1.440780385e-14, -7.853927267e-15, -5.538491664e-15, -4.512882794e-15, -3.688788631e-15, -2.922762359e-15, -2.29819498e-15, -1.874806368e-15, -1.651943325e-15, -1.589734178e-15, -1.635033821e-15, -1.739268969e-15, -1.866910046e-15, -1.996769733e-15, -2.119248092e-15, -2.232243448e-15, -2.337451948e-15], "cnf": [0, 5.663261477e-15, 9.537300477e-15, 9.081718569e-15, 1.026506017e-14, 1.003165658e-14, 9.490058092e-15, 9.176992039e-15, 9.138898139e-15, 9.264597052e-15, 9.448524416e-15, 9.62756876e-15, 9.773522208e-15, 9.878875799e-15, 9.946057325e-15, 9.980971361e-15, 9.989744418e-15, 9.977474667e-15, 9.948040527e-15, 9.904335776e-15, 9.848581072e-15], "cpf": [0, 4.664299362e-15, 1.343132646e-14, 1.162009637e-14, 1.047703195e-14, 9.552331972e-15, 9.029879316e-15, 8.822184699e-15, 8.800042807e-15, 8.87004457e-15, 8.97825125e-15, 9.096051287e-15, 9.208264396e-15, 9.3065201e-15, 9.386228127e-15, 9.445280656e-15, 9.483382681e-15, 9.501537368e-15, 9.501564652e-15, 9.485672486e-15, 9.45612402e-15], "cef": [0, 4.647649075e-15, 1.379552934e-14, 1.199075816e-14, 1.05989714e-14, 9.593770691e-15, 9.059605491e-15, 8.846054486e-15, 8.809194985e-15, 8.859958726e-15, 8.950537992e-15, 9.055444269e-15, 9.159884867e-15, 9.254440972e-15, 9.333079284e-15, 9.392433586e-15, 9.431347554e-15, 9.450351573e-15, 9.451076292e-15, 9.435704372e-15, 9.406544151e-15], "cuf": [0, 4.639982893e-15, 1.253085657e-14, 1.167021417e-14, 1.052469512e-14, 9.606687076e-15, 9.067346157e-15, 8.817847204e-15, 8.744130763e-15, 8.767279525e-15, 8.84057124e-15, 8.936262227e-15, 9.036677583e-15, 9.130022851e-15, 9.208700263e-15, 9.268496574e-15, 9.307896933e-15, 9.327340605e-15, 9.328477729e-15, 9.313533342e-15, 9.284844666e-15], "pcf": [0, 1.39485843e-16, -1.460413409e-15, -3.47844393e-15, -1.18158323e-15, -1.079391434e-15, -1.433357873e-15, -1.521682019e-15, -1.324196867e-15, -1.015267209e-15, -7.293187268e-16, -5.215141673e-16, -3.940536178e-16, -3.267313014e-16, -2.960891953e-16, -2.838961618e-16, -2.789870673e-16, -2.759665922e-16, -2.73043053e-16, -2.701469079e-16, -2.67716311e-16], "puf": [0, 2.541351687e-15, 9.536215228e-15, -1.205050399e-15, 6.964500845e-16, 8.468978499e-16, 7.116209625e-16, 9.154154238e-16, 1.408207017e-15, 1.962327231e-15, 2.41675748e-15, 2.713722306e-15, 2.863297342e-15, 2.903969058e-15, 2.877245089e-15, 2.815855316e-15, 2.740909293e-15, 2.663633055e-15, 2.5886125e-15, 2.516820637e-15, 2.447749212e-15], "ppf": [0, 2.261619314e-15, 5.205312466e-15, 1.071384582e-15, 1.666779504e-15, 1.324154734e-15, 9.160655224e-16, 7.590668512e-16, 8.142417755e-16, 9.552540502e-16, 1.089834746e-15, 1.177432062e-15, 1.212304409e-15, 1.204803633e-15, 1.169221402e-15, 1.117862353e-15, 1.059191799e-15, 9.981040832e-16, 9.369677342e-16, 8.766942564e-16, 8.175201497e-16], "vaf": [0, -5.766757955e-15, -2.349666384e-14, -2.018977968e-14, -1.256931026e-14, -8.233287125e-15, -6.571559131e-15, -6.072522377e-15, -5.954148529e-15, -5.941883676e-15, -5.96644472e-15, -6.02045198e-15, -6.106613359e-15, -6.22256974e-15, -6.359729098e-15, -6.50679351e-15, -6.653508171e-15, -6.79281121e-15, -6.921240307e-15, -7.038219382e-15, -7.144944627e-15], "hf": [0, -5.73171372e-15, -1.345342707e-14, -1.311966131e-14, -9.138355387e-15, -6.556552442e-15, -5.384862713e-15, -4.914308505e-15, -4.723916643e-15, -4.6422538e-15, -4.611287555e-15, -4.612812432e-15, -4.63895152e-15, -4.682433585e-15, -4.735018419e-15, -4.78876349e-15, -4.837524803e-15, -4.877665783e-15, -4.90791103e-15, -4.928696366e-15, -4.941401025e-15], "kf": [0, -2.948753077e-15, -5.219527526e-15, -1.030388211e-14, -1.524809254e-14, -1.957221993e-14, -2.328923624e-14, -2.655384677e-14, -2.952406433e-14, -3.232160947e-14, -3.502863443e-14, -3.769528321e-14, -4.034889911e-14, -4.300195377e-14, -4.565803663e-14, -4.831601439e-14, -5.097270148e-14, -5.362442191e-14, -5.626780874e-14, -5.89001236e-14, -6.151930598e-14], "pvcf": [0, -3.236212921e-15, 2.300604056e-15, -8.570367254e-15, -6.134308062e-15, -4.381140539e-15, -3.061936018e-15, -1.850564574e-15, -7.35182046e-16, 1.922444863e-16, 8.795857139e-16, 1.337895858e-15, 1.616873858e-15, 1.776750031e-15, 1.870230056e-15, 1.934974225e-15, 1.993322138e-15, 2.055676329e-15, 2.124839078e-15, 2.199746321e-15, 2.278014399e-15], "wkf": [0, -2.671141209e-15, -1.511863811e-14, -9.735487362e-15, -2.524581762e-15, 2.251830008e-15, 4.953342395e-15, 6.632973153e-15, 7.897316548e-15, 9.00412732e-15, 1.004773642e-14, 1.105852966e-14, 1.204586079e-14, 1.301481958e-14, 1.397110231e-14, 1.492085795e-14, 1.586924507e-14, 1.681943786e-14, 1.77724923e-14, 1.872782971e-14, 1.968394292e-14], "qf": [0, -9.344256246e-15, -9.593802597e-15, -1.828034807e-14, -1.442653423e-14, -1.087145249e-14, -8.510662055e-15, -6.988097261e-15, -5.998935606e-15, -5.376261078e-15, -5.016554165e-15, -4.841692374e-15, -4.788606284e-15, -4.807546509e-15, -4.861759109e-15, -4.926602008e-15, -4.987713016e-15, -5.038498392e-15, -5.077482296e-15, -5.106006292e-15, -5.12654363e-15], "bf": [0, -9.374576928e-15, -1.049358444e-14, -1.824370846e-14, -1.497173586e-14, -1.170391962e-14, -9.522038017e-15, -8.183699608e-15, -7.39419626e-15, -6.960732335e-15, -6.758406615e-15, -6.701506232e-15, -6.729765782e-15, -6.801180498e-15, -6.887617347e-15, -6.97172792e-15, -7.044360315e-15, -7.102163376e-15, -7.145431688e-15, -7.176353655e-15, -7.197763891e-15], "ef": [0, -9.705045755e-15, -1.142837385e-14, -1.894875997e-14, -1.543279968e-14, -1.199741591e-14, -9.723032053e-15, -8.328208306e-15, -7.496677949e-15, -7.028553148e-15, -6.797653952e-15, -6.718090057e-15, -6.728946751e-15, -6.787001818e-15, -6.862710066e-15, -6.937482053e-15, -7.00128997e-15, -7.050295254e-15, -7.084612515e-15, -7.106442004e-15, -7.118718546e-15], "vnf": [0, -5.879382182e-15, -1.50823142e-14, -1.691778696e-14, -1.165421994e-14, -8.387119462e-15, -6.955213394e-15, -6.374427969e-15, -6.121601797e-15, -6.00840854e-15, -5.977346112e-15, -6.008495179e-15, -6.088889654e-15, -6.204839862e-15, -6.341923066e-15, -6.487099369e-15, -6.630529804e-15, -6.766228494e-15, -6.891643747e-15, -7.006666319e-15, -7.112553644e-15], "mnf": [0, -1.704174921e-14, -2.026117449e-14, -2.747799251e-14, -2.361055586e-14, -1.831098406e-14, -1.421952219e-14, -1.154125971e-14, -9.937231609e-15, -9.047290829e-15, -8.598716516e-15, -8.404084912e-15, -8.339447387e-15, -8.325624045e-15, -8.315151946e-15, -8.282992158e-15, -8.219346159e-15, -8.123902834e-15, -8.001399246e-15, -7.858487535e-15, -7.701794183e-15], "ipf": [0, -9.706663502e-15, -1.142209808e-14, -1.893674409e-14, -1.542403779e-14, -1.199206964e-14, -9.719984764e-15, -8.326372114e-15, -7.495311363e-15, -7.02727163e-15, -6.796329123e-15, -6.716729005e-15, -6.727599991e-15, -6.785712964e-15, -6.861499025e-15, -6.936347223e-15, -7.00021728e-15, -7.049266909e-15, -7.083612633e-15, -7.105459002e-15, -7.117745275e-15], "iuf": [0, -9.698102461e-15, -1.146561971e-14, -1.894737431e-14, -1.542199237e-14, -1.19852382e-14, -9.712847647e-15, -8.320281499e-15, -7.490266376e-15, -7.022926991e-15, -6.792371804e-15, -6.712964776e-15, -6.723936984e-15, -6.782121097e-15, -6.857974952e-15, -6.932892951e-15, -6.996831078e-15, -7.045941968e-15, -7.080339136e-15, -7.102226748e-15, -7.114545519e-15], "quf": [0, -3.887715721e-15, -1.826194896e-15, -6.558689678e-15, -4.907074522e-15, -3.229277138e-15, -2.096950192e-15, -1.371770537e-15, -9.093637504e-16, -6.226108864e-16, -4.558735831e-16, -3.69780096e-16, -3.355391593e-16, -3.323227223e-16, -3.456322429e-16, -3.660743989e-16, -3.882550237e-16, -4.096859958e-16, -4.297576955e-16, -4.488804608e-16, -4.678619368e-16], "igf": [0, -3.888658876e-15, -1.784815908e-15, -6.527933081e-15, -4.892503368e-15, -3.224899327e-15, -2.096655215e-15, -1.372221568e-15, -9.091898662e-16, -6.215123562e-16, -4.540349724e-16, -3.675184802e-16, -3.331249676e-16, -3.299208288e-16, -3.433108818e-16, -3.638394477e-16, -3.860839701e-16, -4.075510803e-16, -4.276373193e-16, -4.46762158e-16, -4.657408913e-16], "vuf": [0, -3.885966861e-15, -1.951175464e-15, -6.608385754e-15, -4.921856286e-15, -3.228331615e-15, -2.092726748e-15, -1.368853095e-15, -9.084980926e-16, -6.232792076e-16, -4.573961219e-16, -3.716698758e-16, -3.37544015e-16, -3.343585048e-16, -3.477003418e-16, -3.682010085e-16, -3.904594012e-16, -4.119710089e-16, -4.321125577e-16, -4.51287498e-16, -4.703026987e-16], "qpf": [0, -3.663980861e-15, -9.704571678e-16, -6.075465523e-15, -4.52464069e-15, -2.928942798e-15, -1.834463204e-15, -1.115123105e-15, -6.428111371e-16, -3.417522471e-16, -1.620234236e-16, -6.612049886e-17, -2.516775131e-17, -1.758176472e-17, -2.809299174e-17, -4.675334825e-17, -6.784151976e-17, -8.870049672e-17, -1.086350345e-16, -1.28001246e-16, -1.475580687e-16], "iof": [0, -3.664490236e-15, -9.339623541e-16, -6.048158606e-15, -4.511434538e-15, -2.924648636e-15, -1.833766354e-15, -1.115114579e-15, -6.422910684e-16, -3.404532453e-16, -1.601002625e-16, -6.384408441e-17, -2.276928905e-17, -1.520152546e-17, -2.578801838e-17, -4.45271643e-17, -6.567352269e-17, -8.656592951e-17, -1.065147701e-16, -1.258842658e-16, -1.454400993e-16], "vpf": [0, -3.663818371e-15, -1.00512439e-15, -6.089431283e-15, -4.528935196e-15, -2.928844095e-15, -1.833413865e-15, -1.1144e-15, -6.426312351e-16, -3.419814884e-16, -1.624804848e-16, -6.667500887e-17, -2.575243521e-17, -1.817457213e-17, -2.869479866e-17, -4.737152281e-17, -6.848136267e-17, -8.936273884e-17, -1.093166378e-16, -1.286972853e-16, -1.482634179e-16], "ppbf": [0, 5.9132042e-15, 1.362956549e-14, 2.937656406e-15, 4.408714196e-15, 3.512204629e-15, 2.459991817e-15, 2.052372567e-15, 2.187843569e-15, 2.543493179e-15, 2.883504826e-15, 3.103972057e-15, 3.189879508e-15, 3.167432447e-15, 3.073043672e-15, 2.938159623e-15, 2.784476067e-15, 2.624579677e-15, 2.464591725e-15, 2.306888371e-15, 2.152098977e-15], "rf": [0, 8.502612525e-15, -8.395421512e-15, 2.504841376e-15, -4.58702627e-16, -4.952994509e-16, 4.059531837e-16, 1.141443755e-15, 1.473129173e-15, 1.515656371e-15, 1.42439385e-15, 1.300951679e-15, 1.192334424e-15, 1.111519023e-15, 1.055467672e-15, 1.016309538e-15, 9.868239752e-16, 9.622481396e-16, 9.401729335e-16, 9.197495247e-16, 9.008850275e-16], "xof": [0, 8.054087383e-15, 1.972813452e-15, 1.32302655e-14, 9.88436161e-15, 6.417117069e-15, 4.027906898e-15, 2.450252949e-15, 1.410151111e-15, 7.451873687e-16, 3.475136956e-16, 1.352278812e-16, 4.470398623e-17, 2.811542105e-17, 5.154361169e-17, 9.289381503e-17, 1.3948821e-16, 1.854701129e-16, 2.293365341e-16, 2.719055873e-16, 3.148745541e-16], "xgf": [0, -4.911233637e-14, -2.200987584e-14, -8.203413137e-14, -6.15902011e-14, -4.066391435e-14, -2.647037429e-14, -1.733322182e-14, -1.147923189e-14, -7.835480542e-15, -5.711694898e-15, -4.614103978e-15, -4.178007042e-15, -4.137764113e-15, -4.307879784e-15, -4.568184158e-15, -4.849858371e-15, -5.121358914e-15, -5.375147326e-15, -5.616637238e-15, -5.856220485e-15], "sf": [0, -7.961132788e-15, -1.666512788e-14, -6.019992876e-15, -7.234711126e-15, -5.805945549e-15, -4.265570924e-15, -3.488645893e-15, -3.366042864e-15, -3.54649369e-15, -3.767673083e-15, -3.90565012e-15, -3.930999164e-15, -3.859751641e-15, -3.72146668e-15, -3.543395767e-15, -3.345075038e-15, -3.138347655e-15, -2.929449772e-15, -2.721292006e-15, -2.515159411e-15], "bff": [0, 4.292458673e-15, 5.655351111e-15, 1.258764264e-14, 1.974078522e-14, 2.656405284e-14, 3.272347654e-14, 3.808700611e-14, 4.268620127e-14, 4.665611642e-14, 5.016805629e-14, 5.337935068e-14, 5.640834944e-14, 5.933008615e-14, 6.218383173e-14, 6.498476234e-14, 6.773481129e-14, 7.043053723e-14, 7.306774442e-14, 7.564355302e-14, 7.815687444e-14], "zf": [0, -5.993401159e-15, -1.734155122e-14, -1.656036463e-14, -4.708580788e-15, 3.803368716e-15, 9.278607833e-15, 1.320594396e-14, 1.640450241e-14, 1.920366677e-14, 2.173886791e-14, 2.408534335e-14, 2.629989091e-14, 2.843010567e-14, 3.051436323e-14, 3.258040582e-14, 3.464521385e-14, 3.671658138e-14, 3.879572999e-14, 4.088006084e-14, 4.296540179e-14], "pef": [0, 2.443956155e-15, 8.191759372e-15, -5.00483972e-16, 9.931315843e-16, 9.907081854e-16, 7.71770288e-16, 8.643523137e-16, 1.221634894e-15, 1.64755553e-15, 2.002622709e-15, 2.234523747e-15, 2.348469112e-15, 2.37421218e-15, 2.344794181e-15, 2.286584666e-15, 2.21675391e-15, 2.144555357e-15, 2.073885057e-15, 2.005698583e-15, 1.939721684e-15], "xnf": [0, 6.983429094e-15, 1.810359231e-14, 1.824990596e-14, 1.728707132e-14, 1.527754618e-14, 1.318136202e-14, 1.141461231e-14, 1.00449242e-14, 9.007929468e-15, 8.212019586e-15, 7.576782282e-15, 7.042661739e-15, 6.569919953e-15, 6.134299684e-15, 5.722285768e-15, 5.327080315e-15, 4.94563695e-15, 4.576722449e-15, 4.219799647e-15, 3.874477852e-15], "pmf": [0, 7.878388281e-15, 1.492100216e-14, 5.586939264e-15, 7.142464546e-15, 5.722039524e-15, 4.060823239e-15, 3.196755362e-15, 3.071084604e-15, 3.320844712e-15, 3.653088701e-15, 3.915226556e-15, 4.05830362e-15, 4.088424878e-15, 4.032486845e-15, 3.919357826e-15, 3.771970505e-15, 3.60572869e-15, 3.429807109e-15, 3.249224874e-15, 3.066646232e-15], "pgf": [0, 7.961520626e-15, 1.632280905e-14, 5.756319565e-15, 7.119878089e-15, 5.770592435e-15, 4.280524708e-15, 3.542150631e-15, 3.44788843e-15, 3.646489813e-15, 3.877432682e-15, 4.01941237e-15, 4.04537329e-15, 3.973047302e-15, 3.833035995e-15, 3.653141073e-15, 3.453136639e-15, 3.244933387e-15, 3.034757841e-15, 2.825485996e-15, 2.618367266e-15], "pof": [0, 7.990571717e-15, 1.619815941e-14, 5.567606569e-15, 6.80699518e-15, 5.311849632e-15, 3.72617028e-15, 2.952942649e-15, 2.865200084e-15, 3.089159379e-15, 3.348440686e-15, 3.513521124e-15, 3.554752421e-15, 3.490493939e-15, 3.353305448e-15, 3.173099907e-15, 2.971349943e-15, 2.761098731e-15, 2.549205084e-15, 2.338821453e-15, 2.131260068e-15], "pcdot": [0, -0.01672794476, -0.01328543408, -0.009548713602, -0.006955967401, -0.004941318782, -0.00333449973, -0.002140077068, -0.001325645747, -0.0008083502036, -0.0004949756711, -0.0003087523352, -0.0001967173849, -0.0001265980148, -8.053620765e-05, -4.927768412e-05, -2.803714768e-05, -1.405561646e-05, -5.406287514e-06, -5.420438504e-07, 1.809167698e-06], "pcdot4": [0, -0.01672794476, -0.03001337883, -0.03956209243, -0.04651805983, -0.03473143386, -0.02478049951, -0.01737186298, -0.01174154133, -0.007608572749, -0.00476904869, -0.002937723957, -0.001808795595, -0.001127043406, -0.0007126039425, -0.0004531292914, -0.0002844490542, -0.0001719066559, -9.677673578e-05, -4.804109551e-05, -1.819478013e-05], "pdot4": [0, -0.01122364131, -0.02349078277, -0.034169424, -0.04252549533, -0.03737679582, -0.02928687213, -0.02136461938, -0.01477909799, -0.009827324837, -0.006362743509, -0.00406207515, -0.002585128836, -0.001650843901, -0.001057705999, -0.0006749012291, -0.0004231750263, -0.0002561064064, -0.0001461208287, -7.574021798e-05, -3.2877256e-05], "ppdot4": [0, -0.1187504439, -0.1273062439, -0.09386530836, -0.06401745298, 0.07291918491, 0.09156341065, 0.06378131902, 0.03718290614, 0.02084764394, 0.01176734996, 0.006612532552, 0.003575928727, 0.001778579985, 0.00074430762, 0.000180729806, -9.948136404e-05, -0.0002153799763, -0.0002411705992, -0.0002220573601, -0.0001846293219], "pudot4": [0, -0.1016816455, -0.1557317572, -0.168144878, -0.1591846608, -0.04052342028, 0.03163851701, 0.06024837068, 0.06452967835, 0.0577700881, 0.04721637557, 0.03641813533, 0.02691885014, 0.01922484705, 0.01333106549, 0.009004842442, 0.00593872158, 0.003829870706, 0.002416886783, 0.001491857965, 0.0008988948197], "rga": [0, 89.16536823, 54.10579086, 32.02965827, 18.27995421, 9.921133456, 5.030055719, 2.296624302, 0.8464554451, 0.1250447024, -0.2002246477, -0.319172263, -0.3357978504, -0.3053853109, -0.2567409652, -0.2046285396, -0.1563539677, -0.1151555651, -0.08198130101, -0.05649175476, -0.03768266217], "inv": [0, -0.9340812091, -0.8446197815, -0.6043198747, -0.3907516804, -0.2317134361, -0.1234192343, -0.05520033188, -0.01574019817, 0.00476471761, 0.01383671471, 0.01668651717, 0.01658098507, 0.01535829726, 0.0139241332, 0.01264453456, 0.01161415973, 0.01081580593, 0.01020167087, 0.009726681361, 0.009357123659], "wdot4": [0, -0.1190468989, -0.2012685547, -0.2334181243, -0.2308852248, -0.09077799209, 0.01949240047, 0.07971864793, 0.101763399, 0.1005069786, 0.08751501589, 0.07040169088, 0.05354892093, 0.03905375451, 0.0275766376, 0.01899136242, 0.01282614472, 0.008527041626, 0.005590941852, 0.003614976094, 0.002300037533], "csharep": [0, -0.06831039007, -0.06536382911, -0.03870891628, -0.0177911333, -0.006475201793, -0.001267618722, 0.0008907359922, 0.001621249889, 0.001689914099, 0.001470950152, 0.001155319547, 0.0008374068732, 0.0005581561447, 0.0003302447518, 0.000152797675, 1.936528509e-05, -7.810477115e-05, -0.0001474463622, -0.0001955255545, -0.0002280056175], "cshareu": [0, -0.04671598349, -0.07790235944, -0.08658624778, -0.0798272128, -0.06622380517, -0.05147555323, -0.03830247587, -0.02759590151, -0.01937137605, -0.01329962983, -0.008957179484, -0.005935593212, -0.003884780028, -0.002524909005, -0.001643227331, -0.001084263059, -0.0007380994419, -0.0005292075789, -0.0004069682246, -0.0003382054941], "csharen": [0, 0.003302561512, 0.003913569573, 0.003235646637, 0.002395597763, 0.001715421772, 0.001209781863, 0.0008399845281, 0.0005730325215, 0.0003841336885, 0.0002535312346, 0.0001653461273, 0.00010721121, 6.983757072e-05, 4.64586572e-05, 3.227504742e-05, 2.397022948e-05, 1.931411905e-05, 1.684984675e-05, 1.565406541e-05, 1.515979821e-05], "contpp": [0, -0.003693138806, -0.003959224186, -0.00291921109, -0.001990942788, 0.002267786651, 0.002847622071, 0.001983599022, 0.001156388381, 0.0006483617267, 0.0003659645837, 0.0002056497624, 0.0001112113834, 5.531383755e-05, 2.314796698e-05, 5.620696968e-06, -3.093870422e-06, -6.698317261e-06, -7.500405636e-06, -6.905983899e-06, -5.741971912e-06], "contpu": [0, -0.002186155379, -0.003348232781, -0.003615114876, -0.003422470208, -0.0008712535361, 0.0006802281158, 0.00129533997, 0.001387388085, 0.001242056894, 0.001015152075, 0.0007829899097, 0.0005787552779, 0.0004133342115, 0.0002866179081, 0.0001936041125, 0.000127682514, 8.234222018e-05, 5.196306584e-05, 3.207494625e-05, 1.932623862e-05], "contpq": [0, -0.01063327777, -0.0222551676, -0.0323721123, -0.04028865427, -0.03541077636, -0.02774638266, -0.0202408404, -0.01400171744, -0.009310407551, -0.0060280632, -0.003848409998, -0.002449151059, -0.001564009512, -0.001002070663, -0.0006394014244, -0.0004009160199, -0.0002426352095, -0.0001384348732, -7.175628251e-05, -3.114791233e-05], "nomw": [0, -0.1190468989, -0.2012685547, -0.2334181243, -0.2308852248, -0.209824891, -0.1817761542, -0.1536994763, -0.1291218258, -0.1093179124, -0.09426113835, -0.08329778546, -0.07557290488, -0.07026415786, -0.06668450075, -0.06430642304, -0.06274676016, -0.06173711624, -0.0610935589, -0.06069144694, -0.06044672262], "rcw": [0, -0.1023189542, -0.1712551759, -0.1938560318, -0.184367165, -0.1583655124, -0.1269822759, -0.09676552093, -0.07086222465, -0.05024996101, -0.03469821132, -0.02342610609, -0.01550450812, -0.01006916309, -0.006408969771, -0.003981614375, -0.002393914347, -0.001370214812, -0.0007212511832, -0.0003185971853, -7.568203432e-05], "et": [0, 2.646307265e-16, 3.519033611e-16, 7.097974895e-16, 5.214925551e-16, 3.558118821e-16, 2.582649571e-16, 2.081387099e-16, 1.833346757e-16, 1.709247049e-16, 1.644188407e-16, 1.606650659e-16, 1.581674465e-16, 1.562621486e-16, 1.546846333e-16, 1.533361358e-16, 1.521696348e-16, 1.511460836e-16, 1.502254981e-16, 1.493705078e-16, 1.485511084e-16], "dfrgap": [0, -0.3610427145, -0.3121400998, -0.2103984649, -0.12214785, -0.05872016752, -0.01831584768, 0.004186074929, 0.01432908461, 0.01691363943, 0.01554458123, 0.01260164104, 0.00944646266, 0.006716724982, 0.00460647299, 0.003082375869, 0.002024655752, 0.001304012381, 0.0008141943363, 0.0004790709309, 0.0002481551636], "pedot4": [0, -0.1091101214, -0.1514185028, -0.1516750759, -0.1378442495, -0.01254142486, 0.04459679205, 0.05726103352, 0.05323996709, 0.04446165235, 0.03502592561, 0.02641437012, 0.01919806208, 0.01350813328, 0.009232158871, 0.006143975378, 0.003988457701, 0.00252853883, 0.001566039749, 0.0009467616418, 0.0005571554268], "encost4": [0, -0.004975421536, -0.006904683728, -0.006916383463, -0.006285697776, -0.0005718889736, 0.002033613717, 0.002611103129, 0.002427742499, 0.002027451347, 0.001597182208, 0.001204495277, 0.0008754316311, 0.0006159708776, 0.0004209864445, 0.0002801652772, 0.0001818736711, 0.0001153013706, 7.141141257e-05, 4.317233086e-05, 2.540628746e-05], "pmcost4": [0, -0.03287568264, -0.05732755438, -0.06370440952, -0.05644587262, -0.0104388163, 0.02694186139, 0.04294728869, 0.0413606537, 0.03066228165, 0.01809597186, 0.007818871755, 0.001214099284, -0.002049674257, -0.003004061081, -0.002713726764, -0.001967813589, -0.00122141847, -0.0006635684562, -0.0003204651249, -0.0001443838686], "wcost4": [0, -0.05533299862, -0.09354962423, -0.1084927442, -0.1073154525, -0.04219361072, 0.009060067738, 0.03705322756, 0.04729962787, 0.04671564368, 0.04067697938, 0.03272270592, 0.02488953845, 0.0181521851, 0.01281762116, 0.008827185254, 0.005961592066, 0.003963368948, 0.002598669773, 0.001680240888, 0.001069057445], "profits": [0, 0.0819604615, 0.1342910796, 0.1449441131, 0.1275215276, 0.01582752017, -0.06732241498, -0.1039762388, -0.1058671221, -0.08923270151, -0.06673287696, -0.04580814811, -0.0295641982, -0.01836932562, -0.01129225252, -0.007068524996, -0.004598827175, -0.003113358254, -0.002152633558, -0.001478688312, -0.0009829571201], "pmdot4": [0, -0.1273757561, -0.2221137326, -0.2468206491, -0.2186976855, -0.04044485198, 0.1043853599, 0.166397864, 0.1602504986, 0.1188000064, 0.07011225053, 0.03029396263, 0.004703987929, -0.007941395805, -0.01163913631, -0.0105142455, -0.007624229325, -0.004732345874, -0.002570974259, -0.001241631635, -0.0005594105717], "vagap": [0, -0.4210168436, -0.3719721944, -0.2567746531, -0.1543158285, -0.07919732357, -0.03026925516, -0.00212680582, 0.01140312362, 0.01580558885, 0.01527418828, 0.01262392191, 0.009499694976, 0.006701369133, 0.00450274655, 0.002901723317, 0.001785523911, 0.001022370436, 0.0005015107926, 0.0001431734342, -0.0001053782397], "qgap": [0, -0.3931084857, -0.3481953925, -0.2393852155, -0.1476208274, -0.08390846756, -0.04360024773, -0.01981127837, -0.006708680679, -8.417584842e-05, 0.002841402149, 0.003787653257, 0.003760199192, 0.00331570951, 0.002744291191, 0.002185702653, 0.001698915458, 0.001301598436, 0.0009915639932, 0.0007580327287, 0.0005874121183], "invshock": [0, 1.444049004e-16, 7.005374267e-15, 3.276838588e-15, -1.367740737e-15, -2.795269347e-15, -2.718440008e-15, -2.279062208e-15, -1.88170923e-15, -1.603888968e-15, -1.425479303e-15, -1.31303141e-15, -1.241291175e-15, -1.194439702e-15, -1.163061465e-15, -1.14146134e-15, -1.126043346e-15, -1.114461821e-15, -1.105183876e-15, -1.097236572e-15, -1.090033505e-15], "wshock": [0, -9.97499624e-17, -9.329702898e-16, -6.329903608e-16, -5.33147832e-16, -4.720031981e-16, -4.417401341e-16, -4.239559419e-16, -4.07896267e-16, -3.911777994e-16, -3.747961626e-16, -3.601081476e-16, -3.478688012e-16, -3.381948064e-16, -3.307915404e-16, -3.251864033e-16, -3.208926739e-16, -3.174971059e-16, -3.146891734e-16, -3.122553565e-16, -3.100581926e-16], "interest": [0, 0.8916536823, 0.5410579086, 0.3202965827, 0.1827995421, 0.09921133456, 0.05030055719, 0.02296624302, 0.008464554451, 0.001250447024, -0.002002246477, -0.00319172263, -0.003357978504, -0.003053853109, -0.002567409652, -0.002046285396, -0.001563539677, -0.001151555651, -0.0008198130101, -0.0005649175476, -0.0003768266217], "inflation": [0, -0.01672794476, -0.03001337883, -0.03956209243, -0.04651805983, -0.03473143386, -0.02478049951, -0.01737186298, -0.01174154133, -0.007608572749, -0.00476904869, -0.002937723957, -0.001808795595, -0.001127043406, -0.0007126039425, -0.0004531292914, -0.0002844490542, -0.0001719066559, -9.677673578e-05, -4.804109551e-05, -1.819478013e-05], "inflationq": [0, -0.06691177902, -0.0531417363, -0.03819485441, -0.0278238696, -0.01976527513, -0.01333799892, -0.008560308271, -0.00530258299, -0.003233400814, -0.001979902684, -0.001235009341, -0.0007868695396, -0.000506392059, -0.0003221448306, -0.0001971107365, -0.0001121485907, -5.622246585e-05, -2.162515006e-05, -2.168175402e-06, 7.236670791e-06], "outputgap": [0, -0.4210168436, -0.3719721944, -0.2567746531, -0.1543158285, -0.07919732357, -0.03026925516, -0.00212680582, 0.01140312362, 0.01580558885, 0.01527418828, 0.01262392191, 0.009499694976, 0.006701369133, 0.00450274655, 0.002901723317, 0.001785523911, 0.001022370436, 0.0005015107926, 0.0001431734342, -0.0001053782397], "output": [0, -0.4210168436, -0.3719721944, -0.2567746531, -0.1543158285, -0.07919732357, -0.03026925516, -0.00212680582, 0.01140312362, 0.01580558885, 0.01527418828, 0.01262392191, 0.009499694976, 0.006701369133, 0.00450274655, 0.002901723317, 0.001785523911, 0.001022370436, 0.0005015107926, 0.0001431734342, -0.0001053782397], "fispol": [0, 1.323153633e-16, 1.759516805e-16, 3.548987448e-16, 2.607462775e-16, 1.779059411e-16, 1.291324786e-16, 1.040693549e-16, 9.166733787e-17, 8.546235247e-17, 8.220942037e-17, 8.033253295e-17, 7.908372325e-17, 7.813107428e-17, 7.734231666e-17, 7.666806791e-17, 7.608481742e-17, 7.557304178e-17, 7.511274904e-17, 7.468525389e-17, 7.427555419e-17], "AUX_ENDO_LEAD_72": [0, -0.0531417363, -0.03819485441, -0.0278238696, -0.01976527513, -0.01333799892, -0.008560308271, -0.00530258299, -0.003233400814, -0.001979902684, -0.001235009341, -0.0007868695396, -0.000506392059, -0.0003221448306, -0.0001971107365, -0.0001121485907, -5.622246585e-05, -2.162515006e-05, -2.168175402e-06, 7.23667079e-06, 1.05601644e-05], "AUX_ENDO_LEAD_76": [0, -0.03819485441, -0.0278238696, -0.01976527513, -0.01333799892, -0.008560308271, -0.00530258299, -0.003233400814, -0.001979902684, -0.001235009341, -0.0007868695396, -0.000506392059, -0.0003221448306, -0.0001971107365, -0.0001121485907, -5.622246585e-05, -2.162515006e-05, -2.168175403e-06, 7.236670789e-06, 1.05601644e-05, 1.06459065e-05], "AUX_ENDO_LEAD_80": [0, -0.0278238696, -0.01976527513, -0.01333799892, -0.008560308271, -0.00530258299, -0.003233400814, -0.001979902684, -0.001235009341, -0.0007868695396, -0.000506392059, -0.0003221448306, -0.0001971107365, -0.0001121485907, -5.622246585e-05, -2.162515006e-05, -2.168175403e-06, 7.236670789e-06, 1.05601644e-05, 1.06459065e-05, 9.329422959e-06], "AUX_ENDO_LEAD_107": [0, -0.3719721944, -0.2567746531, -0.1543158285, -0.07919732357, -0.03026925516, -0.00212680582, 0.01140312362, 0.01580558885, 0.01527418828, 0.01262392191, 0.009499694976, 0.006701369133, 0.00450274655, 0.002901723317, 0.001785523911, 0.001022370436, 0.0005015107926, 0.0001431734342, -0.0001053782397, -0.0002778244453], "AUX_ENDO_LEAD_111": [0, -0.2567746531, -0.1543158285, -0.07919732357, -0.03026925516, -0.00212680582, 0.01140312362, 0.01580558885, 0.01527418828, 0.01262392191, 0.009499694976, 0.006701369133, 0.00450274655, 0.002901723317, 0.001785523911, 0.001022370436, 0.0005015107926, 0.0001431734342, -0.0001053782397, -0.0002778244453, -0.0003960243491], "AUX_ENDO_LEAD_115": [0, -0.1543158285, -0.07919732357, -0.03026925516, -0.00212680582, 0.01140312362, 0.01580558885, 0.01527418828, 0.01262392191, 0.009499694976, 0.006701369133, 0.00450274655, 0.002901723317, 0.001785523911, 0.001022370436, 0.0005015107926, 0.0001431734342, -0.0001053782397, -0.0002778244453, -0.0003960243491, -0.0004749896499], "AUX_ENDO_LEAD_142": [0, -0.3719721944, -0.2567746531, -0.1543158285, -0.07919732357, -0.03026925516, -0.00212680582, 0.01140312362, 0.01580558885, 0.01527418828, 0.01262392191, 0.009499694976, 0.006701369133, 0.00450274655, 0.002901723317, 0.001785523911, 0.001022370436, 0.0005015107926, 0.0001431734342, -0.0001053782397, -0.0002778244453], "AUX_ENDO_LEAD_146": [0, -0.2567746531, -0.1543158285, -0.07919732357, -0.03026925516, -0.00212680582, 0.01140312362, 0.01580558885, 0.01527418828, 0.01262392191, 0.009499694976, 0.006701369133, 0.00450274655, 0.002901723317, 0.001785523911, 0.001022370436, 0.0005015107926, 0.0001431734342, -0.0001053782397, -0.0002778244453, -0.0003960243491], "AUX_ENDO_LEAD_150": [0, -0.1543158285, -0.07919732357, -0.03026925516, -0.00212680582, 0.01140312362, 0.01580558885, 0.01527418828, 0.01262392191, 0.009499694976, 0.006701369133, 0.00450274655, 0.002901723317, 0.001785523911, 0.001022370436, 0.0005015107926, 0.0001431734342, -0.0001053782397, -0.0002778244453, -0.0003960243491, -0.0004749896499], "AUX_ENDO_LAG_128_1": [0, 0, -0.4210168436, -0.3719721944, -0.2567746531, -0.1543158285, -0.07919732357, -0.03026925516, -0.00212680582, 0.01140312362, 0.01580558885, 0.01527418828, 0.01262392191, 0.009499694976, 0.006701369133, 0.00450274655, 0.002901723317, 0.001785523911, 0.001022370436, 0.0005015107926, 0.0001431734342], "AUX_ENDO_LAG_128_2": [0, 0, 0, -0.4210168436, -0.3719721944, -0.2567746531, -0.1543158285, -0.07919732357, -0.03026925516, -0.00212680582, 0.01140312362, 0.01580558885, 0.01527418828, 0.01262392191, 0.009499694976, 0.006701369133, 0.00450274655, 0.002901723317, 0.001785523911, 0.001022370436, 0.0005015107926], "AUX_ENDO_LAG_128_3": [0, 0, 0, 0, -0.4210168436, -0.3719721944, -0.2567746531, -0.1543158285, -0.07919732357, -0.03026925516, -0.00212680582, 0.01140312362, 0.01580558885, 0.01527418828, 0.01262392191, 0.009499694976, 0.006701369133, 0.00450274655, 0.002901723317, 0.001785523911, 0.001022370436], "AUX_ENDO_LAG_127_1": [0, 0, -0.4210168436, -0.3719721944, -0.2567746531, -0.1543158285, -0.07919732357, -0.03026925516, -0.00212680582, 0.01140312362, 0.01580558885, 0.01527418828, 0.01262392191, 0.009499694976, 0.006701369133, 0.00450274655, 0.002901723317, 0.001785523911, 0.001022370436, 0.0005015107926, 0.0001431734342], "AUX_ENDO_LAG_127_2": [0, 0, 0, -0.4210168436, -0.3719721944, -0.2567746531, -0.1543158285, -0.07919732357, -0.03026925516, -0.00212680582, 0.01140312362, 0.01580558885, 0.01527418828, 0.01262392191, 0.009499694976, 0.006701369133, 0.00450274655, 0.002901723317, 0.001785523911, 0.001022370436, 0.0005015107926], "AUX_ENDO_LAG_127_3": [0, 0, 0, 0, -0.4210168436, -0.3719721944, -0.2567746531, -0.1543158285, -0.07919732357, -0.03026925516, -0.00212680582, 0.01140312362, 0.01580558885, 0.01527418828, 0.01262392191, 0.009499694976, 0.006701369133, 0.00450274655, 0.002901723317, 0.001785523911, 0.001022370436], "AUX_ENDO_LAG_124_1": [0, 0, 0.8916536823, 0.5410579086, 0.3202965827, 0.1827995421, 0.09921133456, 0.05030055719, 0.02296624302, 0.008464554451, 0.001250447024, -0.002002246477, -0.00319172263, -0.003357978504, -0.003053853109, -0.002567409652, -0.002046285396, -0.001563539677, -0.001151555651, -0.0008198130101, -0.0005649175476], "AUX_ENDO_LAG_124_2": [0, 0, 0, 0.8916536823, 0.5410579086, 0.3202965827, 0.1827995421, 0.09921133456, 0.05030055719, 0.02296624302, 0.008464554451, 0.001250447024, -0.002002246477, -0.00319172263, -0.003357978504, -0.003053853109, -0.002567409652, -0.002046285396, -0.001563539677, -0.001151555651, -0.0008198130101], "AUX_ENDO_LAG_124_3": [0, 0, 0, 0, 0.8916536823, 0.5410579086, 0.3202965827, 0.1827995421, 0.09921133456, 0.05030055719, 0.02296624302, 0.008464554451, 0.001250447024, -0.002002246477, -0.00319172263, -0.003357978504, -0.003053853109, -0.002567409652, -0.002046285396, -0.001563539677, -0.001151555651], "AUX_ENDO_LAG_126_1": [0, 0, -0.06691177902, -0.0531417363, -0.03819485441, -0.0278238696, -0.01976527513, -0.01333799892, -0.008560308271, -0.00530258299, -0.003233400814, -0.001979902684, -0.001235009341, -0.0007868695396, -0.000506392059, -0.0003221448306, -0.0001971107365, -0.0001121485907, -5.622246585e-05, -2.162515006e-05, -2.168175402e-06], "AUX_ENDO_LAG_126_2": [0, 0, 0, -0.06691177902, -0.0531417363, -0.03819485441, -0.0278238696, -0.01976527513, -0.01333799892, -0.008560308271, -0.00530258299, -0.003233400814, -0.001979902684, -0.001235009341, -0.0007868695396, -0.000506392059, -0.0003221448306, -0.0001971107365, -0.0001121485907, -5.622246585e-05, -2.162515006e-05], "AUX_ENDO_LAG_126_3": [0, 0, 0, 0, -0.06691177902, -0.0531417363, -0.03819485441, -0.0278238696, -0.01976527513, -0.01333799892, -0.008560308271, -0.00530258299, -0.003233400814, -0.001979902684, -0.001235009341, -0.0007868695396, -0.000506392059, -0.0003221448306, -0.0001971107365, -0.0001121485907, -5.622246585e-05], "AUX_ENDO_LAG_13_1": [0, -2.285350267e-17, -0.004895150467, -0.008681458378, -0.01099863281, -0.01227400052, -0.01290435067, -0.01316173908, -0.01321588739, -0.0131667742, -0.01307042141, -0.01295663591, -0.01284031293, -0.01272822335, -0.01262289278, -0.01252473075, -0.01243316516, -0.01234723526, -0.01226589725, -0.01218817696, -0.01211323881], "AUX_ENDO_LAG_40_1": [0, 0, -0.1161521148, -0.1986229498, -0.212651225, -0.1761721901, -0.1192201709, -0.06495071778, -0.02488874168, -0.001142593526, 0.009407160315, 0.01152427626, 0.009467296099, 0.006146523238, 0.003116608412, 0.0009428459557, -0.0003720481743, -0.00105453106, -0.001359631056, -0.001482007474, -0.001537939591], "AUX_ENDO_LAG_68_1": [0, 2.871983675e-18, -8.095857321e-16, -6.121672356e-15, -1.156763934e-14, -1.633689254e-14, -2.035211472e-14, -2.378470326e-14, -2.683586617e-14, -2.966528405e-14, -3.238057696e-14, -3.504656431e-14, -3.769807157e-14, -4.035089677e-14, -4.300979305e-14, -4.567376386e-14, -4.833931921e-14, -5.100231882e-14, -5.365890178e-14, -5.630586644e-14, -5.894074777e-14], "AUX_ENDO_LAG_96_1": [0, 0, -0.01672794476, -0.01328543408, -0.009548713602, -0.006955967401, -0.004941318782, -0.00333449973, -0.002140077068, -0.001325645747, -0.0008083502036, -0.0004949756711, -0.0003087523352, -0.0001967173849, -0.0001265980148, -8.053620765e-05, -4.927768412e-05, -2.803714768e-05, -1.405561646e-05, -5.406287514e-06, -5.420438506e-07], "AUX_ENDO_LAG_96_2": [0, 0, -8.031101482e-16, -0.01672794476, -0.01328543408, -0.009548713602, -0.006955967401, -0.004941318782, -0.00333449973, -0.002140077068, -0.001325645747, -0.0008083502036, -0.0004949756711, -0.0003087523352, -0.0001967173849, -0.0001265980148, -8.053620765e-05, -4.927768412e-05, -2.803714768e-05, -1.405561646e-05, -5.406287514e-06], "AUX_ENDO_LAG_44_1": [0, 0, -0.1187504439, -0.008555799978, 0.03344093556, 0.02984785538, 0.01818619395, 0.01008842576, 0.005658843927, 0.003249442501, 0.001850931752, 0.001008131776, 0.0005040265223, 0.0002128386765, 5.358301073e-05, -2.614058959e-05, -5.95512916e-05, -6.737249358e-05, -6.231560149e-05, -5.193121255e-05, -4.043805248e-05], "AUX_ENDO_LAG_44_2": [0, 0, 1.537524701e-16, -0.1187504439, -0.008555799978, 0.03344093556, 0.02984785538, 0.01818619395, 0.01008842576, 0.005658843927, 0.003249442501, 0.001850931752, 0.001008131776, 0.0005040265223, 0.0002128386765, 5.358301073e-05, -2.614058959e-05, -5.95512916e-05, -6.737249358e-05, -6.231560149e-05, -5.193121255e-05], "AUX_ENDO_LAG_42_1": [0, 0, -0.1016816455, -0.05405011171, -0.01241312072, 0.008960217152, 0.016979595, 0.01811182558, 0.01619673294, 0.01324152483, 0.01022000475, 0.007558113046, 0.00539849271, 0.00374223963, 0.002526001661, 0.001664331492, 0.001072269659, 0.0006761187672, 0.0004171507878, 0.0002513475694, 0.0001472408409], "AUX_ENDO_LAG_42_2": [0, 0, -3.302241519e-15, -0.1016816455, -0.05405011171, -0.01241312072, 0.008960217152, 0.016979595, 0.01811182558, 0.01619673294, 0.01324152483, 0.01022000475, 0.007558113046, 0.00539849271, 0.00374223963, 0.002526001661, 0.001664331492, 0.001072269659, 0.0006761187672, 0.0004171507878, 0.0002513475694], "AUX_ENDO_LAG_2_1": [0, 0, -0.01122364131, -0.01226714146, -0.01067864123, -0.008356071322, -0.006074941804, -0.004177217774, -0.002756388482, -0.00177054993, -0.001123168651, -0.0007126364464, -0.0004557201232, -0.0002936036151, -0.0001888837165, -0.0001194985442, -7.291535327e-05, -4.187741231e-05, -2.181509662e-05, -9.512966547e-06, -2.5347425e-06], "AUX_ENDO_LAG_2_2": [0, 0, 2.411568508e-15, -0.01122364131, -0.01226714146, -0.01067864123, -0.008356071322, -0.006074941804, -0.004177217774, -0.002756388482, -0.00177054993, -0.001123168651, -0.0007126364464, -0.0004557201232, -0.0002936036151, -0.0001888837165, -0.0001194985442, -7.291535327e-05, -4.187741231e-05, -2.181509662e-05, -9.512966547e-06], "AUX_ENDO_LAG_38_1": [0, 0, -0.09788648009, -0.12792772, -0.1175056519, -0.09531875414, -0.07305110913, -0.05404405586, -0.03887999902, -0.02729968907, -0.01876213194, -0.01265538674, -0.008403553754, -0.005516498146, -0.003603154755, -0.002365521869, -0.001584677147, -0.00110486542, -0.0008185095189, -0.0006533612911, -0.0005621752877], "AUX_ENDO_LAG_38_2": [0, 0, -1.362996422e-14, -0.09788648009, -0.12792772, -0.1175056519, -0.09531875414, -0.07305110913, -0.05404405586, -0.03887999902, -0.02729968907, -0.01876213194, -0.01265538674, -0.008403553754, -0.005516498146, -0.003603154755, -0.002365521869, -0.001584677147, -0.00110486542, -0.0008185095189, -0.0006533612911], "AUX_ENDO_LAG_38_3": [0, 0, -1.300817205e-14, -1.982905895e-14, -0.09788648009, -0.12792772, -0.1175056519, -0.09531875414, -0.07305110913, -0.05404405586, -0.03887999902, -0.02729968907, -0.01876213194, -0.01265538674, -0.008403553754, -0.005516498146, -0.003603154755, -0.002365521869, -0.001584677147, -0.00110486542, -0.0008185095189], "AUX_ENDO_LAG_40_2": [0, 0, -1.777509785e-14, -0.1161521148, -0.1986229498, -0.212651225, -0.1761721901, -0.1192201709, -0.06495071778, -0.02488874168, -0.001142593526, 0.009407160315, 0.01152427626, 0.009467296099, 0.006146523238, 0.003116608412, 0.0009428459557, -0.0003720481743, -0.00105453106, -0.001359631056, -0.001482007474], "AUX_ENDO_LAG_40_3": [0, 0, -1.839154794e-14, -3.220608086e-14, -0.1161521148, -0.1986229498, -0.212651225, -0.1761721901, -0.1192201709, -0.06495071778, -0.02488874168, -0.001142593526, 0.009407160315, 0.01152427626, 0.009467296099, 0.006146523238, 0.003116608412, 0.0009428459557, -0.0003720481743, -0.00105453106, -0.001359631056], "AUX_ENDO_LAG_23_1": [0, 0, -0.1190468989, -0.08222165577, -0.03214956956, 0.002532899424, 0.02106033382, 0.02804873679, 0.0280766779, 0.02457765053, 0.01980391343, 0.01505677402, 0.01096335289, 0.007724880581, 0.005308747014, 0.003579657115, 0.002378077712, 0.00155966288, 0.001009643918, 0.0006435573417, 0.000402111954], "AUX_ENDO_LAG_23_2": [0, 0, 1.180028321e-14, -0.1190468989, -0.08222165577, -0.03214956956, 0.002532899424, 0.02106033382, 0.02804873679, 0.0280766779, 0.02457765053, 0.01980391343, 0.01505677402, 0.01096335289, 0.007724880581, 0.005308747014, 0.003579657115, 0.002378077712, 0.00155966288, 0.001009643918, 0.0006435573417]}, "fiscal_": {"c": [0, -0.0954232484, -0.1134944134, -0.1095334855, -0.09829590061, -0.08502755754, -0.0720884957, -0.06056939925, -0.05087264187, -0.04302190261, -0.03685037836, -0.03211312919, -0.02855007832, -0.02591835792, -0.02400661935, -0.02263926739, -0.02167537177, -0.02100499428, -0.02054448364, -0.02023161349, -0.02002104844], "lam": [0, 0.1528321974, 0.1480965943, 0.1352420649, 0.1185562431, 0.1012480539, 0.0852161871, 0.0713500699, 0.05989727145, 0.05075016098, 0.04363377987, 0.03821676305, 0.03417127371, 0.03120199456, 0.02905745717, 0.02753180384, 0.02646166443, 0.02572078751, 0.02521391257, 0.02487072702, 0.02464037646], "pdot": [0, 0.006475907775, 0.006251690491, 0.004946263985, 0.003636730001, 0.002564365509, 0.001755555556, 0.001171717688, 0.0007612086806, 0.0004780304714, 0.0002864191883, 0.0001599771961, 7.943888816e-05, 3.06692839e-05, 3.26181594e-06, -1.037382836e-05, -1.563477901e-05, -1.620600447e-05, -1.446981533e-05, -1.186198686e-05, -9.170276275e-06], "w": [0, 0.1165723565, 0.1710822201, 0.1734268828, 0.1497999611, 0.1177691977, 0.08649668804, 0.05985124736, 0.03883482107, 0.02308722172, 0.01172732389, 0.003780987604, -0.001628433952, -0.005215860205, -0.007531103097, -0.008980459845, -0.009855185226, -0.01035872177, -0.01062972224, -0.01076031173, -0.0108100161], "cn": [0, -0.09554384184, -0.1135888747, -0.1095606496, -0.09827673237, -0.0849879879, -0.07204286201, -0.06052241315, -0.05082419025, -0.04297027937, -0.0367938763, -0.03205064308, -0.02848120347, -0.02584326566, -0.0239258643, -0.02255360515, -0.02158561886, -0.02091193586, -0.02044882183, -0.02013394536, -0.01992186313], "cp": [0, -0.09221834108, -0.1102364202, -0.1074003344, -0.09713465355, -0.08447015797, -0.07190498938, -0.06066085835, -0.05120449961, -0.04358052779, -0.03762380707, -0.03308486587, -0.02969873738, -0.02721952385, -0.02543515163, -0.02417122582, -0.02328928093, -0.02268246455, -0.0222703368, -0.02199368777, -0.02180983293], "ce": [0, -0.09325119072, -0.1117930339, -0.109044223, -0.09864114775, -0.08574026227, -0.07291042267, -0.06141568508, -0.05174532379, -0.0439517098, -0.03786805999, -0.03323859198, -0.02979061128, -0.02727087522, -0.02546113142, -0.02418216489, -0.02329194783, -0.02268110719, -0.02226748731, -0.02199075392, -0.02180751536], "cu": [0, -0.09474549949, -0.1140451154, -0.1114225723, -0.1008207172, -0.0875778269, -0.07436506595, -0.06250775517, -0.05252777874, -0.04448872944, -0.03822144085, -0.03346100022, -0.02992353284, -0.02734516949, -0.02549871853, -0.02419799134, -0.02329580624, -0.02267914338, -0.02226336471, -0.02198650926, -0.02180416235], "pc": [0, -0.0003014294904, -0.0002360714778, -6.782393513e-05, 4.799957823e-05, 9.899064466e-05, 0.0001141369225, 0.0001175048195, 0.0001211574058, 0.0001290775562, 0.0001412679575, 0.0001562233376, 0.0001721919422, 0.0001877333486, 0.0002018889883, 0.000214156179, 0.0002243823984, 0.000232645958, 0.0002391543604, 0.0002441701711, 0.0002479631472], "pu": [0, 0.009211459874, 0.01803121307, 0.02249242638, 0.02270673253, 0.02025633228, 0.01671533441, 0.01315388074, 0.01012738332, 0.007823772476, 0.006219267831, 0.005193954659, 0.004602735067, 0.004311966553, 0.004214038929, 0.004229663889, 0.004304406593, 0.004403290219, 0.004505437683, 0.004599574874, 0.004680600467], "pp": [0, -0.01606012421, -0.02005573936, -0.01772995271, -0.01415390349, -0.01082035701, -0.007885431267, -0.005315087485, -0.003105407917, -0.001258244067, 0.0002429299528, 0.001432611179, 0.002354780492, 0.003055510185, 0.003578369859, 0.003962008654, 0.004239153447, 0.004436501942, 0.004575158637, 0.004671359943, 0.004737306227], "va": [0, 0.9240031034, 0.5202924538, 0.2793426175, 0.1398782907, 0.06278221992, 0.02275427082, 0.003787746614, -0.003865942662, -0.005870724921, -0.005341805174, -0.003885141034, -0.002263206152, -0.000796128192, 0.0004118803991, 0.001353198319, 0.002058253913, 0.002568816235, 0.002926649183, 0.003169040994, 0.003327271166], "h": [0, 0.9455904072, 0.5245332824, 0.2754604417, 0.1331611865, 0.05592990595, 0.01694669054, -0.0006174760527, -0.006912965549, -0.007767698819, -0.00633642733, -0.004206691561, -0.00210109584, -0.0002967787135, 0.001140186212, 0.002232955838, 0.003035441681, 0.003606671934, 0.004000746602, 0.004263566159, 0.004432288342], "k": [0, -0.0009406990072, -0.002064103846, -0.003142024841, -0.004087947847, -0.004873256883, -0.005499015954, -0.005981133261, -0.006341475914, -0.006602767917, -0.006785951895, -0.006909057386, -0.006986924063, -0.00703136945, -0.00705155858, -0.00705443975, -0.007045174189, -0.007027524031, -0.007004183647, -0.006977051114, -0.006947443114], "pvc": [0, 0.1652120438, 0.1884179921, 0.1757709684, 0.1462503615, 0.1129120336, 0.08236134655, 0.05711604917, 0.0375283204, 0.02297542679, 0.01251207641, 0.005189625853, 0.0001879610198, -0.003148845922, -0.005320791449, -0.006696434204, -0.007540358375, -0.008038088067, -0.008316727068, -0.008461246324, -0.008526939305], "wk": [0, 0.3758564104, 0.2297991058, 0.1378895137, 0.08070627248, 0.0460485961, 0.02569220045, 0.01413081353, 0.00779611236, 0.004465154731, 0.002806762746, 0.002052003482, 0.00176979932, 0.001723701194, 0.001785863388, 0.001888054509, 0.001994834204, 0.002089089413, 0.002164089483, 0.002218899873, 0.002255585735], "q": [0, 0.9943849256, 0.6049684064, 0.3634101361, 0.2137104318, 0.1220389893, 0.06683152908, 0.03424718863, 0.01548022559, 0.00500253359, -0.0006055337519, -0.003426008655, -0.004704069056, -0.005168587674, -0.005234610911, -0.00512972622, -0.00497200209, -0.004817422222, -0.004688260979, -0.004589655423, -0.004518955244], "b": [0, 0.9935838834, 0.6041598935, 0.3627427677, 0.2132150791, 0.121692172, 0.06659689587, 0.0340926511, 0.01538212026, 0.004944628785, -0.0006342773606, -0.003433366177, -0.004695795098, -0.005149089101, -0.005207278989, -0.005097116599, -0.004935970077, -0.004779254528, -0.00464880757, -0.004549451418, -0.004478322962], "e": [0, 1.008755137, 0.6194726375, 0.375382321, 0.2225967588, 0.1282606806, 0.07104070666, 0.03701949835, 0.01724017574, 0.006041310705, -8.989083334e-05, -0.003294019184, -0.004852498855, -0.005518380264, -0.005724929041, -0.005714723061, -0.005618394558, -0.005502127512, -0.005396031234, -0.005310890907, -0.005247873756], "vn": [0, 0.9309009049, 0.5240663537, 0.2812750658, 0.1408039286, 0.06320518492, 0.02295989198, 0.003924805131, -0.003728652451, -0.005707605044, -0.005148116628, -0.00366456936, -0.0020216795, -0.0005392166061, 0.0006797478996, 0.001628739019, 0.002339095979, 0.002853252879, 0.003213451696, 0.003457331181, 0.003616434286], "mn": [0, 1.129642118, 0.7780090927, 0.5395746914, 0.3703890602, 0.2486426837, 0.1613143748, 0.09957428505, 0.05686352481, 0.02806612301, 0.009163358537, -0.002931521855, -0.01050016903, -0.01515517252, -0.01798552442, -0.01969610441, -0.02072706146, -0.0213461999, -0.02171444705, -0.02192878993, -0.02204861723], "ip": [0, 1.008755137, 0.6194726375, 0.375382321, 0.2225967588, 0.1282606806, 0.07104070666, 0.03701949835, 0.01724017574, 0.006041310705, -8.989083334e-05, -0.003294019184, -0.004852498855, -0.005518380264, -0.005724929041, -0.005714723061, -0.005618394558, -0.005502127512, -0.005396031234, -0.005310890907, -0.005247873756], "iu": [0, 1.008755137, 0.6194726375, 0.375382321, 0.2225967588, 0.1282606806, 0.07104070666, 0.03701949835, 0.01724017574, 0.006041310705, -8.989083334e-05, -0.003294019184, -0.004852498855, -0.005518380264, -0.005724929041, -0.005714723061, -0.005618394558, -0.005502127512, -0.005396031234, -0.005310890907, -0.005247873756], "wdot": [0, 0.1230482642, 0.06076155411, 0.007290926666, -0.01999019162, -0.02946639792, -0.02951695411, -0.02547372299, -0.0202552176, -0.01526956889, -0.01107347863, -0.007786359093, -0.005329982668, -0.003556756969, -0.002311981077, -0.001459730577, -0.0008903601595, -0.0005197425533, -0.0002854702842, -0.0001424514697, -5.887465262e-05], "mu": [0, 0.09718878421, 0.1029343663, 0.0898541437, 0.07053685972, 0.0521129315, 0.03716012127, 0.02591795297, 0.01776351217, 0.01193716092, 0.007806613081, 0.004909372529, 0.00291723634, 0.001591017062, 0.0007484482573, 0.0002468188882, -2.507890136e-05, -0.0001511293694, -0.0001914450731, -0.0001864370241, -0.0001613001773], "qu": [0, 0.5613959787, 0.3221045405, 0.1780316173, 0.09148331405, 0.04075974967, 0.01209320645, -0.003328850225, -0.01104375301, -0.01444356757, -0.01554842121, -0.0155237133, -0.01501629603, -0.01436696061, -0.0137412233, -0.01320784002, -0.01278481726, -0.01246568975, -0.01223404822, -0.01207118659, -0.01195979315], "ig": [0, 0.5613959787, 0.3221045405, 0.1780316173, 0.09148331405, 0.04075974967, 0.01209320645, -0.003328850225, -0.01104375301, -0.01444356757, -0.01554842121, -0.0155237133, -0.01501629603, -0.01436696061, -0.0137412233, -0.01320784002, -0.01278481726, -0.01246568975, -0.01223404822, -0.01207118659, -0.01195979315], "vu": [0, 0.5613959787, 0.3221045405, 0.1780316173, 0.09148331405, 0.04075974967, 0.01209320645, -0.003328850225, -0.01104375301, -0.01444356757, -0.01554842121, -0.0155237133, -0.01501629603, -0.01436696061, -0.0137412233, -0.01320784002, -0.01278481726, -0.01246568975, -0.01223404822, -0.01207118659, -0.01195979315], "qp": [0, 0.5459058866, 0.3127029497, 0.1724204927, 0.08818167305, 0.03882863607, 0.01094633605, -0.004045323604, -0.01153396578, -0.0148197102, -0.01586914922, -0.01581809113, -0.01529785753, -0.01464154103, -0.01401110662, -0.01347383682, -0.01304723519, -0.0127247412, -0.0124899893, -0.01232433871, -0.01221052139], "io": [0, 0.5459058866, 0.3127029497, 0.1724204927, 0.08818167305, 0.03882863607, 0.01094633605, -0.004045323604, -0.01153396578, -0.0148197102, -0.01586914922, -0.01581809113, -0.01529785753, -0.01464154103, -0.01401110662, -0.01347383682, -0.01304723519, -0.0127247412, -0.0124899893, -0.01232433871, -0.01221052139], "vp": [0, 0.5459058866, 0.3127029497, 0.1724204927, 0.08818167305, 0.03882863607, 0.01094633605, -0.004045323604, -0.01153396578, -0.0148197102, -0.01586914922, -0.01581809113, -0.01529785753, -0.01464154103, -0.01401110662, -0.01347383682, -0.01304723519, -0.0127247412, -0.0124899893, -0.01232433871, -0.01221052139], "ppb": [0, -0.0419324392, -0.05236485473, -0.04629230473, -0.03695536158, -0.02825158489, -0.02058859339, -0.01387751302, -0.008108114665, -0.00328523255, 0.000634281861, 0.003740499163, 0.006148251937, 0.007977833381, 0.009343002242, 0.01034467011, 0.01106828576, 0.01158355598, 0.01194558391, 0.01219676225, 0.01236894576], "rg": [0, 0.01098729357, 0.01780079343, 0.02032255179, 0.01987255473, 0.01778742231, 0.01503783489, 0.01221400713, 0.009625140939, 0.007402800298, 0.005576994015, 0.004124928234, 0.00299994843, 0.002147799208, 0.001515279499, 0.001054504632, 0.0007246709177, 0.0004924051251, 0.0003313235585, 0.0002211802842, 0.0001468485015], "xo": [0, -1.199529524, -0.6871082172, -0.3788628712, -0.1937632895, -0.08531891029, -0.02405259514, 0.00888886751, 0.02534380527, 0.0325636348, 0.03486958738, 0.03475739647, 0.03361427715, 0.03217214025, 0.03078687457, 0.02960632129, 0.02866894131, 0.02796031906, 0.02744449417, 0.02708050694, 0.02683041395], "xg": [0, 7.088333065, 4.066976521, 2.247873955, 1.155092349, 0.5146433039, 0.1526920006, -0.04203093719, -0.1394413258, -0.1823682774, -0.1963184496, -0.196006481, -0.1895996974, -0.1814010179, -0.1735002942, -0.1667656568, -0.1614244603, -0.1573950725, -0.1544703059, -0.1524139721, -0.1510074893], "s": [0, 0.112472179, 0.1071260197, 0.09394274401, 0.07705671557, 0.05962283782, 0.04351219077, 0.02959763916, 0.01811624179, 0.008953552579, 0.001830150355, -0.003588266416, -0.007631471889, -0.01059606328, -0.01273435521, -0.01425276497, -0.01531503269, -0.0160476544, -0.01654605218, -0.01688064523, -0.01710235821], "bfc": [0, -0.3175600446, -0.5438390345, -0.7044025246, -0.8174347705, -0.8964931724, -0.95154887, -0.9897720514, -1.016229219, -1.034466945, -1.046963366, -1.055455668, -1.061167332, -1.064962328, -1.067449711, -1.069055927, -1.0700762, -1.070711977, -1.071098541, -1.071325316, -1.071450577], "z": [0, 0.8186809201, 0.5005425959, 0.3003474487, 0.17579236, 0.1003018865, 0.05596210075, 0.03077938039, 0.01698129462, 0.00972588702, 0.006113619573, 0.004469622047, 0.003854932084, 0.003754522313, 0.003889922431, 0.004112512543, 0.004345097373, 0.004550401684, 0.004713764938, 0.004833151543, 0.004913059759], "pe": [0, 0.00138737744, 0.006239492597, 0.01003957781, 0.01129467962, 0.01063498927, 0.009098937357, 0.007435888175, 0.006030511155, 0.005011980154, 0.004368993624, 0.004029442718, 0.00390676833, 0.003922967661, 0.004017235785, 0.004146797828, 0.004284204219, 0.004413572568, 0.00452702329, 0.004621799532, 0.00469815657], "xn": [0, -0.09866059544, -0.1349348237, -0.1384315139, -0.1250709154, -0.1042305974, -0.0814454378, -0.05977919484, -0.040711889, -0.02475763263, -0.01188477696, -0.001786932095, 0.005952392935, 0.01176630025, 0.01605594426, 0.01916895349, 0.02139329616, 0.02295949901, 0.02404698096, 0.02479200849, 0.02529583055], "pm": [0, -0.03352916881, -0.06552474692, -0.0825286572, -0.08333477012, -0.07252546512, -0.05599313628, -0.03853343075, -0.02306385686, -0.01079830127, -0.001799398759, 0.004456578349, 0.008666450551, 0.01146710999, 0.01334448087, 0.01462840922, 0.01552579906, 0.01616136471, 0.01661117168, 0.01692487479, 0.01713811221], "pg": [0, -0.112472179, -0.1071260197, -0.09394274401, -0.07705671557, -0.05962283782, -0.04351219077, -0.02959763916, -0.01811624179, -0.008953552579, -0.001830150355, 0.003588266416, 0.007631471889, 0.01059606328, 0.01273435521, 0.01425276497, 0.01531503269, 0.0160476544, 0.01654605218, 0.01688064523, 0.01710235821], "pudot": [0, 0.01568736765, 0.01507144369, 0.009407477296, 0.003851036155, 0.0001139652524, -0.00178544231, -0.002389735985, -0.002265288733, -0.001825580375, -0.001318085456, -0.0008653359763, -0.0005117807041, -0.0002600992298, -9.466580778e-05, 5.251131106e-06, 5.910792542e-05, 8.267762107e-05, 8.767764863e-05, 8.227520489e-05, 7.185531653e-05], "ppbdot": [0, -0.03545653143, -0.004180725033, 0.01101881398, 0.01297367315, 0.01126814221, 0.009418547057, 0.007882798059, 0.006530607031, 0.005300912586, 0.0042059336, 0.003266194498, 0.002487191662, 0.001860250728, 0.001368430677, 0.0009912940435, 0.0007079808703, 0.000499064217, 0.0003475581092, 0.0002393163577, 0.0001630132315], "ppdot": [0, -0.01357985154, -0.001601217687, 0.004220205754, 0.004968916817, 0.004315698465, 0.003607303523, 0.003019111657, 0.002501222493, 0.002030249521, 0.001610872569, 0.001250952493, 0.0009525944066, 0.000712476029, 0.0005241089491, 0.0003796656187, 0.0002711566733, 0.0001911415951, 0.0001331147558, 9.165816499e-05, 6.243406765e-05], "po": [0, -0.112472179, -0.1071260197, -0.09394274401, -0.07705671557, -0.05962283782, -0.04351219077, -0.02959763916, -0.01811624179, -0.008953552579, -0.001830150355, 0.003588266416, 0.007631471889, 0.01059606328, 0.01273435521, 0.01425276497, 0.01531503269, 0.0160476544, 0.01654605218, 0.01688064523, 0.01710235821], "pmfshock": [0, -1.58618795e-16, 5.985082785e-15, 9.274630592e-15, 1.102218781e-14, 1.172356467e-14, 1.178587162e-14, 1.148564076e-14, 1.09974961e-14, 1.042648892e-14, 9.832724199e-15, 9.248465922e-15, 8.689527398e-15, 8.1625225e-15, 7.669227875e-15, 7.209043576e-15, 6.780291797e-15, 6.380861408e-15, 6.008513906e-15, 5.661027618e-15, 5.33626891e-15], "ashock": [0, -2.434701409e-17, 3.522819523e-15, 5.408546653e-15, 6.478632715e-15, 6.93028476e-15, 6.975298631e-15, 6.774540998e-15, 6.437836889e-15, 6.036179025e-15, 5.613600804e-15, 5.196265809e-15, 4.798862096e-15, 4.428897267e-15, 4.089490834e-15, 3.78114648e-15, 3.502859044e-15, 3.252799887e-15, 3.028739284e-15, 2.828305283e-15, 2.649140052e-15], "ishock": [0, -3.387438436e-16, 2.340751623e-15, 2.357257804e-15, 1.944279278e-15, 1.507972243e-15, 1.172064672e-15, 9.41206086e-16, 7.901010797e-16, 6.934279533e-16, 6.323500788e-16, 5.94143786e-16, 5.705388936e-16, 5.562480743e-16, 5.479133087e-16, 5.434028386e-16, 5.413571247e-16, 5.40901606e-16, 5.414675821e-16, 5.426813384e-16, 5.442953751e-16], "gshock": [0, 9.689922481, 6.415697674, 4.24783343, 2.812490514, 1.862149969, 1.232929495, 0.8163226185, 0.5404872057, 0.3578565789, 0.2369368409, 0.1568758823, 0.1038675217, 0.06877068612, 0.04553307128, 0.03014744649, 0.01996062432, 0.01321592936, 0.008750266832, 0.00579355167, 0.003835910561], "poshock": [0, -5.108102766e-18, 2.828486426e-15, 4.476952511e-15, 5.61167812e-15, 6.059079374e-15, 6.098579126e-15, 5.948585133e-15, 5.732699168e-15, 5.511930571e-15, 5.312378124e-15, 5.142251721e-15, 5.001373902e-15, 4.886177073e-15, 4.792162721e-15, 4.715001429e-15, 4.650947101e-15, 4.596930111e-15, 4.550514987e-15, 4.509810862e-15, 4.47337346e-15], "yfshock": [0, 1.079870888e-18, 7.552039056e-15, 1.37315152e-14, 1.762643261e-14, 1.96821314e-14, 2.038610725e-14, 2.01517598e-14, 1.929961244e-14, 1.806669362e-14, 1.66226285e-14, 1.508537067e-14, 1.353450213e-14, 1.20217755e-14, 1.05791667e-14, 9.224873242e-15, 7.967696538e-15, 6.810190188e-15, 5.750885982e-15, 4.785842363e-15, 3.909702905e-15], "rfshock": [0, -4.055772071e-18, -5.033167761e-16, -7.49479418e-16, -6.801606556e-16, -5.837685951e-16, -5.26672745e-16, -5.136946949e-16, -5.340137098e-16, -5.754100186e-16, -6.281556546e-16, -6.854600276e-16, -7.429326715e-16, -7.979096432e-16, -8.488928616e-16, -8.951428111e-16, -9.36401015e-16, -9.727067203e-16, -1.004277215e-15, -1.031429777e-15, -1.054530757e-15], "mushock": [0, 9.226895304e-19, 2.11936896e-15, 2.131642292e-15, 1.020107856e-15, 5.89137826e-16, 4.923048476e-16, 4.96639973e-16, 5.20198257e-16, 5.409339907e-16, 5.551061866e-16, 5.635515853e-16, 5.678043098e-16, 5.691732308e-16, 5.68615256e-16, 5.667913512e-16, 5.641457193e-16, 5.609722095e-16, 5.5746344e-16, 5.537452062e-16, 5.498997607e-16], "pgshock": [0, 2.623333623e-18, 6.161420118e-16, 7.924101406e-16, 7.701111414e-16, 6.912898e-16, 6.132202312e-16, 5.52451426e-16, 5.09696322e-16, 4.811203834e-16, 4.625155595e-16, 4.504953076e-16, 4.426357276e-16, 4.373083907e-16, 4.334642386e-16, 4.304491821e-16, 4.278678241e-16, 4.254897582e-16, 4.231875471e-16, 4.208964264e-16, 4.18588402e-16], "bshock": [0, -1.608324839e-16, -2.586176504e-15, -4.124851436e-15, -4.614048816e-15, -4.964843881e-15, -5.282076552e-15, -5.556012524e-15, -5.775950857e-15, -5.941297311e-15, -6.057638312e-15, -6.132822114e-15, -6.174755102e-15, -6.190457084e-15, -6.185801878e-15, -6.16556271e-15, -6.133559003e-15, -6.092814842e-15, -6.045699575e-15, -5.994046727e-15, -5.93925496e-15], "cf": [0, -0.4424241548, -0.3508901242, -0.2467403626, -0.1754761775, -0.1293185455, -0.09932818593, -0.07963228894, -0.06656644009, -0.05781730944, -0.05189942793, -0.04784701427, -0.04502728471, -0.04302374366, -0.04156153602, -0.04045900598, -0.03959598982, -0.03889295809, -0.03829725598, -0.03777401161, -0.03730012329], "lamf": [0, 0.7163630404, 0.4099570678, 0.2736656792, 0.1952318277, 0.1457941303, 0.1136257092, 0.09238891435, 0.07823457217, 0.06871733457, 0.06225277999, 0.05780417181, 0.05468955777, 0.05245904885, 0.05081536313, 0.04956187576, 0.04856846507, 0.04774898881, 0.04704640434, 0.04642292883, 0.04585352896], "wf": [0, 0.1742030322, 0.09629067781, 0.05308863338, 0.02632010607, 0.009143864653, -0.002000811401, -0.009248707104, -0.013949769, -0.01697695591, -0.0189009129, -0.0200967958, -0.02081201006, -0.02120999377, -0.02139881741, -0.02144997645, -0.02141078119, -0.02131254051, -0.02117597304, -0.02101478733, -0.02083805119], "cnf": [0, -0.4460894741, -0.3527515033, -0.2478016249, -0.1760791835, -0.129634768, -0.09945977578, -0.07964390179, -0.06649994907, -0.05770011097, -0.05174953756, -0.04767630907, -0.04484360407, -0.04283226339, -0.0413656721, -0.0402610106, -0.03939734524, -0.03869463706, -0.03809989408, -0.03757802129, -0.03710576938], "cpf": [0, -0.3765235069, -0.3174234381, -0.227659386, -0.1646344252, -0.1236330199, -0.09696226479, -0.07942349558, -0.06776191618, -0.05992448049, -0.05459438355, -0.05091621011, -0.0483297727, -0.04646646512, -0.04508307348, -0.044018866, -0.04316752217, -0.04245867311, -0.0418457263, -0.04129782154, -0.04079451143], "cef": [0, -0.3764065971, -0.3173640671, -0.2276255358, -0.1646151916, -0.1236229336, -0.09695806757, -0.07942312518, -0.067764037, -0.05992821868, -0.05459916449, -0.05092165497, -0.04833563142, -0.04647257262, -0.0450893208, -0.04402518131, -0.04317385818, -0.0424649988, -0.0418520214, -0.04130407289, -0.04080071059], "cuf": [0, -0.3762374539, -0.3172781702, -0.2275765618, -0.1645873647, -0.1236083409, -0.0969519951, -0.07942258928, -0.06776710535, -0.05993362703, -0.05460608147, -0.05092953248, -0.04834410772, -0.04648140884, -0.04509835931, -0.04403431818, -0.04318302501, -0.0424741507, -0.04186112904, -0.04131311724, -0.04080967942], "pcf": [0, -0.009163304465, -0.004653450977, -0.002653157497, -0.001507515948, -0.0007905567475, -0.0003289748501, -2.903214359e-05, 0.0001662276741, 0.0002929963596, 0.0003747261926, 0.0004267632701, 0.0004592019046, 0.0004787009829, 0.0004896601317, 0.0004949887788, 0.000496611784, 0.0004958029004, 0.0004934050721, 0.000489976113, 0.000485885094], "puf": [0, -0.1758986244, -0.08932755958, -0.05092996264, -0.02893824848, -0.01517551282, -0.006314995189, -0.0005573004962, 0.003190903382, 0.005624352743, 0.007193237118, 0.008192139905, 0.008814831336, 0.009189135286, 0.009399506906, 0.009501795517, 0.009532950695, 0.009517423381, 0.009471394713, 0.009405572476, 0.009327041351], "ppf": [0, -0.1730380939, -0.08787488075, -0.05010172016, -0.02846764365, -0.01492872285, -0.006212298329, -0.000548237463, 0.003139011694, 0.005532887374, 0.007076257953, 0.008058916202, 0.008671481188, 0.009039698064, 0.00924664854, 0.009347273696, 0.009377922216, 0.009362647413, 0.009317367281, 0.00925261547, 0.009175361448], "vaf": [0, 0.3177521367, 0.1789545535, 0.1143537023, 0.07655023488, 0.05263243196, 0.03709106723, 0.02687823241, 0.02012496278, 0.01563880958, 0.01264547374, 0.01063772045, 0.009281687295, 0.008357049324, 0.007718194947, 0.00726881065, 0.006945160511, 0.006705055079, 0.006520562281, 0.006373186716, 0.006250679869], "hf": [0, 0.3048407667, 0.1732886033, 0.1118480012, 0.07583722692, 0.05303527568, 0.0382092025, 0.02845889294, 0.02200468813, 0.01771073161, 0.0148393441, 0.01290723481, 0.01159628458, 0.01069655155, 0.0100692836, 0.009622703136, 0.00929607519, 0.009049196255, 0.008855448632, 0.008697206834, 0.008562798042], "kf": [0, -0.005693236578, -0.009862380155, -0.01260235121, -0.01441901423, -0.01565056073, -0.01650503719, -0.01711293277, -0.01755795832, -0.01789458813, -0.01815855889, -0.01837342203, -0.01855474056, -0.01871281714, -0.01885448197, -0.01898426987, -0.01910519714, -0.01921927499, -0.01932784924, -0.01943182497, -0.01953181538], "pvcf": [0, 0.3007866229, 0.1527501143, 0.08709022891, 0.04948440082, 0.02595012478, 0.01079864088, 0.0009529837697, -0.005456444332, -0.009617642396, -0.01230043446, -0.01400855808, -0.01507336034, -0.01571342004, -0.01607315548, -0.01624806899, -0.01630134434, -0.01627479264, -0.01619608362, -0.01608352761, -0.01594923939], "wkf": [0, 0.1748001913, 0.09746296542, 0.06264012485, 0.04252701922, 0.02988098905, 0.02170916954, 0.01637673661, 0.01288551995, 0.01059973676, 0.009106890873, 0.008136885315, 0.007511992863, 0.007114950319, 0.00686827279, 0.006720718479, 0.006638386317, 0.006598843596, 0.006587245982, 0.006593771578, 0.006611923119], "qf": [0, 0.6120195999, 0.3294894034, 0.200630364, 0.1259292781, 0.0789065485, 0.04848694207, 0.02860355755, 0.01555219593, 0.006974323477, 0.001340108649, -0.002352025971, -0.004761092822, -0.006321901204, -0.007321773542, -0.007950734644, -0.008334519238, -0.008556343937, -0.008671292037, -0.008715826418, -0.008714083873], "bf": [0, 0.610556231, 0.3287462528, 0.2002066579, 0.1256885296, 0.07878029752, 0.04843440518, 0.02859892116, 0.01557874229, 0.007021114648, 0.001399951978, -0.002283872382, -0.004687758822, -0.006245453224, -0.007243575399, -0.007871685523, -0.008255210924, -0.008477164801, -0.008592495832, -0.008637577813, -0.008636488599], "ef": [0, 0.6382715505, 0.342821075, 0.2082313948, 0.1302481605, 0.08117141449, 0.04942942211, 0.02868673174, 0.01507597027, 0.006134918217, 0.0002665555937, -0.003574660048, -0.006076660341, -0.007693331633, -0.008724600835, -0.009368827979, -0.009757262319, -0.009976769648, -0.01008484821, -0.01011955897, -0.01010609606], "vnf": [0, 0.3195254006, 0.1809504759, 0.1159411364, 0.07780911883, 0.05367184591, 0.03798601026, 0.02767684671, 0.02085821087, 0.0163268159, 0.01330143091, 0.01127032844, 0.009896708182, 0.008958313617, 0.008308259128, 0.007849389325, 0.007517411327, 0.00726976693, 0.007078279753, 0.006924292427, 0.006795448965], "mnf": [0, 1.242261071, 0.6495483734, 0.3831114646, 0.2296144795, 0.1332801262, 0.07111345135, 0.03060035478, 0.004119248981, -0.01317762688, -0.02443312499, -0.03170430955, -0.03634446811, -0.03924640053, -0.04100003043, -0.04199548971, -0.04249090272, -0.04265709335, -0.04260712159, -0.04241581613, -0.04213269804], "ipf": [0, 0.6382715505, 0.342821075, 0.2082313948, 0.1302481605, 0.08117141449, 0.04942942211, 0.02868673174, 0.01507597027, 0.006134918217, 0.0002665555937, -0.003574660048, -0.006076660341, -0.007693331633, -0.008724600835, -0.009368827979, -0.009757262319, -0.009976769648, -0.01008484821, -0.01011955897, -0.01010609606], "iuf": [0, 0.6382715505, 0.342821075, 0.2082313948, 0.1302481605, 0.08117141449, 0.04942942211, 0.02868673174, 0.01507597027, 0.006134918217, 0.0002665555937, -0.003574660048, -0.006076660341, -0.007693331633, -0.008724600835, -0.009368827979, -0.009757262319, -0.009976769648, -0.01008484821, -0.01011955897, -0.01010609606], "quf": [0, 0.2269896001, 0.07521684098, 0.03155484921, 0.01072183856, -0.001846298343, -0.00991360443, -0.015140787, -0.01850861259, -0.02064927003, -0.02197881147, -0.02277232533, -0.02321188351, -0.02341801813, -0.02347052252, -0.02342221771, -0.02330806652, -0.02315120793, -0.02296695246, -0.02276542749, -0.02255332876], "igf": [0, 0.2269896001, 0.07521684098, 0.03155484921, 0.01072183856, -0.001846298343, -0.00991360443, -0.015140787, -0.01850861259, -0.02064927003, -0.02197881147, -0.02277232533, -0.02321188351, -0.02341801813, -0.02347052252, -0.02342221771, -0.02330806652, -0.02315120793, -0.02296695246, -0.02276542749, -0.02255332876], "vuf": [0, 0.2269896001, 0.07521684098, 0.03155484921, 0.01072183856, -0.001846298343, -0.00991360443, -0.015140787, -0.01850861259, -0.02064927003, -0.02197881147, -0.02277232533, -0.02321188351, -0.02341801813, -0.02347052252, -0.02342221771, -0.02330806652, -0.02315120793, -0.02296695246, -0.02276542749, -0.02255332876], "qpf": [0, 0.2116517084, 0.06525428169, 0.02498291055, 0.006279521455, -0.004928369724, -0.01211364306, -0.01676280782, -0.01974907719, -0.021636453, -0.02279698322, -0.0234770477, -0.02383986878, -0.02399355695, -0.02400970273, -0.02393570396, -0.02380293556, -0.02363216186, -0.02343712136, -0.02322690055, -0.02300750588], "iof": [0, 0.2116517084, 0.06525428169, 0.02498291055, 0.006279521455, -0.004928369724, -0.01211364306, -0.01676280782, -0.01974907719, -0.021636453, -0.02279698322, -0.0234770477, -0.02383986878, -0.02399355695, -0.02400970273, -0.02393570396, -0.02380293556, -0.02363216186, -0.02343712136, -0.02322690055, -0.02300750588], "vpf": [0, 0.2116517084, 0.06525428169, 0.02498291055, 0.006279521455, -0.004928369724, -0.01211364306, -0.01676280782, -0.01974907719, -0.021636453, -0.02279698322, -0.0234770477, -0.02383986878, -0.02399355695, -0.02400970273, -0.02393570396, -0.02380293556, -0.02363216186, -0.02343712136, -0.02322690055, -0.02300750588], "ppbf": [0, -0.4517965899, -0.2294383309, -0.1308138908, -0.07432805131, -0.03897838864, -0.01622010008, -0.001431429407, 0.008195852988, 0.01444618113, 0.01847586933, 0.02104155666, 0.02264094305, 0.02360234482, 0.02414268548, 0.02440541435, 0.0244854366, 0.0244455546, 0.02432732972, 0.02415826494, 0.0239565573], "rf": [0, 0.3064059726, 0.1362913886, 0.07843385153, 0.04943769736, 0.03216842116, 0.02123679481, 0.01415434218, 0.009517237604, 0.006464554575, 0.004448608184, 0.003114614037, 0.002230508926, 0.001643685715, 0.001253487369, 0.0009934106969, 0.0008194762545, 0.0007025844739, 0.0006234755089, 0.0005693998643, 0.0005319168743], "xof": [0, -0.4650663774, -0.1433844906, -0.05489543078, -0.0137981135, 0.01082920177, 0.02661754134, 0.03683324066, 0.04339502789, 0.04754219512, 0.05009225055, 0.05158656932, 0.05238380307, 0.05272150505, 0.05275698249, 0.05259438357, 0.052302649, 0.05192740466, 0.05149883841, 0.05103691617, 0.05055483604], "xgf": [0, 2.866030305, 0.9497075882, 0.3984198133, 0.1353767495, -0.02331184776, -0.1251717731, -0.191171553, -0.2336946033, -0.2607231064, -0.2775102459, -0.2875293603, -0.2930793372, -0.2956820471, -0.2963449813, -0.2957350721, -0.2942937691, -0.2923132314, -0.2899867735, -0.2874422663, -0.284764252], "sf": [0, 0.6219490475, 0.3158477832, 0.1800800993, 0.1023209598, 0.05365815553, 0.02232880021, 0.001970524294, -0.01128251756, -0.01988680038, -0.02543412144, -0.02896607991, -0.03116781596, -0.0324912941, -0.03323513408, -0.03359681004, -0.03370696971, -0.03365206764, -0.03348931772, -0.03325658095, -0.03297890761], "bff": [0, -0.3047083535, -0.5237046782, -0.6747120464, -0.7748930768, -0.8390658482, -0.878518887, -0.9013003262, -0.9129547835, -0.9172335197, -0.9166497132, -0.9128779862, -0.9070307805, -0.8998457403, -0.8918114052, -0.8832510329, -0.8743783223, -0.8653343892, -0.8562122787, -0.847073206, -0.8379573142], "zf": [0, 0.3807453525, 0.2122913645, 0.1364411345, 0.09263127689, 0.06508601405, 0.04728636363, 0.03567139318, 0.02806691342, 0.02308807833, 0.0198363992, 0.01772355765, 0.01636243272, 0.0154976047, 0.01496029795, 0.01463889889, 0.01445956506, 0.0143734341, 0.01434817247, 0.01436238636, 0.01440192359], "pef": [0, -0.1750130042, -0.08887781022, -0.05067353877, -0.02879254923, -0.01509910665, -0.006283200241, -0.0005544945811, 0.003174837716, 0.005596035065, 0.007157020369, 0.008150893846, 0.00877045013, 0.009142869522, 0.009352181956, 0.009453955561, 0.009484953878, 0.009469504742, 0.00942370782, 0.009358216987, 0.009280081253], "xnf": [0, -0.5455737044, -0.5035838775, -0.367054289, -0.2421568868, -0.1476124734, -0.08087552251, -0.03530806086, -0.004762882463, 0.0154671525, 0.02873277304, 0.03733889266, 0.04284351639, 0.04628999119, 0.04837346396, 0.049555784, 0.05014331535, 0.05033909826, 0.05027762311, 0.05004794193, 0.04970900325], "pmf": [0, -0.6219490475, -0.3158477832, -0.1800800993, -0.1023209598, -0.05365815553, -0.02232880021, -0.001970524294, 0.01128251756, 0.01988680038, 0.02543412144, 0.02896607991, 0.03116781596, 0.0324912941, 0.03323513408, 0.03359681004, 0.03370696971, 0.03365206764, 0.03348931772, 0.03325658095, 0.03297890761], "pgf": [0, -0.6219490475, -0.3158477832, -0.1800800993, -0.1023209598, -0.05365815553, -0.02232880021, -0.001970524294, 0.01128251756, 0.01988680038, 0.02543412144, 0.02896607991, 0.03116781596, 0.0324912941, 0.03323513408, 0.03359681004, 0.03370696971, 0.03365206764, 0.03348931772, 0.03325658095, 0.03297890761], "pof": [0, -0.6219490475, -0.3158477832, -0.1800800993, -0.1023209598, -0.05365815553, -0.02232880021, -0.001970524294, 0.01128251756, 0.01988680038, 0.02543412144, 0.02896607991, 0.03116781596, 0.0324912941, 0.03323513408, 0.03359681004, 0.03370696971, 0.03365206764, 0.03348931772, 0.03325658095, 0.03297890761], "pcdot": [0, 0.006174478284, 0.006317048504, 0.005114511527, 0.003752553514, 0.002615356576, 0.001770701834, 0.001175085585, 0.000764861267, 0.0004859506219, 0.0002986095896, 0.0001749325762, 9.540749273e-05, 4.621069029e-05, 1.741745563e-05, 1.893362379e-06, -5.408559608e-06, -7.942444897e-06, -7.961412951e-06, -6.846176129e-06, -5.377300203e-06], "pcdot4": [0, 0.006174478284, 0.01249152679, 0.01760603832, 0.02135859183, 0.01779947012, 0.01325312345, 0.009313697509, 0.006326005262, 0.004196599309, 0.002724507064, 0.001724354055, 0.00105490028, 0.0006151603489, 0.0003339682149, 0.000160929001, 6.011294871e-05, 5.959813525e-06, -1.941905505e-05, -2.815859356e-05, -2.812733416e-05], "pdot4": [0, 0.006475907775, 0.01272759827, 0.01767386225, 0.02131059225, 0.01739904999, 0.01290291505, 0.009128368755, 0.006252847435, 0.004166512397, 0.002697376029, 0.001685635537, 0.001003865744, 0.0005565045565, 0.0002733471841, 0.0001029961597, 7.922492485e-06, -3.895279588e-05, -5.668442715e-05, -5.817258565e-05, -5.170808292e-05], "ppdot4": [0, -0.01357985154, -0.01518106922, -0.01096086347, -0.005991946654, 0.01190360335, 0.01711212456, 0.01591103046, 0.01344333614, 0.01115788719, 0.009161456239, 0.007393297075, 0.005844668988, 0.004526895497, 0.003440131877, 0.002568845003, 0.00188740727, 0.001366072836, 0.0009750786429, 0.0006870711892, 0.0004783485836], "pudot4": [0, 0.01568736765, 0.03075881134, 0.04016628863, 0.04401732479, 0.02844392239, 0.01158703639, -0.0002101768883, -0.006326501777, -0.008266047404, -0.00779869055, -0.006274290541, -0.004520782512, -0.002955301367, -0.001731881718, -0.0008612946105, -0.000290405981, 5.237086985e-05, 0.0002347143263, 0.0003117384, 0.0003244857912], "rga": [0, 4.39491743, 7.12031737, 8.129020716, 7.949021891, 7.114968923, 6.015133958, 4.885602851, 3.850056376, 2.961120119, 2.230797606, 1.649971294, 1.199979372, 0.8591196831, 0.6061117995, 0.4218018528, 0.2898683671, 0.19696205, 0.1325294234, 0.08847211369, 0.05873940061], "inv": [0, 1.222204511, 0.7041428902, 0.3899531203, 0.2020720842, 0.09410930244, 0.03548333156, 0.006085938949, -0.006847571476, -0.01106148395, -0.0110264823, -0.009187869002, -0.006803064387, -0.004468838835, -0.002433312423, -0.0007701420933, 0.0005291229934, 0.001508001766, 0.002221685053, 0.002725513204, 0.003069423674], "wdot4": [0, 0.1230482642, 0.1838098183, 0.191100745, 0.1711105534, 0.01859589123, -0.07168261699, -0.1044472666, -0.1047122926, -0.0905154636, -0.07207198811, -0.05438462422, -0.03945938928, -0.02774657736, -0.01898507981, -0.01265845129, -0.008218828781, -0.005181814366, -0.003155303573, -0.001838024467, -0.00100653896], "csharep": [0, -0.01255378741, -0.0165616746, -0.01552897763, -0.013040656, -0.01036194809, -0.007816061871, -0.0055240514, -0.003558423065, -0.001945946804, -0.0006717667107, 0.0003046511583, 0.001033929493, 0.00156661091, 0.001947948593, 0.002215894047, 0.002400861885, 0.002526385708, 0.002610151112, 0.002665115492, 0.002700558589], "cshareu": [0, 0.01019063827, 0.01771658259, 0.02067116355, 0.02013391642, 0.01760707227, 0.01432462724, 0.01109802, 0.00835108905, 0.006227868085, 0.00470693738, 0.00368986029, 0.003057088611, 0.002697421641, 0.002520050756, 0.002456783759, 0.002459589716, 0.002496495157, 0.002547402253, 0.00260050893, 0.002649523406], "csharen": [0, 0.0001808360416, 0.0001416102538, 4.065989854e-05, -2.883132913e-05, -5.942101331e-05, -6.850323141e-05, -7.051871589e-05, -7.270578135e-05, -7.745431522e-05, -8.476589505e-05, -9.373722531e-05, -0.0001033170914, -0.0001126410857, -0.0001211339376, -0.0001284939367, -0.000134629495, -0.0001395875463, -0.0001434925565, -0.0001465020412, -0.0001487778397], "contpp": [0, -0.0004223333828, -0.0004721312529, -0.0003408828539, -0.0001863495409, 0.0003702020641, 0.0005321870738, 0.0004948330473, 0.0004180877539, 0.0003470102917, 0.000284921289, 0.000229931539, 0.0001817692055, 0.00014078645, 0.0001069881014, 7.98910796e-05, 5.86983661e-05, 4.248486521e-05, 3.032494579e-05, 2.136791399e-05, 1.487664095e-05], "contpu": [0, 0.0003372784044, 0.0006613144437, 0.0008635752056, 0.0009463724829, 0.0006115443314, 0.0002491212824, -4.518803099e-06, -0.0001360197882, -0.0001777200192, -0.0001676718468, -0.0001348972466, -9.719682401e-05, -6.353897938e-05, -3.723545694e-05, -1.851783413e-05, -6.243728591e-06, 1.125973702e-06, 5.046358015e-06, 6.702375601e-06, 6.97644451e-06], "contpq": [0, 0.006135275026, 0.0120581266, 0.0167442171, 0.0201896551, 0.01648385996, 0.01222422172, 0.008648216558, 0.00592394766, 0.003947353845, 0.00255549405, 0.001596971107, 0.0009510624059, 0.0005272324168, 0.0002589691223, 9.757856166e-05, 7.505769381e-06, -3.690387882e-05, -5.370282629e-05, -5.511270765e-05, -4.898823776e-05], "nomw": [0, 0.1230482642, 0.1838098183, 0.191100745, 0.1711105534, 0.1416441555, 0.1121272014, 0.08665347836, 0.06639826076, 0.05112869187, 0.04005521324, 0.03226885415, 0.02693887148, 0.02338211451, 0.02107013343, 0.01961040286, 0.0187200427, 0.01820030014, 0.01791482986, 0.01777237839, 0.01771350374], "rcw": [0, 0.116873786, 0.1713182916, 0.1734947067, 0.1497519616, 0.1176702071, 0.08638255112, 0.05973374254, 0.03871366367, 0.02295814416, 0.01158605594, 0.003624764267, -0.001800625894, -0.005403593553, -0.007732992086, -0.009194616024, -0.01007956762, -0.01059136773, -0.0108688766, -0.0110044819, -0.01105797925], "et": [0, 9.689922481, 3.309779693e-15, 2.342809848e-15, 1.681407219e-15, 1.174510571e-15, 8.387927766e-16, 6.226912143e-16, 4.835377688e-16, 3.932953968e-16, 3.343072644e-16, 2.954486987e-16, 2.696507555e-16, 2.523868161e-16, 2.407388503e-16, 2.328123581e-16, 2.273670538e-16, 2.235834369e-16, 2.209151751e-16, 2.189953786e-16, 2.175765177e-16], "dfrgap": [0, 0.7847454789, 0.4353101711, 0.2286046206, 0.1105104687, 0.04641622895, 0.01406405848, -0.0005124433762, -0.005737070109, -0.00644641325, -0.005258601041, -0.003491133327, -0.001743699438, -0.0002462966543, 0.0009462405371, 0.00185313005, 0.002519113051, 0.002993177038, 0.003320219605, 0.003538333555, 0.003678356095], "pedot4": [0, 0.007863285215, 0.01896709086, 0.02771344006, 0.03260527187, 0.02664666182, 0.01576235981, 0.006524679117, 0.0009886789675, -0.001456496722, -0.002032567704, -0.001720809921, -0.001119877081, -0.0005325079365, -7.841065503e-05, 0.0002203512699, 0.0003853583814, 0.0004516521109, 0.000453103078, 0.0004168291181, 0.0003622442682], "encost4": [0, 0.0003585658058, 0.0008648993433, 0.001263732867, 0.001486800397, 0.001215087779, 0.0007187636074, 0.0002975253678, 4.508376092e-05, -6.641625053e-05, -9.26850873e-05, -7.846893241e-05, -5.106639488e-05, -2.42823619e-05, -3.575525869e-06, 1.004801791e-05, 1.757234219e-05, 2.059533626e-05, 2.066150036e-05, 1.900740779e-05, 1.651833863e-05], "pmcost4": [0, -0.006982446674, -0.01362694407, -0.01673902258, -0.01600844031, -0.005574249275, 0.005790351082, 0.01371119992, 0.01716978264, 0.01700715784, 0.01468359641, 0.01153078388, 0.00844869009, 0.005890336472, 0.003979186239, 0.002651932858, 0.001772442647, 0.001201533428, 0.0008285026487, 0.0005777034187, 0.000402792167], "wcost4": [0, 0.05719283322, 0.08543480356, 0.08882362628, 0.07953218522, 0.008643370245, -0.03331808037, -0.04854708954, -0.04867027361, -0.04207158748, -0.03349906008, -0.02527797334, -0.01834072414, -0.01289660916, -0.008824265094, -0.00588364816, -0.003820111618, -0.002408507317, -0.001466585101, -0.0008543137721, -0.0004678393085], "profits": [0, -0.04409304457, -0.05994516057, -0.05567447432, -0.04369995305, 0.01311484124, 0.03971188074, 0.043666733, 0.03770825465, 0.02929735829, 0.02160552479, 0.01551129392, 0.01094696619, 0.007587059605, 0.005122001565, 0.003324663444, 0.002038019121, 0.001147425757, 0.0005607365247, 0.0001994303599, -3.179280099e-06], "pmdot4": [0, -0.02705326104, -0.05279714865, -0.06485479495, -0.06202417786, -0.02159724632, 0.02243452569, 0.05312359521, 0.06652376069, 0.06589367625, 0.05689111355, 0.04467564463, 0.03273417315, 0.02282191582, 0.01541722681, 0.01027482703, 0.006867271007, 0.004655301929, 0.003210006388, 0.002238292982, 0.001560605064], "vagap": [0, 0.6062509667, 0.3413379003, 0.1649889152, 0.06332805579, 0.01014978796, -0.01433679641, -0.02309048579, -0.02399090544, -0.0215095345, -0.01798727891, -0.01452286149, -0.01154489345, -0.009153177516, -0.007306314548, -0.005915612331, -0.004886906598, -0.004136238844, -0.003593913098, -0.003204145722, -0.002923408703], "qgap": [0, 0.3823653257, 0.275479003, 0.1627797721, 0.08778115371, 0.04313244078, 0.01834458701, 0.005643631078, -7.197034469e-05, -0.001971789886, -0.001945642401, -0.001073982684, 5.702376558e-05, 0.00115331353, 0.00208716263, 0.002821008425, 0.003362517148, 0.003738921715, 0.003983031058, 0.004126170994, 0.004195128629], "invshock": [0, -4.151640887e-16, 1.619394009e-14, 1.698488531e-14, 1.419462294e-14, 1.07408893e-14, 7.391027127e-15, 4.464810906e-15, 2.083981969e-15, 2.461777927e-16, -1.117410578e-15, -2.099185832e-15, -2.789856454e-15, -3.266896057e-15, -3.591395339e-15, -3.809115666e-15, -3.953156078e-15, -4.046875684e-15, -4.106475482e-15, -4.14305526e-15, -4.164155552e-15], "wshock": [0, 5.766989419e-17, 2.847312138e-15, 3.366723751e-15, 2.566808357e-15, 2.259156311e-15, 2.177935756e-15, 2.151868431e-15, 2.130727866e-15, 2.105834185e-15, 2.078045149e-15, 2.049106321e-15, 2.020094824e-15, 1.991490115e-15, 1.963441363e-15, 1.935952791e-15, 1.908979498e-15, 1.882468556e-15, 1.856373186e-15, 1.830655838e-15, 1.805287564e-15], "interest": [0, 0.0439491743, 0.0712031737, 0.08129020716, 0.07949021891, 0.07114968923, 0.06015133958, 0.04885602851, 0.03850056376, 0.02961120119, 0.02230797606, 0.01649971294, 0.01199979372, 0.008591196831, 0.006061117995, 0.004218018528, 0.002898683671, 0.0019696205, 0.001325294234, 0.0008847211369, 0.0005873940061], "inflation": [0, 0.006174478284, 0.01249152679, 0.01760603832, 0.02135859183, 0.01779947012, 0.01325312345, 0.009313697509, 0.006326005262, 0.004196599309, 0.002724507064, 0.001724354055, 0.00105490028, 0.0006151603489, 0.0003339682149, 0.000160929001, 6.011294871e-05, 5.959813525e-06, -1.941905505e-05, -2.815859356e-05, -2.812733416e-05], "inflationq": [0, 0.02469791314, 0.02526819402, 0.02045804611, 0.01501021406, 0.0104614263, 0.007082807337, 0.004700342342, 0.003059445068, 0.001943802487, 0.001194438358, 0.000699730305, 0.0003816299709, 0.0001848427612, 6.966982252e-05, 7.573449525e-06, -2.163423842e-05, -3.176977958e-05, -3.18456518e-05, -2.738470451e-05, -2.15092008e-05], "outputgap": [0, 0.6062509667, 0.3413379003, 0.1649889152, 0.06332805579, 0.01014978796, 