{"interest_": {"cs": [0, -0.008713196313, -0.01443199325, -0.0181024064, -0.02038536572, -0.02174185028, -0.02248974478, -0.02284664015, -0.0229601622, -0.02292932527, -0.02281953222, -0.02267308686, -0.02251654075, -0.02236581014, -0.0222297246, -0.02211247498, -0.02201529095, -0.02193758059, -0.02187769607, -0.02183344045, -0.02180239633], "cn": [0, -0.06083897026, -0.09424727786, -0.1099701055, -0.114372847, -0.1117951107, -0.1051553531, -0.09638746202, -0.08674750096, -0.0770282903, -0.06770900783, -0.05905906651, -0.05120988394, -0.04420415677, -0.03802942033, -0.03264066889, -0.02797539393, -0.02396339632, -0.02053302083, -0.01761496339, -0.01514445038], "R": [0, 0.2278640788, 0.1557084415, 0.1053165283, 0.07018000482, 0.04596586747, 0.02940638761, 0.01818580716, 0.0106737505, 0.005725037336, 0.002537172701, 0.0005493875298, -0.000628815657, -0.001268197144, -0.001555488575, -0.001618599301, -0.001544387239, -0.001391168815, -0.00119750945, -0.000988386805, -0.0007795003464], "i": [0, -0.278067423, -0.4373134958, -0.5179094696, -0.5475617316, -0.5452276411, -0.5237239854, -0.4916041356, -0.4544783503, -0.4159385325, -0.3782039237, -0.3425702966, -0.3097210341, -0.2799413397, -0.2532646864, -0.2295720185, -0.2086581396, -0.1902754233, -0.174161951, -0.1600590388, -0.1477216078], "k": [0, -0.06171702145, -0.09685067788, -0.1144032619, -0.1205997395, -0.119697199, -0.1145700615, -0.1071331467, -0.09863928301, -0.08988770285, -0.08136949672, -0.0733687562, -0.06603257788, -0.0594192334, -0.05353107128, -0.04833677669, -0.04378624408, -0.03982034789, -0.03637721212, -0.03339609689, -0.03081968005], "v": [0, -0.06171702145, -0.08924106478, -0.09503434148, -0.08758772256, -0.07260397754, -0.0538448577, -0.03373748489, -0.01379889807, 0.005068221237, 0.02237046052, 0.03788220167, 0.05154868165, 0.06342013702, 0.07360756293, 0.08225343214, 0.08951270807, 0.09554088921, 0.1004868105, 0.1044886236, 0.1076718644], "l": [0, -0.06707709628, -0.1036224269, -0.1201947359, -0.1240410629, -0.1200930049, -0.111660602, -0.1009313859, -0.08932091021, -0.07771784269, -0.06665473462, -0.05642650844, -0.04717224512, -0.03893127032, -0.03168129602, -0.0253640786, -0.01990243216, -0.01521128902, -0.0112046908, -0.007800022925, -0.004920404716], "y": [0, -0.07445142961, -0.1155820347, -0.1348432464, -0.1401121858, -0.1367571234, -0.1283876249, -0.1173948823, -0.1053314095, -0.09317664206, -0.08152209097, -0.07069989323, -0.06087161662, -0.05208921988, -0.04433656292, -0.03755737863, -0.03167386271, -0.02659879743, -0.02224325003, -0.01852126916, -0.01535256876], "gc": [0, 1.070965922e-16, 1.888066024e-15, 3.246387303e-15, 4.277848231e-15, 5.053534166e-15, 5.628605995e-15, 6.045887893e-15, 6.338826369e-15, 6.533705166e-15, 6.651299701e-15, 6.70811972e-15, 6.71734873e-15, 6.689559047e-15, 6.633259875e-15, 6.555320402e-15, 6.461298735e-15, 6.355699411e-15, 6.242176373e-15, 6.123693978e-15, 6.0026555e-15], "c": [0, -0.008713196313, -0.01443199325, -0.0181024064, -0.02038536572, -0.02174185028, -0.02248974478, -0.02284664015, -0.0229601622, -0.02292932527, -0.02281953222, -0.02267308686, -0.02251654075, -0.02236581014, -0.0222297246, -0.02211247498, -0.02201529095, -0.02193758059, -0.02187769607, -0.02183344045, -0.02180239633], "q": [0, -0.6307927511, -0.4162338639, -0.2684240968, -0.1674395643, -0.09929408531, -0.05393076239, -0.02427895134, -0.005388543317, 0.006194863442, 0.0128727626, 0.01630683211, 0.01764008114, 0.01765287745, 0.01687288228, 0.01565238327, 0.01422258641, 0.01273164037, 0.01127118936, 0.009894848004, 0.008630998221], "rk": [0, -0.008921498021, -0.01290023342, -0.01373767997, -0.0126612347, -0.0104952609, -0.007783538156, -0.00487691884, -0.001994698365, 0.000732636227, 0.00323375974, 0.005476057971, 0.007451614652, 0.009167691726, 0.01064033409, 0.01189013687, 0.01293950079, 0.01381090393, 0.0145258611, 0.01510434279, 0.01556449586], "w": [0, -0.00356142319, -0.006128484441, -0.007946206045, -0.009219911358, -0.01009945501, -0.01069299771, -0.01107867958, -0.01131307117, -0.01143722393, -0.01148100236, -0.01146618979, -0.01140871811, -0.01132027136, -0.01120944118, -0.01108256122, -0.01094431113, -0.01079815493, -0.01064666021, -0.01049173117, -0.01033477947], "pi": [0, -0.001620882303, -0.00165542514, -0.001548258967, -0.00140910564, -0.001259236714, -0.001109167261, -0.0009650916099, -0.0008304867541, -0.0007070490845, -0.0005953279689, -0.0004951572743, -0.0004059467119, -0.0003268759666, -0.0002570217363, -0.0001954387789, -0.0001412096944, -9.347369038e-05, -5.144142579e-05, -1.440082031e-05, 1.828283256e-05], "b": [0, -0.5756034708, -0.3346262994, -0.1616584857, -0.03727230978, 0.05230401821, 0.1170868016, 0.1642119067, 0.1987552046, 0.2243275226, 0.2434981358, 0.2580957608, 0.2694224763, 0.2784057707, 0.2857066264, 0.2917963629, 0.297011277, 0.3015915035, 0.3057086594, 0.3094855145, 0.3130099928], "sb": [0, -0.5011520412, -0.2190442648, -0.02681523934, 0.1028398761, 0.1890611416, 0.2454744265, 0.2816067891, 0.3040866141, 0.3175041647, 0.3250202267, 0.3287956541, 0.330294093, 0.3304949906, 0.3300431893, 0.3293537416, 0.3286851397, 0.3281903009, 0.3279519094, 0.3280067837, 0.3283625616], "tauk": [0, 3.494568222e-17, 4.147788271e-15, 2.781839028e-15, 1.996942215e-15, 1.596413626e-15, 1.441269546e-15, 1.438698246e-15, 1.526272737e-15, 1.662512905e-15, 1.820365092e-15, 1.982646098e-15, 2.138865996e-15, 2.283020897e-15, 2.412066958e-15, 2.524871784e-15, 2.621499429e-15, 2.702727719e-15, 2.769726665e-15, 2.823848005e-15, 2.866490856e-15], "taul": [0, 9.955185479e-18, 1.263563345e-15, 8.053559272e-16, 4.781527821e-16, 2.407840777e-16, 6.795056551e-17, -5.813558941e-17, -1.502442132e-16, -2.175760465e-16, -2.66776339e-16, -3.026571061e-16, -3.287130098e-16, -3.474902498e-16, -3.608506579e-16, -3.70161023e-16, -3.764290299e-16, -3.804010424e-16, -3.826325876e-16, -3.835392833e-16, -3.834337358e-16], "tauc": [0, 0, 0, 0, 0, 0, 0, 0, 0, 0, 0, 0, 0, 0, 0, 0, 0, 0, 0, 0, 0], "r": [0, 0.229519504, 0.1572567005, 0.1067256339, 0.07143924153, 0.04707503474, 0.03037147922, 0.01901629392, 0.01138079958, 0.006320365305, 0.003032329976, 0.0009553342418, -0.0003019396904, -0.001011175408, -0.001360049796, -0.001477389606, -0.001450913548, -0.001339727389, -0.00118310863, -0.001006669638, -0.0008266705324], "z": [0, 1.343785858e-17, 0.002004608165, 0.00284069306, 0.002891140157, 0.002421957849, 0.001617274126, 0.0006030309371, -0.000535456838, -0.001741094158, -0.002976288933, -0.004216844061, -0.005447689797, -0.006659912372, -0.007848694087, -0.009011892963, -0.01014907007, -0.01126082923, -0.01234837385, -0.01341321401, -0.01445697686], "mc": [0, -0.005330247884, -0.008363161605, -0.00985739244, -0.01035554806, -0.01023007095, -0.009732876058, -0.009032098534, -0.008238008146, -0.007421170077, -0.006625130866, -0.005875248029, -0.005184808299, -0.00455924354, -0.00399901534, -0.003501570851, -0.003062653194, -0.00267716551, -0.002339728179, -0.002045026761, -0.001788018611], "kbar": [0, -0.007609613096, -0.01936892045, -0.03301201697, -0.04709322147, -0.06072520382, -0.07339566177, -0.08484038494, -0.09495592409, -0.1037399572, -0.1112509579, -0.1175812595, -0.1228393704, -0.1271386342, -0.1305902088, -0.1332989521, -0.1353612371, -0.1368640227, -0.1378847204, -0.1384915444, -0.138744135], "lambda": [0, 0.6939782031, 0.4644586992, 0.3072019987, 0.2004763648, 0.1290371233, 0.08196208853, 0.05159060931, 0.03257431539, 0.02119351581, 0.01487315051, 0.01184082053, 0.01088548629, 0.01118742598, 0.01219860139, 0.01355865119, 0.01503604079, 0.01648695434, 0.01782668173, 0.01900979036, 0.02001646], "Pb": [0, -0.6129758742, -0.4063669844, -0.2644929535, -0.1679617314, -0.1031785207, -0.06037034865, -0.03267293193, -0.01528670188, -0.004867550579, 0.0009048133869, 0.003631957068, 0.004412122442, 0.003992116024, 0.002874258109, 0.001391555401, -0.0002395749652, -0.001882423104, -0.003454268844, -0.004908520436, -0.006222370859], "cstar": [0, -0.008974824104, -0.01486533715, -0.01864596038, -0.02099746925, -0.02239468444, -0.02316503569, -0.02353264741, -0.02364957815, -0.02361781529, -0.02350472553, -0.02335388291, -0.02319263625, -0.02303737971, -0.02289720798, -0.02277643775, -0.02267633562, -0.02259629188, -0.02253460923, -0.02248902476, -0.02245704849], "piL": [0, -0.008213023647, -0.006919527167, -0.005667720613, -0.004493657544, -0.003412935814, -0.002430918738, -0.001546729436, -0.0007557737313, -5.141386999e-05, 0.0005739339455, 0.001128096777, 0.001618710811, 0.002052968102, 0.00243748339, 0.002778239085, 0.003080579746, 0.003349236608, 0.003588369129, 0.003801614953, 0.003992142758], "rL": [0, 0.6211888978, 0.4132865115, 0.2701606741, 0.1724553889, 0.1065914565, 0.06280126739, 0.03421966137, 0.01604247561, 0.004918964449, -0.001478747332, -0.004760053844, -0.006030833252, -0.006045084126, -0.0053117415, -0.004169794486, -0.002841004781, -0.001466813505, -0.0001341002846, 0.001106905483, 0.002230228101], "S": [0, -0.9445605419, -1.480393036, -1.732769809, -1.803326516, -1.761404627, -1.653688065, -1.511150683, -1.353945191, -1.194824322, -1.041526647, -0.8984337489, -0.7677156503, -0.6501176337, -0.5454964872, -0.4531822677, -0.3722190911, -0.3015224961, -0.2399796688, -0.1865108674, -0.1401048012], "rb": [0, -0.5792930415, 0.229519504, 0.1572567005, 0.1067256339, 0.07143924153, 0.04707503474, 0.03037147922, 0.01901629392, 0.01138079958, 0.006320365305, 0.003032329976, 0.0009553342418, -0.0003019396904, -0.001011175408, -0.001360049796, -0.001477389606, -0.001450913548, -0.001339727389, -0.00118310863, -0.001006669638], "Tk": [0, -0.07063851947, -0.1097509113, -0.1281409419, -0.1332609742, -0.1301924599, -0.1223535997, -0.1120100655, -0.1006339814, -0.08915506662, -0.07813573698, -0.06789269823, -0.05858096323, -0.05025154168, -0.0428907372, -0.03644663982, -0.03084674329, -0.02600944396, -0.02185135101, -0.01829175409, -0.01525518419], "Tl": [0, -0.07063851947, -0.1097509113, -0.1281409419, -0.1332609742, -0.1301924599, -0.1223535997, -0.1120100655, -0.1006339814, -0.08915506662, -0.07813573698, -0.06789269823, -0.05858096323, -0.05025154168, -0.0428907372, -0.03644663982, -0.03084674329, -0.02600944396, -0.02185135101, -0.01829175409, -0.01525518419], "Tc": [0, -0.008713196313, -0.01443199325, -0.0181024064, -0.02038536572, -0.02174185028, -0.02248974478, -0.02284664015, -0.0229601622, -0.02292932527, -0.02281953222, -0.02267308686, -0.02251654075, -0.02236581014, -0.0222297246, -0.02211247498, -0.02201529095, -0.02193758059, -0.02187769607, -0.02183344045, -0.02180239633], "cobs": [0, -0.8713196313, -0.5718796934, -0.3670413148, -0.2282959324, -0.1356484556, -0.07478945063, -0.03568953638, -0.01135220497, 0.003083692424, 0.01097930463, 0.0146445369, 0.0156546109, 0.01507306042, 0.01360855469, 0.01172496171, 0.009718402964, 0.007771035728, 0.00598845171, 0.004425562456, 0.003104411939], "iobs": [0, -27.8067423, -15.92460728, -8.059597384, -2.965226201, 0.2334090547, 2.150365567, 3.211984982, 3.712578532, 3.853981776, 3.773460885, 3.563362709, 3.284926245, 2.977969445, 2.667665332, 2.369266781, 2.091387892, 1.838271637, 1.611347228, 1.410291221, 1.233743102], "gcobs": [0, 1.055494527e-14, 1.780580432e-13, 1.358223472e-13, 1.031436337e-13, 7.756797515e-14, 5.75070274e-14, 4.172815071e-14, 2.929383778e-14, 1.948787728e-14, 1.175945287e-14, 5.6820017e-15, 9.229009554e-16, -2.778968322e-15, -5.629917185e-15, -7.793947243e-15, -9.402166763e-15, -1.055993239e-14, -1.135230379e-14, -1.184823948e-14, -1.21038478e-14], "wobs": [0, -0.356142319, -0.2567061251, -0.1817721604, -0.1273705314, -0.08795436519, -0.0593542701, -0.03856818662, -0.02343915951, -0.0124152755, -0.004377843135, 0.00148125688, 0.005747167896, 0.008844675406, 0.01108301806, 0.01268799578, 0.01382500918, 0.01461561924, 0.01514947203, 0.01549290446, 0.01569516982], "bobs": [0, -57.56034708, 24.09771713, 17.29678137, 12.43861759, 8.957632799, 6.47827834, 4.712510512, 3.454329787, 2.557231803, 1.917061313, 1.459762507, 1.132671551, 0.8983294354, 0.7300855728, 0.608973651, 0.5214914074, 0.4580226448, 0.4117155892, 0.3776855189, 0.3524478302], "Robs": [0, 22.78640788, 15.57084415, 10.53165283, 7.018000482, 4.596586747, 2.940638761, 1.818580716, 1.06737505, 0.5725037336, 0.2537172701, 0.05493875298, -0.0628815657, -0.1268197144, -0.1555488575, -0.1618599301, -0.1544387239, -0.1391168815, -0.119750945, -0.0988386805, -0.07795003464], "Piobs": [0, -0.1620882303, -0.165542514, -0.1548258967, -0.140910564, -0.1259236714, -0.1109167261, -0.09650916099, -0.08304867541, -0.07070490845, -0.05953279689, -0.04951572743, -0.04059467119, -0.03268759666, -0.02570217363, -0.01954387789, -0.01412096944, -0.009347369038, -0.005144142579, -0.001440082031, 0.001828283256], "Lobs": [0, -6.707709628, -10.36224269, -12.01947359, -12.40410629, -12.00930049, -11.1660602, -10.09313859, -8.932091021, -7.771784269, -6.665473462, -5.642650844, -4.717224512, -3.893127032, -3.168129602, -2.53640786, -1.990243216, -1.521128902, -1.12046908, -0.7800022925, -0.4920404716], "ugc": [0, 2.091269531e-16, 1.204764147e-15, 7.721096486e-16, 4.669061919e-16, 2.510376144e-16, 9.90817114e-17, -7.28765998e-18, -8.114380713e-17, -1.318084479e-16, -1.659309852e-16, -1.882570239e-16, -2.02175298e-16, -2.101069928e-16, -2.137829721e-16, -2.144412659e-16, -2.129678204e-16, -2.099968615e-16, -2.059825066e-16, -2.012498936e-16, -1.960317152e-16], "uz": [0, 0, 2.054080073e-43, 2.354863139e-43, 2.131348058e-43, 1.789539187e-43, 1.458177806e-43, 1.172590679e-43, 9.371959801e-44, 7.469182629e-44, 5.945104344e-44, 4.729747208e-44, 3.762625923e-44, 2.993749661e-44, 2.382655304e-44, 1.896932916e-44, 1.510763153e-44, 1.203633817e-44, 9.592701588e-45, 7.647655454e-45, 6.09884306e-45], "ua": [0, -1.54713951e-18, -3.890000228e-19, -9.780696359e-20, -2.459177781e-20, -6.183154179e-21, -1.554641389e-21, -3.908862334e-22, -9.828121686e-23, -2.471102014e-23, -6.213135489e-24, -1.562179641e-24, -3.927815888e-25, -9.875776883e-26, -2.483084003e-26, -6.243261714e-27, -1.569754115e-27, -3.946858955e-28, -9.923645887e-29, -2.495111608e-29, -6.273443722e-30], "ub": [0, 0, 2.892471969e-33, 7.149438314e-34, -6.695496583e-34, -1.107019599e-33, -1.079901044e-33, -8.971647477e-34, -6.952724405e-34, -5.210628705e-34, -3.840130976e-34, -2.806160872e-34, -2.041748742e-34, -1.482297651e-34, -1.0749268e-34, -7.79057459e-35, -5.644526479e-35, -4.08897526e-35, -2.96184448e-35, -2.145298056e-35, -1.553816641e-35], "um": [0, 0, 0, 0, 0, 0, 0, 0, 0, 0, 0, 0, 0, 0, 0, 0, 0, 0, 0, 0, 0], "ui": [0, -2.329660937e-16, -1.191416218e-16, -6.093043763e-17, -3.116054804e-17, -1.593587363e-17, -8.149794669e-18, -4.167901597e-18, -2.131514281e-18, -1.090081669e-18, -5.574806869e-19, -2.851022314e-19, -1.458046606e-19, -7.456623171e-20, -3.813405477e-20, -1.950220763e-20, -9.973660151e-21, -5.100648024e-21, -2.60853186e-21, -1.334034113e-21, -6.822408585e-22], "uw": [0, 1.057366092e-16, 3.456474005e-17, 1.129903128e-17, 3.693593749e-18, 1.207416322e-18, 3.946980293e-19, 1.290247047e-19, 4.217749566e-20, 1.378760095e-20, 4.507094052e-21, 1.473345282e-21, 4.816288042e-22, 1.574419166e-22, 5.146693242e-23, 1.682426884e-23, 5.499764777e-24, 1.797844108e-24, 5.877057597e-25, 1.921179142e-25, 6.28023333e-26], "up": [0, -1.053278516e-17, -7.628362836e-18, -5.52483685e-18, -4.001359515e-18, -2.897982041e-18, -2.098861619e-18, -1.52009917e-18, -1.10093084e-18, -7.973484491e-19, -5.774790985e-19, -4.182388636e-19, -3.029092264e-19, -2.193818113e-19, -1.58887135e-19, -1.150739047e-19, -8.334220106e-20, -6.036053521e-20, -4.371607859e-20, -3.166134164e-20, -2.29307062e-20], "csf": [0, 5.542907598e-17, 1.124610762e-15, 6.540655875e-16, 3.61526769e-16, 2.019959212e-16, 1.272638963e-16, 1.032545895e-16, 1.069406695e-16, 1.230865938e-16, 1.418744398e-16, 1.572200931e-16, 1.655851527e-16, 1.651420517e-16, 1.551903842e-16, 1.357515489e-16, 1.072896571e-16, 7.052155752e-17, 2.628949297e-17, -2.452246173e-17, -8.104157251e-17], "cnf": [0, 2.315022465e-16, 3.443321663e-15, 1.569225565e-15, 4.081724682e-16, -2.495781789e-16, -5.566983542e-16, -6.246017594e-16, -5.336290176e-16, -3.4119599e-16, -8.785235563e-17, 1.98219466e-16, 4.9785791e-16, 7.984333421e-16, 1.092000282e-15, 1.37393018e-15, 1.641904553e-15, 1.895178044e-15, 2.134043239e-15, 2.359445777e-15, 2.572710956e-15], "if": [0, 9.187295204e-16, -1.671136051e-15, -4.288597692e-15, -6.640132269e-15, -8.601535596e-15, -1.014433299e-14, -1.128751331e-14, -1.207436305e-14, -1.255807751e-14, -1.27930588e-14, -1.283004861e-14, -1.271375565e-14, -1.248203331e-14, -1.216596539e-14, -1.179043853e-14, -1.137493467e-14, -1.093438223e-14, -1.047997406e-14, -1.001990513e-14, -9.560010543e-15], "kf": [0, 2.242276345e-16, 4.807526489e-15, 2.283898136e-15, 5.07415402e-16, -7.299195261e-16, -1.571088001e-15, -2.125366017e-15, -2.474196662e-15, -2.677952322e-15, -2.781143769e-15, -2.81635762e-15, -2.80723827e-15, -2.770748963e-15, -2.718885499e-15, -2.659972774e-15, -2.59964295e-15, -2.541570735e-15, -2.488023629e-15, -2.440271539e-15, -2.398889799e-15], "vf": [0, 1.716847318e-16, 7.996148599e-15, 5.562287561e-15, 4.286274158e-15, 3.77022731e-15, 3.771620125e-15, 4.110190853e-15, 4.656723402e-15, 5.319868487e-15, 6.036054127e-15, 6.761965584e-15, 7.468958582e-15, 8.138919053e-15, 8.76120538e-15, 9.330400257e-15, 9.844667209e-15, 1.030455765e-14, 1.071215259e-14, 1.1070452e-14, 1.138294651e-14], "lf": [0, 2.671179126e-16, 3.794862926e-15, 1.719473814e-15, 2.867895038e-16, -6.626772859e-16, -1.256571962e-15, -1.593496784e-15, -1.748291962e-15, -1.777279e-15, -1.722433721e-15, -1.614673816e-15, -1.476446704e-15, -1.323760567e-15, -1.167770716e-15, -1.016011257e-15, -8.733449777e-16, -7.426905751e-16, -6.255750637e-16, -5.225497937e-16, -4.335007939e-16], "yf": [0, 3.014174146e-16, 2.887997763e-15, 1.44429159e-15, 4.401847409e-16, -2.24746118e-16, -6.316269172e-16, -8.479133748e-16, -9.269312991e-16, -9.101563237e-16, -8.293638101e-16, -7.084991512e-16, -5.652733485e-16, -4.125011611e-16, -2.592049945e-16, -1.115115857e-16, 2.662997991e-17, 1.528809814e-16, 2.660705745e-16, 3.658549776e-16, 4.524583234e-16], "gcf": [0, 4.157207906e-16, 1.638321724e-15, 2.154021498e-15, 2.203678528e-15, 1.952193074e-15, 1.513069904e-15, 9.636445768e-16, 3.560302611e-16, -2.751662574e-16, -9.074247001e-16, -1.526513785e-15, -2.12383821e-15, -2.694591859e-15, -3.236477982e-15, -3.748827266e-15, -4.231994431e-15, -4.686949206e-15, -5.1150024e-15, -5.51762546e-15, -5.896334298e-15], "cf": [0, 5.644090357e-17, 1.148349612e-15, 6.679164351e-16, 3.690526414e-16, 2.059477037e-16, 1.294739211e-16, 1.049008438e-16, 1.087544401e-16, 1.254983221e-16, 1.451148246e-16, 1.613897286e-16, 1.707021503e-16, 1.711743117e-16, 1.620772055e-16, 1.434178709e-16, 1.156552411e-16, 7.95067196e-17, 3.581851027e-17, -1.451949241e-17, -7.062788816e-17], "qf": [0, 1.109567549e-14, 5.686646709e-15, 8.628189723e-15, 1.076322041e-14, 1.230302008e-14, 1.338570615e-14, 1.412223913e-14, 1.460050389e-14, 1.488937847e-14, 1.504224878e-14, 1.510000481e-14, 1.509356677e-14, 1.504598735e-14, 1.497417822e-14, 1.489030993e-14, 1.480293371e-14, 1.471787048e-14, 1.463890792e-14, 1.456834163e-14, 1.450739109e-14], "rkf": [0, -3.397151032e-18, 1.020004317e-15, 7.140067798e-16, 5.595202554e-16, 5.111292459e-16, 5.338164895e-16, 6.018468495e-16, 6.968995004e-16, 8.06125104e-16, 9.206715267e-16, 1.034588552e-15, 1.144016583e-15, 1.246587314e-15, 1.340982621e-15, 1.426611499e-15, 1.503374921e-15, 1.571496021e-15, 1.631398654e-15, 1.683621634e-15, 1.728759138e-15], "wf": [0, 1.673223643e-18, 1.837896537e-16, -1.06168245e-16, -3.103994763e-16, -4.547750874e-16, -5.589940703e-16, -6.362809023e-16, -6.953885801e-16, -7.420712402e-16, -7.800906523e-16, -8.118956987e-16, -8.390776121e-16, -8.626726143e-16, -8.83361383e-16, -9.015992437e-16, -9.17700199e-16, -9.318904586e-16, -9.443420202e-16, -9.551933516e-16, -9.645618512e-16], "bf": [0, -2.361132091e-17, -5.89957476e-16, 5.458953062e-15, 1.133422448e-14, 1.7258158e-14, 2.324906948e-14, 2.931143591e-14, 3.545149055e-14, 4.167627617e-14, 4.799255046e-14, 5.440624357e-14, 6.092229298e-14, 6.754469382e-14, 7.427665579e-14, 8.112079842e-14, 8.807934526e-14, 9.515429619e-14, 1.023475691e-13, 1.096611093e-13, 1.170969683e-13], "sbf": [0, -3.473013609e-16, -2.97355872e-15, 4.467088937e-15, 1.132768699e-14, 1.790741072e-14, 2.430300717e-14, 3.058430707e-14, 3.68093769e-14, 4.302568502e-14, 4.927102797e-14, 5.557476619e-14, 6.195918913e-14, 6.844085759e-14, 7.503183175e-14, 8.174074006e-14, 8.857367511e-14, 9.553492175e-14, 1.026275332e-13, 1.098537753e-13, 1.172154611e-13], "taukf": [0, -9.37939431e-17, 0, 0, 0, 0, 0, 0, 0, 0, 0, 0, 0, 0, 0, 0, 0, 0, 0, 0, 0], "taulf": [0, 0, 0, 0, 0, 0, 0, 0, 0, 0, 0, 0, 0, 0, 0, 0, 0, 0, 0, 0, 0], "taucf": [0, 0, 0, 0, 0, 0, 0, 0, 0, 0, 0, 0, 0, 0, 0, 0, 0, 0, 0, 0, 0], "rf": [0, -5.596051292e-15, 1.835740763e-15, 8.524586096e-16, 1.834713837e-16, -3.044846575e-16, -6.579064798e-16, -9.089258511e-16, -1.082592894e-15, -1.198539221e-15, -1.272050559e-15, -1.314924886e-15, -1.336177527e-15, -1.342620998e-15, -1.339339113e-15, -1.330071402e-15, -1.317521961e-15, -1.303605266e-15, -1.289640016e-15, -1.27650062e-15, -1.264734527e-15], "zf": [0, 0, 1.19803303e-16, 1.295561745e-15, 3.088826292e-15, 5.138483165e-15, 7.258784945e-15, 9.3408822e-15, 1.132462745e-14, 1.318153437e-14, 1.490326161e-14, 1.649381177e-14, 1.796430191e-14, 1.932951081e-14, 2.06056466e-14, 2.180894624e-14, 2.29548366e-14, 2.405746956e-14, 2.512950222e-14, 2.61820337e-14, 2.722463848e-14], "mcf": [0, 0, 0, 0, 0, 0, 0, 0, 0, 0, 0, 0, 0, 0, 0, 0, 0, 0, 0, 0, 0], "kbarf": [0, -4.279581705e-17, -9.307793755e-16, -1.951996282e-15, -3.023027983e-15, -4.095269613e-15, -5.135404797e-15, -6.12206474e-15, -7.042631526e-15, -7.890744196e-15, -8.664408553e-15, -9.364586578e-15, -9.994158528e-15, -1.055717046e-14, -1.105829775e-14, -1.150247044e-14, -1.189461834e-14, -1.223950404e-14, -1.254161946e-14, -1.280512776e-14, -1.303383696e-14], "lambdaf": [0, 4.271686319e-16, 6.028578553e-15, 2.967241393e-15, 8.449919305e-16, -5.644857132e-16, -1.446258495e-15, -1.943840667e-15, -2.167311062e-15, -2.200332256e-15, -2.105810827e-15, -1.930451443e-15, -1.708411099e-15, -1.464215089e-15, -1.215067248e-15, -9.7266577e-16, -7.446185324e-16, -5.355367759e-16, -3.478726982e-16, -1.825549138e-16, -3.946569132e-17], "cstarf": [0, -5.190703831e-18, -5.922366049e-17, -7.270193969e-17, -6.420493263e-17, -4.506051609e-17, -2.312302485e-17, -3.607482141e-18, 1.018884075e-17, 1.634121467e-17, 1.389188765e-17, 2.550408819e-18, -1.752622205e-17, -4.589339498e-17, -8.193377282e-17, -1.249386507e-16, -1.741644663e-16, -2.288710279e-16, -2.883464126e-16, -3.519222543e-16, -4.189822021e-16], "Sf": [0, -1.475899554e-16, 5.002508424e-14, 5.16507844e-15, -2.923077579e-14, -5.508092173e-14, -7.42797336e-14, -8.838656487e-14, -9.864208306e-14, -1.060267629e-13, -1.113113868e-13, -1.150985664e-13, -1.17856692e-13, -1.199475551e-13, -1.216486969e-13, -1.231713812e-13, -1.246749653e-13, -1.262783293e-13, -1.28068917e-13, -1.301098573e-13, -1.324455467e-13], "rbf": [0, -5.604229154e-15, -2.020039502e-16, -1.321399889e-15, -1.961467312e-15, -2.401203692e-15, -2.706330257e-15, -2.912794394e-15, -3.047292609e-15, -3.130163191e-15, -3.176828118e-15, -3.198873818e-15, -3.204904134e-15, -3.201217924e-15, -3.192346529e-15, -3.181478053e-15, -3.17079017e-15, -3.161709272e-15, -3.155110645e-15, -3.151471822e-15, -3.150988978e-15], "Tkf": [0, 1.251606646e-16, 5.82115589e-15, 2.992430058e-15, 1.062190629e-15, -2.229309677e-16, -1.040914355e-15, -1.526749632e-15, -1.780184026e-15, -1.874426204e-15, -1.862828784e-15, -1.78392044e-15, -1.665198633e-15, -1.525989656e-15, -1.37960317e-15, -1.234951597e-15, -1.097763267e-15, -9.714874008e-16, -8.5796569e-16, -7.579276009e-16, -6.713529328e-16], "Tlf": [0, 2.687919391e-16, 3.978655209e-15, 1.613308416e-15, -2.360698711e-17, -1.117449306e-15, -1.815562923e-15, -2.229774562e-15, -2.443677423e-15, -2.51934714e-15, -2.502521302e-15, -2.42656648e-15, -2.315521322e-15, -2.18643023e-15, -2.051129193e-15, -1.917607641e-15, -1.791042364e-15, -1.674578268e-15, -1.569914366e-15, -1.477740474e-15, -1.39806002e-15], "Tcf": [0, 5.644090357e-17, 1.148349612e-15, 6.679164351e-16, 3.690526414e-16, 2.059477037e-16, 1.294739211e-16, 1.049008438e-16, 1.087544401e-16, 1.254983221e-16, 1.451148246e-16, 1.613897286e-16, 1.707021503e-16, 1.711743117e-16, 1.620772055e-16, 1.434178709e-16, 1.156552411e-16, 7.95067196e-17, 3.581851027e-17, -1.451949241e-17, -7.062788816e-17], "cobsf": [0, 5.489376406e-15, 1.091519708e-13, -4.80530984e-14, -2.988883855e-14, -1.631111209e-14, -7.647533726e-15, -2.457346814e-15, 3.853498029e-16, 1.674385727e-15, 1.96164963e-15, 1.627490243e-15, 9.312421297e-16, 4.721612902e-17, -9.097106225e-16, -1.865933463e-15, -2.776262973e-15, -3.614852154e-15, -4.368820934e-15, -5.033800268e-15, -5.610839575e-15], "iobsf": [0, 9.171823809e-14, -2.590254572e-13, -2.617559448e-13, -2.351559169e-13, -1.96140951e-13, -1.542798946e-13, -1.143180715e-13, -7.868498356e-14, -4.83714482e-14, -2.349813012e-14, -3.698980743e-15, 1.162929588e-14, 2.317223347e-14, 3.16067919e-14, 3.755268688e-14, 4.155038582e-14, 4.405524338e-14, 4.544081696e-14, 4.60068937e-14, 4.598945836e-14], "gcobsf": [0, 4.141736511e-14, 1.222211934e-13, 5.156019672e-14, 4.963243817e-15, -2.514916371e-14, -4.391247255e-14, -5.494257176e-14, -6.076144141e-14, -6.311965431e-14, -6.322584489e-14, -6.190890868e-14, -5.973244254e-14, -5.707536492e-14, -5.418861231e-14, -5.123492832e-14, -4.831671659e-14, -4.549547747e-14, -4.280531937e-14, -4.026230601e-14, -3.787088376e-14], "wobsf": [0, 1.260841325e-17, 1.8172743e-14, -2.900557056e-14, -2.042558231e-14, -1.443817943e-14, -1.042205376e-14, -7.728722283e-15, -5.91077761e-15, -4.668268482e-15, -3.801941834e-15, -3.18050479e-15, -2.718191378e-15, -2.359500232e-15, -2.068876872e-15, -1.823786074e-15, -1.610095525e-15, -1.419025962e-15, -1.245156161e-15, -1.08513314e-15, -9.368499627e-16], "bobsf": [0, -2.515846042e-15, -5.667351551e-14, 6.048812731e-13, 5.87524683e-13, 5.923927337e-13, 5.99090992e-13, 6.062366038e-13, 6.14005455e-13, 6.224785593e-13, 6.316274279e-13, 6.413693114e-13, 6.516049406e-13, 6.62240084e-13, 6.731961968e-13, 6.844142632e-13, 6.958546838e-13, 7.07495093e-13, 7.193272943e-13, 7.31354019e-13, 7.435858997e-13], "Lobsf": [0, 2.671190237e-14, 3.794865402e-13, 1.719476616e-13, 2.867925338e-14, -6.626741021e-14, -1.256568677e-13, -1.593493438e-13, -1.748288584e-13, -1.777275611e-13, -1.722430338e-13, -1.614670451e-13, -1.476443365e-13, -1.323757261e-13, -1.167767447e-13, -1.01600803e-13, -8.733417946e-14, -7.426874377e-14, -6.255719733e-14, -5.225467511e-14, -4.334977994e-14], "interest": [0, 0.9114563154, 0.622833766, 0.421266113, 0.2807200193, 0.1838634699, 0.1176255504, 0.07274322865, 0.04269500199, 0.02290014935, 0.01014869081, 0.002197550119, -0.002515262628, -0.005072788577, -0.006221954301, -0.006474397204, -0.006177548954, -0.005564675261, -0.004790037801, -0.00395354722, -0.003118001386], "inflation": [0, -0.001620882303, -0.003276307443, -0.00482456641, -0.00623367205, -0.005872026461, -0.005325768583, -0.004742601225, -0.004163982339, -0.003611794709, -0.003097955418, -0.002628021082, -0.00220348104, -0.001823307922, -0.001485001689, -0.001185283194, -0.0009205461762, -0.0006871439, -0.0004815635895, -0.0003005256309, -0.0001410331039], "inflationq": [0, -0.006483529211, -0.006621700559, -0.006193035869, -0.00563642256, -0.005036946857, -0.004436669043, -0.00386036644, -0.003321947017, -0.002828196338, -0.002381311876, -0.001980629097, -0.001623786848, -0.001307503866, -0.001028086945, -0.0007817551156, -0.0005648387778, -0.0003738947615, -0.0002057657032, -5.760328125e-05, 7.313133023e-05], "outputgap": [0, -0.07445142961, -0.1155820347, -0.1348432464, -0.1401121858, -0.1367571234, -0.1283876249, -0.1173948823, -0.1053314095, -0.09317664206, -0.08152209097, -0.07069989323, -0.06087161662, -0.05208921988, -0.04433656292, -0.03755737863, -0.03167386271, -0.02659879743, -0.02224325003, -0.01852126916, -0.01535256876], "output": [0, -0.07445142961, -0.1155820347, -0.1348432464, -0.1401121858, -0.1367571234, -0.1283876249, -0.1173948823, -0.1053314095, -0.09317664206, -0.08152209097, -0.07069989323, -0.06087161662, -0.05208921988, -0.04433656292, -0.03755737863, -0.03167386271, -0.02659879743, -0.02224325003, -0.01852126916, -0.01535256876], "fispol": [0, 1.045634766e-16, 6.023820735e-16, 3.860548243e-16, 2.334530959e-16, 1.255188072e-16, 4.95408557e-17, -3.64382999e-18, -4.057190356e-17, -6.590422394e-17, -8.296549261e-17, -9.412851193e-17, -1.01087649e-16, -1.050534964e-16, -1.06891486e-16, -1.07220633e-16, -1.064839102e-16, -1.049984307e-16, -1.029912533e-16, -1.006249468e-16, -9.801585762e-17], "AUX_ENDO_LEAD_83": [0, -0.006621700559, -0.006193035869, -0.00563642256, -0.005036946857, -0.004436669043, -0.00386036644, -0.003321947017, -0.002828196338, -0.002381311876, -0.001980629097, -0.001623786848, -0.001307503866, -0.001028086945, -0.0007817551156, -0.0005648387778, -0.0003738947615, -0.0002057657032, -5.760328125e-05, 7.313133023e-05, 0.000188680744], "AUX_ENDO_LEAD_87": [0, -0.006193035869, -0.00563642256, -0.005036946857, -0.004436669043, -0.00386036644, -0.003321947017, -0.002828196338, -0.002381311876, -0.001980629097, -0.001623786848, -0.001307503866, -0.001028086945, -0.0007817551156, -0.0005648387778, -0.0003738947615, -0.0002057657032, -5.760328125e-05, 7.313133023e-05, 0.000188680744, 0.0002910123263], "AUX_ENDO_LEAD_91": [0, -0.00563642256, -0.005036946857, -0.004436669043, -0.00386036644, -0.003321947017, -0.002828196338, -0.002381311876, -0.001980629097, -0.001623786848, -0.001307503866, -0.001028086945, -0.0007817551156, -0.0005648387778, -0.0003738947615, -0.0002057657032, -5.760328125e-05, 7.313133023e-05, 0.000188680744, 0.0002910123263, 0.0003818428671], "AUX_ENDO_LEAD_118": [0, -0.1155820347, -0.1348432464, -0.1401121858, -0.1367571234, -0.1283876249, -0.1173948823, -0.1053314095, -0.09317664206, -0.08152209097, -0.07069989323, -0.06087161662, -0.05208921988, -0.04433656292, -0.03755737863, -0.03167386271, -0.02659879743, -0.02224325003, -0.01852126916, -0.01535256876, -0.01266388339], "AUX_ENDO_LEAD_122": [0, -0.1348432464, -0.1401121858, -0.1367571234, -0.1283876249, -0.1173948823, -0.1053314095, -0.09317664206, -0.08152209097, -0.07069989323, -0.06087161662, -0.05208921988, -0.04433656292, -0.03755737863, -0.03167386271, -0.02659879743, -0.02224325003, -0.01852126916, -0.01535256876, -0.01266388339, -0.01038946543], "AUX_ENDO_LEAD_126": [0, -0.1401121858, -0.1367571234, -0.1283876249, -0.1173948823, -0.1053314095, -0.09317664206, -0.08152209097, -0.07069989323, -0.06087161662, -0.05208921988, -0.04433656292, -0.03755737863, -0.03167386271, -0.02659879743, -0.02224325003, -0.01852126916, -0.01535256876, -0.01266388339, -0.01038946543, -0.00847104482], "AUX_ENDO_LEAD_153": [0, -0.1155820347, -0.1348432464, -0.1401121858, -0.1367571234, -0.1283876249, -0.1173948823, -0.1053314095, -0.09317664206, -0.08152209097, -0.07069989323, -0.06087161662, -0.05208921988, -0.04433656292, -0.03755737863, -0.03167386271, -0.02659879743, -0.02224325003, -0.01852126916, -0.01535256876, -0.01266388339], "AUX_ENDO_LEAD_157": [0, -0.1348432464, -0.1401121858, -0.1367571234, -0.1283876249, -0.1173948823, -0.1053314095, -0.09317664206, -0.08152209097, -0.07069989323, -0.06087161662, -0.05208921988, -0.04433656292, -0.03755737863, -0.03167386271, -0.02659879743, -0.02224325003, -0.01852126916, -0.01535256876, -0.01266388339, -0.01038946543], "AUX_ENDO_LEAD_161": [0, -0.1401121858, -0.1367571234, -0.1283876249, -0.1173948823, -0.1053314095, -0.09317664206, -0.08152209097, -0.07069989323, -0.06087161662, -0.05208921988, -0.04433656292, -0.03755737863, -0.03167386271, -0.02659879743, -0.02224325003, -0.01852126916, -0.01535256876, -0.01266388339, -0.01038946543, -0.00847104482], "AUX_ENDO_LAG_13_1": [0, 0, -0.001620882303, -0.00165542514, -0.001548258967, -0.00140910564, -0.001259236714, -0.001109167261, -0.0009650916099, -0.0008304867541, -0.0007070490845, -0.0005953279689, -0.0004951572743, -0.0004059467119, -0.0003268759666, -0.0002570217363, -0.0001954387789, -0.0001412096944, -9.347369038e-05, -5.144142579e-05, -1.440082031e-05], "AUX_ENDO_LAG_13_2": [0, 0, -2.493216413e-15, -0.001620882303, -0.00165542514, -0.001548258967, -0.00140910564, -0.001259236714, -0.001109167261, -0.0009650916099, -0.0008304867541, -0.0007070490845, -0.0005953279689, -0.0004951572743, -0.0004059467119, -0.0003268759666, -0.0002570217363, -0.0001954387789, -0.0001412096944, -9.347369038e-05, -5.144142579e-05], "AUX_ENDO_LAG_87_1": [0, 0, -0.07445142961, -0.1155820347, -0.1348432464, -0.1401121858, -0.1367571234, -0.1283876249, -0.1173948823, -0.1053314095, -0.09317664206, -0.08152209097, -0.07069989323, -0.06087161662, -0.05208921988, -0.04433656292, -0.03755737863, -0.03167386271, -0.02659879743, -0.02224325003, -0.01852126916], "AUX_ENDO_LAG_87_2": [0, 0, 0, -0.07445142961, -0.1155820347, -0.1348432464, -0.1401121858, -0.1367571234, -0.1283876249, -0.1173948823, -0.1053314095, -0.09317664206, -0.08152209097, -0.07069989323, -0.06087161662, -0.05208921988, -0.04433656292, -0.03755737863, -0.03167386271, -0.02659879743, -0.02224325003], "AUX_ENDO_LAG_87_3": [0, 0, 0, 0, -0.07445142961, -0.1155820347, -0.1348432464, -0.1401121858, -0.1367571234, -0.1283876249, -0.1173948823, -0.1053314095, -0.09317664206, -0.08152209097, -0.07069989323, -0.06087161662, -0.05208921988, -0.04433656292, -0.03755737863, -0.03167386271, -0.02659879743], "AUX_ENDO_LAG_86_1": [0, 0, -0.07445142961, -0.1155820347, -0.1348432464, -0.1401121858, -0.1367571234, -0.1283876249, -0.1173948823, -0.1053314095, -0.09317664206, -0.08152209097, -0.07069989323, -0.06087161662, -0.05208921988, -0.04433656292, -0.03755737863, -0.03167386271, -0.02659879743, -0.02224325003, -0.01852126916], "AUX_ENDO_LAG_86_2": [0, 0, 0, -0.07445142961, -0.1155820347, -0.1348432464, -0.1401121858, -0.1367571234, -0.1283876249, -0.1173948823, -0.1053314095, -0.09317664206, -0.08152209097, -0.07069989323, -0.06087161662, -0.05208921988, -0.04433656292, -0.03755737863, -0.03167386271, -0.02659879743, -0.02224325003], "AUX_ENDO_LAG_86_3": [0, 0, 0, 0, -0.07445142961, -0.1155820347, -0.1348432464, -0.1401121858, -0.1367571234, -0.1283876249, -0.1173948823, -0.1053314095, -0.09317664206, -0.08152209097, -0.07069989323, -0.06087161662, -0.05208921988, -0.04433656292, -0.03755737863, -0.03167386271, -0.02659879743], "AUX_ENDO_LAG_83_1": [0, 0, 0.9114563154, 0.622833766, 0.421266113, 0.2807200193, 0.1838634699, 0.1176255504, 0.07274322865, 0.04269500199, 0.02290014935, 0.01014869081, 0.002197550119, -0.002515262628, -0.005072788577, -0.006221954301, -0.006474397204, -0.006177548954, -0.005564675261, -0.004790037801, -0.00395354722], "AUX_ENDO_LAG_83_2": [0, 0, 0, 0.9114563154, 0.622833766, 0.421266113, 0.2807200193, 0.1838634699, 0.1176255504, 0.07274322865, 0.04269500199, 0.02290014935, 0.01014869081, 0.002197550119, -0.002515262628, -0.005072788577, -0.006221954301, -0.006474397204, -0.006177548954, -0.005564675261, -0.004790037801], "AUX_ENDO_LAG_83_3": [0, 0, 0, 0, 0.9114563154, 0.622833766, 0.421266113, 0.2807200193, 0.1838634699, 0.1176255504, 0.07274322865, 0.04269500199, 0.02290014935, 0.01014869081, 0.002197550119, -0.002515262628, -0.005072788577, -0.006221954301, -0.006474397204, -0.006177548954, -0.005564675261], "AUX_ENDO_LAG_85_1": [0, 0, -0.006483529211, -0.006621700559, -0.006193035869, -0.00563642256, -0.005036946857, -0.004436669043, -0.00386036644, -0.003321947017, -0.002828196338, -0.002381311876, -0.001980629097, -0.001623786848, -0.001307503866, -0.001028086945, -0.0007817551156, -0.0005648387778, -0.0003738947615, -0.0002057657032, -5.760328125e-05], "AUX_ENDO_LAG_85_2": [0, 0, 7.394219061e-15, -0.006483529211, -0.006621700559, -0.006193035869, -0.00563642256, -0.005036946857, -0.004436669043, -0.00386036644, -0.003321947017, -0.002828196338, -0.002381311876, -0.001980629097, -0.001623786848, -0.001307503866, -0.001028086945, -0.0007817551156, -0.0005648387778, -0.0003738947615, -0.0002057657032], "AUX_ENDO_LAG_85_3": [0, 0, 6.375703875e-17, 7.42989046e-15, -0.006483529211, -0.006621700559, -0.006193035869, -0.00563642256, -0.005036946857, -0.004436669043, -0.00386036644, -0.003321947017, -0.002828196338, -0.002381311876, -0.001980629097, -0.001623786848, -0.001307503866, -0.001028086945, -0.0007817551156, -0.0005648387778, -0.0003738947615]}, "fiscal_": {"cs": [0, 0.2483745324, 0.2279095437, 0.2080454385, 0.1888479674, 0.1703450561, 0.1525271, 0.1353631287, 0.1188119524, 0.1028290522, 0.08737062781, 0.07239581222, 0.05786772719, 0.04375382985, 0.0300258424, 0.01665945413, 0.003633914686, -0.009068408567, -0.02146246617, -0.03356093204, -0.04537456744], "cn": [0, 1.091859081, 0.9989218894, 0.9168595081, 0.8450228739, 0.7825082254, 0.7282591814, 0.6811931876, 0.6402767954, 0.6045650213, 0.5732180985, 0.5455045862, 0.5207966734, 0.4985614119, 0.4783502029, 0.4597879434, 0.4425626315, 0.426415852, 0.4111343193, 0.3965425156, 0.3824963756], "R": [0, 0.02433823003, 0.03483081639, 0.04018758089, 0.04267145834, 0.04225813192, 0.04018665937, 0.03731423991, 0.03417169338, 0.03107170124, 0.0281859916, 0.02559721541, 0.02333332875, 0.02139010025, 0.01974561839, 0.01836945143, 0.0172282674, 0.01628913856, 0.0155213549, 0.01489729715, 0.01439273349], "i": [0, -0.3829689868, -0.7224684366, -1.018083162, -1.271680577, -1.486464699, -1.666434274, -1.815813268, -1.938705626, -2.038908557, -2.119826362, -2.184445646, -2.235346271, -2.27473159, -2.304467613, -2.326124793, -2.34101876, -2.350248024, -2.354727737, -2.355219232, -2.352355452], "k": [0, 1.107617208, 1.011270555, 0.9251960255, 0.8489132883, 0.7816689682, 0.7225374519, 0.6705470444, 0.6247568809, 0.5842983181, 0.5483937864, 0.5163619086, 0.4876146461, 0.461650168, 0.4380437656, 0.4164382224, 0.3965344609, 0.3780829029, 0.3608757466, 0.344740214, 0.3295327428], "v": [0, 1.107617208, 1.021750912, 0.9551606993, 0.9059188838, 0.8719154465, 0.8509929385, 0.8410909691, 0.8403253647, 0.8470222969, 0.85972496, 0.8771844916, 0.898342629, 0.9223107863, 0.9483483805, 0.975842031, 1.004286483, 1.033267627, 1.062447695, 1.091552543, 1.12036085], "l": [0, 1.271535579, 1.166517207, 1.074666869, 0.9951640917, 0.9268967841, 0.868591159, 0.8189537977, 0.7767559473, 0.7408770678, 0.7103227847, 0.68422745, 0.6618479538, 0.6425530228, 0.6258106419, 0.6111751831, 0.5982751397, 0.5868019325, 0.5764999798, 0.5671580632, 0.5586019283], "y": [0, 1.387884468, 1.271425826, 1.1688893, 1.079467512, 1.00202763, 0.9352485166, 0.8777767088, 0.8283197312, 0.7856949317, 0.7488502854, 0.7168682763, 0.688960097, 0.664454792, 0.6427862329, 0.6234796641, 0.6061388159, 0.5904341042, 0.5760921405, 0.5628865972, 0.5506303707], "gc": [0, 9.090909091, 8.945890572, 8.803185394, 8.662756654, 8.524568039, 8.388583813, 8.254768813, 8.123088435, 7.993508627, 7.865995881, 7.740517223, 7.617040205, 7.495532897, 7.375963878, 7.258302229, 7.142517523, 7.028579818, 6.916459652, 6.806128032, 6.697556425], "c": [0, 0.2483745324, 0.2279095437, 0.2080454385, 0.1888479674, 0.1703450561, 0.1525271, 0.1353631287, 0.1188119524, 0.1028290522, 0.08737062781, 0.07239581222, 0.05786772719, 0.04375382985, 0.0300258424, 0.01665945413, 0.003633914686, -0.009068408567, -0.02146246617, -0.03356093204, -0.04537456744], "q": [0, -0.245501795, -0.2453778517, -0.2333942316, -0.2145766065, -0.1918052296, -0.1680753083, -0.145189109, -0.1241086833, -0.1052648438, -0.08876558633, -0.07453221666, -0.06238662413, -0.05210597061, -0.04345587687, -0.03620960263, -0.03015825664, -0.02511539152, -0.02091819559, -0.01742672075, -0.01452206756], "rk": [0, 0.1601114975, 0.1476991035, 0.1380731618, 0.130955016, 0.1260396524, 0.1230152013, 0.1215838231, 0.1214731512, 0.1224412256, 0.1242774578, 0.1268013187, 0.1298598312, 0.1333245458, 0.1370884077, 0.1410627497, 0.1451745347, 0.1493639011, 0.153582023, 0.1577892714, 0.1619536535], "w": [0, -0.003806873529, -0.007547548539, -0.01139768219, -0.01529578738, -0.01918816351, -0.0230385058, -0.02682293029, -0.03052591521, -0.03413752412, -0.03765154057, -0.04106422277, -0.04437347655, -0.04757830889, -0.0506784686, -0.053674211, -0.05656614419, -0.05935512845, -0.06204221016, -0.06462857781, -0.06711553199], "pi": [0, 0.009702052042, 0.009634114637, 0.009068574998, 0.008553354828, 0.008110448319, 0.007730961818, 0.007405208724, 0.007124591868, 0.00688168672, 0.00667016356, 0.006484675655, 0.006320738306, 0.006174610273, 0.006043183667, 0.005923885165, 0.005814589445, 0.005713544615, 0.005619308756, 0.005530696434, 0.005446733939], "b": [0, 0.0653049326, 0.5930814047, 1.139850534, 1.698925712, 2.265958223, 2.836706807, 3.408320864, 3.978960571, 4.547462624, 5.113109173, 5.675471906, 6.234307743, 6.789489674, 7.34096138, 7.888707861, 8.432736736, 8.973066618, 9.509720117, 10.04271981, 10.57208613], "sb": [0, -1.322579536, -0.6783444212, -0.02903876566, 0.6194581998, 1.263930593, 1.90145829, 2.530544155, 3.15064084, 3.761767692, 4.364258888, 4.95860363, 5.545347646, 6.125034882, 6.698175147, 7.265228197, 7.82659792, 8.382632514, 8.933627976, 9.479833215, 10.02145576], "tauk": [0, 4.182990013e-16, 3.089571315e-13, 3.064870959e-13, 3.03709094e-13, 3.007523617e-13, 2.977250888e-13, 2.94685497e-13, 2.91669175e-13, 2.886972189e-13, 2.857811844e-13, 2.829264338e-13, 2.801344063e-13, 2.774041443e-13, 2.747333091e-13, 2.72118846e-13, 2.695574103e-13, 2.670456329e-13, 2.645802776e-13, 2.621583277e-13, 2.597770269e-13], "taul": [0, -3.46008361e-16, 2.922320558e-15, 2.916834173e-15, 2.788561879e-15, 2.605023564e-15, 2.386296786e-15, 2.144044363e-15, 1.886300894e-15, 1.618699359e-15, 1.345200932e-15, 1.068597297e-15, 7.908610124e-16, 5.13390083e-16, 2.371786569e-16, -3.706383709e-17, -3.088295023e-16, -5.777538403e-16, -8.435750628e-16, -1.106105549e-15, -1.365211753e-15], "tauc": [0, 0, 0, 0, 0, 0, 0, 0, 0, 0, 0, 0, 0, 0, 0, 0, 0, 0, 0, 0, 0], "r": [0, 0.0147041154, 0.02576224139, 0.03163422607, 0.03456101002, 0.0345271701, 0.03278145065, 0.03018964804, 0.02729000666, 0.02440153768, 0.02170131595, 0.01927647711, 0.01715871848, 0.01534691658, 0.01382173322, 0.01255486199, 0.01151472278, 0.0106698298, 0.009990658466, 0.009450563207, 0.009026111465], "z": [0, 1.392550261e-16, 0.005290318143, 0.007897889465, 0.007856086738, 0.005221132204, 6.098718659e-05, -0.007546065719, -0.01751732102, -0.02976953796, -0.04422121797, -0.06079382916, -0.0794123671, -0.1000055103, -0.1225055397, -0.1468481295, -0.1729720797, -0.2008190297, -0.2303331792, -0.2614610275, -0.2941511398], "mc": [0, 0.05028618891, 0.04368384664, 0.03792769632, 0.03296697772, 0.02873701574, 0.02515921753, 0.02215129832, 0.01963377671, 0.01753346328, 0.0157850289, 0.01433140591, 0.013123515, 0.01211963317, 0.01128460059, 0.01058898602, 0.01000827983, 0.009522151319, 0.009113786787, 0.008769312431, 0.008477299235], "kbar": [0, -0.01048035683, -0.02996467383, -0.05700559544, -0.09024647835, -0.1284554866, -0.1705439247, -0.2155684838, -0.2627239788, -0.3113311737, -0.3608225831, -0.410727983, -0.4606606182, -0.5103046149, -0.5594038086, -0.6077520221, -0.6551847243, -0.7015719484, -0.7468123286, -0.7908281076, -0.8335609772], "lambda": [0, 1.325106698, 1.310402583, 1.284640341, 1.253006115, 1.218445105, 1.183917935, 1.151136484, 1.120946836, 1.09365683, 1.069255292, 1.047553976, 1.028277499, 1.01111878, 0.9957718639, 0.9819501307, 0.9693952687, 0.9578805459, 0.9472107161, 0.9372200576, 0.9277694944], "Pb": [0, -0.4522535453, -0.4515329272, -0.4397008407, -0.4215632981, -0.3998037355, -0.3772793523, -0.3556975993, -0.3359556555, -0.3184401, -0.3032289092, -0.2902231569, -0.2792312443, -0.270021499, -0.2623539267, -0.2559984084, -0.2507442353, -0.2464042411, -0.2428156744, -0.2398392059, -0.2373569603], "cstar": [0, -0.0171368488, -0.03386191657, -0.05003752022, -0.06559482662, -0.08050398144, -0.09477380447, -0.1084351402, -0.1215293762, -0.1341013459, -0.1461951582, -0.1578519175, -0.1691086349, -0.1799978716, -0.1905478112, -0.2007825658, -0.2107225953, -0.2203851627, -0.2297847829, -0.2389336396, -0.2478419606], "piL": [0, 0.1174337855, 0.113749378, 0.1104583728, 0.1075293858, 0.104906093, 0.102538446, 0.1003838553, 0.09840645265, 0.09657622431, 0.09486817912, 0.09326158848, 0.09173931189, 0.09028721059, 0.08889364488, 0.08754904798, 0.08624556775, 0.08497676723, 0.08373737569, 0.08252308236, 0.08133036603], "rL": [0, 0.3348197598, 0.3377835492, 0.3292424679, 0.3140339123, 0.2948976424, 0.2747409063, 0.255313744, 0.2375492028, 0.2218638757, 0.20836073, 0.1969615684, 0.1874919324, 0.1797342884, 0.1734602819, 0.1684493604, 0.1644986676, 0.1614274739, 0.1590782987, 0.1573161235, 0.1560265943], "S": [0, -50.29521765, -50.71415427, -50.96083826, -51.04516949, -50.98119186, -50.7854346, -50.47493973, -50.06604538, -49.57374197, -49.01139197, -48.3906698, -47.72162825, -47.01283155, -46.27151763, -45.5037669, -44.71466451, -43.90844937, -43.08864674, -42.25818391, -41.41948944], "rb": [0, -0.4383002932, 0.0147041154, 0.02576224139, 0.03163422607, 0.03456101002, 0.0345271701, 0.03278145065, 0.03018964804, 0.02729000666, 0.02440153768, 0.02170131595, 0.01927647711, 0.01715871848, 0.01534691658, 0.01382173322, 0.01255486199, 0.01151472278, 0.0106698298, 0.009990658467, 0.009450563207], "Tk": [0, 1.267728705, 1.158969659, 1.063269187, 0.9798683043, 0.9077086206, 0.8455526532, 0.7921308675, 0.7462300321, 0.7067395437, 0.6726712442, 0.6431632273, 0.6174744773, 0.5949747139, 0.5751321733, 0.5575009721, 0.5417089955, 0.5274468041, 0.5144577697, 0.5025294854, 0.4914863963], "Tl": [0, 1.267728705, 1.158969659, 1.063269187, 0.9798683043, 0.9077086206, 0.8455526532, 0.7921308675, 0.7462300321, 0.7067395437, 0.6726712442, 0.6431632273, 0.6174744773, 0.5949747139, 0.5751321733, 0.5575009721, 0.5417089955, 0.5274468041, 0.5144577697, 0.5025294854, 0.4914863963], "Tc": [0, 0.2483745324, 0.2279095437, 0.2080454385, 0.1888479674, 0.1703450561, 0.1525271, 0.1353631287, 0.1188119524, 0.1028290522, 0.08737062781, 0.07239581222, 0.05786772719, 0.04375382985, 0.0300258424, 0.01665945413, 0.003633914686, -0.009068408567, -0.02146246617, -0.03356093204, -0.04537456744], "cobs": [0, 24.83745324, -2.046498868, -1.986410526, -1.919747104, -1.850291138, -1.781795612, -1.71639713, -1.655117624, -1.598290026, -1.545842435, -1.49748156, -1.452808503, -1.411389734, -1.372798745, -1.336638826, -1.302553945, -1.270232325, -1.239405761, -1.209846586, -1.181363541], "iobs": [0, -38.29689868, -33.94994498, -29.56147255, -25.35974151, -21.47841215, -17.99695749, -14.93789942, -12.28923585, -10.02029305, -8.091780497, -6.461928416, -5.090062493, -3.938531913, -2.973602337, -2.165718002, -1.48939663, -0.9229264096, -0.4479713159, -0.04914946303, 0.2863779136], "gcobs": [0, 909.0909091, -14.50185189, -14.27051782, -14.04287399, -13.81886154, -13.59842255, -13.38150001, -13.16803782, -12.9579808, -12.7512746, -12.5478658, -12.34770178, -12.15073078, -11.95690187, -11.76616493, -11.57847063, -11.39377044, -11.21201659, -11.03316209, -10.85716068], "wobs": [0, -0.3806873529, -0.3740675011, -0.3850133655, -0.3898105183, -0.3892376131, -0.3850342294, -0.3784424486, -0.3702984917, -0.361160891, -0.3514016452, -0.3412682206, -0.3309253781, -0.3204832335, -0.3100159707, -0.2995742409, -0.2891933188, -0.2788984254, -0.2687081713, -0.2586367653, -0.2486954174], "bobs": [0, 6.53049326, 52.77764721, 54.67691293, 55.90751781, 56.70325108, 57.07485842, 57.16140566, 57.06397075, 56.85020526, 56.56465491, 56.2362733, 55.8835837, 55.51819307, 55.14717067, 54.77464808, 54.40288745, 54.03298827, 53.66534984, 53.29996956, 52.9366319], "Robs": [0, 2.433823003, 3.483081639, 4.018758089, 4.267145834, 4.225813192, 4.018665937, 3.731423991, 3.417169338, 3.107170124, 2.81859916, 2.559721541, 2.333332875, 2.139010025, 1.974561839, 1.836945143, 1.72282674, 1.628913856, 1.55213549, 1.489729715, 1.439273349], "Piobs": [0, 0.9702052042, 0.9634114637, 0.9068574998, 0.8553354828, 0.8110448319, 0.7730961818, 0.7405208724, 0.7124591868, 0.688168672, 0.667016356, 0.6484675655, 0.6320738306, 0.6174610273, 0.6043183667, 0.5923885165, 0.5814589445, 0.5713544615, 0.5619308756, 0.5530696434, 0.5446733939], "Lobs": [0, 127.1535579, 116.6517207, 107.4666869, 99.51640917, 92.68967841, 86.8591159, 81.89537977, 77.67559473, 74.08770678, 71.03227847, 68.422745, 66.18479538, 64.25530228, 62.58106419, 61.11751831, 59.82751397, 58.68019325, 57.64999798, 56.71580632, 55.86019283], "ugc": [0, 9.090909091, -1.016381436e-14, -1.049407629e-14, -1.068873069e-14, -1.076464359e-14, -1.074794766e-14, -1.065824444e-14, -1.051124336e-14, -1.031952185e-14, -1.009309676e-14, -9.839907207e-15, -9.566219502e-15, -9.276962025e-15, -8.975999099e-15, -8.666352914e-15, -8.350381989e-15, -8.02992376e-15, -7.706407885e-15, -7.380945859e-15, -7.054401591e-15], "uz": [0, 0, -2.431132143e-43, -2.835083885e-43, -2.622971677e-43, -2.258302824e-43, -1.889579836e-43, -1.560414657e-43, -1.279655451e-43, -1.044963807e-43, -8.508072183e-44, -6.911746808e-44, -5.604754493e-44, -4.537989134e-44, -3.66945696e-44, -2.963774959e-44, -2.391410072e-44, -1.927875625e-44, -1.552971466e-44, -1.250100607e-44, -1.005671645e-44], "ua": [0, 4.739489433e-18, 1.191658209e-18, 2.996207307e-19, 7.533417012e-20, 1.894140361e-20, 4.762470602e-21, 1.197436405e-21, 3.010735527e-22, 7.569945575e-23, 1.903324802e-23, 4.785563209e-24, 1.203242622e-24, 3.025334218e-25, 7.606651437e-26, 1.912553907e-26, 4.808768725e-27, 1.209077671e-27, 3.040008612e-28, 7.643570898e-29, 1.921853561e-29], "ub": [0, 0, -1.538898363e-32, -1.320955094e-32, -9.306853175e-33, -6.360549154e-33, -4.389279348e-33, -3.078395685e-33, -2.187291683e-33, -1.567344208e-33, -1.128690493e-33, -8.150266414e-34, -5.893837685e-34, -4.265307117e-34, -3.08793666e-34, -2.235991718e-34, -1.619250661e-34, -1.172679037e-34, -8.49287997e-35, -6.150867028e-35, -4.454721884e-35], "um": [0, 0, 0, 0, 0, 0, 0, 0, 0, 0, 0, 0, 0, 0, 0, 0, 0, 0, 0, 0, 0], "ui": [0, 6.88466008e-17, 3.520896772e-17, 1.800628344e-17, 9.20862679e-18, 4.709400894e-18, 2.40844344e-18, 1.231706524e-18, 6.299093163e-19, 3.22143091e-19, 1.647477952e-19, 8.425397532e-20, 4.308848168e-20, 2.203596028e-20, 1.126945129e-20, 5.763330972e-21, 2.947435775e-21, 1.507353593e-21, 7.708784946e-22, 3.942363998e-22, 2.016171679e-22], "uw": [0, -1.293257862e-16, -4.227591764e-17, -1.381977457e-17, -4.517611441e-18, -1.47678336e-18, -4.82752694e-19, -1.578093103e-19, -5.158703147e-20, -1.686352859e-20, -5.512598581e-21, -1.80203941e-21, -5.890771817e-22, -1.925662247e-22, -6.294888353e-23, -2.057765812e-23, -6.726727941e-24, -2.198931896e-24, -7.18819242e-25, -2.349782197e-25, -7.681314079e-26], "up": [0, -3.019304485e-17, -2.18672932e-17, -1.583737296e-17, -1.147020712e-17, -8.307290087e-18, -6.016549473e-18, -4.357482064e-18, -3.155903566e-18, -2.285661117e-18, -1.655388585e-18, -1.198914112e-18, -8.683127703e-19, -6.288749623e-19, -4.554622847e-19, -3.298682651e-19, -2.389068776e-19, -1.730281516e-19, -1.253155269e-19, -9.075968928e-20, -6.573264626e-20], "csf": [0, 0.2405103787, 0.2148513341, 0.1916489872, 0.1703829961, 0.1506561505, 0.1321651915, 0.1146785408, 0.09801930475, 0.08205230244, 0.06667416688, 0.0518057902, 0.03738655873, 0.02336995367, 0.009720194335, -0.003590323185, -0.01658298005, -0.02927442539, -0.04167771326, -0.05380316982, -0.06565905435], "cnf": [0, 0.9897707593, 0.8776251192, 0.7898548666, 0.7206279015, 0.6654951797, 0.6210631975, 0.5847440251, 0.5545645236, 0.5290207361, 0.5069667549, 0.487529902, 0.4700459945, 0.4540099364, 0.4390380108, 0.4248391004, 0.4111927232, 0.3979322692, 0.3849322069, 0.3720983197, 0.3593602551], "if": [0, -0.6246734725, -1.099218895, -1.459030418, -1.731127254, -1.936136503, -2.089806506, -2.204161886, -2.288385107, -2.34948931, -2.392831841, -2.422506196, -2.44164116, -2.452629128, -2.457300363, -2.457055997, -2.452969541, -2.445864368, -2.436372846, -2.42498147, -2.412065317], "kf": [0, 1.004055508, 0.8876897728, 0.7949894829, 0.7204263188, 0.6597799638, 0.6098284118, 0.5681115998, 0.5327510068, 0.5023119655, 0.475698575, 0.4520734954, 0.4307967326, 0.4113789171, 0.3934456457, 0.3767102653, 0.3609531017, 0.3460056059, 0.3317382547, 0.3180513158, 0.3048677999], "vf": [0, 1.004055508, 0.9047846319, 0.8416978263, 0.8057843696, 0.7901762531, 0.7896407175, 0.8001929442, 0.8188004492, 0.8431574696, 0.87151277, 0.9025382189, 0.9352284848, 0.9688244814, 1.00275494, 1.036591816, 1.070016257, 1.102792629, 1.13474869, 1.165760464, 1.195740696], "lf": [0, 1.220684084, 1.082900302, 0.9765888072, 0.894277186, 0.8302633239, 0.7801962281, 0.7407560969, 0.7094101398, 0.684226213, 0.6637305803, 0.6467993525, 0.6325756318, 0.6204062731, 0.6097936197, 0.6003586666, 0.5918129461, 0.5839370701, 0.5765643536, 0.5695683163, 0.5628531429], "yf": [0, 1.310084186, 1.161068143, 1.044993574, 0.9540732958, 0.8823643492, 0.8253313276, 0.7795130907, 0.7422683936, 0.7115817429, 0.6859152211, 0.6640953944, 0.6452269984, 0.62862706, 0.6137746186, 0.6002723514, 0.5878172851, 0.5761784431, 0.5651797847, 0.554687185, 0.5445984969], "gcf": [0, 9.090909091, 8.945890572, 8.803185394, 8.662756654, 8.524568039, 8.388583813, 8.254768813, 8.123088435, 7.993508627, 7.865995881, 7.740517223, 7.617040205, 7.495532897, 7.375963878, 7.258302229, 7.142517523, 7.028579818, 6.916459652, 6.806128032, 6.697556425], "cf": [0, 0.2405103787, 0.2148513341, 0.1916489872, 0.1703829961, 0.1506561505, 0.1321651915, 0.1146785408, 0.09801930475, 0.08205230244, 0.06667416688, 0.0518057902, 0.03738655873, 0.02336995367, 0.009720194335, -0.003590323185, -0.01658298005, -0.02927442539, -0.04167771326, -0.05380316982, -0.06565905435], "qf": [0, -0.8113112851, -0.6198871732, -0.4737509393, -0.3621806084, -0.2769928368, -0.2119418397, -0.162260635, -0.1243109068, -0.09531577144, -0.07315581562, -0.05621342736, -0.04325398446, -0.03333517403, -0.02573778249, -0.0199128724, -0.01544146631, -0.01200377618, -0.009355718422, -0.007310989489, -0.005727385387], "rkf": [0, 0.1451411461, 0.1307910543, 0.1216715472, 0.116480081, 0.1142238512, 0.114146437, 0.1156718131, 0.1183616191, 0.1218825458, 0.1259814435, 0.1304663243, 0.1351918625, 0.1400483285, 0.1449531426, 0.1498444289, 0.1546760958, 0.159414081, 0.1640334863, 0.1685163903, 0.1728501798], "wf": [0, -0.07148743016, -0.0644194745, -0.059927777, -0.05737078617, -0.05625950882, -0.0562213794, -0.05697268405, -0.0582975139, -0.06003170169, -0.06205056174, -0.06425953285, -0.06658703674, -0.06897902746, -0.07139483141, -0.07380397244, -0.07618374867, -0.07851738318, -0.08079261264, -0.08300061014, -0.08513516318], "bf": [0, 0.5239682473, 1.281808908, 1.998900407, 2.684103829, 3.344178002, 3.984277389, 4.608332087, 5.219337849, 5.819577446, 6.410789603, 6.994297942, 7.571109393, 8.141989297, 8.70751873, 9.268138254, 9.8241813, 10.37589965, 10.9234829, 11.46707327, 12.00677695], "sbf": [0, -0.7861159382, 0.1207407654, 0.9539068328, 1.730030533, 2.461813653, 3.158946062, 3.828818996, 4.477069455, 5.107995703, 5.724874381, 6.330202548, 6.925882395, 7.513362237, 8.093744112, 8.667865902, 9.236364015, 9.799721212, 10.35830312, 10.91238609, 11.46217845], "taukf": [0, 1.458578263e-16, 0, 0, 0, 0, 0, 0, 0, 0, 0, 0, 0, 0, 0, 0, 0, 0, 0, 0, 0], "taulf": [0, 0, 0, 0, 0, 0, 0, 0, 0, 0, 0, 0, 0, 0, 0, 0, 0, 0, 0, 0, 0], "taucf": [0, 0, 0, 0, 0, 0, 0, 0, 0, 0, 0, 0, 0, 0, 0, 0, 0, 0, 0, 0, 0], "rf": [0, 0.2192685774, 0.1682218897, 0.12932501, 0.09969894182, 0.07714639754, 0.0599903894, 0.04695103727, 0.03705154466, 0.02954643692, 0.02386679037, 0.01957842963, 0.0163500226, 0.01392872952, 0.01212161771, 0.01078147666, 0.00979599178, 0.009079481435, 0.008566590404, 0.00820747658, 0.007964137303], "zf": [0, 0, 0.003144463753, 0.002598611416, -0.001268988143, -0.008163730512, -0.01784771051, -0.03012654055, -0.04483928572, -0.06185077783, -0.08104574508, -0.1023243277, -0.1255986513, -0.1507902079, -0.1778278527, -0.2066462721, -0.2371848102, -0.2693865701, -0.3031977235, -0.3385669815, -0.3754451863], "mcf": [0, 0, 0, 0, 0, 0, 0, 0, 0, 0, 0, 0, 0, 0, 0, 0, 0, 0, 0, 0, 0], "kbarf": [0, -0.01709485917, -0.04670834336, -0.08535805083, -0.1303962892, -0.1798123058, -0.2320813444, -0.2860494423, -0.3408455041, -0.395814195, -0.4504647235, -0.5044317523, -0.5574455642, -0.6093092939, -0.6598815504, -0.7090631556, -0.7567870231, -0.8030104352, -0.8477091484, -0.8908728962, -0.9325019574], "lambdaf": [0, 1.951461377, 1.7321928, 1.56397091, 1.4346459, 1.334946958, 1.257800561, 1.197810171, 1.150859134, 1.113807589, 1.084261152, 1.060394362, 1.040815932, 1.02446591, 1.01053718, 0.9984155626, 0.9876340859, 0.9778380941, 0.9687586127, 0.9601920223, 0.9519845457], "cstarf": [0, -0.02523713645, -0.04731222002, -0.06692630143, -0.08461423855, -0.1007840781, -0.1157471121, -0.1297408162, -0.1429463567, -0.1555019511, -0.1675130639, -0.1790601882, -0.1902047835, -0.2009938066, -0.2114631691, -0.2216403754, -0.2315465349, -0.2411978978, -0.2506070254, -0.2597836832, -0.268735522], "Sf": [0, -51.87285649, -52.57539944, -52.88806052, -52.90373731, -52.69334514, -52.3110216, -51.7980987, -51.18613466, -50.49922776, -49.75578239, -48.96985698, -48.15219273, -47.31099882, -46.45255166, -45.58165234, -44.70197566, -43.81633663, -42.92689381, -42.03530453, -41.14284336], "rbf": [0, 0.2192685774, 0.1682218897, 0.12932501, 0.09969894182, 0.07714639754, 0.0599903894, 0.04695103727, 0.03705154466, 0.02954643692, 0.02386679037, 0.01957842963, 0.0163500226, 0.01392872952, 0.01212161771, 0.01078147666, 0.009795991781, 0.009079481435, 0.008566590404, 0.00820747658, 0.007964137303], "Tkf": [0, 1.149196654, 1.018480827, 0.9166610302, 0.8369063998, 0.7740038151, 0.7239748487, 0.6837834129, 0.6511126259, 0.6241945113, 0.6016800185, 0.5825398197, 0.5659885951, 0.5514272456, 0.5383987883, 0.5265546942, 0.5156291975, 0.5054196869, 0.495771741, 0.4865677061, 0.4777179797], "Tlf": [0, 1.149196654, 1.018480827, 0.9166610302, 0.8369063998, 0.7740038151, 0.7239748487, 0.6837834129, 0.6511126259, 0.6241945113, 0.6016800185, 0.5825398197, 0.5659885951, 0.5514272456, 0.5383987883, 0.5265546942, 0.5156291975, 0.5054196869, 0.495771741, 0.4865677061, 0.4777179797], "Tcf": [0, 0.2405103787, 0.2148513341, 0.1916489872, 0.1703829961, 0.1506561505, 0.1321651915, 0.1146785408, 0.09801930475, 0.08205230244, 0.06667416688, 0.0518057902, 0.03738655873, 0.02336995367, 0.009720194335, -0.003590323185, -0.01658298005, -0.02927442539, -0.04167771326, -0.05380316982, -0.06565905435], "cobsf": [0, 24.05103787, -2.565904456, -2.320234692, -2.126599111, -1.972684556, -1.849095904, -1.748665067, -1.665923609, -1.596700231, -1.537813557, -1.486837667, -1.441923147, -1.401660505, -1.364975934, -1.331051752, -1.299265687, -1.269144533, -1.240328788, -1.212545655, -1.185588453], "iobsf": [0, -62.46734725, -47.45454225, -35.98115233, -27.2096836, -20.50092486, -15.36700031, -11.43553802, -8.422322118, -6.110420288, -4.33425312, -2.967435435, -1.913496397, -1.098796831, -0.467123508, 0.02443666255, 0.4086455674, 0.7105172544, 0.949152253, 1.139137582, 1.291615279], "gcobsf": [0, 909.0909091, -14.50185189, -14.27051782, -14.04287399, -13.81886154, -13.59842255, -13.38150001, -13.16803782, -12.9579808, -12.7512746, -12.5478658, -12.34770178, -12.15073078, -11.95690187, -11.76616493, -11.57847063, -11.39377044, -11.21201659, -11.03316209, -10.85716068], "wobsf": [0, -7.148743016, 0.7067955662, 0.4491697499, 0.2556990829, 0.1111277349, 0.003812942353, -0.07513046454, -0.1324829852, -0.1734187788, -0.2018860051, -0.2208971114, -0.2327503892, -0.2391990717, -0.2415803954, -0.2409141027, -0.2379776227, -0.2333634515, -0.2275229461, -0.22079975, -0.2134553037], "bobsf": [0, 52.39682473, 75.78406609, 71.7091499, 68.52034214, 66.00741733, 64.00993874, 62.40546973, 61.10057624, 60.02395967, 59.12121569, 58.35083396, 57.68114509, 57.08799037, 56.55294335, 56.06195236, 55.60430463, 55.17183546, 54.75832486, 54.35903684, 53.97036797], "Lobsf": [0, 122.0684084, 108.2900302, 97.65888072, 89.4277186, 83.02633239, 78.01962281, 74.07560969, 70.94101398, 68.4226213, 66.37305803, 64.67993525, 63.25756318, 62.04062731, 60.97936197, 60.03586666, 59.18129461, 58.39370701, 57.65643536, 56.95683163, 56.28531429], "interest": [0, 0.09735292013, 0.1393232655, 0.1607503236, 0.1706858334, 0.1690325277, 0.1607466375, 0.1492569596, 0.1366867735, 0.124286805, 0.1127439664, 0.1023888616, 0.093333315, 0.08556040101, 0.07898247356, 0.07347780573, 0.06891306959, 0.06515655422, 0.0620854196, 0.05958918858, 0.05757093397], "inflation": [0, 0.009702052042, 0.01933616668, 0.02840474168, 0.0369580965, 0.03536649278, 0.03346333996, 0.03179997369, 0.03037121073, 0.02914244913, 0.02808165087, 0.0271611178, 0.02635726424, 0.02565018779, 0.0250232079, 0.02446241741, 0.02395626855, 0.02349520289, 0.02307132798, 0.02267813925, 0.02231028374], "inflationq": [0, 0.03880820817, 0.03853645855, 0.03627429999, 0.03421341931, 0.03244179328, 0.03092384727, 0.0296208349, 0.02849836747, 0.02752674688, 0.02668065424, 0.02593870262, 0.02528295322, 0.02469844109, 0.02417273467, 0.02369554066, 0.02325835778, 0.02285417846, 0.02247723503, 0.02212278574, 0.02178693575], "outputgap": [0, 0.07780028285, 0.1103576831, 0.1238957253, 0.1253942165, 0.1196632803, 0.109917189, 0.09826361814, 0.08605133758, 0.07411318876, 0.06293506429, 0.0527728819, 0.04373309861, 0.03582773201, 0.0290116143, 0.02320731276, 0.01832153082, 0.0142556611, 0.01091235575, 0.008199412211, 0.006031873774], "output": [0, 1.387884468, 1.271425826, 1.1688893, 1.079467512, 1.00202763, 0.9352485166, 0.8777767088, 0.8283197312, 0.7856949317, 0.7488502854, 0.7168682763, 0.688960097, 0.664454792, 0.6427862329, 0.6234796641, 0.6061388159, 0.5904341042, 0.5760921405, 0.5628865972, 0.5506303707], "fispol": [0, 9.090909091, -5.192351792e-15, -5.355720943e-15, -5.451314432e-15, -5.487564824e-15, -5.47753802e-15, -5.431034351e-15, -5.355908103e-15, -5.258447578e-15, -5.143660778e-15, -5.01551686e-15, -4.877148579e-15, -4.73101973e-15, -4.579062085e-15, -4.42278636e-15, -4.263371437e-15, -4.101735665e-15, -3.938593509e-15, -3.774500358e-15, -3.609887816e-15], "AUX_ENDO_LEAD_83": [0, 0.03853645855, 0.03627429999, 0.03421341931, 0.03244179328, 0.03092384727, 0.0296208349, 0.02849836747, 0.02752674688, 0.02668065424, 0.02593870262, 0.02528295322, 0.02469844109, 0.02417273467, 0.02369554066, 0.02325835778, 0.02285417846, 0.02247723503, 0.02212278574, 0.02178693575, 0.02146648812], "AUX_ENDO_LEAD_87": [0, 0.03627429999, 0.03421341931, 0.03244179328, 0.03092384727, 0.0296208349, 0.02849836747, 0.02752674688, 0.02668065424, 0.02593870262, 0.02528295322, 0.02469844109, 0.02417273467, 0.02369554066, 0.02325835778, 0.02285417846, 0.02247723503, 0.02212278574, 0.02178693575, 0.02146648812, 0.02115882022], "AUX_ENDO_LEAD_91": [0, 0.03421341931, 0.03244179328, 0.03092384727, 0.0296208349, 0.02849836747, 0.02752674688, 0.02668065424, 0.02593870262, 0.02528295322, 0.02469844109, 0.02417273467, 0.02369554066, 0.02325835778, 0.02285417846, 0.02247723503, 0.02212278574, 0.02178693575, 0.02146648812, 0.02115882022, 0.02086178177], "AUX_ENDO_LEAD_118": [0, 0.1103576831, 0.1238957253, 0.1253942165, 0.1196632803, 0.109917189, 0.09826361814, 0.08605133758, 0.07411318876, 0.06293506429, 0.0527728819, 0.04373309861, 0.03582773201, 0.0290116143, 0.02320731276, 0.01832153082, 0.0142556611, 0.01091235575, 0.008199412211, 0.006031873774, 0.004332964845], "AUX_ENDO_LEAD_122": [0, 0.1238957253, 0.1253942165, 0.1196632803, 0.109917189, 0.09826361814, 0.08605133758, 0.07411318876, 0.06293506429, 0.0527728819, 0.04373309861, 0.03582773201, 0.0290116143, 0.02320731276, 0.01832153082, 0.0142556611, 0.01091235575, 0.008199412211, 0.006031873774, 0.004332964845, 0.00303428497], "AUX_ENDO_LEAD_126": [0, 0.1253942165, 0.1196632803, 0.109917189, 0.09826361814, 0.08605133758, 0.07411318876, 0.06293506429, 0.0527728819, 0.04373309861, 0.03582773201, 0.0290116143, 0.02320731276, 0.01832153082, 0.0142556611, 0.01091235575, 0.008199412211, 0.006031873774, 0.004332964845, 0.00303428497, 0.002075549481], "AUX_ENDO_LEAD_153": [0, 1.271425826, 1.1688893, 1.079467512, 1.00202763, 0.9352485166, 0.8777767088, 0.8283197312, 0.7856949317, 0.7488502854, 0.7168682763, 0.688960097, 0.664454792, 0.6427862329, 0.6234796641, 0.6061388159, 0.5904341042, 0.5760921405, 0.5628865972, 0.5506303707, 0.5391689322], "AUX_ENDO_LEAD_157": [0, 1.1688893, 1.079467512, 1.00202763, 0.9352485166, 0.8777767088, 0.8283197312, 0.7856949317, 0.7488502854, 0.7168682763, 0.688960097, 0.664454792, 0.6427862329, 0.6234796641, 0.6061388159, 0.5904341042, 0.5760921405, 0.5628865972, 0.5506303707, 0.5391689322, 0.5283747341], "AUX_ENDO_LEAD_161": [0, 1.079467512, 1.00202763, 0.9352485166, 0.8777767088, 0.8283197312, 0.7856949317, 0.7488502854, 0.7168682763, 0.688960097, 0.664454792, 0.6427862329, 0.6234796641, 0.6061388159, 0.5904341042, 0.5760921405, 0.5628865972, 0.5506303707, 0.5391689322, 0.5283747341, 0.5181425324], "AUX_ENDO_LAG_13_1": [0, 0, 0.009702052042, 0.009634114637, 0.009068574998, 0.008553354828, 0.008110448319, 0.007730961818, 0.007405208724, 0.007124591868, 0.00688168672, 0.00667016356, 0.006484675655, 0.006320738306, 0.006174610273, 0.006043183667, 0.005923885165, 0.005814589445, 0.005713544615, 0.005619308756, 0.005530696434], "AUX_ENDO_LAG_13_2": [0, 0, 3.260207882e-14, 0.009702052042, 0.009634114637, 0.009068574998, 0.008553354828, 0.008110448319, 0.007730961819, 0.007405208724, 0.007124591868, 0.00688168672, 0.00667016356, 0.006484675655, 0.006320738306, 0.006174610273, 0.006043183667, 0.005923885165, 0.005814589445, 0.005713544616, 0.005619308756], "AUX_ENDO_LAG_87_1": [0, 0, 1.387884468, 1.271425826, 1.1688893, 1.079467512, 1.00202763, 0.9352485166, 0.8777767088, 0.8283197312, 0.7856949317, 0.7488502854, 0.7168682763, 0.688960097, 0.664454792, 0.6427862329, 0.6234796641, 0.6061388159, 0.5904341042, 0.5760921405, 0.5628865972], "AUX_ENDO_LAG_87_2": [0, 0, 0, 1.387884468, 1.271425826, 1.1688893, 1.079467512, 1.00202763, 0.9352485166, 0.8777767088, 0.8283197312, 0.7856949317, 0.7488502854, 0.7168682763, 0.688960097, 0.664454792, 0.6427862329, 0.6234796641, 0.6061388159, 0.5904341042, 0.5760921405], "AUX_ENDO_LAG_87_3": [0, 0, 0, 0, 1.387884468, 1.271425826, 1.1688893, 1.079467512, 1.00202763, 0.9352485166, 0.8777767088, 0.8283197312, 0.7856949317, 0.7488502854, 0.7168682763, 0.688960097, 0.664454792, 0.6427862329, 0.6234796641, 0.6061388159, 0.5904341042], "AUX_ENDO_LAG_86_1": [0, 0, 0.07780028285, 0.1103576831, 0.1238957253, 0.1253942165, 0.1196632803, 0.109917189, 0.09826361814, 0.08605133758, 0.07411318876, 0.06293506429, 0.0527728819, 0.04373309861, 0.03582773201, 0.0290116143, 0.02320731276, 0.01832153082, 0.0142556611, 0.01091235575, 0.008199412211], "AUX_ENDO_LAG_86_2": [0, 0, 0, 0.07780028285, 0.1103576831, 0.1238957253, 0.1253942165, 0.1196632803, 0.109917189, 0.09826361814, 0.08605133758, 0.07411318876, 0.06293506429, 0.0527728819, 0.04373309861, 0.03582773201, 0.0290116143, 0.02320731276, 0.01832153082, 0.0142556611, 0.01091235575], "AUX_ENDO_LAG_86_3": [0, 0, 0, 0, 0.07780028285, 0.1103576831, 0.1238957253, 0.1253942165, 0.1196632803, 0.109917189, 0.09826361814, 0.08605133758, 0.07411318876, 0.06293506429, 0.0527728819, 0.04373309861, 0.03582773201, 0.0290116143, 0.02320731276, 0.01832153082, 0.0142556611], "AUX_ENDO_LAG_83_1": [0, 0, 0.09735292013, 0.1393232655, 0.1607503236, 0.1706858334, 0.1690325277, 0.1607466375, 0.1492569596, 0.1366867735, 0.124286805, 0.1127439664, 0.1023888616, 0.093333315, 0.08556040101, 0.07898247356, 0.07347780573, 0.06891306959, 0.06515655422, 0.0620854196, 0.05958918858], "AUX_ENDO_LAG_83_2": [0, 0, 0, 0.09735292013, 0.1393232655, 0.1607503236, 0.1706858334, 0.1690325277, 0.1607466375, 0.1492569596, 0.1366867735, 0.124286805, 0.1127439664, 0.1023888616, 0.093333315, 0.08556040101, 0.07898247356, 0.07347780573, 0.06891306959, 0.06515655422, 0.0620854196], "AUX_ENDO_LAG_83_3": [0, 0, 0, 0, 0.09735292013, 0.1393232655, 0.1607503236, 0.1706858334, 0.1690325277, 0.1607466375, 0.1492569596, 0.1366867735, 0.124286805, 0.1127439664, 0.1023888616, 0.093333315, 0.08556040101, 0.07898247356, 0.07347780573, 0.06891306959, 0.06515655422], "AUX_ENDO_LAG_85_1": [0, 0, 0.03880820817, 0.03853645855, 0.03627429999, 0.03421341931, 0.03244179328, 0.03092384727, 0.0296208349, 0.02849836747, 0.02752674688, 0.02668065424, 0.02593870262, 0.02528295322, 0.02469844109, 0.02417273467, 0.02369554066, 0.02325835778, 0.02285417846, 0.02247723503, 0.02212278574], "AUX_ENDO_LAG_85_2": [0, 0, -6.892256013e-14, 0.03880820817, 0.03853645855, 0.03627429999, 0.03421341931, 0.03244179328, 0.03092384727, 0.0296208349, 0.02849836747, 0.02752674688, 0.02668065424, 0.02593870262, 0.02528295322, 0.02469844109, 0.02417273467, 0.02369554066, 0.02325835778, 0.02285417846, 0.02247723503], "AUX_ENDO_LAG_85_3": [0, 0, 5.584983438e-17, -6.890274762e-14, 0.03880820817, 0.03853645855, 0.03627429999, 0.03421341931, 0.03244179328, 0.03092384727, 0.0296208349, 0.02849836747, 0.02752674688, 0.02668065424, 0.02593870262, 0.02528295322, 0.02469844109, 0.02417273467, 0.02369554066, 0.02325835778, 0.02285417846]}}