{"interest_":{"Y":[0,-0.025666830087260728,0.0021458823925730175,0.0038657295613026,0.0049186434506177656,0.0044019710755302532,0.0039732251450690925,0.0035773435563745126,0.0032098779958159018,0.0028686433350328389,0.002554175070342668,0.0022666468045239863,0.0020060007137260305,0.0017719557658247287,0.0015639573394654604,0.0013809931082119364,0.0012210819976920528,0.0010799208313837516,0.00094735595234474168,0.00079823286625435586,0.00056870907205669452],"C":[0,-0.04277805014543451,0.0035764706542981139,0.0064428826021806496,0.0081977390843711861,0.00733661845922523,0.00662204190845736,0.0059622392606322461,0.0053497966597016167,0.0047810722250608839,0.0042569584505788571,0.003777744674213851,0.0033433345228841838,0.0029532596097155139,0.0026065955657834095,0.0023016551803600183,0.002035136662826148,0.0017998680523127475,0.0015789265872472036,0.0013303881104290705,0.00094784845343351409],"s":[0,0.091463970860341526,0.098223210330546262,0.10247552765800361,0.10120584889365647,0.099832700192059587,0.098227566727094651,0.096420244365175822,0.094443240765512471,0.092333962184730556,0.090125107739442267,0.087845422664678541,0.085520020916826756,0.083170480719648054,0.080814459989326792,0.078464177044670791,0.076122008077637915,0.0737686757800664,0.071332320391794823,0.068608167748335891,0.06505046603987541],"Ps":[0,-0.05330804284153387,0.03290662475292247,0.034407073405231754,0.038932217567190688,0.037879070124463871,0.036967942610817622,0.03603825511057674,0.035089586329931387,0.034119171962044122,0.033133911850145109,0.032139708106355344,0.031141920770324995,0.030145606033919813,0.029155997337307293,0.028179616727336383,0.027227074598074642,0.026320240548072742,0.025510724391817806,0.0249276125929484,0.024900869855297273],"Pss":[0,0.038155928018807739,0.13112983508346865,0.13688260106323558,0.14013806646084737,0.13771177031652337,0.13519550933791225,0.13245849947575294,0.12953282709544389,0.12645313414677473,0.12325901958958774,0.11998513077103423,0.11666194168715149,0.11331608675356808,0.10997045732663402,0.10664379377200728,0.10334908267571263,0.1000889163281391,0.096843044783612608,0.093535780341284624,0.089951335895172679],"L":[0,-0.043103936163019774,-0.024828241152040631,-0.033484330121892558,-0.041332815494299957,-0.049559641936372689,-0.056486334751172596,-0.062304856739816838,-0.06713843967478425,-0.07109599483803733,-0.074272754603679936,-0.076754743141263321,-0.078619598802193325,-0.079937430834495227,-0.080771650700509345,-0.081179868848621467,-0.08121507446128523,-0.080927663817868312,-0.080369767182082164,-0.079605612866914421,-0.078737587497655193],"w":[0,-0.10710806837237774,-0.0052611792674256419,-0.0038563998565863677,-0.0042709295784093548,-0.010106584049737577,-0.014999083558672854,-0.019227949848645343,-0.02286962651798996,-0.025985852968898659,-0.028622460400683059,-0.030821882222205332,-0.032623130355329377,-0.034062196197817585,-0.035172634218688659,-0.035986624063591988,-0.036537263904991013,-0.036864095804309494,-0.03702703041654748,-0.037142030212599708,-0.037473096841961373],"Pi":[0,-0.041477817520098485,-0.0394009987579306,-0.038639448648688485,-0.037916786369615332,-0.037209976316897819,-0.03644991702292693,-0.035648337315167866,-0.034813369908714552,-0.033952137460652031,-0.033070944413075773,-0.032175484297416804,-0.031270887803694379,-0.0303617709439878,-0.029452277946056149,-0.028546116566460951,-0.027646579692268421,-0.026756537377046988,-0.025878357617942237,-0.025013647438181838,-0.024162533278958002],"F":[0,-1.0781627297410934,-1.0622056050666757,-1.0371935976662343,-1.011177439956739,-0.98416569049667468,-0.95684884161495809,-0.92935332010073157,-0.90180544092837533,-0.87431765191522315,-0.8469895786347208,-0.819908029237026,-0.79314790392157164,-0.76677295984684246,-0.74083648020780979,-0.7153818918897934,-0.69044344171760086,-0.66604720980541154,-0.64221318259610927,-0.61896026001350979,-0.59631905383530182],"K":[0,-1.5281071430992175,-1.4896210365384681,-1.4563478611780754,-1.4224923841732442,-1.3878132777127441,-1.3522514329853006,-1.3160605091348092,-1.2794550434660632,-1.2426247491867934,-1.2057376414017718,-1.1689422907359479,-1.1323692542542678,-1.0961323628406636,-1.0603298555783243,-1.0250453804743869,-0.99034890504070061,-0.95629764325159039,-0.92293726918611707,-0.89030411548676369,-0.85843016554407914],"PQ":[0,4.8363820562359239,-0.046000222654499448,-0.34448744981626189,-0.53766877268872015,-0.45495075143418873,-0.38812529784519112,-0.32740457650340204,-0.27190326907581391,-0.22112888487637272,-0.17508247169073632,-0.13371421570270048,-0.096945192489110835,-0.06466814311445486,-0.036738989702993205,-0.012947226809680537,0.0070651672016312506,0.024017560909050939,0.039547356010400589,0.057652960675804533,0.088428515622736723],"PB":[0,-0.23123746466905451,0.030061320805197377,0.044336133152362608,0.058423313804806268,0.056887457400492288,0.055834394991170835,0.054762213439688796,0.053644365461916026,0.052465330223429509,0.051237524027813112,0.049971145179389304,0.04867529515135266,0.047358163326092037,0.046027163204253513,0.044689020834053773,0.04334989418108251,0.042015576739268083,0.040691927226105068,0.039385891688760589,0.038108064758045665],"b":[0,0.098807766218445,0.10360132349152718,0.10560531162404851,0.10175059599404523,0.098025420017767928,0.094278632670632856,0.090535036828566,0.086822568361153429,0.083174283354177092,0.079617810374131182,0.076176259071528918,0.072868646965535966,0.069710080765385207,0.0667114357924583,0.063877866455699817,0.061204360095656885,0.058663706013854622,0.056174904327357389,0.053521038465057735,0.050136495465249009],"q":[0,-1.5400098052356463,0.12875294355438135,0.23194377367816607,0.29511860703703507,0.26411826453178544,0.23839350870414353,0.21464061338245247,0.19259267974897765,0.17211860010191624,0.15325050422058126,0.13599880827142019,0.12036004282356025,0.10631734594948802,0.093837440367934816,0.08285958649270217,0.073264919861511291,0.064795249883025444,0.056841357140678561,0.047893971975262378,0.034122544323394233],"qCB":[0,1.3430837362766546,-0.11228888536795603,-0.20228436799472294,-0.25738082967818587,-0.23034460192414458,-0.207909354398865,-0.18719381915514818,-0.16796522659619534,-0.15010923418910876,-0.13365386317351702,-0.11860819776691024,-0.10496921218573052,-0.092722200692093887,-0.081838141279050355,-0.072264061329104345,-0.063896295965831865,-0.056509670269637019,-0.049572867694736476,-0.041769613808284367,-0.029759183458007449],"qbar":[0,-9.9920072216264089E-16,9.43689570931383E-16,3.6914915568786455E-15,-1.04638520070921E-14,-1.0103029524088925E-14,-7.2164496600635175E-16,-6.8001160258290838E-15,8.5487172896137054E-15,-1.9179102750399579E-14,7.716050021144838E-15,-6.7723604502134549E-15,5.5511151231257827E-17,1.7486012637846216E-15,2.4980018054066022E-15,-4.85722573273506E-15,-4.1078251911130792E-15,-1.3877787807814457E-16,-1.7208456881689926E-15,4.4408920985006262E-16,-2.6922908347160046E-15],"i":[0,0.23123746466905565,-0.030061320805190903,-0.044336133152358036,-0.058423313804799031,-0.056887457400485508,-0.055834394991165895,-0.054762213439683106,-0.053644365461914208,-0.052465330223421078,-0.051237524027811933,-0.049971145179383482,-0.04867529515135,-0.04735816332608915,-0.046027163204251251,-0.044689020834049853,-0.043349894181079193,-0.0420155767392656,-0.040691927226102355,-0.039385891688759243,-0.038108064758042327],"iQ":[0,-0.47721471670795618,0.0045389266123559129,0.033991210549949663,0.053052767142440525,0.0448908277793733,0.038297037311096321,0.032305612006707382,0.026829195877252271,0.021819193960527089,0.017275709643470666,0.013193827705177895,0.0095657605275906391,0.0063809246741793491,0.0036251037158333069,0.0012775266929478356,-0.00069713304809606788,-0.002369856928579616,-0.0039022103869395947,-0.0056887237146214711,-0.00872540435001376],"D":[0,-0.014870423067035433,-0.027188711783866237,-0.037736632639303616,-0.046743323290037046,-0.054401810119512166,-0.060856882410751996,-0.066239934651866991,-0.070669305470134849,-0.074251502506679889,-0.0770823471810139,-0.079248054626277931,-0.080826199587291439,-0.081886582176893014,-0.082492003773907349,-0.082698961267682045,-0.082558264658769767,-0.082115576732392018,-0.0814118587296712,-0.080483669019793841,-0.079363167476932769],"A":[0,6.4416367286296923E-16,4.8898815962015728E-16,3.7845610059772435E-16,3.0072056915079516E-16,2.4585876971169218E-16,2.0661166031432623E-16,1.7777491829797334E-16,1.5595371697124228E-16,1.3924162070813282E-16,1.2687396375698446E-16,1.1718142353951658E-16,1.0956547256527692E-16,1.0264561245368268E-16,9.6661973281700037E-17,9.1903837798517772E-17,8.7870775498422467E-17,8.45179177832995E-17,8.1062959931500769E-17,7.7928346980282331E-17,7.5240112372101681E-17],"G":[0,-2.2204460492503131E-16,-3.6637359812630166E-15,-3.8857805861880479E-15,-3.9968028886505635E-15,-3.8857805861880479E-15,-3.8857805861880479E-15,-3.6637359812630166E-15,-3.5527136788005009E-15,-3.4416913763379853E-15,-3.1086244689504383E-15,-3.219646771412954E-15,-3.1086244689504383E-15,-3.1086244689504383E-15,-2.9976021664879227E-15,-2.9976021664879227E-15,-2.6645352591003757E-15,-2.6645352591003757E-15,-2.55351295663786E-15,-2.4424906541753444E-15,-2.3314683517128287E-15],"theta":[0,0,0,0,-2.2204460492503131E-16,-2.2204460492503131E-16,-2.2204460492503131E-16,-2.2204460492503131E-16,-2.2204460492503131E-16,-2.2204460492503131E-16,-4.4408920985006262E-16,-4.4408920985006262E-16,-4.4408920985006262E-16,-4.4408920985006262E-16,-4.4408920985006262E-16,-4.4408920985006262E-16,-4.4408920985006262E-16,-4.4408920985006262E-16,-4.4408920985006262E-16,-4.4408920985006262E-16,-4.4408920985006262E-16],"ksi":[0,0,0,0,0,0,0,0,0,0,0,0,0,0,0,0,0,0,0,0,0],"ChiC":[0,0,2.3146762125707848E-16,2.4893794084360138E-16,2.2659298925100453E-16,2.3945237359563352E-16,2.0571118616415783E-16,2.1863181794399536E-16,1.9016709742245268E-16,2.0824240636625442E-16,2.3216717767916614E-16,1.9542559080563042E-16,1.5432620461976749E-16,1.3555721714917483E-16,2.9112213543981482E-17,3.4826872604391228E-16,-1.6286459041759766E-16,1.3486952107872023E-16,6.4390859324130862E-17,8.0900150765410958E-17,7.876311908756E-17],"ChiL":[0,0,1.1923568901632458E-17,2.0574954548656243E-17,2.6662869247518761E-17,3.1096968110558724E-17,3.2962346330277949E-17,3.3832614201415586E-17,3.40785416553409E-17,3.3951594847805452E-17,3.35381194268015E-17,3.3081768519030428E-17,3.2183334044138471E-17,3.1696418156946574E-17,3.1563178995560039E-17,3.1382011803427728E-17,3.0659959101301334E-17,2.9134118539281468E-17,2.833155179187075E-17,2.6987233986031282E-17,2.5904846258259018E-17],"epsG":[0,9.5993079825686486E-17,-1.3562105811623198E-15,-1.3344039929809332E-15,-1.4863215093980871E-15,-1.3673127651275807E-15,-1.4081426193955795E-15,-1.2991654022356068E-15,-1.2701227507427738E-15,-1.2109809468892714E-15,-9.99376129066916E-16,-1.093687225840731E-15,-1.080392695355165E-15,-1.0835498209387895E-15,-1.0234012093869298E-15,-1.0751090918972825E-15,-9.5152629567372742E-16,-1.0023812311661564E-15,-9.4858320628446527E-16,-9.0022368327054216E-16,-8.5789518815209192E-16],"Yf":[0,3.8857805861880479E-16,3.8857805861880479E-16,3.3306690738754696E-16,2.2204460492503131E-16,2.2204460492503131E-16,1.6653345369377348E-16,2.2204460492503131E-16,1.1102230246251565E-16,2.2204460492503131E-16,1.6653345369377348E-16,2.2204460492503131E-16,1.1102230246251565E-16,1.1102230246251565E-16,1.1102230246251565E-16,1.6653345369377348E-16,0,5.5511151231257827E-17,5.5511151231257827E-17,1.1102230246251565E-16,5.5511151231257827E-17],"Gf":[0,4.4408920985006262E-16,2.2204460492503131E-16,2.2204460492503131E-16,0,0,0,0,0,0,2.2204460492503131E-16,1.1102230246251565E-16,1.1102230246251565E-16,1.1102230246251565E-16,1.1102230246251565E-16,0,0,-1.1102230246251565E-16,0,0,0],"interest":[0,0.924949858676223,-0.12024528322076197,-0.17734453260943092,-0.23369325521919426,-0.22754982960194028,-0.22333757996466236,-0.21904885375873093,-0.21457746184765633,-0.20986132089368215,-0.20495009611124745,-0.19988458071753243,-0.19470118060539937,-0.18943265330435582,-0.18410865281700442,-0.17875608333619847,-0.17339957672431586,-0.16806230695706179,-0.16276770890440859,-0.15754356675503664,-0.15243225903216848],"inflation":[0,-0.041477817520098485,-0.080878816278029092,-0.11951826492671633,-0.1574350512963317,-0.15316721009313117,-0.15021612835812745,-0.14722501702460689,-0.14412160056370613,-0.14086376170746037,-0.13748478909760928,-0.13401193607985823,-0.13046945397483811,-0.12687908745817392,-0.12326042099115429,-0.1196310532601985,-0.1160067451487727,-0.11240151158183188,-0.108827591253718,-0.1052951221254388,-0.10181107571212834],"inflationq":[0,-0.16591127008039366,-0.15760399503172279,-0.15455779459475424,-0.15166714547846155,-0.14883990526759158,-0.145799668091708,-0.1425933492606718,-0.13925347963485846,-0.13580854984260834,-0.13228377765230345,-0.12870193718966755,-0.12508355121477782,-0.12144708377595158,-0.11780911178422471,-0.11418446626584479,-0.11058631876907279,-0.10702614950818842,-0.10351343047176913,-0.10005458975272749,-0.0966501331158322],"outputgap":[0,-0.025666830087260083,0.0021458823925719433,0.0038657295613005985,0.0049186434506155929,0.0044019710755275193,0.00397322514506773,0.0035773435563721686,0.0032098779958149035,0.0028686433350296543,0.0025541750703417417,0.0022666468045216626,0.0020060007137249767,0.0017719557658230742,0.0015639573394641746,0.0013809931082099851,0.0012210819976913414,0.0010799208313822006,0.00094735595234349582,0.00079823286625205377,0.00056870907205585047],"output":[0,-0.025666830087261085,0.0021458823925761448,0.0038657295613052792,0.0049186434506194605,0.0044019710755320357,0.0039732251450714543,0.0035773435563765288,0.0032098779958182966,0.0028686433350337396,0.0025541750703449474,0.002266646804525525,0.0020060007137279721,0.0017719557658267026,0.0015639573394673843,0.0013809931082132904,0.0012210819976934415,0.0010799208313852448,0.00094735595234608967,0.00079823286625521953,0.00056870907205789571],"fispol":[0,4.7996539912843151E-17,-6.78105290581159E-16,-6.6720199649046542E-16,-7.4316075469904542E-16,-6.8365638256379213E-16,-7.0407130969778974E-16,-6.49582701117805E-16,-6.3506137537138483E-16,-6.0549047344463945E-16,-4.9968806453345622E-16,-5.4684361292036639E-16,-5.401963476775823E-16,-5.4177491046939406E-16,-5.1170060469346423E-16,-5.3755454594864241E-16,-4.757631478368644E-16,-5.0119061558307781E-16,-4.74291603142233E-16,-4.5011184163527079E-16,-4.289475940760465E-16],"AUX_ENDO_LEAD_89":[0,-0.15760399503172226,-0.15455779459475383,-0.15166714547846066,-0.14883990526759019,-0.14579966809170716,-0.14259334926067191,-0.13925347963485782,-0.13580854984260848,-0.13228377765230231,-0.12870193718966802,-0.12508355121477713,-0.12144708377595138,-0.11780911178422404,-0.11418446626584414,-0.11058631876907157,-0.10702614950818772,-0.10351343047176856,-0.10005458975272699,-0.096650133115831441,-0.093287013865502824],"AUX_ENDO_LEAD_93":[0,-0.1545577945947538,-0.15166714547846002,-0.14883990526759067,-0.14579966809170627,-0.14259334926067121,-0.13925347963485832,-0.13580854984260782,-0.13228377765230356,-0.12870193718966663,-0.12508355121477802,-0.1214470837759513,-0.11780911178422424,-0.11418446626584418,-0.11058631876907231,-0.10702614950818733,-0.10351343047176798,-0.10005458975272757,-0.096650133115831816,-0.093287013865502727,-0.08991872593158147],"AUX_ENDO_LEAD_97":[0,-0.15166714547845994,-0.14883990526759114,-0.14579966809170672,-0.14259334926067094,-0.13925347963485743,-0.13580854984260798,-0.13228377765230287,-0.12870193718966719,-0.1250835512147763,-0.12144708377595209,-0.11780911178422336,-0.11418446626584428,-0.11058631876907224,-0.10702614950818753,-0.10351343047176816,-0.10005458975272741,-0.096650133115831677,-0.093287013865502366,-0.089918725931581178,-0.086647909386368765],"AUX_ENDO_LEAD_124":[0,0.002145882392571556,0.0038657295613005868,0.0049186434506156215,0.0044019710755275419,0.0039732251450678947,0.0035773435563720203,0.0032098779958149438,0.0028686433350295485,0.00255417507034161,0.00226664680452168,0.0020060007137248665,0.0017719557658229732,0.0015639573394640393,0.001380993108209951,0.0012210819976912885,0.0010799208313820639,0.00094735595234359362,0.00079823286625215319,0.00056870907205566377,9.4974155379492329E-5],"AUX_ENDO_LEAD_128":[0,0.0038657295613007364,0.00491864345061553,0.0044019710755274638,0.0039732251450680205,0.0035773435563717826,0.0032098779958149881,0.0028686433350297589,0.0025541750703416129,0.002266646804521516,0.0020060007137247863,0.0017719557658231536,0.0015639573394640219,0.0013809931082098188,0.0012210819976914596,0.0010799208313822079,0.00094735595234358213,0.00079823286625187661,0.000568709072055376,9.4974155379520328E-5,0.00013339970683331652],"AUX_ENDO_LEAD_132":[0,0.0049186434506155426,0.0044019710755271377,0.0039732251450680213,0.003577343556372087,0.0032098779958152262,0.0028686433350294128,0.0025541750703413544,0.0022666468045217485,0.0020060007137250244,0.0017719557658234266,0.0015639573394639348,0.0013809931082095119,0.0012210819976912401,0.001079920831382224,0.000947355952343785,0.00079823286625198579,0.00056870907205539337,9.4974155379857448E-5,0.00013339970683359217,0.00020466668339734134],"AUX_ENDO_LEAD_159":[0,0.00214588239257584,0.0038657295613053217,0.004918643450619666,0.0044019710755319437,0.003973225145071424,0.0035773435563763389,0.003209877995818307,0.0028686433350336212,0.0025541750703449123,0.002266646804525456,0.0020060007137278927,0.001771955765826698,0.0015639573394673218,0.0013809931082132353,0.0012210819976933834,0.0010799208313851281,0.00094735595234599361,0.00079823286625527786,0.00056870907205774424,9.4974155381688313E-5],"AUX_ENDO_LEAD_163":[0,0.0038657295613053239,0.0049186434506201656,0.0044019710755314988,0.0039732251450713121,0.0035773435563762361,0.0032098779958185386,0.0028686433350339768,0.0025541750703446564,0.0022666468045252721,0.0020060007137276924,0.0017719557658271176,0.0015639573394674324,0.0013809931082133548,0.0012210819976936997,0.0010799208313847265,0.000947355952345878,0.00079823286625460219,0.00056870907205717287,9.49741553820619E-5,0.00013339970683570471],"AUX_ENDO_LEAD_167":[0,0.0049186434506201648,0.0044019710755312177,0.00397322514507139,0.003577343556376351,0.0032098779958184566,0.0028686433350345319,0.0025541750703443936,0.0022666468045252929,0.0020060007137270961,0.001771955765826867,0.0015639573394676733,0.0013809931082134144,0.0012210819976938713,0.0010799208313849288,0.00094735595234585006,0.00079823286625455394,0.00056870907205766813,9.49741553819126E-5,0.00013339970683542271,0.00020466668339967219],"AUX_ENDO_LAG_7_1":[0,0,-0.041477817520098749,-0.039400998757930912,-0.038639448648688804,-0.03791678636961561,-0.037209976316898125,-0.036449917022927214,-0.035648337315168158,-0.034813369908714822,-0.033952137460652336,-0.033070944413076037,-0.032175484297417088,-0.031270887803694615,-0.030361770943988085,-0.02945227794605642,-0.028546116566461235,-0.027646579692268698,-0.02675653737704714,-0.025878357617942438,-0.025013647438181956],"AUX_ENDO_LAG_7_2":[0,0,1.5144135945277526E-15,-0.041477817520096993,-0.039400998757929226,-0.038639448648687104,-0.037916786369613951,-0.037209976316896515,-0.036449917022925646,-0.0356483373151666,-0.034813369908713337,-0.033952137460650879,-0.033070944413074649,-0.032175484297415728,-0.031270887803693311,-0.030361770943986822,-0.029452277946055157,-0.028546116566460042,-0.027646579692267574,-0.026756537377046058,-0.025878357617941425],"AUX_ENDO_LAG_32_1":[0,0,-0.025666830087261085,0.0021458823925761448,0.0038657295613052792,0.0049186434506194605,0.0044019710755320357,0.0039732251450714543,0.0035773435563765288,0.0032098779958182966,0.0028686433350337396,0.0025541750703449474,0.002266646804525525,0.0020060007137279721,0.0017719557658267026,0.0015639573394673843,0.0013809931082132904,0.0012210819976934415,0.0010799208313852448,0.00094735595234608967,0.00079823286625521953],"AUX_ENDO_LAG_32_2":[0,0,0,-0.025666830087261085,0.0021458823925761448,0.0038657295613052792,0.0049186434506194605,0.0044019710755320357,0.0039732251450714543,0.0035773435563765288,0.0032098779958182966,0.0028686433350337396,0.0025541750703449474,0.002266646804525525,0.0020060007137279721,0.0017719557658267026,0.0015639573394673843,0.0013809931082132904,0.0012210819976934415,0.0010799208313852448,0.00094735595234608967],"AUX_ENDO_LAG_32_3":[0,0,0,0,-0.025666830087261085,0.0021458823925761448,0.0038657295613052792,0.0049186434506194605,0.0044019710755320357,0.0039732251450714543,0.0035773435563765288,0.0032098779958182966,0.0028686433350337396,0.0025541750703449474,0.002266646804525525,0.0020060007137279721,0.0017719557658267026,0.0015639573394673843,0.0013809931082132904,0.0012210819976934415,0.0010799208313852448],"AUX_ENDO_LAG_31_1":[0,0,-0.025666830087260083,0.0021458823925719433,0.0038657295613005985,0.0049186434506155929,0.0044019710755275193,0.00397322514506773,0.0035773435563721686,0.0032098779958149035,0.0028686433350296543,0.0025541750703417417,0.0022666468045216626,0.0020060007137249767,0.0017719557658230742,0.0015639573394641746,0.0013809931082099851,0.0012210819976913414,0.0010799208313822006,0.00094735595234349582,0.00079823286625205377],"AUX_ENDO_LAG_31_2":[0,0,0,-0.025666830087260083,0.0021458823925719433,0.0038657295613005985,0.0049186434506155929,0.0044019710755275193,0.00397322514506773,0.0035773435563721686,0.0032098779958149035,0.0028686433350296543,0.0025541750703417417,0.0022666468045216626,0.0020060007137249767,0.0017719557658230742,0.0015639573394641746,0.0013809931082099851,0.0012210819976913414,0.0010799208313822006,0.00094735595234349582],"AUX_ENDO_LAG_31_3":[0,0,0,0,-0.025666830087260083,0.0021458823925719433,0.0038657295613005985,0.0049186434506155929,0.0044019710755275193,0.00397322514506773,0.0035773435563721686,0.0032098779958149035,0.0028686433350296543,0.0025541750703417417,0.0022666468045216626,0.0020060007137249767,0.0017719557658230742,0.0015639573394641746,0.0013809931082099851,0.0012210819976913414,0.0010799208313822006],"AUX_ENDO_LAG_28_1":[0,0,0.924949858676223,-0.12024528322076197,-0.17734453260943092,-0.23369325521919426,-0.22754982960194028,-0.22333757996466236,-0.21904885375873093,-0.21457746184765633,-0.20986132089368215,-0.20495009611124745,-0.19988458071753243,-0.19470118060539937,-0.18943265330435582,-0.18410865281700442,-0.17875608333619847,-0.17339957672431586,-0.16806230695706179,-0.16276770890440859,-0.15754356675503664],"AUX_ENDO_LAG_28_2":[0,0,0,0.924949858676223,-0.12024528322076197,-0.17734453260943092,-0.23369325521919426,-0.22754982960194028,-0.22333757996466236,-0.21904885375873093,-0.21457746184765633,-0.20986132089368215,-0.20495009611124745,-0.19988458071753243,-0.19470118060539937,-0.18943265330435582,-0.18410865281700442,-0.17875608333619847,-0.17339957672431586,-0.16806230695706179,-0.16276770890440859],"AUX_ENDO_LAG_28_3":[0,0,0,0,0.924949858676223,-0.12024528322076197,-0.17734453260943092,-0.23369325521919426,-0.22754982960194028,-0.22333757996466236,-0.21904885375873093,-0.21457746184765633,-0.20986132089368215,-0.20495009611124745,-0.19988458071753243,-0.19470118060539937,-0.18943265330435582,-0.18410865281700442,-0.17875608333619847,-0.17339957672431586,-0.16806230695706179],"AUX_ENDO_LAG_30_1":[0,0,-0.16591127008039266,-0.15760399503172262,-0.15455779459475422,-0.1516671454784615,-0.14883990526759155,-0.14579966809170794,-0.1425933492606718,-0.13925347963485846,-0.13580854984260837,-0.1322837776523034,-0.12870193718966752,-0.12508355121477782,-0.12144708377595158,-0.11780911178422469,-0.11418446626584479,-0.11058631876907281,-0.10702614950818845,-0.10351343047176914,-0.1000545897527275],"AUX_ENDO_LAG_30_2":[0,0,6.3991285685752975E-16,-0.16591127008039097,-0.15760399503172184,-0.15455779459475238,-0.15166714547846047,-0.14883990526759008,-0.14579966809170705,-0.14259334926067038,-0.13925347963485765,-0.13580854984260712,-0.13228377765230262,-0.12870193718966585,-0.1250835512147766,-0.12144708377595032,-0.11780911178422442,-0.11418446626584364,-0.11058631876907232,-0.10702614950818735,-0.10351343047176829],"AUX_ENDO_LAG_30_3":[0,0,1.3130423351636192E-16,7.1159938574650024E-16,-0.16591127008039089,-0.15760399503172176,-0.1545577945947523,-0.15166714547846041,-0.14883990526759003,-0.145799668091707,-0.14259334926067033,-0.1392534796348576,-0.13580854984260707,-0.13228377765230256,-0.1287019371896658,-0.12508355121477654,-0.12144708377595027,-0.11780911178422437,-0.1141844662658436,-0.11058631876907228,-0.10702614950818731],"AUX_ENDO_LAG_13_1":[0,0,-1.540009805235651,0.12875294355437486,0.23194377367816718,0.29511860703702819,0.26411826453177878,0.23839350870413473,0.21464061338244986,0.19259267974897315,0.17211860010191352,0.15325050422057596,0.13599880827141639,0.12036004282355484,0.10631734594948301,0.093837440367926336,0.082859586492697077,0.07326491986150678,0.064795249883022266,0.056841357140680032,0.047893971975257937],"AUX_ENDO_LAG_13_2":[0,0,2.2204460492503131E-15,-1.5400098052356539,0.12875294355437478,0.23194377367816604,0.29511860703702669,0.26411826453177861,0.23839350870413487,0.21464061338244914,0.19259267974897276,0.172118600101912,0.15325050422057609,0.13599880827141542,0.12036004282355332,0.1063173459494807,0.0938374403679251,0.0828595864926965,0.073264919861506975,0.064795249883023875,0.056841357140678547],"AUX_ENDO_LAG_13_3":[0,0,-6.4948046940571658E-15,-2.1371793224034263E-15,-1.540009805235657,0.12875294355437139,0.2319437736781601,0.29511860703702125,0.26411826453177339,0.2383935087041322,0.21464061338244625,0.19259267974896993,0.17211860010190627,0.15325050422057063,0.13599880827140948,0.12036004282354802,0.10631734594947589,0.093837440367921757,0.082859586492695508,0.073264919861507,0.06479524988301931],"AUX_ENDO_LAG_13_4":[0,0,-2.55351295663786E-15,-1.2628786905111156E-14,-3.1363800445660672E-15,-1.5400098052356614,0.12875294355436973,0.23194377367815502,0.2951186070370152,0.26411826453176807,0.23839350870412779,0.21464061338244125,0.19259267974896715,0.17211860010190133,0.15325050422056577,0.13599880827140468,0.12036004282354484,0.10631734594947219,0.093837440367919064,0.082859586492693107,0.073264919861504615],"AUX_ENDO_LAG_7_3":[0,0,1.7433970933566911E-16,1.6271706204662451E-15,-0.041477817520096896,-0.039400998757929122,-0.038639448648687041,-0.037916786369613875,-0.037209976316896438,-0.036449917022925563,-0.035648337315166541,-0.034813369908713254,-0.033952137460650823,-0.033070944413074572,-0.03217548429741568,-0.031270887803693241,-0.030361770943986809,-0.029452277946055025,-0.028546116566460007,-0.027646579692267539,-0.02675653737704603],"AUX_ENDO_LAG_13_5":[0,0,-4.4131365228849972E-15,-4.6906922790412864E-15,-1.4876988529977098E-14,-4.9960036108132044E-15,-1.5400098052356634,0.12875294355437036,0.23194377367815411,0.2951186070370147,0.2641182645317669,0.23839350870412451,0.21464061338243914,0.19259267974896557,0.17211860010189972,0.15325050422056433,0.13599880827140443,0.1203600428235414,0.10631734594946979,0.093837440367916941,0.082859586492691484],"AUX_ENDO_LAG_7_4":[0,0,3.5561831257524545E-17,2.1597307275911248E-16,1.6740081543176188E-15,-0.041477817520096709,-0.039400998757928914,-0.038639448648686882,-0.037916786369613729,-0.037209976316896293,-0.036449917022925452,-0.035648337315166416,-0.034813369908713157,-0.033952137460650705,-0.033070944413074475,-0.032175484297415569,-0.031270887803693151,-0.030361770943986711,-0.029452277946054942,-0.028546116566459903,-0.027646579692267449],"AUX_ENDO_LAG_13_6":[0,0,4.9682480351975755E-15,2.9698465908722937E-15,4.163336342344337E-16,-1.0019762797242038E-14,3.8857805861880479E-16,-1.5400098052356574,0.12875294355437764,0.23194377367816119,0.29511860703701887,0.26411826453177056,0.23839350870412868,0.21464061338244367,0.19259267974896938,0.17211860010190347,0.15325050422056805,0.13599880827141059,0.12036004282354647,0.10631734594947406,0.093837440367920508],"AUX_ENDO_LAG_7_5":[0,0,-2.5240226575462543E-16,-3.8163916471489756E-17,8.4134088584875144E-17,1.6393136847980827E-15,-0.041477817520096716,-0.039400998757928851,-0.038639448648686826,-0.037916786369613667,-0.037209976316896272,-0.036449917022925431,-0.03564833731516643,-0.034813369908713157,-0.033952137460650719,-0.033070944413074482,-0.032175484297415589,-0.031270887803693144,-0.030361770943986705,-0.029452277946054921,-0.028546116566459903],"AUX_ENDO_LAG_13_7":[0,0,1.4710455076283324E-15,5.9674487573602164E-15,4.3298697960381105E-15,6.9388939039072284E-16,-5.88418203051333E-15,3.6359804056473877E-15,-1.5400098052356601,0.12875294355438349,0.23194377367816579,0.29511860703702125,0.26411826453177334,0.23839350870413073,0.21464061338244531,0.19259267974897365,0.17211860010190747,0.15325050422056966,0.13599880827141037,0.12036004282354673,0.1063173459494761],"AUX_ENDO_LAG_7_6":[0,0,-8.2399365108898337E-17,-3.5822039778921066E-16,-1.8388068845354155E-16,-4.2500725161431774E-17,1.5812004483528597E-15,-0.041477817520096834,-0.039400998757928976,-0.038639448648686951,-0.037916786369613813,-0.037209976316896362,-0.0364499170229255,-0.035648337315166478,-0.034813369908713206,-0.03395213746065074,-0.033070944413074531,-0.03217548429741561,-0.031270887803693179,-0.030361770943986711,-0.029452277946054942],"AUX_ENDO_LAG_13_8":[0,0,1.5543122344752192E-15,3.9412917374193057E-15,7.41073868937292E-15,7.41073868937292E-15,2.2759572004815709E-15,-3.858025010572419E-15,4.7739590058881731E-15,-1.5400098052356614,0.1287529435543861,0.23194377367816904,0.29511860703702103,0.26411826453177345,0.23839350870413195,0.21464061338244667,0.19259267974897409,0.17211860010190935,0.15325050422057135,0.13599880827141342,0.12036004282354811],"AUX_ENDO_LAG_7_7":[0,0,-1.6826817716975029E-16,2.9490299091605721E-17,-2.4980018054066022E-16,-5.9847959921199845E-17,1.2836953722228372E-16,1.6679366221517E-15,-0.041477817520096764,-0.039400998757928872,-0.038639448648686854,-0.037916786369613729,-0.037209976316896314,-0.036449917022925458,-0.03564833731516643,-0.034813369908713164,-0.033952137460650678,-0.033070944413074468,-0.032175484297415569,-0.03127088780369313,-0.03036177094398667],"AUX_ENDO_LAG_13_9":[0,0,5.5788706987414116E-15,8.1601392309949E-15,1.1185496973098452E-14,1.4488410471358293E-14,1.3905543383430086E-14,9.631184738623233E-15,4.7739590058881731E-15,1.0907941216942163E-14,-1.540009805235661,0.12875294355439398,0.23194377367817731,0.29511860703702841,0.26411826453177895,0.23839350870413728,0.2146406133824513,0.19259267974897848,0.17211860010191452,0.15325050422057748,0.13599880827141739],"AUX_ENDO_LAG_7_8":[0,0,-2.0036056147532122E-16,-6.852157730108388E-17,1.1535911115245767E-16,-1.2056328158038809E-16,8.6736173798840355E-17,2.38524477946811E-16,1.7590096046404824E-15,-0.041477817520096646,-0.039400998757928823,-0.038639448648686792,-0.037916786369613716,-0.037209976316896279,-0.036449917022925452,-0.035648337315166416,-0.034813369908713178,-0.033952137460650671,-0.033070944413074468,-0.032175484297415541,-0.0312708878036931],"AUX_ENDO_LAG_13_10":[0,0,6.3282712403633923E-15,1.0713652187632761E-14,1.532107773982716E-14,1.5903944827755367E-14,2.1149748619109232E-14,2.0233814623793478E-14,1.4904744105592727E-14,1.0685896612017132E-14,1.5876189252139739E-14,-1.5400098052356594,0.12875294355439978,0.23194377367818358,0.2951186070370343,0.26411826453178439,0.23839350870414031,0.21464061338245305,0.1925926797489797,0.1721186001019139,0.15325050422058104],"AUX_ENDO_LAG_7_9":[0,0,-1.3357370765021415E-16,-2.0643209364124004E-16,-3.7296554733501353E-17,1.5265566588595902E-16,-4.7704895589362195E-17,1.0148132334464322E-16,2.3332030751888055E-16,1.7980408828499606E-15,-0.041477817520096529,-0.039400998757928782,-0.0386394486486867,-0.037916786369613771,-0.037209976316896237,-0.036449917022925382,-0.03564833731516636,-0.034813369908713115,-0.03395213746065065,-0.033070944413074413,-0.032175484297415506],"AUX_ENDO_LAG_13_11":[0,0,-1.8873791418627661E-15,3.3584246494910985E-15,8.1601392309949E-15,1.301736496372996E-14,1.3350431871117507E-14,1.7791323969618134E-14,1.8124390877005681E-14,1.3433698597964394E-14,1.0769163338864018E-14,1.4849232954361469E-14,-1.5400098052356621,0.12875294355439879,0.23194377367818178,0.29511860703703258,0.26411826453178217,0.23839350870413781,0.21464061338245324,0.19259267974898,0.17211860010191055],"AUX_ENDO_LAG_7_10":[0,0,-3.2179120479369772E-16,-1.1622647289044608E-16,-2.1423834928313568E-16,2.8622937353617317E-17,1.457167719820518E-16,-4.4235448637408581E-17,8.2399365108898337E-17,3.2439329000766293E-16,1.8240617349896127E-15,-0.041477817520096424,-0.03940099875792865,-0.0386394486486867,-0.037916786369613792,-0.0372099763168962,-0.036449917022925375,-0.035648337315166333,-0.034813369908713095,-0.033952137460650608,-0.033070944413074378],"AUX_ENDO_LAG_13_12":[0,0,-9.2703622556200571E-15,-1.429412144204889E-14,-6.5225602696727947E-15,-4.0523140398818214E-15,5.10702591327572E-15,8.8817841970012523E-16,9.7699626167013776E-15,8.1601392309949E-15,4.7462034302725442E-15,2.0539125955565396E-15,7.382983113757291E-15,-1.5400098052356721,0.1287529435543916,0.23194377367817426,0.29511860703702331,0.26411826453177217,0.23839350870413242,0.214640613382446,0.19259267974897296],"AUX_ENDO_LAG_7_11":[0,0,-2.9750507613002242E-16,-4.7965104110758716E-16,-2.6281060661048627E-16,-3.0964814046186007E-16,-1.0148132334464322E-16,5.6378512969246231E-17,-1.457167719820518E-16,-8.6736173798840355E-19,2.203098814490545E-16,1.74946862552261E-15,-0.041477817520096445,-0.039400998757928719,-0.038639448648686722,-0.037916786369613861,-0.037209976316896272,-0.03644991702292541,-0.035648337315166381,-0.034813369908713095,-0.033952137460650622],"AUX_ENDO_LAG_13_13":[0,0,-2.1094237467877974E-15,-9.631184738623233E-15,-1.8179902028236938E-14,-8.9095397726168812E-15,-8.2156503822261584E-15,2.9420910152566648E-15,-3.219646771412954E-15,8.6319840164605921E-15,7.5772721430666934E-15,2.6367796834847468E-15,-1.3877787807814457E-15,5.5788706987414116E-15,-1.5400098052356754,0.12875294355438638,0.23194377367817104,0.29511860703702147,0.26411826453177151,0.23839350870412906,0.21464061338244597],"AUX_ENDO_LAG_7_12":[0,0,-4.7791631763161035E-16,-3.5041414214731503E-16,-4.4842601854000463E-16,-1.9949319973733282E-16,-2.5587171270657905E-16,-5.377642775528102E-17,9.6277152916712794E-17,-7.19910242530375E-17,7.7195194680967916E-17,3.174543961037557E-16,1.7789589246142157E-15,-0.041477817520096411,-0.039400998757928511,-0.038639448648686896,-0.037916786369613827,-0.037209976316896223,-0.036449917022925368,-0.035648337315166326,-0.034813369908713053],"AUX_ENDO_LAG_13_14":[0,0,-2.581268532253489E-15,-5.0237591864288333E-15,-1.3128387266192476E-14,-2.1815882433884326E-14,-1.329492071988625E-14,-1.124100812432971E-14,-3.6082248300317588E-16,-5.3290705182007514E-15,6.7168492989821971E-15,5.7454041524351851E-15,-1.6930901125533637E-15,-4.08006961549745E-15,4.4408920985006262E-16,-1.5400098052356803,0.12875294355438507,0.23194377367816971,0.29511860703701942,0.2641182645317719,0.23839350870412943],"AUX_ENDO_LAG_7_13":[0,0,-2.8709673527416157E-16,-6.106226635438361E-16,-4.5449755070592346E-16,-5.134781488891349E-16,-2.9143354396410359E-16,-3.3393426912553537E-16,-1.3357370765021415E-16,3.8163916471489756E-17,-1.700029006457271E-16,8.6736173798840355E-18,1.951563910473908E-16,1.6566609195578508E-15,-0.0414778175200969,-0.039400998757928754,-0.038639448648686681,-0.037916786369613674,-0.037209976316896057,-0.0364499170229252,-0.03564833731516618],"AUX_ENDO_LAG_13_15":[0,0,-3.3306690738754696E-16,3.6082248300317588E-16,-2.7755575615628914E-15,-1.1213252548714081E-14,-2.2010171463193728E-14,-1.2323475573339238E-14,-7.93809462606987E-15,1.1379786002407855E-15,-4.4131365228849972E-15,9.3536289824669439E-15,6.5225602696727947E-15,-3.58046925441613E-15,-1.4155343563970746E-15,5.8286708792820718E-16,-1.5400098052356814,0.12875294355438671,0.2319437736781759,0.29511860703702048,0.2641182645317724],"AUX_ENDO_LAG_7_14":[0,0,-3.37403716077489E-16,-3.3566899260151217E-16,-6.3057198351756938E-16,-4.3107878378023656E-16,-5.1781495757907692E-16,-2.9490299091605721E-16,-3.4954678040932663E-16,-1.1622647289044608E-16,2.688821387764051E-17,-1.5612511283791264E-16,1.7347234759768071E-18,1.8648277366750676E-16,1.6922227508153753E-15,-0.041477817520096445,-0.039400998757928067,-0.038639448648686861,-0.0379167863696138,-0.037209976316896223,-0.036449917022925361],"AUX_ENDO_LAG_13_16":[0,0,3.3861802251067274E-15,3.4694469519536142E-15,2.8033131371785203E-15,-5.2735593669694936E-16,-1.0824674490095276E-14,-2.0317081350640365E-14,-1.1629586182948515E-14,-5.467848396278896E-15,3.0253577421035516E-15,-2.4424906541753444E-15,1.0796918914479647E-14,6.8556271770603416E-15,-1.6375789613221059E-15,2.2204460492503131E-16,5.5511151231257827E-16,-1.5400098052356832,0.12875294355438852,0.231943773678178,0.29511860703702142],"AUX_ENDO_LAG_7_15":[0,0,-1.8474805019152996E-16,-3.5214886562329184E-16,-3.7296554733501353E-16,-5.9240806704607962E-16,-4.1893571944839891E-16,-4.5102810375396984E-16,-2.194425197110661E-16,-1.9255430583342559E-16,-1.3010426069826053E-17,1.7260498585969231E-16,-1.0755285551056204E-16,9.8879238130678E-17,2.680147770384167E-16,1.8093165854438098E-15,-0.04147781752009564,-0.0394009987579283,-0.038639448648686778,-0.037916786369613778,-0.037209976316896265],"AUX_ENDO_LAG_13_17":[0,0,-4.0523140398818214E-15,1.3600232051658168E-15,3.58046925441613E-15,1.8596235662471372E-15,-4.4408920985006262E-16,-1.3516965324811281E-14,-2.0650148258027912E-14,-1.0824674490095276E-14,-5.3845816694320092E-15,1.8873791418627661E-15,-3.1363800445660672E-15,1.0380585280245214E-14,5.8286708792820718E-15,-1.8041124150158794E-15,-1.9428902930940239E-16,-1.9428902930940239E-15,-1.5400098052356859,0.12875294355438721,0.23194377367817748],"AUX_ENDO_LAG_7_16":[0,0,-5.0306980803327406E-16,-1.8735013540549517E-16,-2.92300905702092E-16,-2.5847379792054426E-16,-4.5189546549195825E-16,-3.1225022567582528E-16,-3.2265856653168612E-16,-8.5868812060851951E-17,-6.6786853825107073E-17,1.0842021724855044E-16,3.0097452308197603E-16,1.8214596497756474E-17,2.1684043449710089E-16,3.8771069688081639E-16,1.8136533941337518E-15,-0.041477817520095293,-0.03940099875792849,-0.038639448648686417,-0.037916786369613688],"AUX_ENDO_LAG_13_18":[0,0,1.2212453270876722E-15,-5.2735593669694936E-15,-2.7755575615628914E-16,4.9960036108132044E-16,-1.6653345369377348E-16,-4.08006961549745E-15,-1.6486811915683575E-14,-2.3370194668359545E-14,-1.3489209749195652E-14,-8.1323836553792717E-15,-1.3877787807814457E-16,-5.6066262743570405E-15,9.1315843775419125E-15,3.7747582837255322E-15,-1.7763568394002505E-15,-1.609823385706477E-15,-4.5519144009631418E-15,-1.5400098052356899,0.12875294355438549],"AUX_ENDO_LAG_7_17":[0,0,-6.7307270867900115E-16,-2.2291196666301971E-16,1.6132928326584306E-16,1.0928757898653885E-16,1.222980050563649E-16,-8.5001450322863548E-17,5.1174342541315809E-17,3.4694469519536142E-18,1.8735013540549517E-16,1.8995222061946038E-16,3.4694469519536142E-16,5.2995802191091457E-16,2.3592239273284576E-16,4.2587461335230614E-16,5.30825383648903E-16,1.951563910473908E-15,-0.041477817520095092,-0.039400998757928851,-0.038639448648686431]},"fiscal_":{"Y":[0,0.11901749377150256,0.023751414804778936,0.031174320321272486,0.041914041708610628,0.036587466366827526,0.03220353110960561,0.028224334602563628,0.024553738799023173,0.021162962801338447,0.018057275801561579,0.015238724353980326,0.012707089759195045,0.010460492946254396,0.0084960780552790771,0.0068111775270288111,0.0054059382802540412,0.0042897635438483017,0.003497659536637554,0.0031322320958432348,0.0034720503062810049],"C":[0,-0.46830417704749067,-0.027080975325271928,0.045290533868882155,0.069190069514447311,0.060912443944804856,0.053665885182762718,0.047039891004360179,0.0409228313317877,0.035271598002319493,0.030095459002681679,0.025397873856711939,0.021178482925399977,0.017434154909827415,0.014160130092131351,0.011351962545107119,0.0090098971338201661,0.0071496059064722617,0.0058294325611202569,0.0052203868264628084,0.0057867505105201889],"s":[0,0.87016696345534861,1.0221858350100104,1.0765000617779927,1.0635620419409051,1.0484249436118098,1.030840450998447,1.0110783542988475,0.98949006516535665,0.96648538828983543,0.94242373143228519,0.91762169050880171,0.89235846812534891,0.86688118684731386,0.84141154722492217,0.81615718441947571,0.791335750933909,0.76723243719652867,0.74434444384127874,0.72375075641242859,0.70806498345953717],"Ps":[0,-0.45156911214907364,0.27623730476239311,0.36467388140711077,0.42081669398244614,0.410000870338619,0.39957737150626044,0.38903797976135923,0.37832291054249712,0.36739550548387861,0.35632868459684153,0.34518515300807567,0.33401982452594425,0.32288013662053544,0.31180493514823843,0.30082009358905021,0.28992636765783625,0.27906723283724016,0.26804501855266333,0.25630338683754972,0.242364204831108],"Pss":[0,0.41859785130627536,1.298423139772404,1.4411739431851043,1.484378735923352,1.458425813950428,1.4304178225047073,1.4001163340602059,1.3678129757078539,1.3338808937737143,1.2987524160291271,1.2628068435168771,1.2263782926512929,1.1897613234678492,1.1532164823731605,1.1169772780085268,1.0812621185917459,1.0462996700337692,1.0123894623939416,0.98005414324997853,0.950429188290645],"L":[0,-0.0306379301230727,-0.270268658367778,-0.3770031508950567,-0.46307257693922549,-0.55197286756824315,-0.62660392859312875,-0.68901220911161387,-0.74061348321829856,-0.78261789195417075,-0.81607928442735744,-0.84194822832511851,-0.86108170617822966,-0.87425208634378659,-0.88215501764303772,-0.88541591635689465,-0.8845940769677485,-0.88018194042788811,-0.87259300076263369,-0.86212136683876928,-0.84882894774027529],"w":[0,-0.95192731915652518,-0.18929627983444958,-0.097920507709782723,-0.09315614944073336,-0.15416154589452646,-0.20597019393105459,-0.25042632254710046,-0.28846107894558842,-0.32076574997245727,-0.3478487242083293,-0.37017836644914642,-0.38818388723832636,-0.40225773335224951,-0.41275724863726709,-0.42000403308824136,-0.42427724421624385,-0.42579175840100819,-0.42463763525908421,-0.42061990976646718,-0.41284097284910454],"Pi":[0,-0.45062866885623676,-0.43087729129535851,-0.42098032315070388,-0.41247295269822926,-0.40426144284316018,-0.39550775281453349,-0.38632538314944659,-0.376803860416213,-0.36702044388354654,-0.35704322748461631,-0.34693351430489133,-0.33674637114545397,-0.32653116849479896,-0.31633208698514087,-0.30618860005418885,-0.29613596276647847,-0.28620578520314532,-0.27642688614653543,-0.26682692708335104,-0.25743611420566465],"F":[0,-11.600964015155764,-11.4600607958922,-11.190686586549019,-10.899149953493286,-10.596395927515559,-10.291032819331166,-9.98461086381168,-9.6785243209566314,-9.3740231846534474,-9.0722249725118544,-8.77411635729846,-8.4805648682184014,-8.1923292732136961,-7.9100688435978643,-7.6343514242549073,-7.3656599109786782,-7.1043959164661441,-6.8508773598846293,-6.605321435068487,-6.367790770040207],"K":[0,-16.489308295869751,-16.134145442879362,-15.757410581695869,-15.373587419687547,-14.981756310935788,-14.581434640316404,-14.17540387750631,-13.766029451714671,-13.355399452428397,-12.945370068832581,-12.53759297929154,-12.13353306844008,-11.734484667005619,-11.341586310395892,-10.95583404473197,-10.578093206839556,-10.209108310278312,-9.84950989553689,-9.4998152236216917,-9.1604145942646689],"PQ":[0,-19.162947931636293,-0.93767605165612944,-2.0602551556488056,-4.01938238802605,-3.1675740635076912,-2.48715518422711,-1.8815500227258339,-1.3326362188292722,-0.8341582656171147,-0.38602052808120652,0.012299321771259489,0.36159980502853134,0.66286557075570984,0.91716565328730471,1.1254763015314173,1.2882727965454701,1.4045191433423221,1.4690957140494618,1.4661826134556954,1.3521795953705213],"PB":[0,0.19594956828375057,0.33177990862474466,0.48495397624013326,0.63791229929087934,0.62115275454992758,0.60843340383639977,0.59593482433025691,0.58301770154305488,0.56947617016718266,0.55544018366689818,0.54102055174345542,0.52631544758751136,0.5114127939179679,0.49639166809199975,0.481322937814003,0.46626968957773757,0.45128719268541717,0.43642175537183819,0.42170680643787672,0.40715188595125779],"b":[0,0.8739769917418454,1.0091043108252067,1.0416102513806478,1.0029528405038142,0.96453635124256376,0.92592904364488815,0.88733288349255446,0.84904727644643607,0.81143367040298475,0.77479551511674094,0.73938738477263977,0.70542159545113492,0.67307455728005694,0.64249438170145723,0.61381320278343887,0.58717243201714631,0.562782139337517,0.54106930329009062,0.52305644611166935,0.51133658779011038],"q":[0,7.1410496262901448,1.4250848882867679,1.8704592192761824,2.5148425025165908,2.1952479820095996,1.9322118665761991,1.6934600761537804,1.4732243279411814,1.2697777680804243,1.0834365480935124,0.91432346123879193,0.76242538555162986,0.627629576775152,0.50976468331662,0.40867065162168126,0.32435629681517697,0.257385812630783,0.20985957219817344,0.18793392575047999,0.2083230183767745],"qCB":[0,-6.2279003551845689,-1.2428546427200737,-1.6312775076093284,-2.193261401936677,-1.9145344735517038,-1.6851336427967012,-1.4769118213295875,-1.2848383354561437,-1.1074071497443587,-0.94489398839225658,-0.79740594268367082,-0.66493156860272906,-0.54737253886771675,-0.44457941317206623,-0.35641260453060486,-0.28287980084957248,-0.22447305057253897,-0.18302414527697705,-0.16390220264317037,-0.1816840755966326],"qbar":[0,-4.3853809472693683E-15,1.379452108096757E-14,-5.77871084317394E-14,-1.379452108096757E-14,-1.5293322164211531E-14,-4.5685677463325192E-14,-9.5756735873919752E-15,-7.2108985449403917E-14,4.6185277824406512E-14,-6.2311267257086911E-14,-7.2442052356791464E-15,-2.3397950243975174E-14,-3.6970426720017713E-14,-4.2382763965065351E-14,-1.3822276656583199E-14,-2.0539125955565396E-14,-3.9218628344883655E-14,-2.5784929746919261E-14,-3.81084053202585E-14,-2.8005375796169574E-14],"i":[0,-0.1959495682837491,-0.33177990862468204,-0.48495397624006309,-0.63791229929082527,-0.62115275454987617,-0.60843340383634559,-0.59593482433021316,-0.58301770154299881,-0.56947617016715824,-0.55544018366684689,-0.54102055174342523,-0.52631544758747462,-0.51141279391793248,-0.49639166809196417,-0.481322937813976,-0.46626968957771,-0.451287192685387,-0.43642175537181249,-0.421706806437846,-0.40715188595123575],"iQ":[0,1.8908433333330181,0.092522221394389773,0.20328916719500192,0.39659985611964471,0.31255036136346037,0.24541217853525302,0.18565600290184275,0.13149366783862512,0.0823079309672829,0.038089355805587387,-0.0012135967106245357,-0.035679718126455,-0.065406165576968281,-0.090498422647033991,-0.11105281761276856,-0.1271162473306521,-0.13858648826901346,-0.14495837732526481,-0.14467093632940634,-0.133422048762879],"D":[0,-0.16155717327173022,-0.29639521465295787,-0.4112949032487685,-0.50917802281877078,-0.59221908057183359,-0.66202781281395129,-0.72005897717448653,-0.76762259589762394,-0.80589715103538884,-0.835942287809426,-0.85871082511453922,-0.8750595049134805,-0.88575862858487775,-0.891500703504089,-0.89290821163671164,-0.89054060907615007,-0.884900680326348,-0.87644042625308871,-0.86556682214441116,-0.8526482030773509],"A":[0,6.9068393778851461E-15,5.1977014131911117E-15,4.0266929106553464E-15,3.2063751345977775E-15,2.614101008879617E-15,2.1859838509682271E-15,1.8732837601859105E-15,1.6434980766531708E-15,1.472654263390719E-15,1.3406117751681406E-15,1.2377586481366649E-15,1.1547043193847116E-15,1.085838562119488E-15,1.0286054125658876E-15,9.7970112741466134E-16,9.3700328868160757E-16,8.980421407782455E-16,8.6315092315820923E-16,8.298594015265949E-16,7.9743206986368429E-16],"G":[0,0.99999999999999389,0.099999999999959455,0.0099999999999564881,0.00099999999995781241,9.9999999958466645E-5,9.9999999598754385E-6,9.9999996072686059E-7,9.9999962088759276E-8,9.9999630798208727E-9,9.99963334358256E-10,9.996514727106387E-11,9.9661390251526427E-12,9.67559365960824E-13,6.8389738316909643E-14,-2.0206059048177849E-14,-2.8976820942716586E-14,-2.8199664825478976E-14,-2.7422508708241367E-14,-2.631228568361621E-14,-2.5313084961453569E-14],"theta":[0,0,-4.4408920985006262E-16,-8.8817841970012523E-16,-1.3322676295501878E-15,-1.7763568394002505E-15,-2.2204460492503131E-15,-2.4424906541753444E-15,-2.886579864025407E-15,-3.1086244689504383E-15,-3.3306690738754696E-15,-3.5527136788005009E-15,-3.7747582837255322E-15,-3.7747582837255322E-15,-3.9968028886505635E-15,-3.9968028886505635E-15,-4.2188474935755949E-15,-4.2188474935755949E-15,-4.2188474935755949E-15,-4.4408920985006262E-15,-4.4408920985006262E-15],"ksi":[0,0,0,0,0,0,0,0,0,0,0,0,0,0,0,0,0,0,0,0,0],"ChiC":[0,0,2.3407114728324653E-15,2.4804246495213671E-15,2.5475980665570479E-15,2.3720301533045419E-15,2.3778842573789066E-15,2.1838044579801395E-15,2.2297501811746415E-15,2.0154620959818891E-15,1.8479438864464E-15,1.7408311829169354E-15,1.5877691734845131E-15,1.3044442268683665E-15,1.5170238377107671E-15,-2.2781645054579109E-19,2.0502864048055847E-15,7.1447521941428655E-16,8.8393168522305736E-16,9.668194198721575E-16,8.8366982202509928E-16],"ChiL":[0,0,1.2976295026436373E-16,2.2251982922644363E-16,2.8396259545624876E-16,3.3022092506702473E-16,3.6268746632891167E-16,3.7593376101992624E-16,3.7744526858372603E-16,3.7416284729099212E-16,3.6890449607816324E-16,3.6153211105066268E-16,3.5438671583896607E-16,3.4398791526918767E-16,3.3208284982107653E-16,3.20885090683724E-16,3.1138565970636153E-16,3.0526572508919193E-16,2.9516177260248109E-16,2.8657109145179426E-16,2.7776424744304185E-16],"epsG":[0,0.99999999999999811,-1.5710995088088144E-14,-1.5712434793091078E-14,-1.4846547958231031E-14,-1.4785544803047171E-14,-1.4107099948938541E-14,-1.3975514953853323E-14,-1.3404354269653365E-14,-1.3101841087045724E-14,-1.3336172197590372E-14,-1.2461514844637923E-14,-1.2060216821286632E-14,-1.1514555601321921E-14,-1.1432472576562726E-14,-1.085658600678935E-14,-1.081532960666163E-14,-1.0152577626288918E-14,-9.8712177135791975E-15,-9.4015605794710936E-15,-9.0470313499607821E-15],"Yf":[0,0.33472803347280627,0.03347280334728403,0.0033472803347309732,0.000334728033475562,3.34728033495324E-5,3.3472803370182547E-6,3.3472803528944439E-7,3.3472805305301279E-8,3.3472817850821457E-9,3.347294108557719E-10,3.3474001348565707E-11,3.3485991757231659E-12,3.3584246494910985E-13,3.4472424914611111E-14,3.8857805861880479E-15,1.5543122344752192E-15,7.7715611723760958E-16,7.7715611723760958E-16,6.6613381477509392E-16,8.3266726846886741E-16],"Gf":[0,1.0000000000000013,0.10000000000000075,0.010000000000000231,0.001000000000000778,0.00010000000000043308,1.0000000000731646E-5,1.0000000004728449E-6,1.0000000050247593E-7,1.0000000494336803E-8,9.9999974967346361E-10,1.000000082740371E-10,1.0000222872008635E-11,1.000310945187266E-12,9.9809049913801573E-14,9.8809849191638932E-15,8.8817841970012523E-16,0,-1.1102230246251565E-16,0,1.1102230246251565E-16],"interest":[0,-0.7837982731349955,-1.3271196344987124,-1.9398159049602346,-2.5516491971632869,-2.4846110181994914,-2.4337336153453686,-2.3837392973208416,-2.332070806171981,-2.2779046806686267,-2.2217607346673751,-2.1640822069736925,-2.1052617903498891,-2.0456511756717219,-1.9855666723678482,-1.9252917512558971,-1.8650787583108319,-1.8051487707415406,-1.7456870214872431,-1.6868272257513761,-1.6286075438049392],"inflation":[0,-0.45062866885623659,-0.88150596015159544,-1.3024862833022841,-1.7149592360005157,-1.6685920099874403,-1.6332224715066157,-1.5985675315053585,-1.5628984392233423,-1.5256574402637291,-1.4871929149338126,-1.447801046089257,-1.4077435568184982,-1.3672542814297515,-1.3265431409302766,-1.2857982266795742,-1.2451878183005987,-1.2048624350089454,-1.1649572341703405,-1.1255955611995028,-1.0868957126386889],"inflationq":[0,-1.8025146754249446,-1.7235091651814387,-1.68392129260282,-1.6498918107929212,-1.617045771372644,-1.5820310112581366,-1.5453015325977906,-1.5072154416648547,-1.4680817755341891,-1.4281729099384677,-1.3877340572195678,-1.3469854845818185,-1.3061246739791972,-1.2653283479405664,-1.2247544002167552,-1.1845438510659203,-1.1448231408125813,-1.1057075445861437,-1.067307708333407,-1.0297444568226606],"outputgap":[0,-0.21571053970129575,-0.0097213885425249027,0.027827039986522382,0.041579313675115706,0.036553993563460667,0.03220018382924706,0.028223999874512008,0.02455370532619713,0.021162959454045224,0.018057275466812329,0.015238724320492551,0.012707089755829029,0.010460492945903415,0.00849607805522879,0.0068111775270120033,0.0054059382802354363,0.0042897635438336685,0.0034976595366223158,0.0031322320958327931,0.0034720503062658521],"output":[0,0.1190174937715,0.023751414804805079,0.031174320321296151,0.041914041708635885,0.036587466366850938,0.032203531109626031,0.028224334602585041,0.024553738799041908,0.021162962801362251,0.018057275801578648,0.015238724353999297,0.012707089759211849,0.010460492946269481,0.0084960780552931232,0.0068111775270439318,0.0054059382802675365,0.0042897635438602739,0.0034976595366495162,0.0031322320958562517,0.0034720503062919904],"fispol":[0,0.99999999999999911,-7.8561361423507872E-15,-7.8562812563762236E-15,-7.4232803650985809E-15,-7.3927730401218915E-15,-7.0535500383291078E-15,-6.9877574833126457E-15,-6.7021771354652908E-15,-6.5509205435867086E-15,-6.6680860988015804E-15,-6.2307574223195989E-15,-6.0301084106433807E-15,-5.7572778006609723E-15,-5.7162362882813693E-15,-5.4282930033946751E-15,-5.4076648033308239E-15,-5.0762888131444679E-15,-4.9356088567896019E-15,-4.70078028973555E-15,-4.5235156749803934E-15],"AUX_ENDO_LEAD_89":[0,-1.7235091651814411,-1.683921292602818,-1.6498918107929141,-1.6170457713726396,-1.5820310112581304,-1.545301532597781,-1.5072154416648491,-1.4680817755341797,-1.4281729099384637,-1.3877340572195567,-1.3469854845818128,-1.3061246739791881,-1.2653283479405568,-1.2247544002167448,-1.1845438510659143,-1.1448231408125742,-1.105707544586136,-1.0673077083333997,-1.0297444568226546,-0.99318517485064817],"AUX_ENDO_LEAD_93":[0,-1.6839212926028175,-1.6498918107929221,-1.6170457713726367,-1.5820310112581324,-1.5453015325977824,-1.5072154416648462,-1.4680817755341817,-1.4281729099384586,-1.3877340572195627,-1.3469854845818083,-1.3061246739791874,-1.2653283479405562,-1.2247544002167416,-1.1845438510659076,-1.1448231408125731,-1.105707544586134,-1.0673077083333944,-1.0297444568226481,-0.9931851748506445,-0.9579361437713616],"AUX_ENDO_LEAD_97":[0,-1.6498918107929217,-1.6170457713726407,-1.5820310112581297,-1.5453015325977808,-1.5072154416648456,-1.4680817755341784,-1.4281729099384579,-1.387734057219558,-1.3469854845818141,-1.3061246739791839,-1.2653283479405582,-1.2247544002167412,-1.1845438510659076,-1.1448231408125706,-1.1057075445861337,-1.0673077083333935,-1.029744456822649,-0.99318517485064439,-0.95793614377136316,-0.92368874084552421],"AUX_ENDO_LEAD_124":[0,-0.00972138854252732,0.027827039986521911,0.041579313675115158,0.036553993563459994,0.032200183829245624,0.028223999874511737,0.024553705326195968,0.021162959454044561,0.018057275466811889,0.015238724320491491,0.012707089755828609,0.010460492945902995,0.0084960780552286591,0.0068111775270115757,0.0054059382802351804,0.0042897635438339434,0.0034976595366216674,0.0031322320958321191,0.0034720503062663425,0.0052516769707335988],"AUX_ENDO_LEAD_128":[0,0.027827039986523427,0.041579313675115873,0.036553993563460507,0.032200183829245076,0.028223999874512767,0.024553705326195996,0.021162959454043704,0.018057275466812024,0.01523872432049204,0.012707089755828963,0.010460492945902069,0.0084960780552286487,0.0068111775270120528,0.0054059382802342714,0.0042897635438330492,0.0034976595366212923,0.003132232095832493,0.0034720503062671913,0.0052516769707334661,0.0053994572363932226],"AUX_ENDO_LEAD_132":[0,0.041579313675115942,0.036553993563462873,0.032200183829245568,0.02822399987451206,0.0245537053261951,0.021162959454045057,0.018057275466812937,0.015238724320491287,0.0127070897558281,0.010460492945900837,0.008496078055228222,0.0068111775270124457,0.00540593828023441,0.0042897635438325643,0.0034976595366203039,0.003132232095831744,0.0034720503062663955,0.0052516769707310262,0.0053994572363904713,0.0057398974917059788],"AUX_ENDO_LEAD_159":[0,0.02375141480480341,0.031174320321295926,0.04191404170863447,0.0365874663668505,0.032203531109625205,0.028224334602584788,0.024553738799040947,0.021162962801361932,0.018057275801578121,0.015238724353998942,0.012707089759211643,0.01046049294626902,0.0084960780552929775,0.0068111775270438147,0.0054059382802675027,0.004289763543860561,0.0034976595366499295,0.003132232095856142,0.0034720503062929233,0.0052516769707585563],"AUX_ENDO_LEAD_163":[0,0.031174320321295874,0.041914041708633006,0.036587466366851867,0.032203531109625559,0.028224334602585263,0.0245537387990403,0.021162962801360711,0.018057275801579162,0.015238724353999533,0.012707089759212583,0.010460492946267413,0.0084960780552925854,0.0068111775270429976,0.0054059382802652631,0.0042897635438611231,0.0034976595366492881,0.0031322320958582753,0.0034720503062956975,0.0052516769707580914,0.0053994572364173266],"AUX_ENDO_LEAD_167":[0,0.04191404170863295,0.036587466366852853,0.032203531109625538,0.028224334602584833,0.02455373879904077,0.021162962801358275,0.018057275801579686,0.0152387243539987,0.01270708975921447,0.01046049294626872,0.0084960780552920771,0.00681117752704359,0.0054059382802652311,0.0042897635438606547,0.00349765953664944,0.0031322320958585286,0.0034720503062931141,0.0052516769707580489,0.0053994572364177767,0.0057398974917307211],"AUX_ENDO_LAG_7_1":[0,0,-0.45062866885623964,-0.43087729129536206,-0.42098032315070716,-0.4124729526982327,-0.40426144284316351,-0.39550775281453676,-0.38632538314944975,-0.37680386041621616,-0.36702044388354943,-0.35704322748461925,-0.34693351430489411,-0.3367463711454568,-0.32653116849480152,-0.31633208698514326,-0.306188600054191,-0.29613596276648047,-0.2862057852031476,-0.27642688614653732,-0.2668269270833532],"AUX_ENDO_LAG_7_2":[0,0,1.8196381901258718E-14,-0.45062866885622077,-0.43087729129534375,-0.42098032315068895,-0.41247295269821482,-0.40426144284314613,-0.39550775281451978,-0.38632538314943338,-0.37680386041620012,-0.36702044388353394,-0.35704322748460426,-0.34693351430487968,-0.33674637114544292,-0.32653116849478808,-0.31633208698513055,-0.30618860005417875,-0.29613596276646847,-0.28620578520313605,-0.27642688614652605],"AUX_ENDO_LAG_32_1":[0,0,0.1190174937715,0.023751414804805079,0.031174320321296151,0.041914041708635885,0.036587466366850938,0.032203531109626031,0.028224334602585041,0.024553738799041908,0.021162962801362251,0.018057275801578648,0.015238724353999297,0.012707089759211849,0.010460492946269481,0.0084960780552931232,0.0068111775270439318,0.0054059382802675365,0.0042897635438602739,0.0034976595366495162,0.0031322320958562517],"AUX_ENDO_LAG_32_2":[0,0,0,0.1190174937715,0.023751414804805079,0.031174320321296151,0.041914041708635885,0.036587466366850938,0.032203531109626031,0.028224334602585041,0.024553738799041908,0.021162962801362251,0.018057275801578648,0.015238724353999297,0.012707089759211849,0.010460492946269481,0.0084960780552931232,0.0068111775270439318,0.0054059382802675365,0.0042897635438602739,0.0034976595366495162],"AUX_ENDO_LAG_32_3":[0,0,0,0,0.1190174937715,0.023751414804805079,0.031174320321296151,0.041914041708635885,0.036587466366850938,0.032203531109626031,0.028224334602585041,0.024553738799041908,0.021162962801362251,0.018057275801578648,0.015238724353999297,0.012707089759211849,0.010460492946269481,0.0084960780552931232,0.0068111775270439318,0.0054059382802675365,0.0042897635438602739],"AUX_ENDO_LAG_31_1":[0,0,-0.21571053970129575,-0.0097213885425249027,0.027827039986522382,0.041579313675115706,0.036553993563460667,0.03220018382924706,0.028223999874512008,0.02455370532619713,0.021162959454045224,0.018057275466812329,0.015238724320492551,0.012707089755829029,0.010460492945903415,0.00849607805522879,0.0068111775270120033,0.0054059382802354363,0.0042897635438336685,0.0034976595366223158,0.0031322320958327931],"AUX_ENDO_LAG_31_2":[0,0,0,-0.21571053970129575,-0.0097213885425249027,0.027827039986522382,0.041579313675115706,0.036553993563460667,0.03220018382924706,0.028223999874512008,0.02455370532619713,0.021162959454045224,0.018057275466812329,0.015238724320492551,0.012707089755829029,0.010460492945903415,0.00849607805522879,0.0068111775270120033,0.0054059382802354363,0.0042897635438336685,0.0034976595366223158],"AUX_ENDO_LAG_31_3":[0,0,0,0,-0.21571053970129575,-0.0097213885425249027,0.027827039986522382,0.041579313675115706,0.036553993563460667,0.03220018382924706,0.028223999874512008,0.02455370532619713,0.021162959454045224,0.018057275466812329,0.015238724320492551,0.012707089755829029,0.010460492945903415,0.00849607805522879,0.0068111775270120033,0.0054059382802354363,0.0042897635438336685],"AUX_ENDO_LAG_28_1":[0,0,-0.7837982731349955,-1.3271196344987124,-1.9398159049602346,-2.5516491971632869,-2.4846110181994914,-2.4337336153453686,-2.3837392973208416,-2.332070806171981,-2.2779046806686267,-2.2217607346673751,-2.1640822069736925,-2.1052617903498891,-2.0456511756717219,-1.9855666723678482,-1.9252917512558971,-1.8650787583108319,-1.8051487707415406,-1.7456870214872431,-1.6868272257513761],"AUX_ENDO_LAG_28_2":[0,0,0,-0.7837982731349955,-1.3271196344987124,-1.9398159049602346,-2.5516491971632869,-2.4846110181994914,-2.4337336153453686,-2.3837392973208416,-2.332070806171981,-2.2779046806686267,-2.2217607346673751,-2.1640822069736925,-2.1052617903498891,-2.0456511756717219,-1.9855666723678482,-1.9252917512558971,-1.8650787583108319,-1.8051487707415406,-1.7456870214872431],"AUX_ENDO_LAG_28_3":[0,0,0,0,-0.7837982731349955,-1.3271196344987124,-1.9398159049602346,-2.5516491971632869,-2.4846110181994914,-2.4337336153453686,-2.3837392973208416,-2.332070806171981,-2.2779046806686267,-2.2217607346673751,-2.1640822069736925,-2.1052617903498891,-2.0456511756717219,-1.9855666723678482,-1.9252917512558971,-1.8650787583108319,-1.8051487707415406],"AUX_ENDO_LAG_30_1":[0,0,-1.802514675424943,-1.7235091651814376,-1.6839212926028186,-1.649891810792921,-1.6170457713726438,-1.5820310112581364,-1.5453015325977904,-1.5072154416648544,-1.4680817755341886,-1.4281729099384672,-1.3877340572195676,-1.3469854845818183,-1.306124673979197,-1.2653283479405661,-1.224754400216755,-1.18454385106592,-1.1448231408125813,-1.1057075445861437,-1.067307708333407],"AUX_ENDO_LAG_30_2":[0,0,1.5267969826776142E-14,-1.80251467542493,-1.7235091651814207,-1.683921292602806,-1.6498918107929057,-1.6170457713726307,-1.5820310112581217,-1.5453015325977786,-1.5072154416648402,-1.4680817755341764,-1.4281729099384544,-1.3877340572195584,-1.3469854845818083,-1.3061246739791887,-1.2653283479405546,-1.2247544002167474,-1.1845438510659103,-1.1448231408125744,-1.1057075445861364],"AUX_ENDO_LAG_30_3":[0,0,7.9240332508113771E-16,1.6026436951569548E-14,-1.802514675424929,-1.72350916518142,-1.6839212926028053,-1.649891810792905,-1.61704577137263,-1.5820310112581211,-1.5453015325977779,-1.5072154416648396,-1.468081775534176,-1.4281729099384539,-1.387734057219558,-1.3469854845818079,-1.3061246739791883,-1.2653283479405542,-1.224754400216747,-1.1845438510659099,-1.144823140812574],"AUX_ENDO_LAG_13_1":[0,0,7.1410496262900924,1.4250848882867231,1.8704592192761034,2.514842502516542,2.1952479820095516,1.9322118665761621,1.6934600761537237,1.4732243279411363,1.2697777680803743,1.0834365480934725,0.91432346123874808,0.76242538555159522,0.62762957677511977,0.50976468331660818,0.40867065162166383,0.32435629681516542,0.25738581263077381,0.20985957219814796,0.1879339257504806],"AUX_ENDO_LAG_13_2":[0,0,-5.4956039718945249E-15,7.1410496262900987,1.4250848882867158,1.8704592192760998,2.514842502516542,2.1952479820095467,1.9322118665761558,1.6934600761537206,1.4732243279411312,1.2697777680803735,1.0834365480934645,0.91432346123874453,0.76242538555159489,0.62762957677512388,0.50976468331661062,0.40867065162166616,0.3243562968151662,0.2573858126307681,0.20985957219815418],"AUX_ENDO_LAG_13_3":[0,0,-5.2818860396541822E-14,-6.2061467076546251E-14,7.14104962629004,1.4250848882866587,1.870459219276053,2.514842502516494,2.1952479820095014,1.9322118665761034,1.6934600761536704,1.4732243279410802,1.2697777680803339,1.0834365480934258,0.91432346123871178,0.76242538555156636,0.62762957677509879,0.50976468331658464,0.40867065162163296,0.32435629681512884,0.25738581263074878],"AUX_ENDO_LAG_13_4":[0,0,-5.0154325137441447E-14,-9.1371354926650383E-14,-1.2273515537231106E-13,7.141049626289993,1.4250848882865996,1.8704592192760052,2.5148425025164514,2.1952479820094579,1.932211866576061,1.6934600761536345,1.4732243279410382,1.2697777680803028,1.0834365480933985,0.91432346123868824,0.76242538555154071,0.62762957677508024,0.50976468331656555,0.4086706516216152,0.32435629681511341],"AUX_ENDO_LAG_7_3":[0,0,1.1301723445988898E-15,1.9114050620050449E-14,-0.45062866885621944,-0.4308772912953428,-0.42098032315068812,-0.41247295269821388,-0.40426144284314519,-0.39550775281451911,-0.38632538314943254,-0.37680386041619951,-0.36702044388353328,-0.35704322748460371,-0.34693351430487912,-0.33674637114544254,-0.32653116849478742,-0.31633208698513043,-0.30618860005417836,-0.29613596276646814,-0.28620578520313578],"AUX_ENDO_LAG_13_5":[0,0,-2.0650148258027912E-14,-7.41073868937292E-14,-1.1071699113074374E-13,-1.4030443473700416E-13,7.141049626289977,1.4250848882865739,1.8704592192759855,2.5148425025164296,2.1952479820094357,1.9322118665760477,1.693460076153618,1.4732243279410218,1.2697777680802893,1.0834365480933859,0.91432346123867081,0.76242538555153794,0.62762957677507614,0.50976468331656333,0.40867065162161553],"AUX_ENDO_LAG_7_4":[0,0,-7.6067624421582991E-16,1.3487475025719675E-15,1.9898145631191966E-14,-0.45062866885621761,-0.43087729129534064,-0.42098032315068651,-0.41247295269821249,-0.40426144284314386,-0.39550775281451767,-0.3863253831494311,-0.37680386041619807,-0.36702044388353205,-0.35704322748460238,-0.34693351430487784,-0.3367463711454412,-0.32653116849478625,-0.3163320869851291,-0.30618860005417708,-0.29613596276646686],"AUX_ENDO_LAG_13_6":[0,0,7.2636341386100867E-14,4.0079051188968151E-14,-4.3853809472693683E-15,-4.1688874574674628E-14,-7.5522921250126274E-14,7.1410496262900383,1.4250848882866272,1.8704592192760343,2.5148425025164856,2.1952479820094895,1.932211866576097,1.6934600761536658,1.4732243279410715,1.2697777680803377,1.0834365480934331,0.91432346123870634,0.76242538555157435,0.62762957677511177,0.50976468331659719],"AUX_ENDO_LAG_7_5":[0,0,-1.0286910212542466E-15,-1.58640461878079E-15,3.0097452308197603E-16,1.9427168207464263E-14,-0.45062866885621777,-0.43087729129533986,-0.42098032315068595,-0.412472952698212,-0.40426144284314347,-0.39550775281451755,-0.38632538314943105,-0.37680386041619812,-0.36702044388353205,-0.35704322748460232,-0.34693351430487779,-0.33674637114544115,-0.32653116849478592,-0.31633208698512888,-0.30618860005417681],"AUX_ENDO_LAG_13_7":[0,0,2.5396351688300456E-14,1.0239031844605506E-13,6.9000360980453479E-14,3.219646771412954E-14,-1.9123591599168321E-14,-4.9904524956900786E-14,7.1410496262900889,1.4250848882866438,1.8704592192760545,2.514842502516514,2.1952479820095108,1.9322118665761188,1.6934600761536882,1.4732243279410813,1.269777768080345,1.0834365480934467,0.914323461238725,0.76242538555158967,0.6276295767751211],"AUX_ENDO_LAG_7_6":[0,0,-9.8619029609281483E-16,-2.3652954594943765E-15,-2.9871938256320618E-15,-1.2255821357776142E-15,1.8687308644960154E-14,-0.450628668856219,-0.43087729129534125,-0.42098032315068751,-0.41247295269821321,-0.40426144284314447,-0.39550775281451794,-0.38632538314943149,-0.3768038604161984,-0.36702044388353228,-0.3570432274846026,-0.34693351430487818,-0.33674637114544131,-0.32653116849478614,-0.31633208698512894],"AUX_ENDO_LAG_13_8":[0,0,2.2537527399890678E-14,4.5380366131553274E-14,1.2531642390456454E-13,8.354428260304303E-14,5.1264548162066603E-14,-3.1086244689504383E-15,-3.1752378504279477E-14,7.1410496262901173,1.425084888286658,1.8704592192760663,2.5148425025165393,2.1952479820095334,1.9322118665761381,1.6934600761537091,1.4732243279411072,1.2697777680803652,1.0834365480934673,0.91432346123873875,0.76242538555160833],"AUX_ENDO_LAG_7_7":[0,0,4.5970172113385388E-16,-2.1423834928313568E-16,-1.0911410663894117E-15,-1.8518173106052416E-15,5.1087606367516969E-16,1.9631865577629526E-14,-0.45062866885621822,-0.4308772912953403,-0.4209803231506864,-0.41247295269821238,-0.40426144284314358,-0.39550775281451744,-0.38632538314943082,-0.37680386041619784,-0.36702044388353133,-0.35704322748460177,-0.34693351430487751,-0.33674637114544076,-0.32653116849478553],"AUX_ENDO_LAG_13_9":[0,0,8.8179463730853058E-14,1.0488832025146166E-13,1.2381762282132058E-13,2.0372592501871623E-13,1.6256440638073855E-13,1.2378986724570495E-13,5.9979798905374082E-14,3.70536934468646E-14,7.141049626290207,1.4250848882867164,1.8704592192761216,2.5148425025165948,2.19524798200959,1.93221186657619,1.6934600761537606,1.4732243279411574,1.2697777680804097,1.0834365480935035,0.91432346123878094],"AUX_ENDO_LAG_7_8":[0,0,5.8807125835613761E-16,1.4502288259166107E-15,1.1301723445988898E-15,1.8648277366750676E-16,-4.2674197509029455E-16,1.6323747908941755E-15,2.0638872555434062E-14,-0.45062866885621716,-0.43087729129533919,-0.42098032315068573,-0.412472952698212,-0.4042614428431433,-0.39550775281451722,-0.38632538314943077,-0.37680386041619768,-0.36702044388353111,-0.35704322748460138,-0.34693351430487712,-0.33674637114544043],"AUX_ENDO_LAG_13_10":[0,0,7.4884543010966809E-14,1.6231460620019789E-13,1.6728285423539546E-13,1.9459434064117431E-13,2.6445512446571229E-13,2.2096213747602178E-13,1.8379742172669467E-13,1.1335377081422848E-13,9.0899510141184692E-14,7.1410496262902736,1.4250848882867644,1.870459219276166,2.5148425025166388,2.1952479820096285,1.9322118665762342,1.6934600761538081,1.4732243279412076,1.2697777680804707,1.0834365480935519],"AUX_ENDO_LAG_7_9":[0,0,8.2399365108898337E-17,6.5485811218124468E-16,1.8353374375834619E-15,1.5334955527634975E-15,5.3169274538689137E-16,6.7654215563095477E-17,1.5768636396629176E-15,2.1409957140505753E-14,-0.450628668856216,-0.430877291295339,-0.42098032315068551,-0.4124729526982111,-0.40426144284314286,-0.39550775281451661,-0.38632538314942988,-0.376803860416197,-0.36702044388353045,-0.35704322748460088,-0.34693351430487657],"AUX_ENDO_LAG_13_11":[0,0,-2.5590640717609858E-14,5.0737192225369654E-14,1.3547496457988473E-13,1.4013790128331038E-13,1.6980861161641769E-13,2.4419355426630318E-13,1.9723112032465906E-13,1.588729148238599E-13,8.1962214792952182E-14,6.22002449546244E-14,7.1410496262902505,1.425084888286732,1.8704592192761362,2.5148425025166095,2.1952479820096009,1.9322118665762078,1.6934600761537701,1.4732243279411672,1.2697777680804438],"AUX_ENDO_LAG_7_10":[0,0,-3.5908775952719907E-16,-5.8980598183211441E-16,7.6241096769180672E-16,1.6922227508153753E-15,1.5317608292875207E-15,4.3107878378023656E-16,1.7347234759768071E-17,2.0929438737660178E-15,2.19598644823904E-14,-0.45062866885621522,-0.43087729129533864,-0.42098032315068479,-0.41247295269821038,-0.40426144284314242,-0.39550775281451622,-0.38632538314942966,-0.37680386041619657,-0.36702044388352995,-0.35704322748460032],"AUX_ENDO_LAG_13_12":[0,0,-1.2417844530432376E-13,-1.3850032232198828E-13,-6.8917094253606592E-14,2.886579864025407E-14,2.0511370379949767E-14,7.2913897142257156E-14,1.3383738561856262E-13,9.7255536957163713E-14,5.8619775700208265E-14,-1.5876189252139739E-14,-3.7192471324942744E-14,7.1410496262901653,1.4250848882866383,1.8704592192760472,2.5148425025165326,2.1952479820095321,1.932211866576125,1.6934600761537004,1.473224327941101],"AUX_ENDO_LAG_7_11":[0,0,-1.5048726154098802E-15,-1.9654416982817224E-15,-1.663599813461758E-15,-3.9985376121265404E-16,6.1669419570975492E-16,6.0715321659188248E-16,-5.9847959921199845E-16,-9.0032148403196288E-16,1.3522169495239211E-15,2.1360517521440414E-14,-0.45062866885621555,-0.43087729129533897,-0.42098032315068534,-0.41247295269821049,-0.40426144284314275,-0.39550775281451656,-0.38632538314942982,-0.37680386041619662,-0.36702044388352995],"AUX_ENDO_LAG_13_13":[0,0,-2.808864252301646E-14,-1.6336931807359178E-13,-1.6595058660584527E-13,-1.0258460747536446E-13,2.9420910152566648E-15,-1.1629586182948515E-14,5.057065877167588E-14,1.0141887329950805E-13,6.2311267257086911E-14,2.9864999362416711E-14,-4.0162317915815038E-14,-6.7723604502134549E-14,7.1410496262901422,1.4250848882866272,1.8704592192760319,2.5148425025165166,2.1952479820095143,1.9322118665761199,1.6934600761536827],"AUX_ENDO_LAG_7_12":[0,0,-2.3158558404290375E-16,-1.8084492237058214E-15,-1.6280379822042335E-15,-1.0859368959614812E-15,1.700029006457271E-16,1.4563003580825296E-15,1.3877787807814457E-15,1.5005358067199381E-16,1.0755285551056204E-16,2.392183673372017E-15,2.223742023854669E-14,-0.45062866885621494,-0.4308772912953388,-0.42098032315068407,-0.41247295269820983,-0.40426144284314236,-0.395507752814516,-0.38632538314942944,-0.37680386041619612],"AUX_ENDO_LAG_13_14":[0,0,-3.9690473130349346E-14,-6.9194650009762881E-14,-2.013944566670034E-13,-2.0311530235517239E-13,-1.3480883076510963E-13,-3.2113200987282653E-14,-4.29101199017623E-14,1.6459056340067946E-14,6.6974203960512568E-14,2.7644553313166398E-14,5.8009153036664429E-15,-6.9361183463456655E-14,-8.3988371812893092E-14,7.1410496262901315,1.4250848882866056,1.8704592192760146,2.5148425025165051,2.1952479820094912,1.9322118665760954],"AUX_ENDO_LAG_7_13":[0,0,1.3964523981613297E-16,-1.7416623698807143E-15,-2.7530061563751929E-15,-2.5110122314764283E-15,-1.9203388879063255E-15,-6.6786853825107073E-16,5.2995802191091457E-16,2.2985086056692694E-16,-7.6761513811973714E-16,-6.1756155744774333E-16,1.4597698050344832E-15,2.130327164673318E-14,-0.45062866885621267,-0.430877291295337,-0.42098032315068296,-0.41247295269820811,-0.40426144284314058,-0.39550775281451445,-0.38632538314942788],"AUX_ENDO_LAG_13_15":[0,0,2.708944180085382E-14,-2.656208586415687E-14,-5.4872772992098362E-14,-1.8601786777594498E-13,-1.804667526528192E-13,-1.1657341758564144E-13,-2.3786528302593979E-14,-2.7644553313166398E-14,3.2973623831367149E-14,7.39130978644198E-14,4.1300296516055823E-14,3.1225022567582528E-14,-6.2644334164474458E-14,-6.5697447482193638E-14,7.1410496262901573,1.4250848882866205,1.8704592192760097,2.5148425025165184,2.1952479820095037],"AUX_ENDO_LAG_7_14":[0,0,-5.1694759584108851E-16,-4.649058915617843E-16,-1.7858978185181229E-15,-2.8354055214840912E-15,-2.5379004453540688E-15,-1.865695098413056E-15,-5.0567189324723927E-16,5.88938620094126E-16,4.77048955893622E-16,-5.1174342541315809E-16,-3.434752482434078E-16,1.4554329963445412E-15,2.0762905283966404E-14,-0.45062866885621583,-0.43087729129534019,-0.42098032315068362,-0.41247295269820955,-0.40426144284314208,-0.3955077528145155],"AUX_ENDO_LAG_13_16":[0,0,2.0039525594484076E-14,4.3132164506687332E-14,-6.744604874597826E-15,-3.730349362740526E-14,-1.6206480601965723E-13,-1.6150969450734465E-13,-9.29256671611256E-14,-6.38378239159465E-15,-8.354428260304303E-15,5.1653126220685408E-14,9.3647312127131954E-14,6.5780714209040525E-14,4.9432680171435095E-14,-4.2604808569990382E-14,-3.7497782656714662E-14,7.1410496262901946,1.4250848882866469,1.8704592192760376,2.5148425025165539],"AUX_ENDO_LAG_7_15":[0,0,-4.4235448637408581E-17,-8.6389229103644993E-16,-1.8041124150158794E-16,-1.5230872119076366E-15,-2.2707530300536405E-15,-1.9073284618364994E-15,-7.4853317988399226E-16,5.2909066017292616E-16,2.1701390684469857E-15,1.8492152253912764E-15,6.6266436782314031E-16,5.9761223747401E-16,2.7573429650651349E-15,2.3803008175615759E-14,-0.45062866885621761,-0.43087729129533864,-0.4209803231506839,-0.41247295269821005,-0.404261442843142],"AUX_ENDO_LAG_13_17":[0,0,-6.106226635438361E-15,1.0380585280245214E-14,2.7811086766860171E-14,-1.609823385706477E-14,-5.1486592766991635E-14,-1.6533996394230144E-13,-1.7386092565629951E-13,-1.1035616864774056E-13,-2.1371793224034263E-14,-2.0372592501871623E-14,3.6082248300317588E-14,7.6244566216132625E-14,5.057065877167588E-14,2.9781732635569824E-14,-6.2561067437627571E-14,-4.8905324234738146E-14,7.1410496262901857,1.4250848882866338,1.8704592192760239],"AUX_ENDO_LAG_7_16":[0,0,-9.0639301619788171E-16,-3.9464959078472361E-16,4.163336342344337E-17,8.1358531023312253E-16,-3.37403716077489E-16,-8.9945412229397448E-16,-4.3281350725621337E-16,6.600622826091751E-16,2.0686577451023425E-15,3.6654707047389934E-15,3.5674588283463038E-15,2.3002433291452462E-15,2.0174834025610267E-15,4.1928266414359427E-15,2.57146734461422E-14,-0.450628668856218,-0.43087729129533614,-0.42098032315068384,-0.41247295269820922],"AUX_ENDO_LAG_13_18":[0,0,-4.2743586448068527E-14,-3.9412917374193057E-14,-2.42861286636753E-14,-3.3861802251067274E-15,-5.1736392947532295E-14,-7.9380946260698693E-14,-1.9376167337270545E-13,-2.0114465648646274E-13,-1.3508638652126592E-13,-4.3215431233534218E-14,-4.3076653355456074E-14,1.7680301667155618E-14,5.4567461660326444E-14,3.3667513221757872E-14,4.9682480351975755E-15,-8.18789480661053E-14,-6.2949645496246376E-14,7.1410496262901795,1.4250848882866212],"AUX_ENDO_LAG_7_17":[0,0,1.8379395227974271E-15,1.7780915628762273E-15,3.5553157640144661E-15,4.1728773214622095E-15,4.8563583709970715E-15,3.7374617289920309E-15,2.7538735181131813E-15,2.8510180327678825E-15,3.7643499428696714E-15,5.0966175724198592E-15,6.5190908227208411E-15,6.1972996179271433E-15,4.6811512999234139E-15,4.4539025245704522E-15,5.9318869261026919E-15,2.7726952678275296E-14,-0.45062866885621661,-0.43087729129533259,-0.4209803231506814]}}