{"interest_": {"cs": [0, -0.009370554015, -0.01545935809, -0.01937223245, -0.02181242665, -0.0232671535, -0.02407235506, -0.02445826954, -0.02458145757, -0.02454728719, -0.02442569894, -0.024262241, -0.02408577732, -0.0239138577, -0.02375644647, -0.02361850071, -0.02350174319, -0.02340587314, -0.02332938541, -0.023270118, -0.02322561182], "cn": [0, -0.07899020912, -0.1225057511, -0.1429622944, -0.1486240164, -0.1451208525, -0.1362488757, -0.1245335374, -0.1116242332, -0.09857009481, -0.08601227788, -0.07431761278, -0.06367112885, -0.05413978313, -0.04571606742, -0.03834759107, -0.03195692106, -0.02645468177, -0.02174801642, -0.01774587851, -0.01436217664], "R": [0, 0.245305109, 0.1671870136, 0.1128890243, 0.07530108017, 0.04941034941, 0.03169049929, 0.01966341196, 0.01158954113, 0.006249474244, 0.002789883184, 0.0006149117686, -0.0006903780084, -0.001413942882, -0.001754742037, -0.001849470182, -0.001791358339, -0.001643383659, -0.001447540079, -0.001231334937, -0.001012333235], "i": [0, -0.3020822034, -0.4757935985, -0.5644521656, -0.5978732577, -0.5964400717, -0.573966376, -0.5397059303, -0.4997608569, -0.4580669935, -0.4170817562, -0.3782629848, -0.3424011039, -0.3098484937, -0.2806769614, -0.2547850372, -0.231970356, -0.2119778338, -0.1945311445, -0.1793527412, -0.166176087], "k": [0, -0.08013022591, -0.1252767364, -0.1476292721, -0.1552530826, -0.1536553229, -0.1465605402, -0.1364567044, -0.1249779178, -0.1131720892, -0.1016877134, -0.09090382112, -0.08102005656, -0.07211882119, -0.06420788481, -0.05724937176, -0.05117927154, -0.04592038524, -0.04139074686, -0.03750894533, -0.03419734131], "v": [0, -0.08013022591, -0.1170099331, -0.1265680969, -0.1193214305, -0.1023455364, -0.08033267909, -0.05633403462, -0.03227825941, -0.009332764817, 0.01184543084, 0.03093625629, 0.04783730857, 0.06258239726, 0.07528642657, 0.08610855418, 0.09522797674, 0.1028283892, 0.1090883586, 0.1141756914, 0.1182444627], "l": [0, -0.08768517877, -0.1352129949, -0.1568325336, -0.1619137751, -0.1568262451, -0.1458543777, -0.1318395257, -0.1166293745, -0.1013918754, -0.08683396612, -0.07335345233, -0.06114403229, -0.05026753067, -0.04070323372, -0.03238127765, -0.02520497004, -0.01906546444, -0.0138511813, -0.00945364591, -0.005770906379], "y": [0, -0.09711893053, -0.1504047937, -0.1753268213, -0.1820759511, -0.1775890184, -0.1665396489, -0.1520340419, -0.1360982089, -0.1200184544, -0.1045787011, -0.0902253844, -0.07718155714, -0.06552544046, -0.05524413618, -0.04627003352, -0.03850519807, -0.03183745067, -0.02615073125, -0.02133155998, -0.01727285809], "gc": [0, 1.610154034e-16, 0.001774488758, 0.002434928319, 0.002346907885, 0.001763628148, 0.0008595445452, -0.0002459175346, -0.001471690241, -0.002763356206, -0.004084939093, -0.005413156375, -0.006733404218, -0.00803695984, -0.009319038659, -0.01057745078, -0.01181167704, -0.01302223798, -0.01421026705, -0.01537722543, -0.01652471474], "c": [0, -0.02779953034, -0.04379554332, -0.05208768215, -0.05538064502, -0.05552297165, -0.05376653325, -0.05094913248, -0.04762249749, -0.04414181932, -0.04072824459, -0.03751236785, -0.03456439152, -0.03191494394, -0.0295693643, -0.02751742921, -0.02573990815, -0.02421292141, -0.02291078219, -0.02180779994, -0.02087937731], "q": [0, -0.6815757552, -0.4501971893, -0.2911145846, -0.1825105058, -0.1090442908, -0.05995063141, -0.0276866193, -0.006976958525, 0.005859195942, 0.01338265918, 0.01736843328, 0.01904103375, 0.01924008005, 0.01853672261, 0.01731542123, 0.01583131452, 0.01425040284, 0.01267763795, 0.01117651019, 0.00978266364], "rk": [0, -0.011583217, -0.01691435948, -0.01829603891, -0.01724849776, -0.01479454903, -0.0116124826, -0.008143360884, -0.004665980642, -0.001349096909, 0.001712315101, 0.004471987513, 0.006915117479, 0.009046592337, 0.01088302206, 0.01244741366, 0.0137656709, 0.01486434778, 0.01576925704, 0.01650465594, 0.01709281678], "w": [0, -0.004028264136, -0.006978101041, -0.009092777368, -0.01058780526, -0.01162362684, -0.01231864512, -0.01276053963, -0.01301452395, -0.01312931077, -0.01314143221, -0.01307838128, -0.0129609068, -0.01280469818, -0.01262162903, -0.01242068045, -0.0122086306, -0.01199057302, -0.01177030853, -0.01155064349, -0.01133361815], "pi": [0, -0.002094827777, -0.002144961765, -0.002015088779, -0.001845020902, -0.001661084993, -0.001476288445, -0.00129841939, -0.001131968563, -0.000979240371, -0.0008411077939, -0.0007175306468, -0.0006079092267, -0.0005113232684, -0.0004266912356, -0.0003528745214, -0.0002887437704, -0.0002332193528, -0.0001852943797, -0.0001440460839, -0.0001086395986], "b": [0, -0.6146149054, -0.3512645744, -0.1609848838, -0.02289155504, 0.07786521884, 0.1518486953, 0.2065833437, 0.2474381231, 0.2782515515, 0.3017742473, 0.3199824398, 0.3343002345, 0.3457573318, 0.3551010644, 0.3628760861, 0.3694811372, 0.3752095556, 0.3802782462, 0.3848484499, 0.3890406761], "sb": [0, -0.5174959749, -0.2008597806, 0.01434193758, 0.1591843961, 0.2554542373, 0.3183883442, 0.3586173856, 0.383536332, 0.3982700058, 0.4063529484, 0.4102078242, 0.4114817917, 0.4112827723, 0.4103452006, 0.4091461196, 0.4079863353, 0.4070470063, 0.4064289774, 0.4061800099, 0.4063135342], "tauk": [0, 1.645791498e-16, -5.372232476e-15, -3.834449158e-15, -2.793631797e-15, -2.101341634e-15, -1.653197256e-15, -1.375646278e-15, -1.216861343e-15, -1.140353226e-15, -1.12046198e-15, -1.139172011e-15, -1.183862123e-15, -1.245716007e-15, -1.318599296e-15, -1.398266266e-15, -1.481799456e-15, -1.567213892e-15, -1.653177644e-15, -1.738814608e-15, -1.823565412e-15], "taul": [0, -1.853121203e-17, -7.356956764e-16, -7.000781788e-16, -6.782185821e-16, -6.648034407e-16, -6.562236955e-16, -6.501552522e-16, -6.451474127e-16, -6.403327422e-16, -6.352273369e-16, -6.295944199e-16, -6.233519553e-16, -6.165107324e-16, -6.091334448e-16, -6.013081519e-16, -5.931315198e-16, -5.846986483e-16, -5.760972793e-16, -5.674048682e-16, -5.586874859e-16], "tauc": [0, 0, 0, 0, 0, 0, 0, 0, 0, 0, 0, 0, 0, 0, 0, 0, 0, 0, 0, 0, 0], "r": [0, 0.2474500708, 0.1692021023, 0.1147340452, 0.07696216516, 0.05088663786, 0.03298891868, 0.02079538052, 0.0125687815, 0.007090582038, 0.003507413831, 0.001222820995, -0.00017905474, -0.0009872516468, -0.001401867515, -0.001560726412, -0.001558138986, -0.001458089279, -0.001303493996, -0.001122695339, -0.0009340063311], "z": [0, 1.457662313e-16, -0.0002923632285, -0.000399993202, -0.0003838907528, -0.0002862805205, -0.0001362341246, 4.636643851e-05, 0.0002480426888, 0.0004597635595, 0.0006755739122, 0.0008916345769, 0.001105551869, 0.001315910553, 0.001521949626, 0.001723338229, 0.00192002163, 0.002112116135, 0.002299838068, 0.002483456403, 0.002663261715], "mc": [0, -0.00652139858, -0.01025706633, -0.01212985368, -0.01278583378, -0.01267003117, -0.01208561149, -0.01123687065, -0.01025950466, -0.009241840199, -0.008239695596, -0.007286759576, -0.006401818787, -0.005593772309, -0.004865094173, -0.004214209394, -0.00363711111, -0.003128449159, -0.002682251889, -0.002292394679, -0.001952894618], "kbar": [0, -0.008266803302, -0.0210611752, -0.03593165212, -0.05130978651, -0.0662278611, -0.08012266982, -0.09269965837, -0.1038393244, -0.1135331443, -0.1218400774, -0.1288573651, -0.1347012185, -0.1394943114, -0.1433579259, -0.1464072483, -0.1487487744, -0.1504791054, -0.1516846367, -0.152441804, -0.1528176574], "lambda": [0, 0.7452606147, 0.4978105439, 0.3286084416, 0.2138743964, 0.1369122312, 0.08602559337, 0.05303667469, 0.03224129417, 0.01967251266, 0.01258193062, 0.009074516793, 0.007851695798, 0.008030750538, 0.009018002185, 0.0104198697, 0.01198059611, 0.0135387351, 0.01499682438, 0.01630031837, 0.01742301371], "Pb": [0, -0.6573915557, -0.4348304276, -0.282415258, -0.1788827691, -0.1092985961, -0.06319361418, -0.03324184289, -0.01432785517, -0.002889447772, 0.003545473916, 0.006685019755, 0.007702831218, 0.007399486326, 0.006315899094, 0.004812897608, 0.003126985673, 0.001409343621, -0.0002469572358, -0.001788020446, -0.00318600042], "cstar": [0, -0.009638030271, -0.01595128683, -0.0199947034, -0.02250203884, -0.02398164058, -0.02478401961, -0.02514939508, -0.02524111056, -0.02516909506, -0.02500631245, -0.02480027563, -0.02458108932, -0.02436705323, -0.02416855271, -0.02399074884, -0.02383542839, -0.02370226713, -0.0235896846, -0.02349541539, -0.02341688448], "piL": [0, -0.01299651589, -0.01145047589, -0.009956147414, -0.008558797888, -0.007278413236, -0.006122357152, -0.005090181773, -0.00417667593, -0.003373909243, -0.002672592477, -0.002062966104, -0.00153536475, -0.001080560642, -0.0006899579344, -0.0003556878072, -7.063882931e-05, 0.0001715537095, 0.0003765433405, 0.0005493219295, 0.0006942759096], "rL": [0, 0.6703880716, 0.4462809034, 0.2923714054, 0.187441567, 0.1165770093, 0.06931597133, 0.03833202466, 0.0185045311, 0.006263357015, -0.0008728814391, -0.004622053651, -0.006167466468, -0.006318925685, -0.00562594116, -0.004457209801, -0.003056346844, -0.00158089733, -0.0001295861048, 0.001238698516, 0.002491724511], "S": [0, -1.244284103, -1.941290597, -2.268743711, -2.358819908, -2.301595653, -2.157835168, -1.967989622, -1.758501771, -1.546213131, -1.341437132, -1.150095433, -0.9751971333, -0.8178578702, -0.6779973649, -0.5548128265, -0.4470966219, -0.3534461827, -0.272399736, -0.2025213253, -0.1424514743], "rb": [0, -0.6209115974, 0.2474500708, 0.1692021023, 0.1147340452, 0.07696216516, 0.05088663786, 0.03298891868, 0.02079538052, 0.0125687815, 0.007090582038, 0.003507413831, 0.001222820995, -0.00017905474, -0.0009872516468, -0.001401867515, -0.001560726412, -0.001558138986, -0.001458089279, -0.001303493996, -0.001122695339], "Tk": [0, -0.0917134429, -0.1421910959, -0.165925311, -0.1725015804, -0.1684498719, -0.1581730228, -0.1446000653, -0.1296438984, -0.1145211861, -0.09997539833, -0.08643183361, -0.07410493908, -0.06307222885, -0.05332486276, -0.0448019581, -0.03741360064, -0.03105603746, -0.02562148983, -0.0210042894, -0.01710452452], "Tl": [0, -0.0917134429, -0.1421910959, -0.165925311, -0.1725015804, -0.1684498719, -0.1581730228, -0.1446000653, -0.1296438984, -0.1145211861, -0.09997539833, -0.08643183361, -0.07410493908, -0.06307222885, -0.05332486276, -0.0448019581, -0.03741360064, -0.03105603746, -0.02562148983, -0.0210042894, -0.01710452452], "Tc": [0, -0.02779953034, -0.04379554332, -0.05208768215, -0.05538064502, -0.05552297165, -0.05376653325, -0.05094913248, -0.04762249749, -0.04414181932, -0.04072824459, -0.03751236785, -0.03456439152, -0.03191494394, -0.0295693643, -0.02751742921, -0.02573990815, -0.02421292141, -0.02291078219, -0.02180779994, -0.02087937731], "cobs": [0, -2.779953034, -1.599601297, -0.8292138839, -0.3292962861, -0.01423266326, 0.17564384, 0.2817400771, 0.3326634991, 0.3480678162, 0.3413574739, 0.3215876736, 0.2947976332, 0.2649447581, 0.2345579633, 0.2051935093, 0.1777521056, 0.1526986745, 0.1302139217, 0.1102982249, 0.09284226314], "iobs": [0, -30.20822034, -17.37113952, -8.865856703, -3.342109215, 0.1433185967, 2.247369577, 3.426044569, 3.994507343, 4.16938634, 4.09852373, 3.881877138, 3.586188087, 3.255261022, 2.917153229, 2.589192417, 2.281468128, 1.999252213, 1.744668935, 1.517840325, 1.317665417], "gcobs": [0, 1.598831492e-14, 0.1774488758, 0.06604395601, -0.008802043392, -0.05832797365, -0.0904083603, -0.110546208, -0.1225772707, -0.1291665964, -0.1321582888, -0.1328217282, -0.1320247843, -0.1303555622, -0.1282078819, -0.1258412126, -0.1234226252, -0.1210560939, -0.1188029076, -0.1166958377, -0.1147489307], "wobs": [0, -0.4028264136, -0.2949836905, -0.2114676327, -0.1495027889, -0.1035821588, -0.06950182739, -0.04418945152, -0.02539843156, -0.0114786825, -0.001212143368, 0.006305093144, 0.01174744779, 0.01562086188, 0.01830691478, 0.0200948583, 0.02120498442, 0.02180575821, 0.02202644972, 0.0219665037, 0.02170253436], "bobs": [0, -61.46149054, 26.3350331, 19.02796906, 13.80933287, 10.07567739, 7.398347649, 5.473464834, 4.085477947, 3.081342832, 2.352269583, 1.820819256, 1.431779467, 1.145709728, 0.9343732647, 0.7775021611, 0.6605051179, 0.5728418397, 0.5068690543, 0.4570203757, 0.4192226165], "Robs": [0, 24.5305109, 16.71870136, 11.28890243, 7.530108017, 4.941034941, 3.169049929, 1.966341196, 1.158954113, 0.6249474244, 0.2789883184, 0.06149117686, -0.06903780084, -0.1413942882, -0.1754742037, -0.1849470182, -0.1791358339, -0.1643383659, -0.1447540079, -0.1231334937, -0.1012333235], "Piobs": [0, -0.2094827777, -0.2144961765, -0.2015088779, -0.1845020902, -0.1661084993, -0.1476288445, -0.129841939, -0.1131968563, -0.0979240371, -0.08411077939, -0.07175306468, -0.06079092267, -0.05113232684, -0.04266912356, -0.03528745214, -0.02887437704, -0.02332193528, -0.01852943797, -0.01440460839, -0.01086395986], "Lobs": [0, -8.768517877, -13.52129949, -15.68325336, -16.19137751, -15.68262451, -14.58543777, -13.18395257, -11.66293745, -10.13918754, -8.683396612, -7.335345233, -6.114403229, -5.026753067, -4.070323372, -3.238127765, -2.520497004, -1.906546444, -1.38511813, -0.945364591, -0.5770906379], "ugc": [0, 1.765167073e-17, -6.368360748e-15, -6.71104079e-15, -6.731465118e-15, -6.554367819e-15, -6.265273016e-15, -5.920768712e-15, -5.557592825e-15, -5.198896149e-15, -4.858604763e-15, -4.544452466e-15, -4.260080429e-15, -4.006483497e-15, -3.782999745e-15, -3.587981552e-15, -3.419245306e-15, -3.274367893e-15, -3.150877682e-15, -3.04637338e-15, -2.958594016e-15], "uz": [0, 0, 9.673947716e-33, 1.395894281e-32, 1.539736177e-32, 1.528284836e-32, 1.433669297e-32, 1.298334114e-32, 1.147721399e-32, 9.969016104e-33, 8.544209391e-33, 7.246917214e-33, 6.095335722e-33, 5.091822481e-33, 4.229508555e-33, 3.496594107e-33, 2.879089924e-33, 2.362517858e-33, 1.932918889e-33, 1.577406593e-33, 1.284427678e-33], "ua": [0, -1.132254188e-18, -2.846846725e-19, -7.157877061e-20, -1.799717687e-20, -4.525062004e-21, -1.137744341e-21, -2.860650715e-22, -7.192584676e-23, -1.808444283e-23, -4.547003431e-24, -1.143261108e-24, -2.874521581e-25, -7.227460165e-26, -1.81721289e-26, -4.569049055e-27, -1.148803035e-27, -2.888448196e-28, -7.262421402e-29, -1.825963642e-29, -4.590764325e-30], "ub": [0, 0, 1.47750346e-32, 1.532956892e-32, 1.254406132e-32, 9.529603424e-33, 7.036597618e-33, 5.135900067e-33, 3.730684228e-33, 2.704645457e-33, 1.959290527e-33, 1.418952728e-33, 1.027550799e-33, 7.441097274e-34, 5.388639584e-34, 3.902397519e-34, 2.826135242e-34, 2.046734852e-34, 1.482298521e-34, 1.073528964e-34, 7.774898898e-35], "um": [0, 0, 0, 0, 0, 0, 0, 0, 0, 0, 0, 0, 0, 0, 0, 0, 0, 0, 0, 0, 0], "ui": [0, -1.476740724e-17, -7.552227108e-18, -3.862298463e-18, -1.975225216e-18, -1.010153589e-18, -5.166045191e-19, -2.641976746e-19, -1.351138225e-19, -6.909881038e-20, -3.533795069e-20, -1.807224686e-20, -9.242361263e-21, -4.726653104e-21, -2.417266425e-21, -1.236218703e-21, -6.322168981e-22, -3.233232156e-22, -1.65351325e-22, -8.456262759e-23, -4.324633011e-23], "uw": [0, 3.600599067e-17, 1.17701685e-17, 3.847606024e-18, 1.257762122e-18, 4.111558061e-19, 1.344046651e-19, 4.393617637e-20, 1.43625044e-20, 4.695026959e-21, 1.534779558e-21, 5.017113452e-22, 1.640067934e-22, 5.361295602e-23, 1.752579264e-23, 5.729089209e-24, 1.872809055e-24, 6.122114058e-25, 2.001286808e-25, 6.542101065e-26, 2.138578352e-26], "up": [0, -9.670829232e-18, -7.004091816e-18, -5.072708968e-18, -3.673906189e-18, -2.660824181e-18, -1.927100192e-18, -1.395701068e-18, -1.010835595e-18, -7.320970262e-19, -5.302207977e-19, -3.840120698e-19, -2.781204932e-19, -2.014285873e-19, -1.45884524e-19, -1.056567722e-19, -7.652184891e-20, -5.542089958e-20, -4.013855067e-20, -2.907031936e-20, -2.105416e-20], "csf": [0, -5.916932816e-19, -1.334407991e-16, -6.067970938e-16, -1.165489374e-15, -1.758245677e-15, -2.350726233e-15, -2.921550916e-15, -3.458193438e-15, -3.953926614e-15, -4.405749033e-15, -4.812997445e-15, -5.176426655e-15, -5.497606166e-15, -5.778530299e-15, -6.02137122e-15, -6.228326892e-15, -6.40153143e-15, -6.543005926e-15, -6.654635071e-15, -6.738159814e-15], "cnf": [0, -3.81325148e-16, 1.345701737e-15, 4.362907464e-15, 5.43363777e-15, 5.280905316e-15, 4.383239429e-15, 3.052564984e-15, 1.489313176e-15, -1.801812364e-16, -1.878391627e-15, -3.559585328e-15, -5.198445476e-15, -6.782517219e-15, -8.307237532e-15, -9.772701393e-15, -1.118158779e-14, -1.253785477e-14, -1.384593976e-14, -1.511028817e-14, -1.633509225e-14], "if": [0, -1.695398325e-15, -4.275960678e-15, -9.488036117e-15, -1.566248874e-14, -2.181496595e-14, -2.7404878e-14, -3.21692845e-14, -3.601461616e-14, -3.894643852e-14, -4.102456316e-14, -4.233494147e-14, -4.297256361e-14, -4.303148587e-14, -4.259940363e-14, -4.175506254e-14, -4.056739095e-14, -3.909563146e-14, -3.73900126e-14, -3.549267484e-14, -3.343867829e-14], "kf": [0, -3.443431747e-16, 4.998772102e-16, -1.147193508e-17, -1.323976547e-15, -3.028278817e-15, -4.871531236e-15, -6.703578905e-15, -8.440503436e-15, -1.004027308e-14, -1.148667415e-14, -1.277882552e-14, -1.392443114e-14, -1.49355173e-14, -1.582580696e-14, -1.660916095e-14, -1.729870486e-14, -1.790638849e-14, -1.844281143e-14, -1.891720634e-14, -1.933751059e-14], "vf": [0, -2.627596419e-16, 1.301358143e-15, 1.502889009e-14, 2.569212534e-14, 3.397309423e-14, 4.036797311e-14, 4.524456354e-14, 4.88810079e-14, 5.14921418e-14, 5.32474138e-14, 5.428311842e-14, 5.471080422e-14, 5.462311235e-14, 5.409788847e-14, 5.320113247e-14, 5.198916238e-14, 5.051024295e-14, 4.880584515e-14, 4.691164674e-14, 4.485834726e-14], "lf": [0, -4.327860289e-16, 5.774776726e-16, 2.913174942e-15, 3.866466037e-15, 3.961900353e-15, 3.538699774e-15, 2.812466221e-15, 1.918073244e-15, 9.381861419e-16, -7.787108335e-17, -1.101734334e-15, -2.117953109e-15, -3.118823298e-15, -4.101117688e-15, -5.064056048e-15, -6.008076108e-15, -6.934115018e-15, -7.843210607e-15, -8.736298505e-15, -9.614125531e-15], "yf": [0, -4.728881108e-16, -1.504370879e-15, 7.754997425e-17, 3.449695648e-16, -1.666832001e-16, -1.116011557e-15, -2.289879965e-15, -3.558653138e-15, -4.846265341e-15, -6.110456428e-15, -7.329846713e-15, -8.495579412e-15, -9.605992406e-15, -1.066328268e-14, -1.167146859e-14, -1.26351871e-14, -1.355901991e-14, -1.444714783e-14, -1.530320321e-14, -1.613023732e-14], "gcf": [0, -1.168862266e-16, -1.192655195e-14, -2.343970254e-14, -3.443937911e-14, -4.479192125e-14, -5.444215549e-14, -6.338488445e-14, -7.164565062e-14, -7.926773929e-14, -8.630350519e-14, -9.280869188e-14, -9.883881098e-14, -1.044469285e-13, -1.096824022e-13, -1.145902532e-13, -1.192109518e-13, -1.235804672e-13, -1.277304768e-13, -1.316886662e-13, -1.354790737e-13], "cf": [0, -1.015911734e-16, 2.652920993e-16, 7.145214618e-16, 5.835413655e-16, 1.023516553e-16, -5.764624037e-16, -1.354170558e-15, -2.168228491e-15, -2.980080688e-15, -3.766905484e-15, -4.516065738e-15, -5.221403e-15, -5.880782444e-15, -6.494482472e-15, -7.064151704e-15, -7.592144624e-15, -8.08110793e-15, -8.533731288e-15, -8.952604518e-15, -9.340142613e-15], "qf": [0, 2.320606462e-14, 2.241762806e-14, 1.418481258e-14, 8.744040896e-15, 5.121728223e-15, 2.67648282e-15, 9.888652237e-16, -2.13025833e-16, -1.103777777e-15, -1.794304486e-15, -2.354242143e-15, -2.82675848e-15, -3.238268416e-15, -3.604748869e-15, -3.935797489e-15, -4.237205968e-15, -4.512564057e-15, -4.764237835e-15, -4.993949376e-15, -5.203106672e-15], "rkf": [0, -2.088032114e-17, -3.939911107e-17, 2.066274745e-15, 3.686638127e-15, 4.933084977e-15, 5.88648043e-15, 6.606348144e-15, 7.137330366e-15, 7.513570769e-15, 7.761706756e-15, 7.902920709e-15, 7.954354525e-15, 7.930093618e-15, 7.841859693e-15, 7.699506167e-15, 7.511379342e-15, 7.284587647e-15, 7.025207297e-15, 6.738443349e-15, 6.42875887e-15], "wf": [0, -9.879129654e-18, -1.478906346e-15, -1.608984017e-15, -1.833640764e-15, -2.101780836e-15, -2.378653917e-15, -2.641909019e-15, -2.877919459e-15, -3.079112596e-15, -3.242047715e-15, -3.366040662e-15, -3.452186698e-15, -3.502672564e-15, -3.520297897e-15, -3.508147519e-15, -3.469371905e-15, -3.407044643e-15, -3.324074255e-15, -3.223153936e-15, -3.106737349e-15], "bf": [0, 7.876137281e-17, -1.463580437e-14, -1.381173685e-14, -9.74846189e-15, -4.20965716e-15, 1.68397514e-15, 7.240890064e-15, 1.205471256e-14, 1.590576698e-14, 1.869428699e-14, 2.039545128e-14, 2.102939358e-14, 2.064144255e-14, 1.928931385e-14, 1.703499681e-14, 1.393978488e-14, 1.006138955e-14, 5.452415317e-15, 1.597069985e-16, -5.775759316e-15], "sbf": [0, 5.803840398e-16, -1.61683484e-14, -1.621946521e-14, -1.181055026e-14, -5.231078779e-15, 2.06667804e-15, 9.187255454e-15, 1.560307826e-14, 2.10260074e-14, 2.532078958e-14, 2.844720447e-14, 3.042177235e-14, 3.129272998e-14, 3.112395433e-14, 2.998487769e-14, 2.794437843e-14, 2.506727933e-14, 2.141253015e-14, 1.703245528e-14, 1.19726546e-14], "taukf": [0, 0, 0, 0, 0, 0, 0, 0, 0, 0, 0, 0, 0, 0, 0, 0, 0, 0, 0, 0, 0], "taulf": [0, 0, 0, 0, 0, 0, 0, 0, 0, 0, 0, 0, 0, 0, 0, 0, 0, 0, 0, 0, 0], "taucf": [0, 0, 0, 0, 0, 0, 0, 0, 0, 0, 0, 0, 0, 0, 0, 0, 0, 0, 0, 0, 0], "rf": [0, -1.632120851e-15, -2.088213499e-15, -5.204511974e-16, 3.679506884e-16, 8.336614846e-16, 1.043068368e-15, 1.102590207e-15, 1.079123518e-15, 1.013784038e-15, 9.310702257e-16, 8.449288396e-16, 7.627352823e-16, 6.878782485e-16, 6.214163159e-16, 5.631221682e-16, 5.121264935e-16, 4.673031393e-16, 4.274894092e-16, 3.916032504e-16, 3.586975398e-16], "zf": [0, 0, 1.527982201e-14, 2.333890938e-14, 2.654194602e-14, 2.652471747e-14, 2.441332383e-14, 2.097790249e-14, 1.674063927e-14, 1.205157909e-14, 7.141761888e-15, 2.160400806e-15, -2.799161475e-15, -7.681380976e-15, -1.245597386e-14, -1.710925546e-14, -2.16381917e-14, -2.604634371e-14, -3.034112988e-14, -3.453200153e-14, -3.862924913e-14], "mcf": [0, 0, 0, 0, 0, 0, 0, 0, 0, 0, 0, 0, 0, 0, 0, 0, 0, 0, 0, 0, 0], "kbarf": [0, -3.612085499e-17, -1.412256311e-14, -2.602928477e-14, -3.59955677e-14, -4.424364554e-14, -5.097714148e-14, -5.638117401e-14, -6.062280446e-14, -6.385180351e-14, -6.620164617e-14, -6.779065254e-14, -6.872320624e-14, -6.90909969e-14, -6.897424628e-14, -6.844288906e-14, -6.755768871e-14, -6.637127631e-14, -6.492910596e-14, -6.327032471e-14, -6.142855792e-14], "lambdaf": [0, -6.980209241e-16, 9.252510894e-16, 5.915377171e-15, 8.45335925e-15, 9.425257369e-15, 9.409779958e-15, 8.77979337e-15, 7.77324291e-15, 6.540197793e-15, 5.174048371e-15, 3.732055318e-15, 2.248771064e-15, 7.447179185e-16, -7.680684789e-16, -2.282550449e-15, -3.794533356e-15, -5.301366342e-15, -6.801184021e-15, -8.292483909e-15, -9.773907191e-15], "cstarf": [0, 1.024200399e-17, -4.721532638e-17, -1.567300512e-16, -2.916237829e-16, -4.347314782e-16, -5.75444855e-16, -7.072526864e-16, -8.26217966e-16, -9.300048521e-16, -1.017261214e-15, -1.087232007e-15, -1.139521207e-15, -1.173948184e-15, -1.190463193e-15, -1.189099152e-15, -1.169945139e-15, -1.133132448e-15, -1.078827577e-15, -1.007228751e-15, -9.185640471e-16], "Sf": [0, -4.728845585e-15, -7.088106119e-15, 5.724893216e-14, 1.272517502e-13, 1.998568299e-13, 2.729145619e-13, 3.449504578e-13, 4.150015828e-13, 4.824860013e-13, 5.470999596e-13, 6.087380788e-13, 6.674322737e-13, 7.233056666e-13, 7.765383388e-13, 8.273423076e-13, 8.759436084e-13, 9.225697834e-13, 9.674414352e-13, 1.010766798e-12, 1.052738513e-12], "rbf": [0, -1.651384004e-15, 7.407878424e-15, 6.605009436e-15, 5.705064614e-15, 4.811687033e-15, 3.978470412e-15, 3.230468855e-15, 2.575439162e-15, 2.011273909e-15, 1.53069238e-15, 1.124121124e-15, 7.814011609e-16, 4.927464903e-16, 2.492341291e-16, 4.300871954e-17, -1.326802186e-16, -2.835334304e-16, -4.143028539e-16, -5.289101751e-16, -6.305667045e-16], "Tkf": [0, -3.640276012e-16, 4.601645461e-16, 2.050148737e-15, 2.354840379e-15, 1.894692278e-15, 1.003192626e-15, -1.101455791e-16, -1.31688419e-15, -2.540938839e-15, -3.739526474e-15, -4.890634638e-15, -5.984863893e-15, -7.020184268e-15, -7.998619159e-15, -8.924192851e-15, -9.801697498e-15, -1.063598429e-14, -1.143158409e-14, -1.219253021e-14, -1.292230125e-14], "Tlf": [0, -4.426653705e-16, -9.014304001e-16, 1.304188488e-15, 2.032822306e-15, 1.860116157e-15, 1.160042214e-15, 1.705533594e-16, -9.59850193e-16, -2.140930518e-15, -3.319922909e-15, -4.467779123e-15, -5.570143927e-15, -6.621499959e-15, -7.621419645e-15, -8.57220758e-15, -9.477451973e-15, -1.034116356e-14, -1.11672887e-14, -1.195945622e-14, -1.272086659e-14], "Tcf": [0, -1.015911734e-16, 2.652920993e-16, 7.145214618e-16, 5.835413655e-16, 1.023516553e-16, -5.764624037e-16, -1.354170558e-15, -2.168228491e-15, -2.980080688e-15, -3.766905484e-15, -4.516065738e-15, -5.221403e-15, -5.880782444e-15, -6.494482472e-15, -7.064151704e-15, -7.592144624e-15, -8.08110793e-15, -8.533731288e-15, -8.952604518e-15, -9.340142613e-15], "cobsf": [0, -1.027234276e-14, 3.66598588e-14, 4.491577837e-14, -1.309980935e-14, -4.811942353e-14, -6.788151968e-14, -7.777084404e-14, -8.140580047e-14, -8.11852215e-14, -7.868248011e-14, -7.491602543e-14, -7.053372629e-14, -6.593794443e-14, -6.137000277e-14, -5.696692324e-14, -5.279929193e-14, -4.889633067e-14, -4.526233576e-14, -4.1887323e-14, -3.87538095e-14], "iobsf": [0, -1.696530579e-13, -2.580847037e-13, -5.212147018e-13, -6.174470616e-13, -6.152481738e-13, -5.589913191e-13, -4.764406783e-13, -3.845331727e-13, -2.931822386e-13, -2.078124636e-13, -1.310378315e-13, -6.376221411e-14, -5.892226315e-15, 4.320822444e-14, 8.443410867e-14, 1.187671589e-13, 1.471759491e-13, 1.705618859e-13, 1.897337763e-13, 2.053996545e-13], "gcobsf": [0, -1.180184808e-14, -1.180995041e-12, -1.151322217e-12, -1.099969457e-12, -1.035254667e-12, -9.65023537e-13, -8.942729249e-13, -8.260766243e-13, -7.622088687e-13, -7.035765909e-13, -6.505186686e-13, -6.030119105e-13, -5.608117521e-13, -5.235473719e-13, -4.907850988e-13, -4.620698638e-13, -4.369515387e-13, -4.150009545e-13, -3.958189459e-13, -3.790407488e-13], "wobsf": [0, -1.101138384e-15, -1.469311901e-13, -1.301492506e-14, -2.246747435e-14, -2.681445976e-14, -2.768742182e-14, -2.63255388e-14, -2.360105118e-14, -2.011931557e-14, -1.629351234e-14, -1.239929483e-14, -8.61460362e-15, -5.048586649e-15, -1.762533214e-15, 1.215037754e-15, 3.877561424e-15, 6.232726188e-15, 8.297038754e-15, 1.009203198e-14, 1.16416587e-14], "bobsf": [0, 7.762911863e-15, -1.471485043e-12, 8.239959464e-14, 4.063256961e-13, 5.538800206e-13, 5.893631162e-13, 5.556914638e-13, 4.813822427e-13, 3.851054399e-13, 2.788520006e-13, 1.701164285e-13, 6.339423047e-14, -3.879510347e-14, -1.352128692e-13, -2.254317045e-13, -3.095211931e-13, -3.878395333e-13, -4.608974228e-13, -5.292708319e-13, -5.935466315e-13], "Lobsf": [0, -4.327858984e-14, 5.774763139e-14, 2.913173396e-13, 3.866464334e-13, 3.961898521e-13, 3.538697841e-13, 2.812464211e-13, 1.918071177e-13, 9.381840363e-14, -7.787321242e-15, -1.101736474e-13, -2.117955249e-13, -3.118825431e-13, -4.101119807e-13, -5.064058147e-13, -6.008078184e-13, -6.934117067e-13, -7.843212628e-13, -8.736300496e-13, -9.614127491e-13], "interest": [0, 0.9812204361, 0.6687480543, 0.4515560971, 0.3012043207, 0.1976413976, 0.1267619972, 0.07865364783, 0.04635816453, 0.02499789698, 0.01115953274, 0.002459647074, -0.002761512033, -0.00565577153, -0.007018968147, -0.007397880729, -0.007165433356, -0.006573534635, -0.005790160317, -0.00492533975, -0.004049332942], "inflation": [0, -0.002094827777, -0.004239789542, -0.006254878321, -0.008099899223, -0.007666156439, -0.006997483119, -0.006280813729, -0.00556776139, -0.004885916768, -0.004250736117, -0.003669847375, -0.003145788038, -0.002677870936, -0.002263454377, -0.001898798252, -0.001579632796, -0.00130152888, -0.001060132024, -0.0008513035868, -0.000671199415], "inflationq": [0, -0.008379311109, -0.008579847058, -0.008060355117, -0.007380083608, -0.006644339972, -0.005905153779, -0.005193677558, -0.004527874251, -0.003916961484, -0.003364431176, -0.002870122587, -0.002431636907, -0.002045293074, -0.001706764942, -0.001411498086, -0.001154975082, -0.0009328774113, -0.0007411775188, -0.0005761843354, -0.0004345583944], "outputgap": [0, -0.09711893053, -0.1504047937, -0.1753268213, -0.1820759511, -0.1775890184, -0.1665396489, -0.1520340419, -0.1360982089, -0.1200184544, -0.1045787011, -0.0902253844, -0.07718155714, -0.06552544046, -0.05524413618, -0.04627003352, -0.03850519807, -0.03183745067, -0.02615073125, -0.02133155998, -0.01727285809], "output": [0, -0.09711893053, -0.1504047937, -0.1753268213, -0.1820759511, -0.1775890184, -0.1665396489, -0.1520340419, -0.1360982089, -0.1200184544, -0.1045787011, -0.0902253844, -0.07718155714, -0.06552544046, -0.05524413618, -0.04627003352, -0.03850519807, -0.03183745067, -0.02615073125, -0.02133155998, -0.01727285809], "fispol": [0, 8.825835365e-18, -3.184150628e-15, -3.355542844e-15, -3.36578003e-15, -3.27723802e-15, -3.132684978e-15, -2.960419124e-15, -2.778812315e-15, -2.599441926e-15, -2.429272335e-15, -2.272171333e-15, -2.129960091e-15, -2.003136406e-15, -1.891369546e-15, -1.793835834e-15, -1.709443534e-15, -1.636981117e-15, -1.575212766e-15, -1.52293782e-15, -1.479025768e-15], "AUX_ENDO_LEAD_83": [0, -0.008579847058, -0.008060355117, -0.007380083608, -0.006644339972, -0.005905153779, -0.005193677558, -0.004527874251, -0.003916961484, -0.003364431176, -0.002870122587, -0.002431636907, -0.002045293074, -0.001706764942, -0.001411498086, -0.001154975082, -0.0009328774114, -0.0007411775188, -0.0005761843354, -0.0004345583944, -0.0003133076173], "AUX_ENDO_LEAD_87": [0, -0.008060355117, -0.007380083608, -0.006644339972, -0.005905153779, -0.005193677558, -0.004527874251, -0.003916961484, -0.003364431176, -0.002870122587, -0.002431636907, -0.002045293074, -0.001706764942, -0.001411498086, -0.001154975082, -0.0009328774114, -0.0007411775188, -0.0005761843354, -0.0004345583944, -0.0003133076173, -0.0002097713398], "AUX_ENDO_LEAD_91": [0, -0.007380083608, -0.006644339972, -0.005905153779, -0.005193677558, -0.004527874251, -0.003916961484, -0.003364431176, -0.002870122587, -0.002431636907, -0.002045293073, -0.001706764942, -0.001411498086, -0.001154975082, -0.0009328774113, -0.0007411775188, -0.0005761843354, -0.0004345583944, -0.0003133076173, -0.0002097713398, -0.0001215976865], "AUX_ENDO_LEAD_118": [0, -0.1504047937, -0.1753268213, -0.1820759511, -0.1775890184, -0.1665396489, -0.1520340419, -0.1360982089, -0.1200184544, -0.1045787011, -0.0902253844, -0.07718155714, -0.06552544046, -0.05524413618, -0.04627003352, -0.03850519807, -0.03183745067, -0.02615073125, -0.02133155998, -0.01727285809, -0.01387600458], "AUX_ENDO_LEAD_122": [0, -0.1753268213, -0.1820759511, -0.1775890184, -0.1665396489, -0.1520340419, -0.1360982089, -0.1200184544, -0.1045787011, -0.0902253844, -0.07718155714, -0.06552544046, -0.05524413618, -0.04627003352, -0.03850519807, -0.03183745067, -0.02615073125, -0.02133155998, -0.01727285809, -0.01387600458, -0.0110517343], "AUX_ENDO_LEAD_126": [0, -0.1820759511, -0.1775890184, -0.1665396489, -0.1520340419, -0.1360982089, -0.1200184544, -0.1045787011, -0.0902253844, -0.07718155714, -0.06552544046, -0.05524413618, -0.04627003352, -0.03850519807, -0.03183745067, -0.02615073125, -0.02133155998, -0.01727285809, -0.01387600458, -0.0110517343, -0.008720293506], "AUX_ENDO_LEAD_153": [0, -0.1504047937, -0.1753268213, -0.1820759511, -0.1775890184, -0.1665396489, -0.1520340419, -0.1360982089, -0.1200184544, -0.1045787011, -0.0902253844, -0.07718155714, -0.06552544046, -0.05524413618, -0.04627003352, -0.03850519807, -0.03183745067, -0.02615073125, -0.02133155998, -0.01727285809, -0.01387600458], "AUX_ENDO_LEAD_157": [0, -0.1753268213, -0.1820759511, -0.1775890184, -0.1665396489, -0.1520340419, -0.1360982089, -0.1200184544, -0.1045787011, -0.0902253844, -0.07718155714, -0.06552544046, -0.05524413618, -0.04627003352, -0.03850519807, -0.03183745067, -0.02615073125, -0.02133155998, -0.01727285809, -0.01387600458, -0.0110517343], "AUX_ENDO_LEAD_161": [0, -0.1820759511, -0.1775890184, -0.1665396489, -0.1520340419, -0.1360982089, -0.1200184544, -0.1045787011, -0.0902253844, -0.07718155714, -0.06552544046, -0.05524413618, -0.04627003352, -0.03850519807, -0.03183745067, -0.02615073125, -0.02133155998, -0.01727285809, -0.01387600458, -0.0110517343, -0.008720293506], "AUX_ENDO_LAG_13_1": [0, 0, -0.002094827777, -0.002144961765, -0.002015088779, -0.001845020902, -0.001661084993, -0.001476288445, -0.00129841939, -0.001131968563, -0.000979240371, -0.0008411077939, -0.0007175306468, -0.0006079092267, -0.0005113232684, -0.0004266912356, -0.0003528745214, -0.0002887437704, -0.0002332193528, -0.0001852943797, -0.0001440460839], "AUX_ENDO_LAG_13_2": [0, 0, -3.107381175e-15, -0.002094827777, -0.002144961765, -0.002015088779, -0.001845020902, -0.001661084993, -0.001476288445, -0.00129841939, -0.001131968563, -0.000979240371, -0.0008411077939, -0.0007175306468, -0.0006079092267, -0.0005113232684, -0.0004266912356, -0.0003528745214, -0.0002887437704, -0.0002332193528, -0.0001852943797], "AUX_ENDO_LAG_87_1": [0, 0, -0.09711893053, -0.1504047937, -0.1753268213, -0.1820759511, -0.1775890184, -0.1665396489, -0.1520340419, -0.1360982089, -0.1200184544, -0.1045787011, -0.0902253844, -0.07718155714, -0.06552544046, -0.05524413618, -0.04627003352, -0.03850519807, -0.03183745067, -0.02615073125, -0.02133155998], "AUX_ENDO_LAG_87_2": [0, 0, 0, -0.09711893053, -0.1504047937, -0.1753268213, -0.1820759511, -0.1775890184, -0.1665396489, -0.1520340419, -0.1360982089, -0.1200184544, -0.1045787011, -0.0902253844, -0.07718155714, -0.06552544046, -0.05524413618, -0.04627003352, -0.03850519807, -0.03183745067, -0.02615073125], "AUX_ENDO_LAG_87_3": [0, 0, 0, 0, -0.09711893053, -0.1504047937, -0.1753268213, -0.1820759511, -0.1775890184, -0.1665396489, -0.1520340419, -0.1360982089, -0.1200184544, -0.1045787011, -0.0902253844, -0.07718155714, -0.06552544046, -0.05524413618, -0.04627003352, -0.03850519807, -0.03183745067], "AUX_ENDO_LAG_86_1": [0, 0, -0.09711893053, -0.1504047937, -0.1753268213, -0.1820759511, -0.1775890184, -0.1665396489, -0.1520340419, -0.1360982089, -0.1200184544, -0.1045787011, -0.0902253844, -0.07718155714, -0.06552544046, -0.05524413618, -0.04627003352, -0.03850519807, -0.03183745067, -0.02615073125, -0.02133155998], "AUX_ENDO_LAG_86_2": [0, 0, 0, -0.09711893053, -0.1504047937, -0.1753268213, -0.1820759511, -0.1775890184, -0.1665396489, -0.1520340419, -0.1360982089, -0.1200184544, -0.1045787011, -0.0902253844, -0.07718155714, -0.06552544046, -0.05524413618, -0.04627003352, -0.03850519807, -0.03183745067, -0.02615073125], "AUX_ENDO_LAG_86_3": [0, 0, 0, 0, -0.09711893053, -0.1504047937, -0.1753268213, -0.1820759511, -0.1775890184, -0.1665396489, -0.1520340419, -0.1360982089, -0.1200184544, -0.1045787011, -0.0902253844, -0.07718155714, -0.06552544046, -0.05524413618, -0.04627003352, -0.03850519807, -0.03183745067], "AUX_ENDO_LAG_83_1": [0, 0, 0.9812204361, 0.6687480543, 0.4515560971, 0.3012043207, 0.1976413976, 0.1267619972, 0.07865364783, 0.04635816453, 0.02499789698, 0.01115953274, 0.002459647074, -0.002761512033, -0.00565577153, -0.007018968147, -0.007397880729, -0.007165433356, -0.006573534635, -0.005790160317, -0.00492533975], "AUX_ENDO_LAG_83_2": [0, 0, 0, 0.9812204361, 0.6687480543, 0.4515560971, 0.3012043207, 0.1976413976, 0.1267619972, 0.07865364783, 0.04635816453, 0.02499789698, 0.01115953274, 0.002459647074, -0.002761512033, -0.00565577153, -0.007018968147, -0.007397880729, -0.007165433356, -0.006573534635, -0.005790160317], "AUX_ENDO_LAG_83_3": [0, 0, 0, 0, 0.9812204361, 0.6687480543, 0.4515560971, 0.3012043207, 0.1976413976, 0.1267619972, 0.07865364783, 0.04635816453, 0.02499789698, 0.01115953274, 0.002459647074, -0.002761512033, -0.00565577153, -0.007018968147, -0.007397880729, -0.007165433356, -0.006573534635], "AUX_ENDO_LAG_85_1": [0, 0, -0.008379311109, -0.008579847058, -0.008060355117, -0.007380083608, -0.006644339972, -0.005905153779, -0.005193677558, -0.004527874251, -0.003916961484, -0.003364431176, -0.002870122587, -0.002431636907, -0.002045293074, -0.001706764942, -0.001411498086, -0.001154975082, -0.0009328774113, -0.0007411775188, -0.0005761843354], "AUX_ENDO_LAG_85_2": [0, 0, 0, -0.008379311109, -0.008579847058, -0.008060355117, -0.007380083608, -0.006644339972, -0.005905153779, -0.005193677558, -0.004527874251, -0.003916961484, -0.003364431176, -0.002870122587, -0.002431636907, -0.002045293074, -0.001706764942, -0.001411498086, -0.001154975082, -0.0009328774113, -0.0007411775188], "AUX_ENDO_LAG_85_3": [0, 0, 0, 0, -0.008379311109, -0.008579847058, -0.008060355117, -0.007380083608, -0.006644339972, -0.005905153779, -0.005193677558, -0.004527874251, -0.003916961484, -0.003364431176, -0.002870122587, -0.002431636907, -0.002045293074, -0.001706764942, -0.001411498086, -0.001154975082, -0.0009328774113]}, "fiscal_": {"cs": [0, 0.2379881117, 0.220085262, 0.2025862687, 0.1855543307, 0.1690163198, 0.1529758583, 0.1374222691, 0.1223366198, 0.1076957482, 0.09347489235, 0.07964936343, 0.06619556441, 0.05309156894, 0.04031740699, 0.02785515951, 0.01568893208, 0.003804755257, -0.007809556284, -0.01916456435, -0.03026937374], "cn": [0, 1.266389445, 1.146414301, 1.03801509, 0.9408188638, 0.8541541097, 0.7771861267, 0.709012657, 0.648725622, 0.5954492992, 0.548362525, 0.506710219, 0.4698078959, 0.4370416884, 0.4078656066, 0.3817972003, 0.3584124049, 0.3373400827, 0.3182565856, 0.3008805416, 0.2849679796], "R": [0, 0.01452136197, 0.02353804394, 0.02835095039, 0.03038478126, 0.03064919409, 0.0298338101, 0.0284035781, 0.02666745964, 0.02482669473, 0.02300859214, 0.02129012813, 0.01971437995, 0.01830192757, 0.01705872654, 0.0159815106, 0.0150614689, 0.01428672154, 0.01364396121, 0.01311951908, 0.01270003542], "i": [0, -0.4324000946, -0.8301314203, -1.191661674, -1.517450478, -1.80917047, -2.06917349, -2.300135935, -2.504828324, -2.685970093, -2.84614237, -2.987739748, -3.112947905, -3.223737979, -3.32187148, -3.408911483, -3.486237278, -3.555060567, -3.616442005, -3.671307307, -3.720462465], "k": [0, 1.28466646, 1.161583749, 1.048856506, 0.9462685337, 0.8532951645, 0.7692364062, 0.6933117726, 0.6247220465, 0.562687986, 0.5064733449, 0.455397359, 0.408840271, 0.3662443586, 0.3271121544, 0.2910030031, 0.2575287283, 0.2263489146, 0.1971661346, 0.1697213254, 0.1437894344], "v": [0, 1.28466646, 1.173416841, 1.083083209, 1.012169685, 0.9589195194, 0.9214801265, 0.8980143309, 0.8867683853, 0.8861104579, 0.8945494649, 0.9107410968, 0.9334857401, 0.9617214984, 0.9945144692, 1.031047712, 1.070609837, 1.112583808, 1.156436303, 1.201707849, 1.248003801], "l": [0, 1.472440185, 1.33591686, 1.213382712, 1.10427388, 1.00769652, 0.922589516, 0.847831496, 0.7823088908, 0.7249574025, 0.6747855286, 0.6308861524, 0.5924403502, 0.5587162664, 0.5290649985, 0.5029148035, 0.4797644937, 0.4591765915, 0.4407705996, 0.4242166046, 0.4092293333], "y": [0, 1.607941335, 1.457361104, 1.321361533, 1.199430612, 1.090688243, 0.9940606083, 0.9083975854, 0.8325479646, 0.7654056843, 0.7059364591, 0.6531913296, 0.6063116494, 0.564528612, 0.5271594383, 0.4936016567, 0.4633264279, 0.4358715423, 0.4108344838, 0.3878658052, 0.36666295], "gc": [0, 9.090909091, 8.950999332, 8.811104938, 8.67120141, 8.531282915, 8.391355696, 8.251433391, 8.111533862, 7.971677071, 7.831883698, 7.692174251, 7.552568529, 7.413085307, 7.273742189, 7.134555547, 6.995540538, 6.856711153, 6.718080292, 6.579659847, 6.44146079], "c": [0, 0.5102155997, 0.4652932555, 0.4237321212, 0.3854799434, 0.3503787251, 0.3182101767, 0.2887276111, 0.2616767307, 0.2368086924, 0.2138879194, 0.1926963813, 0.1730355378, 0.1547267703, 0.1376108661, 0.1215469407, 0.106411053, 0.0920946878, 0.07850321272, 0.06555437992, 0.05317691328], "q": [0, -0.2024491063, -0.2085797331, -0.2042996502, -0.19375276, -0.1797710395, -0.1642293227, -0.148339677, -0.1328600864, -0.1182402486, -0.1047230174, -0.09241469737, -0.08133350469, -0.07144275263, -0.06267337479, -0.0549390299, -0.04814606533, -0.04219993579, -0.03700919434, -0.03248783581, -0.02855653531], "rk": [0, 0.1857048349, 0.1696231571, 0.1565649877, 0.1463140902, 0.1386165177, 0.1332044699, 0.1298123741, 0.1281867175, 0.1280916109, 0.1293115107, 0.1316520905, 0.1349399402, 0.1390215575, 0.1437619422, 0.1490430015, 0.1547619007, 0.1608294439, 0.1671685371, 0.173712761, 0.1804050678], "w": [0, -0.002068890194, -0.004709953816, -0.00796121838, -0.01169125591, -0.01578483758, -0.02014863996, -0.02470734929, -0.02940012679, -0.03417780561, -0.03900067293, -0.04383670286, -0.04866013901, -0.05345035025, -0.058190902, -0.06286879891, -0.06747386471, -0.07199823302, -0.07643592793, -0.0807825181, -0.08503483114], "pi": [0, 0.007023791039, 0.006623531655, 0.005872621517, 0.005190160711, 0.004593298541, 0.004074940791, 0.003626834188, 0.003241132082, 0.002910579224, 0.002628558595, 0.00238909464, 0.00218683189, 0.002016999165, 0.001875366071, 0.00175819626, 0.001662200319, 0.001584490123, 0.001522535721, 0.001474125355, 0.001437328866], "b": [0, 0.1180684336, 0.6138825627, 1.131350894, 1.66463125, 2.209349224, 2.762245014, 3.320873849, 3.883388126, 4.448380343, 5.014769529, 5.581718767, 6.148574983, 6.714824744, 7.280061579, 7.843961664, 8.40626557, 8.966764466, 9.525289583, 10.0817041, 10.63589686], "sb": [0, -1.489872902, -0.8434785413, -0.1900106389, 0.4652006382, 1.118660981, 1.768184406, 2.412476264, 3.050840161, 3.682974659, 4.30883307, 4.928527437, 5.542263334, 6.150296132, 6.752902141, 7.350360007, 7.942939142, 8.530892924, 9.114455099, 9.693838296, 10.26923391], "tauk": [0, 6.31113376e-16, 1.241679131e-13, 1.180643394e-13, 1.120902447e-13, 1.062051259e-13, 1.003816764e-13, 9.460084931e-14, 8.884930723e-14, 8.311777584e-14, 7.739987888e-14, 7.169130682e-14, 6.59892226e-14, 6.029183626e-14, 5.459810038e-14, 4.890749173e-14, 4.321985473e-14, 3.75352891e-14, 3.18540694e-14, 2.617658733e-14, 2.050331051e-14], "taul": [0, -5.699665001e-16, -2.948631727e-15, -3.162908497e-15, -3.36719359e-15, -3.564683275e-15, -3.757816208e-15, -3.948029695e-15, -4.13606634e-15, -4.322213186e-15, -4.506469939e-15, -4.688665094e-15, -4.868534844e-15, -5.045775627e-15, -5.220078124e-15, -5.391148348e-15, -5.558719831e-15, -5.722559793e-15, -5.88247133e-15, -6.038293034e-15, -6.189897057e-15], "tauc": [0, 0, 0, 0, 0, 0, 0, 0, 0, 0, 0, 0, 0, 0, 0, 0, 0, 0, 0, 0, 0], "r": [0, 0.007897830319, 0.01766542242, 0.02316078968, 0.02579148272, 0.0265742533, 0.02620697591, 0.02516244602, 0.02375688041, 0.02219813614, 0.0206194975, 0.01910329623, 0.01769738079, 0.0164265615, 0.01530053028, 0.01431931028, 0.01347697878, 0.01276418582, 0.01216983586, 0.01168219021, 0.0112895709], "z": [0, -6.507006418e-16, -0.0008417148591, -0.001301410084, -0.001382729816, -0.001092256634, -0.0004384155977, 0.000569301743, 0.001920862249, 0.003606040013, 0.005614643342, 0.007936658003, 0.01056233335, 0.01348222988, 0.01668724116, 0.020168599, 0.02391786798, 0.0279269336, 0.03218798681, 0.03669350677, 0.04143624322], "mc": [0, 0.05989643908, 0.05281997279, 0.04633242964, 0.04045050831, 0.03516760965, 0.03045788629, 0.02628415942, 0.02260353183, 0.01937110183, 0.01654234768, 0.01407459895, 0.01192788713, 0.0100653793, 0.008453536575, 0.007062095237, 0.005863937873, 0.004834900354, 0.00395354552, 0.003200924013, 0.002560335502], "kbar": [0, -0.01183309208, -0.03422670298, -0.06590115163, -0.1056243549, -0.1522437204, -0.2047025583, -0.2620463388, -0.3234224719, -0.38807612, -0.4553437378, -0.5246454691, -0.5954771397, -0.6674023149, -0.740044709, -0.813081109, -0.886234893, -0.9592701683, -1.031986524, -1.104214366, -1.1758108], "lambda": [0, 1.137655681, 1.129757851, 1.112092429, 1.088931639, 1.063140156, 1.036565903, 1.010358927, 0.985196481, 0.9614396005, 0.9392414644, 0.9186219669, 0.8995186707, 0.8818212899, 0.8653947284, 0.8500941981, 0.8357748878, 0.822297909, 0.8095337232, 0.7973638874, 0.7856816972], "Pb": [0, -0.3686526777, -0.3736766222, -0.3694635165, -0.3599393384, -0.3477434169, -0.3345953685, -0.3215820366, -0.3093596392, -0.2982945989, -0.2885612149, -0.2802090713, -0.2732092639, -0.2674858387, -0.2629369335, -0.25944878, -0.2569047774, -0.2551911865, -0.254200526, -0.2538334245, -0.2539994491], "cstar": [0, -0.01471265176, -0.02913289506, -0.04313819275, -0.05666284264, -0.06967903942, -0.0821832355, -0.09418680208, -0.1057097218, -0.1167763881, -0.1274128596, -0.1376451155, -0.1474979914, -0.1569945756, -0.1661559106, -0.1750008942, -0.1835463072, -0.1918069172, -0.1997956255, -0.2075236348, -0.2150006231], "piL": [0, 0.05278878629, 0.04871321921, 0.04520506696, 0.04222341922, 0.03970701196, 0.03759868559, 0.03584683454, 0.03440528476, 0.0332329694, 0.0322935373, 0.03155493634, 0.03098899641, 0.03057102715, 0.03027943937, 0.03009539488, 0.03000248673, 0.02998644997, 0.03003490191, 0.03013711027, 0.0302837871], "rL": [0, 0.3158638914, 0.324963403, 0.3242584496, 0.3177159192, 0.3080364049, 0.2969966829, 0.285735202, 0.2749543544, 0.2650616295, 0.2562676776, 0.2486541349, 0.2422202675, 0.2369148115, 0.2326574941, 0.2293533851, 0.2269022907, 0.2252047365, 0.2241656241, 0.2236963142, 0.2237156619], "S": [0, -47.3281691, -48.17774732, -48.84894002, -49.34732535, -49.68329992, -49.86990869, -49.92131203, -49.85179497, -49.67515331, -49.40433546, -49.05125523, -48.62671705, -48.14041326, -47.60096581, -47.01599376, -46.39219404, -45.73542727, -45.05080345, -44.34276419, -43.61515972], "rb": [0, -0.3563939417, 0.007897830319, 0.01766542242, 0.02316078968, 0.02579148272, 0.0265742533, 0.02620697591, 0.02516244602, 0.02375688041, 0.02219813614, 0.0206194975, 0.01910329623, 0.01769738079, 0.0164265615, 0.01530053028, 0.01431931028, 0.01347697878, 0.01276418582, 0.01216983586, 0.01168219021], "Tk": [0, 1.470371295, 1.331206906, 1.205421494, 1.092582624, 0.9919116821, 0.9024408761, 0.8231241467, 0.752908764, 0.6907795969, 0.6357848556, 0.5870494495, 0.5437802112, 0.5052659161, 0.4708740965, 0.4400460046, 0.412290629, 0.3871783585, 0.3643346717, 0.3434340865, 0.3241945021], "Tl": [0, 1.470371295, 1.331206906, 1.205421494, 1.092582624, 0.9919116822, 0.9024408761, 0.8231241467, 0.752908764, 0.6907795969, 0.6357848557, 0.5870494495, 0.5437802112, 0.5052659161, 0.4708740965, 0.4400460046, 0.412290629, 0.3871783585, 0.3643346717, 0.3434340865, 0.3241945021], "Tc": [0, 0.5102155997, 0.4652932555, 0.4237321212, 0.3854799434, 0.3503787251, 0.3182101767, 0.2887276111, 0.2616767307, 0.2368086924, 0.2138879194, 0.1926963813, 0.1730355378, 0.1547267703, 0.1376108661, 0.1215469407, 0.106411053, 0.0920946878, 0.07850321272, 0.06555437992, 0.05317691328], "cobs": [0, 51.02155997, -4.49223442, -4.156113428, -3.825217783, -3.510121826, -3.216854844, -2.948256555, -2.705088043, -2.486803832, -2.292077299, -2.119153806, -1.966084349, -1.830876758, -1.711590413, -1.606392548, -1.513588769, -1.431636518, -1.359147508, -1.294883279, -1.237746664], "iobs": [0, -43.24000946, -39.77313257, -36.15302535, -32.57888039, -29.17199919, -26.00030203, -23.09624452, -20.46923889, -18.11417692, -16.01722768, -14.15973778, -12.52081566, -11.07900748, -9.813350081, -8.70400032, -7.732579446, -6.882328887, -6.138143824, -5.486530156, -4.915515834], "gcobs": [0, 909.0909091, -13.9909759, -13.98943934, -13.99035281, -13.9918495, -13.99272193, -13.99223047, -13.98995295, -13.98567908, -13.97933732, -13.97094467, -13.96057225, -13.94832213, -13.93431185, -13.91866421, -13.9015009, -13.88293846, -13.8630861, -13.84204455, -13.81990569], "wobs": [0, -0.2068890194, -0.2641063622, -0.3251264564, -0.3730037527, -0.4093581677, -0.4363802374, -0.4558709333, -0.4692777495, -0.4777678827, -0.4822867316, -0.483602993, -0.4823436149, -0.4790211238, -0.4740551757, -0.4677896903, -0.4605065807, -0.4524368309, -0.4437694905, -0.4346590177, -0.4252313032], "bobs": [0, 11.80684336, 49.58141291, 51.74683315, 53.32803557, 54.47179741, 55.28957903, 55.86288347, 56.2514277, 56.4992217, 56.63891861, 56.69492375, 56.68562166, 56.62497608, 56.52368354, 56.39000846, 56.23039064, 56.04988961, 55.85251161, 55.64145188, 55.41927559], "Robs": [0, 1.452136197, 2.353804394, 2.835095039, 3.038478126, 3.064919409, 2.98338101, 2.84035781, 2.666745964, 2.482669473, 2.300859214, 2.129012813, 1.971437995, 1.830192757, 1.705872654, 1.59815106, 1.50614689, 1.428672154, 1.364396121, 1.311951908, 1.270003542], "Piobs": [0, 0.7023791039, 0.6623531655, 0.5872621517, 0.5190160711, 0.4593298541, 0.4074940791, 0.3626834188, 0.3241132082, 0.2910579224, 0.2628558595, 0.238909464, 0.218683189, 0.2016999165, 0.1875366071, 0.175819626, 0.1662200319, 0.1584490123, 0.1522535721, 0.1474125355, 0.1437328866], "Lobs": [0, 147.2440185, 133.591686, 121.3382712, 110.427388, 100.769652, 92.2589516, 84.7831496, 78.23088908, 72.49574025, 67.47855286, 63.08861524, 59.24403502, 55.87162664, 52.90649985, 50.29148035, 47.97644937, 45.91765915, 44.07705996, 42.42166046, 40.92293333], "ugc": [0, 9.090909091, 2.81855429e-14, 2.127546339e-14, 1.463923452e-14, 8.259744417e-15, 2.123169789e-15, -3.787814133e-15, -9.491731626e-15, -1.500713853e-14, -2.035191355e-14, -2.554284367e-14, -3.059540655e-14, -3.552368348e-14, -4.034035682e-14, -4.505676011e-14, -4.968295926e-14, -5.422785013e-14, -5.869926283e-14, -6.31040663e-14, -6.744826943e-14], "uz": [0, 0, 2.444257462e-32, 3.274963332e-32, 3.428900212e-32, 3.281105653e-32, 2.998866015e-32, 2.664817836e-32, 2.32261811e-32, 1.995697542e-32, 1.696031456e-32, 1.428806379e-32, 1.195156182e-32, 9.938589523e-33, 8.224133353e-33, 6.777206433e-33, 5.565090067e-33, 4.555873464e-33, 3.7198762e-33, 3.030347862e-33, 2.463711282e-33], "ua": [0, -1.285966697e-17, -3.233328807e-18, -8.129615793e-19, -2.044043674e-19, -5.139375154e-20, -1.292202183e-20, -3.249006798e-21, -8.169035244e-22, -2.053954976e-22, -5.164295316e-23, -1.298467902e-23, -3.2647608e-24, -8.208645762e-25, -2.063914284e-25, -5.189335927e-26, -1.304763725e-26, -3.280589174e-27, -8.248433737e-28, -2.073911302e-28, -5.214421325e-29], "ub": [0, 0, 2.52756301e-32, 2.640593867e-32, 2.172037747e-32, 1.656274771e-32, 1.226194589e-32, 8.965933522e-33, 6.520788869e-33, 4.731341404e-33, 3.429414331e-33, 2.484611929e-33, 1.799744569e-33, 1.303543849e-33, 9.441136913e-34, 6.837796462e-34, 4.952281266e-34, 3.58668643e-34, 2.597653356e-34, 1.881347131e-34, 1.362563408e-34], "um": [0, 0, 0, 0, 0, 0, 0, 0, 0, 0, 0, 0, 0, 0, 0, 0, 0, 0, 0, 0, 0], "ui": [0, -1.574880418e-18, -8.054125136e-19, -4.118975064e-19, -2.106492672e-19, -1.077285322e-19, -5.509364831e-20, -2.81755448e-20, -1.440930759e-20, -7.369090701e-21, -3.768640334e-21, -1.927327338e-21, -9.856580463e-22, -5.040772084e-22, -2.577910594e-22, -1.318374035e-22, -6.742321089e-23, -3.448102925e-23, -1.763400708e-23, -9.018240246e-24, -4.61203496e-24], "uw": [0, 2.327277726e-16, 7.607748177e-17, 2.486932766e-17, 8.129652086e-18, 2.657540402e-18, 8.687359454e-19, 2.839852e-19, 9.283326455e-20, 3.034670471e-20, 9.920177762e-21, 3.242853805e-21, 1.060071811e-21, 3.465318855e-22, 1.132794462e-22, 3.70304537e-23, 1.210506007e-23, 3.957080311e-24, 1.29354869e-24, 4.228542465e-25, 1.382288238e-25], "up": [0, -1.694891867e-17, -1.227524338e-17, -8.890337081e-18, -6.438820881e-18, -4.663311858e-18, -3.377400597e-18, -2.446080198e-18, -1.771572001e-18, -1.283059876e-18, -9.292552852e-19, -6.730125393e-19, -4.874288963e-19, -3.530200628e-19, -2.556745522e-19, -1.85172129e-19, -1.341107947e-19, -9.712965631e-20, -7.034609076e-20, -5.094811073e-20, -3.689913624e-20], "csf": [0, 0.2254340475, 0.1991796562, 0.1763097753, 0.1560061741, 0.1376595396, 0.1208162722, 0.1051388226, 0.09037612386, 0.07634154992, 0.06289648393, 0.04993806956, 0.03739008025, 0.02519611302, 0.01331451511, 0.001714602489, -0.009626158573, -0.02072425201, -0.03159167724, -0.0422371155, -0.05266679866], "cnf": [0, 1.08342244, 0.9122659248, 0.782379194, 0.6832550387, 0.6070608084, 0.5479577128, 0.5015933654, 0.4647234777, 0.4349298356, 0.4104100514, 0.3898208265, 0.3721611037, 0.356684959, 0.3428366625, 0.3302022664, 0.3184735153, 0.3074209404, 0.2968738024, 0.2867051382, 0.2768206144], "if": [0, -0.886263181, -1.555823337, -2.063561843, -2.450396631, -2.746835932, -2.975627569, -3.153733982, -3.293804599, -3.405273486, -3.495177626, -3.568766953, -3.629959117, -3.68167852, -3.726109055, -3.764882527, -3.799219123, -3.830032122, -3.858005964, -3.883654447, -3.907364114], "kf": [0, 1.099058806, 0.9224426203, 0.7853731748, 0.6778233067, 0.5923180006, 0.5232848387, 0.4665697655, 0.4190760938, 0.3784953866, 0.3431068313, 0.311627675, 0.283101725, 0.256816227, 0.2322398987, 0.2089767342, 0.1867315664, 0.1652843933, 0.1444712396, 0.1241698887, 0.1042892465], "vf": [0, 1.099058806, 0.9466961623, 0.8515397659, 0.7986507599, 0.7768966114, 0.7779823677, 0.7957284616, 0.8255323203, 0.8639669963, 0.9084819492, 0.957179979, 1.008650931, 1.061847724, 1.115993925, 1.170514852, 1.224986209, 1.279095789, 1.332614927, 1.385377219, 1.437262653], "lf": [0, 1.336184684, 1.126695712, 0.9690959328, 0.850135072, 0.7599362303, 0.6911373243, 0.6382510345, 0.5971876521, 0.5648993641, 0.5391150695, 0.5181426878, 0.5007217804, 0.4859136811, 0.4730195898, 0.4615195109, 0.4510267337, 0.4412538964, 0.4319876887, 0.4230699915, 0.4143838177], "yf": [0, 1.434043785, 1.207593099, 1.035652862, 0.9043302959, 0.8032693245, 0.7247504446, 0.6630196859, 0.6137883552, 0.5738600987, 0.5408528801, 0.5129917163, 0.4889541648, 0.4677551342, 0.4486610125, 0.4311256499, 0.4147426345, 0.3992097149, 0.384302277, 0.3698535716, 0.3557399745], "gcf": [0, 9.090909091, 8.949069049, 8.805746675, 8.661379119, 8.516293717, 8.370735906, 8.224890049, 8.07889495, 7.932855425, 7.786850933, 7.640942, 7.495175021, 7.349585831, 7.204202373, 7.059046685, 6.914136384, 6.769485768, 6.625106646, 6.481008949, 6.337201191], "cf": [0, 0.4525516303, 0.3879402862, 0.3367420405, 0.2955738986, 0.2619144624, 0.2338846218, 0.2100840621, 0.189469383, 0.1712632357, 0.1548865879, 0.1399082263, 0.1260071131, 0.1129443227, 0.1005421212, 0.08866837111, 0.07722490544, 0.0661388612, 0.05535621899, 0.04483698732, 0.03455161294], "qf": [0, -1.170282985, -0.8743075311, -0.6536236486, -0.4890696045, -0.3663604472, -0.2748468348, -0.2065897485, -0.1556706981, -0.1176774841, -0.08932083753, -0.06814862628, -0.05233279863, -0.04051055064, -0.03166591756, -0.02504150101, -0.02007266211, -0.01633846292, -0.01352509359, -0.01139860754, -0.009784595732], "rkf": [0, 0.1588743386, 0.1368495715, 0.1230942479, 0.1154488828, 0.1123042139, 0.1124611653, 0.1150264502, 0.1193347441, 0.1248906649, 0.1313255196, 0.1383650586, 0.1458054371, 0.1534952942, 0.161322393, 0.1692036604, 0.1770777621, 0.1848995671, 0.1926360209, 0.2002630689, 0.2077633627], "wf": [0, -0.07825153988, -0.06740352028, -0.06062851015, -0.05686288255, -0.05531401582, -0.05539132024, -0.05665481876, -0.05877681426, -0.06151331259, -0.06468271862, -0.06814995423, -0.07181461826, -0.07560215984, -0.07945729806, -0.08333911632, -0.08721740521, -0.09106993603, -0.09488042819, -0.09863703392, -0.1023312085], "bf": [0, 0.5071012517, 1.372800084, 2.172418283, 2.922055796, 3.633716798, 4.316352012, 4.976635758, 5.619545234, 6.248792372, 6.867145784, 7.476670771, 8.07890825, 8.67500815, 9.26582885, 9.852011316, 10.43403438, 11.01225592, 11.58694361, 12.1582978, 12.72646862], "sbf": [0, -0.9269425328, 0.1652069852, 1.136765421, 2.017725501, 2.830447473, 3.591601567, 4.313616072, 5.005756878, 5.674932273, 6.326292904, 6.963679054, 7.589954086, 8.207253016, 8.817167837, 9.420885666, 10.01929174, 10.6130462, 11.20264133, 11.78844423, 12.37072864], "taukf": [0, 0, 0, 0, 0, 0, 0, 0, 0, 0, 0, 0, 0, 0, 0, 0, 0, 0, 0, 0, 0], "taulf": [0, 0, 0, 0, 0, 0, 0, 0, 0, 0, 0, 0, 0, 0, 0, 0, 0, 0, 0, 0, 0], "taucf": [0, 0, 0, 0, 0, 0, 0, 0, 0, 0, 0, 0, 0, 0, 0, 0, 0, 0, 0, 0, 0], "rf": [0, 0.3334817091, 0.2494942221, 0.1869770924, 0.1404639837, 0.1058798, 0.08018660661, 0.06111966542, 0.04699065147, 0.03654095199, 0.02883230176, 0.02316525256, 0.01901839257, 0.01600303485, 0.01382943795, 0.0122816235, 0.01119860295, 0.01046038216, 0.009977527984, 0.009683390137, 0.009528302726], "zf": [0, 0, -0.0005236831292, -0.0004198745425, 0.0002307470907, 0.001366061289, 0.002937822571, 0.004908168336, 0.007247014689, 0.009930114251, 0.01293760747, 0.0162529419, 0.01986206572, 0.02375282584, 0.02791451841, 0.03233755307, 0.03701320196, 0.04193341186, 0.04709066359, 0.05247786648, 0.05808827905], "mcf": [0, 0, 0, 0, 0, 0, 0, 0, 0, 0, 0, 0, 0, 0, 0, 0, 0, 0, 0, 0, 0], "kbarf": [0, -0.02425354195, -0.06616659111, -0.1208274532, -0.1845786108, -0.254697529, -0.3291586961, -0.4064562265, -0.4854716097, -0.5653751179, -0.645552304, -0.7255492063, -0.8050314968, -0.8837540261, -0.9615381182, -1.038254643, -1.113811395, -1.188143687, -1.26120733, -1.332973407, -1.403424368], "lambdaf": [0, 2.136107809, 1.802626099, 1.553131877, 1.366154785, 1.225690801, 1.119811001, 1.039624395, 0.9785047292, 0.9315140777, 0.8949731257, 0.8661408239, 0.8429755714, 0.8239571788, 0.8079541439, 0.794124706, 0.7818430825, 0.7706444795, 0.7601840974, 0.7502065694, 0.7405231793], "cstarf": [0, -0.02762506339, -0.05058013894, -0.07001178318, -0.08677406102, -0.1015030213, -0.1146722174, -0.1266340961, -0.1376508529, -0.147917433, -0.157578678, -0.1667421079, -0.1754874494, -0.1838737384, -0.1919446142, -0.1997322657, -0.2072603727, -0.2145462979, -0.2216027202, -0.2284388521, -0.2350613465], "Sf": [0, -50.20302392, -51.84891221, -52.83997946, -53.34398627, -53.48598498, -53.35918938, -53.03307816, -52.55943584, -51.97685632, -51.31410021, -50.59259771, -49.82831446, -49.03314258, -48.2159376, -47.38329154, -46.54010921, -45.69003781, -44.83578726, -43.97936895, -43.12227369], "rbf": [0, 0.3334817091, 0.2494942221, 0.1869770924, 0.1404639837, 0.1058798, 0.08018660661, 0.06111966542, 0.04699065147, 0.03654095199, 0.02883230177, 0.02316525256, 0.01901839257, 0.01600303485, 0.01382943795, 0.0122816235, 0.01119860295, 0.01046038217, 0.009977527984, 0.009683390137, 0.009528302726], "Tkf": [0, 1.257933144, 1.059292192, 0.9084674227, 0.7932721894, 0.7046222145, 0.635746004, 0.5815962157, 0.5384108379, 0.5033860515, 0.4744323509, 0.4499927336, 0.4289071621, 0.4103115213, 0.3935622917, 0.3781803946, 0.3638093285, 0.3501839604, 0.3371072605, 0.3244329575, 0.3120526092], "Tlf": [0, 1.257933144, 1.059292192, 0.9084674227, 0.7932721894, 0.7046222145, 0.635746004, 0.5815962157, 0.5384108379, 0.5033860515, 0.4744323509, 0.4499927336, 0.4289071621, 0.4103115213, 0.3935622917, 0.3781803946, 0.3638093285, 0.3501839604, 0.3371072605, 0.3244329575, 0.3120526092], "Tcf": [0, 0.4525516303, 0.3879402862, 0.3367420405, 0.2955738986, 0.2619144624, 0.2338846218, 0.2100840621, 0.189469383, 0.1712632357, 0.1548865879, 0.1399082263, 0.1260071131, 0.1129443227, 0.1005421212, 0.08866837111, 0.07722490544, 0.0661388612, 0.05535621899, 0.04483698732, 0.03455161294], "cobsf": [0, 45.25516303, -6.461134406, -5.119824577, -4.116814187, -3.365943618, -2.802984067, -2.380055961, -2.061467919, -1.820614724, -1.637664786, -1.497836157, -1.390111315, -1.306279041, -1.240220151, -1.18737501, -1.144346567, -1.108604424, -1.07826422, -1.051923167, -1.028537438], "iobsf": [0, -88.6263181, -66.95601561, -50.77385056, -38.68347879, -29.64393019, -22.87916371, -17.81064121, -14.00706173, -11.14688867, -8.990414058, -7.358932673, -6.11921645, -5.17194027, -4.443053454, -3.877347277, -3.433659583, -3.081299861, -2.797384167, -2.564848316, -2.370966743], "gcobsf": [0, 909.0909091, -14.18400419, -14.33223745, -14.43675553, -14.50854024, -14.55578106, -14.58458571, -14.59950994, -14.60395244, -14.60044925, -14.59089328, -14.57669792, -14.558919, -14.5383458, -14.51556878, -14.49103015, -14.46506157, -14.43791221, -14.40976971, -14.38077578], "wobsf": [0, -7.825153988, 1.084801961, 0.6775010129, 0.3765627596, 0.1548866727, -0.007730441633, -0.1263498524, -0.2121995497, -0.2736498326, -0.3169406032, -0.3467235608, -0.3664664035, -0.3787541583, -0.3855138216, -0.3881818264, -0.387828889, -0.3852530814, -0.3810492162, -0.3756605729, -0.3694174596], "bobsf": [0, 50.71012517, 86.5698832, 79.96181995, 74.96375132, 71.16610014, 68.26352139, 66.02837458, 64.29094762, 62.92471384, 61.8353412, 60.95249866, 60.22374797, 59.60998999, 59.08206994, 58.61824665, 58.20230593, 57.82215402, 57.46876908, 57.13541955, 56.81708132], "Lobsf": [0, 133.6184684, 112.6695712, 96.90959328, 85.0135072, 75.99362303, 69.11373243, 63.82510345, 59.71876521, 56.48993641, 53.91150695, 51.81426878, 50.07217804, 48.59136811, 47.30195898, 46.15195109, 45.10267337, 44.12538964, 43.19876887, 42.30699915, 41.43838177], "interest": [0, 0.0580854479, 0.09415217576, 0.1134038016, 0.1215391251, 0.1225967764, 0.1193352404, 0.1136143124, 0.1066698385, 0.09930677893, 0.09203436858, 0.0851605125, 0.0788575198, 0.0732077103, 0.06823490616, 0.06392604239, 0.0602458756, 0.05714688615, 0.05457584484, 0.0524780763, 0.0508001417], "inflation": [0, 0.007023791039, 0.01364732269, 0.01951994421, 0.02471010492, 0.02227961242, 0.01973102156, 0.01748523423, 0.0155362056, 0.01385348629, 0.01240710409, 0.01116936454, 0.01011506435, 0.00922148429, 0.008468291766, 0.007837393386, 0.007312761815, 0.006880252773, 0.006527422423, 0.006243351518, 0.006018480065], "inflationq": [0, 0.02809516415, 0.02649412662, 0.02349048607, 0.02076064285, 0.01837319416, 0.01629976317, 0.01450733675, 0.01296452833, 0.0116423169, 0.01051423438, 0.009556378559, 0.008747327562, 0.008067996659, 0.007501464283, 0.007032785039, 0.006648801278, 0.006337960493, 0.006090142882, 0.005896501419, 0.005749315465], "outputgap": [0, 0.1738975508, 0.2497680054, 0.2857086713, 0.2951003158, 0.2874189181, 0.2693101637, 0.2453778995, 0.2187596095, 0.1915455856, 0.165083579, 0.1401996133, 0.1173574846, 0.09677347772, 0.0784984258, 0.06247600682, 0.04858379345, 0.03666182741, 0.02653220687, 0.01801223358, 0.01092297548], "output": [0, 1.607941335, 1.457361104, 1.321361533, 1.199430612, 1.090688243, 0.9940606083, 0.9083975854, 0.8325479646, 0.7654056843, 0.7059364591, 0.6531913296, 0.6063116494, 0.564528612, 0.5271594383, 0.4936016567, 0.4633264279, 0.4358715423, 0.4108344838, 0.3878658052, 0.36666295], "fispol": [0, 9.090909091, 1.387058472e-14, 1.04189662e-14, 7.10427708e-15, 3.917960645e-15, 8.531043969e-16, -2.098954917e-15, -4.94748028e-15, -7.701750412e-15, -1.037070541e-14, -1.296273946e-14, -1.548559199e-14, -1.794630424e-14, -2.035121787e-14, -2.270600013e-14, -2.501568437e-14, -2.728471893e-14, -2.951701917e-14, -3.17160199e-14, -3.388472584e-14], "AUX_ENDO_LEAD_83": [0, 0.02649412662, 0.02349048607, 0.02076064285, 0.01837319416, 0.01629976317, 0.01450733675, 0.01296452833, 0.0116423169, 0.01051423438, 0.009556378559, 0.008747327562, 0.008067996659, 0.007501464283, 0.007032785039, 0.006648801278, 0.006337960493, 0.006090142882, 0.005896501419, 0.005749315465, 0.005641858093], "AUX_ENDO_LEAD_87": [0, 0.02349048607, 0.02076064285, 0.01837319416, 0.01629976316, 0.01450733675, 0.01296452833, 0.0116423169, 0.01051423438, 0.009556378559, 0.008747327562, 0.008067996659, 0.007501464283, 0.007032785039, 0.006648801277, 0.006337960492, 0.006090142882, 0.005896501418, 0.005749315464, 0.005641858093, 0.005568276745], "AUX_ENDO_LEAD_91": [0, 0.02076064285, 0.01837319416, 0.01629976316, 0.01450733675, 0.01296452833, 0.0116423169, 0.01051423438, 0.009556378559, 0.008747327562, 0.008067996659, 0.007501464283, 0.007032785039, 0.006648801278, 0.006337960493, 0.006090142882, 0.005896501419, 0.005749315465, 0.005641858093, 0.005568276745, 0.005523486513], "AUX_ENDO_LEAD_118": [0, 0.2497680054, 0.2857086713, 0.2951003158, 0.2874189181, 0.2693101637, 0.2453778995, 0.2187596095, 0.1915455856, 0.165083579, 0.1401996133, 0.1173574846, 0.09677347772, 0.0784984258, 0.06247600682, 0.04858379345, 0.03666182741, 0.02653220687, 0.01801223358, 0.01092297548, 0.0050945932], "AUX_ENDO_LEAD_122": [0, 0.2857086713, 0.2951003158, 0.2874189181, 0.2693101637, 0.2453778995, 0.2187596095, 0.1915455856, 0.165083579, 0.1401996133, 0.1173574846, 0.09677347772, 0.0784984258, 0.06247600682, 0.04858379345, 0.03666182741, 0.02653220687, 0.01801223358, 0.01092297548, 0.0050945932, 0.0003694073578], "AUX_ENDO_LEAD_126": [0, 0.2951003158, 0.2874189181, 0.2693101637, 0.2453778995, 0.2187596095, 0.1915455856, 0.165083579, 0.1401996133, 0.1173574846, 0.09677347772, 0.0784984258, 0.06247600682, 0.04858379345, 0.03666182741, 0.02653220687, 0.01801223358, 0.01092297548, 0.0050945932, 0.0003694073579, -0.003396588278], "AUX_ENDO_LEAD_153": [0, 1.457361104, 1.321361533, 1.199430612, 1.090688243, 0.9940606083, 0.9083975854, 0.8325479646, 0.7654056843, 0.7059364591, 0.6531913296, 0.6063116494, 0.564528612, 0.5271594383, 0.4936016567, 0.4633264279, 0.4358715423, 0.4108344838, 0.3878658052, 0.36666295, 0.3469645909], "AUX_ENDO_LEAD_157": [0, 1.321361533, 1.199430612, 1.090688243, 0.9940606083, 0.9083975854, 0.8325479646, 0.7654056843, 0.7059364591, 0.6531913296, 0.6063116494, 0.564528612, 0.5271594383, 0.4936016567, 0.4633264279, 0.4358715423, 0.4108344838, 0.3878658052, 0.36666295, 0.3469645909, 0.3285455054], "AUX_ENDO_LEAD_161": [0, 1.199430612, 1.090688243, 0.9940606083, 0.9083975854, 0.8325479646, 0.7654056843, 0.7059364591, 0.6531913296, 0.6063116494, 0.564528612, 0.5271594383, 0.4936016567, 0.4633264279, 0.4358715423, 0.4108344838, 0.3878658052, 0.36666295, 0.3469645909, 0.3285455054, 0.3112119822], "AUX_ENDO_LAG_13_1": [0, 0, 0.007023791038, 0.006623531655, 0.005872621517, 0.005190160711, 0.004593298541, 0.004074940791, 0.003626834187, 0.003241132082, 0.002910579224, 0.002628558595, 0.00238909464, 0.00218683189, 0.002016999165, 0.001875366071, 0.00175819626, 0.001662200319, 0.001584490123, 0.001522535721, 0.001474125355], "AUX_ENDO_LAG_13_2": [0, 0, 5.325782749e-14, 0.007023791038, 0.006623531655, 0.005872621517, 0.005190160711, 0.004593298541, 0.004074940791, 0.003626834188, 0.003241132082, 0.002910579224, 0.002628558595, 0.00238909464, 0.002186831891, 0.002016999165, 0.001875366071, 0.00175819626, 0.00166220032, 0.001584490123, 0.001522535721], "AUX_ENDO_LAG_87_1": [0, 0, 1.607941335, 1.457361104, 1.321361533, 1.199430612, 1.090688243, 0.9940606083, 0.9083975854, 0.8325479646, 0.7654056843, 0.7059364591, 0.6531913296, 0.6063116494, 0.564528612, 0.5271594383, 0.4936016567, 0.4633264279, 0.4358715423, 0.4108344838, 0.3878658052], "AUX_ENDO_LAG_87_2": [0, 0, 0, 1.607941335, 1.457361104, 1.321361533, 1.199430612, 1.090688243, 0.9940606083, 0.9083975854, 0.8325479646, 0.7654056843, 0.7059364591, 0.6531913296, 0.6063116494, 0.564528612, 0.5271594383, 0.4936016567, 0.4633264279, 0.4358715423, 0.4108344838], "AUX_ENDO_LAG_87_3": [0, 0, 0, 0, 1.607941335, 1.457361104, 1.321361533, 1.199430612, 1.090688243, 0.9940606083, 0.9083975854, 0.8325479646, 0.7654056843, 0.7059364591, 0.6531913296, 0.6063116494, 0.564528612, 0.5271594383, 0.4936016567, 0.4633264279, 0.4358715423], "AUX_ENDO_LAG_86_1": [0, 0, 0.1738975508, 0.2497680054, 0.2857086713, 0.2951003158, 0.2874189181, 0.2693101637, 0.2453778995, 0.2187596095, 0.1915455856, 0.165083579, 0.1401996133, 0.1173574846, 0.09677347772, 0.0784984258, 0.06247600682, 0.04858379345, 0.03666182741, 0.02653220687, 0.01801223358], "AUX_ENDO_LAG_86_2": [0, 0, 0, 0.1738975508, 0.2497680054, 0.2857086713, 0.2951003158, 0.2874189181, 0.2693101637, 0.2453778995, 0.2187596095, 0.1915455856, 0.165083579, 0.1401996133, 0.1173574846, 0.09677347772, 0.0784984258, 0.06247600682, 0.04858379345, 0.03666182741, 0.02653220687], "AUX_ENDO_LAG_86_3": [0, 0, 0, 0, 0.1738975508, 0.2497680054, 0.2857086713, 0.2951003158, 0.2874189181, 0.2693101637, 0.2453778995, 0.2187596095, 0.1915455856, 0.165083579, 0.1401996133, 0.1173574846, 0.09677347772, 0.0784984258, 0.06247600682, 0.04858379345, 0.03666182741], "AUX_ENDO_LAG_83_1": [0, 0, 0.0580854479, 0.09415217576, 0.1134038016, 0.1215391251, 0.1225967764, 0.1193352404, 0.1136143124, 0.1066698385, 0.09930677893, 0.09203436858, 0.0851605125, 0.0788575198, 0.0732077103, 0.06823490616, 0.06392604239, 0.0602458756, 0.05714688615, 0.05457584484, 0.0524780763], "AUX_ENDO_LAG_83_2": [0, 0, 0, 0.0580854479, 0.09415217576, 0.1134038016, 0.1215391251, 0.1225967764, 0.1193352404, 0.1136143124, 0.1066698385, 0.09930677893, 0.09203436858, 0.0851605125, 0.0788575198, 0.0732077103, 0.06823490616, 0.06392604239, 0.0602458756, 0.05714688615, 0.05457584484], "AUX_ENDO_LAG_83_3": [0, 0, 0, 0, 0.0580854479, 0.09415217576, 0.1134038016, 0.1215391251, 0.1225967764, 0.1193352404, 0.1136143124, 0.1066698385, 0.09930677893, 0.09203436858, 0.0851605125, 0.0788575198, 0.0732077103, 0.06823490616, 0.06392604239, 0.0602458756, 0.05714688615], "AUX_ENDO_LAG_85_1": [0, 0, 0.02809516415, 0.02649412662, 0.02349048607, 0.02076064285, 0.01837319416, 0.01629976317, 0.01450733675, 0.01296452833, 0.0116423169, 0.01051423438, 0.009556378559, 0.008747327562, 0.008067996659, 0.007501464283, 0.007032785039, 0.006648801278, 0.006337960493, 0.006090142882, 0.005896501419], "AUX_ENDO_LAG_85_2": [0, 0, 0, 0.02809516415, 0.02649412662, 0.02349048607, 0.02076064285, 0.01837319416, 0.01629976317, 0.01450733675, 0.01296452833, 0.0116423169, 0.01051423438, 0.009556378559, 0.008747327562, 0.008067996659, 0.007501464283, 0.007032785039, 0.006648801278, 0.006337960493, 0.006090142882], "AUX_ENDO_LAG_85_3": [0, 0, 0, 0, 0.02809516415, 0.02649412662, 0.02349048607, 0.02076064285, 0.01837319416, 0.01629976317, 0.01450733675, 0.01296452833, 0.0116423169, 0.01051423438, 0.009556378559, 0.008747327562, 0.008067996659, 0.007501464283, 0.007032785039, 0.006648801278, 0.006337960493]}}